Language model created by QuickLM on Tue Feb  4 08:07:24 EST 2020
Copyright (c) 1996-2010 Carnegie Mellon University and Alexander I. Rudnicky

The model is in standard ARPA format, designed by Doug Paul while he was at MITRE.

The code that was used to produce this language model is available in Open Source.
Please visit http://www.speech.cs.cmu.edu/tools/ for more information

The (fixed) discount mass is 0.5. The backoffs are computed using the ratio method.
This model based on a corpus of 49 sentences and 53 words

\data\
ngram 1=53
ngram 2=107
ngram 3=92

\1-grams:
-0.8986 </s> -0.3010
-0.8986 <s> -0.2077
-2.5888 A -0.2424
-2.5888 ADD -0.2780
-2.2878 APT -0.2214
-2.5888 B -0.2827
-2.5888 C -0.2424
-2.5888 CAPITAL -0.2988
-2.5888 COMMIT -0.2424
-2.5888 CP -0.2780
-2.5888 CURL -0.2780
-1.3847 DASH -0.2816
-2.5888 DIFF -0.2780
-2.2878 F -0.2424
-1.2878 FILENAME -0.2160
-2.5888 FIND -0.2780
-2.1117 FIREFOX -0.1936
-2.5888 GCC -0.2827
-2.5888 GET -0.2424
-2.2878 GIT -0.2988
-2.5888 GREP -0.2827
-2.5888 INSTALL -0.2424
-2.2878 L -0.2424
-2.5888 LA -0.2424
-2.5888 LAUNCHER -0.2424
-2.2878 LS -0.2214
-2.5888 M -0.2424
-2.5888 MATLAB -0.2424
-2.5888 MKDIR -0.2780
-2.5888 MV -0.2780
-2.5888 NANO -0.2780
-2.5888 O -0.2780
-2.2878 OPENMW -0.2214
-2.5888 PWD -0.2424
-2.1117 PYTHON -0.2757
-2.5888 RM -0.2424
-2.5888 RMDIR -0.2780
-2.5888 S -0.2424
-2.5888 SIZE -0.2424
-2.5888 SUDO -0.2424
-2.5888 T -0.2424
-2.2878 THREE -0.2160
-2.5888 TIME -0.2424
-2.5888 TOUCH -0.2780
-2.5888 UNAME -0.2424
-2.5888 UPDATE -0.2424
-2.5888 V -0.2424
-2.5888 VERSION -0.2424
-2.5888 VI -0.2780
-2.5888 WGET -0.2424
-2.5888 WHICH -0.2780
-2.5888 WHOAMI -0.2424
-2.5888 ZIP -0.2424

\2-grams:
-1.6902 <s> APT 0.0000
-1.9912 <s> B 0.0000
-1.9912 <s> CP 0.0000
-1.9912 <s> CURL 0.0000
-1.0370 <s> DASH -0.1383
-1.9912 <s> DIFF 0.0000
-1.9912 <s> FILENAME -0.0607
-1.9912 <s> FIND 0.0000
-1.5141 <s> FIREFOX 0.0000
-1.9912 <s> GCC 0.0000
-1.6902 <s> GIT 0.0000
-1.9912 <s> GREP 0.0000
-1.9912 <s> INSTALL 0.0000
-1.9912 <s> LA 0.0000
-1.6902 <s> LS 0.0000
-1.9912 <s> MATLAB 0.0000
-1.9912 <s> MKDIR 0.0000
-1.9912 <s> MV 0.0000
-1.9912 <s> NANO 0.0000
-1.6902 <s> OPENMW 0.0000
-1.9912 <s> PWD 0.0000
-1.5141 <s> PYTHON 0.0000
-1.9912 <s> RM 0.0000
-1.9912 <s> RMDIR 0.0000
-1.9912 <s> SUDO 0.0000
-1.9912 <s> TIME 0.0000
-1.9912 <s> TOUCH 0.0000
-1.9912 <s> UNAME 0.0000
-1.9912 <s> UPDATE 0.0000
-1.9912 <s> VI 0.0000
-1.9912 <s> WGET 0.0000
-1.9912 <s> WHICH 0.0000
-1.9912 <s> WHOAMI 0.0000
-0.3010 A </s> -0.3010
-0.3010 ADD FILENAME -0.0607
-0.6021 APT </s> -0.3010
-0.6021 APT DASH -0.2872
-0.3010 B DASH -0.2872
-0.3010 C </s> -0.3010
-0.3010 CAPITAL L 0.0000
-0.3010 COMMIT </s> -0.3010
-0.3010 CP FILENAME -0.2672
-0.3010 CURL FILENAME -0.0607
-1.5051 DASH A 0.0000
-1.5051 DASH C 0.0000
-1.5051 DASH CAPITAL 0.0000
-1.2041 DASH F 0.0000
-1.5051 DASH GET 0.0000
-1.5051 DASH L 0.0000
-1.5051 DASH LAUNCHER 0.0000
-1.5051 DASH M 0.0000
-1.5051 DASH O 0.0000
-1.5051 DASH S 0.0000
-1.5051 DASH SIZE 0.0000
-1.5051 DASH T 0.0000
-1.5051 DASH V 0.0000
-1.5051 DASH VERSION 0.0000
-1.5051 DASH ZIP 0.0000
-0.3010 DIFF FILENAME -0.2672
-0.3010 F </s> -0.3010
-0.3716 FILENAME </s> -0.3010
-1.1249 FILENAME FILENAME -0.0607
-0.3010 FIND FILENAME -0.0607
-0.7782 FIREFOX </s> -0.3010
-0.7782 FIREFOX DASH -0.2872
-0.7782 FIREFOX FILENAME -0.0607
-0.3010 GCC DASH -0.2872
-0.3010 GET </s> -0.3010
-0.6021 GIT ADD 0.0000
-0.6021 GIT COMMIT 0.0000
-0.3010 GREP DASH -0.2730
-0.3010 INSTALL </s> -0.3010
-0.3010 L </s> -0.3010
-0.3010 LA </s> -0.3010
-0.3010 LAUNCHER </s> -0.3010
-0.6021 LS </s> -0.3010
-0.6021 LS DASH -0.2872
-0.3010 M </s> -0.3010
-0.3010 MATLAB </s> -0.3010
-0.3010 MKDIR FILENAME -0.0607
-0.3010 MV FILENAME -0.0607
-0.3010 NANO FILENAME -0.0607
-0.3010 O FILENAME -0.2672
-0.6021 OPENMW </s> -0.3010
-0.6021 OPENMW DASH -0.2872
-0.3010 PWD </s> -0.3010
-0.7782 PYTHON FILENAME -0.0607
-0.4771 PYTHON THREE 0.0000
-0.3010 RM </s> -0.3010
-0.3010 RMDIR FILENAME -0.0607
-0.3010 S </s> -0.3010
-0.3010 SIZE </s> -0.3010
-0.3010 SUDO </s> -0.3010
-0.3010 T </s> -0.3010
-0.6021 THREE </s> -0.3010
-0.6021 THREE FILENAME -0.0607
-0.3010 TIME </s> -0.3010
-0.3010 TOUCH FILENAME -0.0607
-0.3010 UNAME </s> -0.3010
-0.3010 UPDATE </s> -0.3010
-0.3010 V </s> -0.3010
-0.3010 VERSION </s> -0.3010
-0.3010 VI FILENAME -0.0607
-0.3010 WGET </s> -0.3010
-0.3010 WHICH FILENAME -0.0607
-0.3010 WHOAMI </s> -0.3010
-0.3010 ZIP </s> -0.3010

\3-grams:
-0.6021 <s> APT </s>
-0.6021 <s> APT DASH
-0.3010 <s> B DASH
-0.3010 <s> CP FILENAME
-0.3010 <s> CURL FILENAME
-1.2553 <s> DASH C
-1.2553 <s> DASH CAPITAL
-1.2553 <s> DASH F
-1.2553 <s> DASH L
-1.2553 <s> DASH M
-1.2553 <s> DASH S
-1.2553 <s> DASH SIZE
-1.2553 <s> DASH T
-1.2553 <s> DASH VERSION
-0.3010 <s> DIFF FILENAME
-0.3010 <s> FILENAME </s>
-0.3010 <s> FIND FILENAME
-0.7782 <s> FIREFOX </s>
-0.7782 <s> FIREFOX DASH
-0.7782 <s> FIREFOX FILENAME
-0.3010 <s> GCC DASH
-0.6021 <s> GIT ADD
-0.6021 <s> GIT COMMIT
-0.3010 <s> GREP DASH
-0.3010 <s> INSTALL </s>
-0.3010 <s> LA </s>
-0.6021 <s> LS </s>
-0.6021 <s> LS DASH
-0.3010 <s> MATLAB </s>
-0.3010 <s> MKDIR FILENAME
-0.3010 <s> MV FILENAME
-0.3010 <s> NANO FILENAME
-0.6021 <s> OPENMW </s>
-0.6021 <s> OPENMW DASH
-0.3010 <s> PWD </s>
-0.7782 <s> PYTHON FILENAME
-0.4771 <s> PYTHON THREE
-0.3010 <s> RM </s>
-0.3010 <s> RMDIR FILENAME
-0.3010 <s> SUDO </s>
-0.3010 <s> TIME </s>
-0.3010 <s> TOUCH FILENAME
-0.3010 <s> UNAME </s>
-0.3010 <s> UPDATE </s>
-0.3010 <s> VI FILENAME
-0.3010 <s> WGET </s>
-0.3010 <s> WHICH FILENAME
-0.3010 <s> WHOAMI </s>
-0.3010 ADD FILENAME </s>
-0.3010 APT DASH GET
-0.3010 B DASH ZIP
-0.3010 CAPITAL L </s>
-0.3010 CP FILENAME FILENAME
-0.3010 CURL FILENAME </s>
-0.3010 DASH A </s>
-0.3010 DASH C </s>
-0.3010 DASH CAPITAL L
-0.3010 DASH F </s>
-0.3010 DASH GET </s>
-0.3010 DASH L </s>
-0.3010 DASH LAUNCHER </s>
-0.3010 DASH M </s>
-0.3010 DASH O FILENAME
-0.3010 DASH S </s>
-0.3010 DASH SIZE </s>
-0.3010 DASH T </s>
-0.3010 DASH V </s>
-0.3010 DASH VERSION </s>
-0.3010 DASH ZIP </s>
-0.3010 DIFF FILENAME FILENAME
-0.3010 FILENAME FILENAME </s>
-0.3010 FIND FILENAME </s>
-0.3010 FIREFOX DASH V
-0.3010 FIREFOX FILENAME </s>
-0.3010 GCC DASH O
-0.3010 GIT ADD FILENAME
-0.3010 GIT COMMIT </s>
-0.3010 GREP DASH F
-0.3010 LS DASH A
-0.3010 MKDIR FILENAME </s>
-0.3010 MV FILENAME </s>
-0.3010 NANO FILENAME </s>
-0.3010 O FILENAME FILENAME
-0.3010 OPENMW DASH LAUNCHER
-0.3010 PYTHON FILENAME </s>
-0.6021 PYTHON THREE </s>
-0.6021 PYTHON THREE FILENAME
-0.3010 RMDIR FILENAME </s>
-0.3010 THREE FILENAME </s>
-0.3010 TOUCH FILENAME </s>
-0.3010 VI FILENAME </s>
-0.3010 WHICH FILENAME </s>

\end\
