Language model created by QuickLM on Mon Jan 27 10:14:03 EST 2020
Copyright (c) 1996-2010 Carnegie Mellon University and Alexander I. Rudnicky

The model is in standard ARPA format, designed by Doug Paul while he was at MITRE.

The code that was used to produce this language model is available in Open Source.
Please visit http://www.speech.cs.cmu.edu/tools/ for more information

The (fixed) discount mass is 0.5. The backoffs are computed using the ratio method.
This model based on a corpus of 32 sentences and 34 words

\data\
ngram 1=34
ngram 2=64
ngram 3=32

\1-grams:
-2.2833 -A -0.2218
-2.2833 -C -0.2218
-2.2833 -O -0.2218
-0.7782 </s> -0.3010
-0.7782 <s> -0.2218
-2.2833 APT -0.2218
-2.2833 APT-GET -0.2218
-2.2833 CP -0.2218
-2.2833 CURL -0.2218
-2.2833 DIFF -0.2218
-2.2833 FIND -0.2218
-2.2833 FIREFOX -0.2218
-2.2833 GCC -0.2218
-2.2833 GIT -0.2218
-2.2833 GREP -0.2218
-2.2833 LA -0.2218
-2.2833 LS -0.2218
-2.2833 MKDIR -0.2218
-2.2833 MV -0.2218
-2.2833 NANO -0.2218
-2.2833 PWD -0.2218
-2.2833 PYTHON -0.2218
-2.2833 PYTHON3 -0.2218
-2.2833 RM -0.2218
-2.2833 RMDIR -0.2218
-2.2833 SUDO -0.2218
-2.2833 TIME -0.2218
-2.2833 TOUCH -0.2218
-2.2833 UNAME -0.2218
-2.2833 UPDATE -0.2218
-2.2833 VI -0.2218
-2.2833 WGET -0.2218
-2.2833 WHICH -0.2218
-2.2833 WHOAMI -0.2218

\2-grams:
-0.3010 -A </s> -0.3010
-0.3010 -C </s> -0.3010
-0.3010 -O </s> -0.3010
-1.8062 <s> -A 0.0000
-1.8062 <s> -C 0.0000
-1.8062 <s> -O 0.0000
-1.8062 <s> APT 0.0000
-1.8062 <s> APT-GET 0.0000
-1.8062 <s> CP 0.0000
-1.8062 <s> CURL 0.0000
-1.8062 <s> DIFF 0.0000
-1.8062 <s> FIND 0.0000
-1.8062 <s> FIREFOX 0.0000
-1.8062 <s> GCC 0.0000
-1.8062 <s> GIT 0.0000
-1.8062 <s> GREP 0.0000
-1.8062 <s> LA 0.0000
-1.8062 <s> LS 0.0000
-1.8062 <s> MKDIR 0.0000
-1.8062 <s> MV 0.0000
-1.8062 <s> NANO 0.0000
-1.8062 <s> PWD 0.0000
-1.8062 <s> PYTHON 0.0000
-1.8062 <s> PYTHON3 0.0000
-1.8062 <s> RM 0.0000
-1.8062 <s> RMDIR 0.0000
-1.8062 <s> SUDO 0.0000
-1.8062 <s> TIME 0.0000
-1.8062 <s> TOUCH 0.0000
-1.8062 <s> UNAME 0.0000
-1.8062 <s> UPDATE 0.0000
-1.8062 <s> VI 0.0000
-1.8062 <s> WGET 0.0000
-1.8062 <s> WHICH 0.0000
-1.8062 <s> WHOAMI 0.0000
-0.3010 APT </s> -0.3010
-0.3010 APT-GET </s> -0.3010
-0.3010 CP </s> -0.3010
-0.3010 CURL </s> -0.3010
-0.3010 DIFF </s> -0.3010
-0.3010 FIND </s> -0.3010
-0.3010 FIREFOX </s> -0.3010
-0.3010 GCC </s> -0.3010
-0.3010 GIT </s> -0.3010
-0.3010 GREP </s> -0.3010
-0.3010 LA </s> -0.3010
-0.3010 LS </s> -0.3010
-0.3010 MKDIR </s> -0.3010
-0.3010 MV </s> -0.3010
-0.3010 NANO </s> -0.3010
-0.3010 PWD </s> -0.3010
-0.3010 PYTHON </s> -0.3010
-0.3010 PYTHON3 </s> -0.3010
-0.3010 RM </s> -0.3010
-0.3010 RMDIR </s> -0.3010
-0.3010 SUDO </s> -0.3010
-0.3010 TIME </s> -0.3010
-0.3010 TOUCH </s> -0.3010
-0.3010 UNAME </s> -0.3010
-0.3010 UPDATE </s> -0.3010
-0.3010 VI </s> -0.3010
-0.3010 WGET </s> -0.3010
-0.3010 WHICH </s> -0.3010
-0.3010 WHOAMI </s> -0.3010

\3-grams:
-0.3010 <s> -A </s>
-0.3010 <s> -C </s>
-0.3010 <s> -O </s>
-0.3010 <s> APT </s>
-0.3010 <s> APT-GET </s>
-0.3010 <s> CP </s>
-0.3010 <s> CURL </s>
-0.3010 <s> DIFF </s>
-0.3010 <s> FIND </s>
-0.3010 <s> FIREFOX </s>
-0.3010 <s> GCC </s>
-0.3010 <s> GIT </s>
-0.3010 <s> GREP </s>
-0.3010 <s> LA </s>
-0.3010 <s> LS </s>
-0.3010 <s> MKDIR </s>
-0.3010 <s> MV </s>
-0.3010 <s> NANO </s>
-0.3010 <s> PWD </s>
-0.3010 <s> PYTHON </s>
-0.3010 <s> PYTHON3 </s>
-0.3010 <s> RM </s>
-0.3010 <s> RMDIR </s>
-0.3010 <s> SUDO </s>
-0.3010 <s> TIME </s>
-0.3010 <s> TOUCH </s>
-0.3010 <s> UNAME </s>
-0.3010 <s> UPDATE </s>
-0.3010 <s> VI </s>
-0.3010 <s> WGET </s>
-0.3010 <s> WHICH </s>
-0.3010 <s> WHOAMI </s>

\end\
