Language model created by QuickLM on Wed Jan 29 07:58:28 EST 2020
Copyright (c) 1996-2010 Carnegie Mellon University and Alexander I. Rudnicky

The model is in standard ARPA format, designed by Doug Paul while he was at MITRE.

The code that was used to produce this language model is available in Open Source.
Please visit http://www.speech.cs.cmu.edu/tools/ for more information

The (fixed) discount mass is 0.5. The backoffs are computed using the ratio method.
This model based on a corpus of 2755 sentences and 2126 words

\data\
ngram 1=2126
ngram 2=5913
ngram 3=7643

\1-grams:
-4.3531 !! -0.2736
-2.7146 " -0.2404
-4.3531 "" -0.2736
-4.6541 "$ARGV"\NGIT -0.3010
-4.6541 "%U" -0.2736
-3.8759 "' -0.2736
-4.6541 "ADD -0.3010
-3.0413 "ADDED -0.2976
-4.3531 "ATTEPT -0.3005
-4.6541 "CH -0.2844
-3.8759 "CHANGED -0.3009
-4.6541 "CHANGES" -0.2736
-4.3531 "CLEANED -0.3010
-4.6541 "CLEANUP" -0.2736
-4.6541 "CLOSEG@CARDIFF -0.2837
-4.6541 "COMMENTED -0.3010
-4.6541 "COMMIT" -0.2736
-4.6541 "DEFAULT -0.2837
-4.6541 "DELETED -0.3010
-3.2391 "DEPOSITFILES -0.2837
-3.5401 "DEPOSITFILES" -0.3002
-4.6541 "DID -0.3010
-4.6541 "DONE -0.3010
-4.6541 "ELEMENTARY -0.3010
-4.6541 "EQUIL -0.2837
-4.6541 "FINAL -0.3010
-4.6541 "FIRST -0.3010
-4.6541 "FIX -0.3010
-4.3531 "FIX" -0.2736
-3.3988 "FIXED -0.2999
-4.6541 "FIXED" -0.2736
-4.6541 "FIXES" -0.2736
-4.6541 "FIXEWD" -0.2736
-4.6541 "FIXEWWD -0.3010
-4.6541 "FULLY -0.3010
-4.6541 "GEORGE -0.3010
-4.6541 "GOOGLE" -0.3002
-4.6541 "HASKELL -0.2894
-4.1770 "HELLO -0.3010
-4.6541 "HELLO!" -0.2736
-4.1770 "HELLO" -0.2736
-2.9217 "HTTP -0.2837
-4.6541 "I -0.3010
-3.9551 "IMPLEMENTED -0.3009
-4.6541 "IMPORT -0.3010
-4.6541 "IMPROVED -0.3010
-4.1770 "INITAL -0.3010
-4.6541 "LA -0.2844
-4.6541 "LINK -0.3005
-4.6541 "MADE -0.3010
-4.6541 "MAYBE -0.3010
-4.6541 "MAYBE?" -0.2736
-4.6541 "MERGE" -0.2736
-4.6541 "MINOR -0.3010
-4.6541 "MODIFYED -0.3010
-4.6541 "MORE -0.3010
-3.8759 "MOVED -0.3002
-4.6541 "MURGE" -0.2736
-4.6541 "NETWORKMINER -0.2837
-4.6541 "NO -0.3010
-4.3531 "PLAYONLINUX'S -0.3010
-4.3531 "PLEAS -0.3010
-4.6541 "PROGRAM -0.3010
-4.6541 "PULLS -0.2998
-4.6541 "READLINK -0.3010
-4.6541 "REFACTOR" -0.2736
-3.4500 "REMOVED -0.3000
-4.6541 "REVERTED -0.3010
-4.6541 "SADASD" -0.2736
-4.6541 "SMALL -0.3010
-4.1770 "SOME -0.3010
-4.6541 "SS" -0.2736
-4.6541 "STAGE -0.3010
-4.6541 "STARTED -0.3010
-4.6541 "STASH" -0.2736
-4.6541 "STUFF" -0.2736
-4.0520 "THE -0.3010
-4.6541 "THIS -0.3009
-4.6541 "THISONEGOESTOELEVEN -0.2837
-4.6541 "TRYING -0.3010
-4.3531 "TURN -0.2998
-4.6541 "TWEAKED -0.3010
-4.6541 "UNCONFIRMED -0.3010
-4.6541 "UPDATE" -0.2736
-3.8090 "UPDATED -0.3003
-3.5080 "UTM" -0.3002
-4.3531 "UTMA" -0.3002
-4.6541 "WOOO -0.3003
-4.1770 "YEAR -0.3010
-4.3531 "\\ -0.3010
-4.3531 "__UTM -0.3002
-4.1770 "__UTM" -0.3002
-4.6541 "`ECHO -0.3010
-4.3531 "`LS`" -0.2736
-3.8759 # -0.2736
-4.6541 #TO -0.3010
-3.8759 $ -0.2961
-4.6541 $(IP -0.3010
-4.6541 $2}' -0.2894
-4.6541 $3}')' -0.2736
-4.6541 $5, -0.3010
-4.0520 $ARGV -0.2836
-3.7510 $ARGV\NEND -0.2736
-4.6541 $FORTUNE -0.2736
-2.8216 $I -0.2523
-4.6541 $I) -0.3004
-4.3531 $I\NEND -0.2736
-4.6541 $I\NEND\NEND\N -0.2736
-4.3531 $OUT\NEND -0.2736
-3.9551 $PATH -0.2736
-3.8759 $USER -0.2725
-4.6541 %ARGV\NGIT -0.3010
-4.3531 %U -0.2736
-3.6998 & -0.2551
-3.4236 && -0.2991
-4.6541 &\N -0.2736
-4.3531 ' -0.2612
-4.3531 '08_LOS -0.3010
-4.6541 '10' -0.2736
-3.7510 'ADDED -0.3009
-4.1770 'ARP' -0.2736
-4.6541 'CHANGE -0.3005
-4.6541 'CHANGED -0.3010
-4.6541 'COMMIT -0.2844
-4.6541 'FIXED -0.3010
-4.3531 'GOOD -0.3010
-3.8759 'HTTP -0.2837
-4.6541 'LINK -0.3005
-4.0520 'MOVED -0.3010
-4.6541 'PLEASE -0.3010
-4.6541 'PLS -0.3010
-4.6541 'PLS' -0.2736
-4.6541 'PUSH -0.3009
-4.6541 'REMOVED -0.3010
-4.3531 'S -0.2894
-4.6541 'TEST -0.3010
-4.3531 'TO -0.3010
-4.6541 'UTM' -0.3002
-4.6541 '{PRINT -0.3010
-4.6541 (1) -0.2837
-3.4500 (BASENAME -0.3004
-4.6541 (HOPEFULLY) -0.3010
-4.0520 + -0.3010
-4.0520 +SHORT -0.3001
-4.3531 +SHORT" -0.2736
-4.6541 +X -0.3010
-4.6541 , -0.2837
-4.6541 ,, -0.2736
-2.8759 0 -0.2214
-4.6541 000 -0.2844
-4.6541 0000001 -0.2736
-4.6541 0110000104EA4B1A -0.2894
-4.6541 06_LOS\\ -0.3010
-4.6541 0` -0.2837
-3.0009 1 -0.2229
-4.6541 1" -0.2736
-4.0520 1+ -0.2736
-3.3531 10 -0.2549
-4.3531 100 -0.2734
-3.8759 1000 -0.2844
-4.3531 106" -0.2736
-4.3531 108163 -0.2837
-4.6541 10\\ -0.3010
-4.3531 11 -0.2837
-4.6541 111 -0.2736
-4.6541 1111 -0.2736
-4.6541 1111100000 -0.2736
-4.3531 11188 -0.2736
-3.1917 12 -0.2422
-4.6541 126 -0.2837
-4.6541 128 -0.2894
-4.3531 12\NEND -0.2736
-4.6541 12\NRESTARTAPACHE -0.3009
-4.6541 12\NRESTARTAPACHE\NEND -0.2736
-4.3531 13 -0.2837
-4.6541 13421 -0.2736
-4.6541 14 -0.2894
-4.6541 14_HOMEWORK -0.2837
-4.6541 1548201941818 -0.2837
-4.6541 1550748745441 -0.2837
-4.1770 168 -0.2837
-4.3531 17 -0.2736
-4.3531 173 -0.2837
-4.6541 1766 -0.2844
-4.6541 18 -0.2736
-4.0520 192 -0.2837
-4.3531 194 -0.2837
-4.6541 1UBUNTU1\N -0.2736
-2.8028 2 -0.2224
-4.1770 2" -0.2612
-4.3531 2+2 -0.2736
-3.7510 20 -0.2549
-4.1770 2000 -0.2736
-4.6541 2016 -0.2844
-4.1770 20160303 -0.2894
-3.8759 2018 -0.2844
-4.3531 2019 -0.2837
-4.6541 208 -0.2837
-4.1770 22 -0.2736
-4.1770 25 -0.2734
-4.6541 2:8 -0.2837
-4.6541 2? -0.2736
-4.6541 2LS -0.2736
-4.6541 2_LINUX -0.2844
-3.1489 3 -0.2422
-4.6541 300 -0.3010
-4.6541 300\NEND -0.2736
-4.6541 32X32 -0.2894
-4.6541 340 -0.2837
-3.4780 4 -0.2418
-3.3988 5 -0.2227
-4.6541 500\NEND -0.2736
-3.6541 5031 -0.2837
-4.6541 52 -0.2837
-3.5080 6 -0.2664
-4.3531 67 -0.2837
-4.6541 6817 -0.2837
-3.3319 7 -0.2514
-4.6541 73 -0.2736
-4.0520 755 -0.3005
-4.1770 777 -0.3006
-4.6541 778507 -0.2736
-3.2924 8 -0.2366
-4.6541 80 -0.2736
-3.5401 9 -0.2501
-4.6541 93 -0.2837
-4.6541 94 -0.2837
-4.6541 9870 -0.2736
-4.6541 :" -0.2736
-4.3531 :(" -0.2736
-4.6541 :WARN\N -0.2736
-4.6541 :X -0.2736
-4.6541 ;L -0.2736
-4.6541 ;S -0.2736
-1.2140 </s> -0.3010
-4.6541 <P>' -0.2736
-1.2140 <s> -0.2170
-3.6998 = -0.3003
-4.6541 =" -0.3009
-4.3531 ="DIG -0.3010
-4.6541 =10 -0.2736
-4.3531 == -0.3007
-3.6998 > -0.2884
-4.6541 >> -0.3010
-4.0520 >HTTPHOSTS -0.2837
-4.6541 >I3STATUSMAN -0.2837
-4.3531 >OUT -0.2837
-4.6541 >PAGE -0.2837
-3.4236 >QUESTION2 -0.2837
-3.6541 >QUESTION3 -0.2837
-4.6541 >RESULT -0.2837
-4.6541 >RESULTS -0.2837
-4.6541 >SORT -0.3010
-4.6541 >STEP3 -0.2837
-4.6541 >TASK3 -0.2837
-4.3531 >TASK3A -0.2837
-4.6541 >URI -0.2837
-2.9465 A -0.2403
-4.6541 A1 -0.2736
-4.6541 A2 -0.2736
-4.6541 A2DISITE -0.3007
-4.0520 A2DISSITE -0.3006
-3.6541 A2ENSITE -0.3002
-4.6541 A;B;C -0.2736
-4.3531 ABILITY -0.3005
-4.6541 ABLE -0.3005
-4.6541 ABOUT -0.2736
-4.6541 ABR -0.2736
-3.0009 AC -0.2837
-4.0520 ACCEPT -0.2736
-4.6541 ACCEPT\N -0.2894
-3.7510 ACCESS -0.2837
-4.1770 ACCOUNT -0.3004
-4.6541 ACCOUNT" -0.2736
-4.6541 ACCOUNT' -0.2736
-4.6541 ACCOUNTS" -0.2736
-4.3531 ACOUSTIC -0.2844
-3.1489 ADD -0.2340
-4.6541 ADD, -0.3010
-4.6541 ADD2 -0.2736
-4.3531 ADD2FILE -0.2551
-4.6541 ADDAL -0.2736
-4.1770 ADDALL -0.2736
-4.6541 ADDARRAY -0.2736
-4.6541 ADDDED -0.3010
-3.4236 ADDED -0.3006
-4.3531 ADDR -0.3009
-4.6541 ADDRESS -0.3010
-4.6541 ADDUSER -0.2837
-4.1770 ADMIN -0.2735
-4.6541 ADOBE -0.2844
-4.6541 AFTER -0.3010
-4.6541 AGAIN -0.2736
-4.1770 AGAIN" -0.2736
-4.6541 AGAIN' -0.2736
-4.3531 AGNOSTER -0.2736
-4.1770 AJAX -0.3003
-4.6541 AL -0.2736
-3.9551 ALERT -0.2735
-3.3988 ALIAS -0.2365
-4.6541 ALIEN -0.2736
-4.6541 ALIS -0.3010
-3.5080 ALL -0.2538
-4.3531 ALLOWS -0.3004
-4.3531 ALMIXER -0.2559
-4.6541 ALSAINFO -0.2736
-4.1770 ALSAMIXER -0.2559
-4.6541 ALSO -0.3009
-4.3531 AMD64 -0.2844
-3.6998 AMIXER -0.2844
-2.5469 AND -0.2397
-3.6541 ANDCOWSAY -0.2554
-3.9551 ANDGREP -0.3004
-3.5401 ANDLOLCAT -0.2559
-4.6541 ANDSORT -0.2844
-3.8090 ANEALING -0.2837
-4.6541 ANEALINGTEST -0.2837
-4.6541 ANSWERQUESTION -0.3005
-3.5749 ANT -0.2533
-4.6541 ANY -0.3010
-4.3531 ANYTREE -0.2736
-4.3531 APACHE -0.2894
-3.1226 APACHE2 -0.2421
-4.3531 APACHE2CTL -0.3010
-4.6541 APACHE2\N -0.2736
-4.3531 APACHE:APACHE -0.3007
-4.1770 APACHECTL -0.2736
-4.3531 APACHELOG -0.2736
-4.6541 APACHELOG\NTAIL -0.2844
-4.1770 APP -0.2559
-3.8759 APP" -0.2736
-4.6541 APP' -0.2736
-4.6541 APPLIED -0.3010
-4.3531 APPS -0.2612
-2.2425 APT -0.2349
-4.6541 APTITUDE -0.2736
-4.6541 APT\N -0.2736
-4.1770 ARB -0.2736
-4.6541 ARCHITECTURE -0.3010
-4.0520 ARE -0.3005
-4.1770 ARGS1 -0.2731
-4.0520 ARGUMENT -0.3009
-4.6541 AROUND" -0.2736
-3.8090 ARP -0.2559
-4.1770 ARPSCAN -0.2837
-4.6541 ARRAYTEST -0.2837
-4.6541 ARTFUL -0.2894
-4.6541 ARW -0.2736
-3.7510 AS -0.3004
-3.9551 ASCIIVAL -0.2551
-4.3531 ASSIGN -0.2736
-4.6541 AT -0.2736
-4.6541 ATAREAO -0.2736
-4.3531 AUDACITY -0.2736
-4.6541 AUDIENCE -0.2736
-3.5749 AUDIO -0.2835
-4.6541 AUDIO" -0.2736
-4.6541 AUTHORIZED_KEYS -0.2736
-4.6541 AUTOCONF -0.3010
-4.6541 AUTOMAKE\N -0.2736
-4.6541 AUTOPEP8 -0.2844
-4.3531 AUTOREMOVE -0.2736
-4.6541 AUTOREMOVE\N -0.2736
-4.6541 AUTOSTART -0.2894
-4.6541 AUX -0.2998
-4.1770 AVAILABLE -0.2894
-4.3531 AWK -0.3010
-4.6541 A\N -0.2736
-4.6541 A\NEND -0.2736
-3.8090 B -0.2555
-4.6541 BACKLIGHT -0.2894
-4.6541 BAK -0.3010
-4.6541 BALLPANEL -0.2736
-4.6541 BALSA -0.2736
-4.6541 BANANA -0.2736
-4.3531 BASE -0.2837
-4.6541 BASENAME( -0.2837
-3.6541 BASENAME($I -0.2822
-4.6541 BASENAME(I -0.3003
-3.8759 BASH -0.2549
-4.6541 BASHCOMPLETION -0.2837
-4.6541 BASH_ALIASES -0.2736
-4.6541 BASIC -0.3010
-4.6541 BAT -0.3010
-4.0520 BE -0.3010
-4.1770 BG -0.2736
-4.6541 BIIN -0.2736
-3.2561 BIN -0.2612
-4.6541 BLABLA\N -0.2736
-4.6541 BLUE -0.2736
-3.6541 BLUETOOTH -0.2545
-3.6127 BLUR -0.2549
-3.8090 BLUROMP -0.2549
-4.6541 BOOK -0.2736
-4.6541 BOOK" -0.2736
-4.6541 BOOK2" -0.2736
-4.6541 BOOKS -0.2894
-4.1770 BORED -0.2736
-4.6541 BORED\NFORTUNE -0.2998
-4.3531 BOUNCE -0.2736
-4.6541 BOUNCETHREAD -0.2736
-4.1770 BOUTIQUE -0.2559
-4.6541 BOX -0.2736
-4.3531 BRAINWAVE -0.2844
-4.6541 BREAK -0.3010
-4.3531 BROKEN -0.2983
-3.6998 BROWSER -0.2731
-4.6541 BROWSERS" -0.2736
-4.1770 BSU -0.2736
-4.3531 BTS\\ -0.3010
-4.6541 BUG -0.3010
-4.6541 BUGS" -0.2736
-4.0520 BUILD -0.2559
-4.6541 BUTTON -0.3005
-4.0520 BUTTON" -0.2736
-4.3531 BUTTON' -0.2736
-4.3531 BUTTONS -0.3010
-4.6541 BUTTONS" -0.2736
-4.3531 BUTTONS' -0.2736
-4.3531 BY -0.2844
-2.7908 C -0.2316
-3.6541 C) -0.3004
-4.1770 C);\N -0.3007
-4.6541 C);\NGCC -0.2844
-4.6541 C)\NEND -0.2736
-4.3531 C16 -0.2736
-3.5401 C1736823 -0.2428
-4.6541 C1736823@LAPIS -0.2837
-4.3531 C1736823@WEBSITES -0.2837
-4.6541 C1736823\NEND -0.2736
-4.6541 C; -0.3010
-4.3531 C;\NEND -0.2736
-4.6541 CA -0.3010
-3.8090 CABAL -0.2527
-3.6541 CAJA -0.2429
-4.6541 CAKA -0.2736
-4.6541 CAL -0.2736
-4.3531 CALENDAR -0.3010
-4.6541 CALL -0.3005
-4.6541 CALL" -0.2736
-4.1770 CALLS -0.3005
-4.6541 CALLS" -0.2736
-4.6541 CAN -0.3010
-4.3531 CAPTURES -0.2612
-3.5749 CARDIFF -0.2837
-4.0520 CART -0.2991
-4.6541 CART" -0.2736
-4.6541 CART?" -0.2736
-4.6541 CARTS" -0.2736
-2.7967 CAT -0.2350
-4.0520 CAT($ARGV)\NECHO -0.3009
-4.6541 CATTEST -0.2736
-4.0520 CATTEST\N$OUT -0.3009
-4.6541 CC -0.2736
-3.1770 CCOMP -0.2716
-3.7510 CCOMPALL -0.2551
-4.6541 CCOMPALL\NFOR -0.3003
-4.6541 CCOMPALL\NMKDIR -0.3010
-4.6541 CCOMPFOR -0.3003
-3.8090 CCOMP\NGCC -0.3009
-2.0978 CD -0.2032
-3.9551 CDLS -0.2716
-4.3531 CENTER -0.2736
-4.6541 CENTRE -0.2736
-4.6541 CEXIT -0.2736
-3.1770 CF -0.2837
-4.6541 CFG -0.2837
-3.2924 CFGPARSER -0.2837
-3.8759 CFGPARSERNEW -0.2837
-4.3531 CH -0.2844
-4.6541 CHAGED -0.3010
-4.6541 CHANGE' -0.2736
-4.6541 CHANGE2' -0.2736
-4.3531 CHANGES -0.2997
-4.3531 CHANGES" -0.2736
-3.8759 CHAT -0.2736
-4.6541 CHAT" -0.2736
-4.6541 CHECKOUT -0.3010
-3.6127 CHMOD -0.2559
-3.4500 CHOWN -0.2555
-4.3531 CHROME -0.2736
-4.6541 CHROMEIUM -0.2736
-3.5080 CHROMIUM -0.2559
-4.6541 CIRCLE -0.2837
-4.6541 CL -0.2894
-4.6541 CLA -0.2736
-3.9551 CLASS -0.2598
-4.6541 CLASSIC -0.2736
-4.3531 CLASSPATH -0.2736
-4.6541 CLEAN -0.2736
-4.6541 CLEANED -0.3010
-4.6541 CLEANUP -0.3005
-4.6541 CLEAR -0.2736
-4.6541 CLER -0.2736
-4.0520 CLI -0.2894
-4.6541 CLICKING -0.3009
-3.8090 CLIENT -0.2551
-4.3531 CLI\N -0.2736
-4.6541 CLONE -0.3010
-4.1770 CLOSE -0.2612
-4.6541 CLOSE" -0.2736
-4.3531 CLOSEG@CARDIFF -0.2837
-4.6541 CLOSEG@WEBSITES -0.2837
-4.6541 CLS -0.2736
-4.6541 CM210 -0.2736
-4.6541 CM2102 -0.2894
-4.6541 CM2104 -0.2894
-3.6998 CM2207 -0.2612
-3.8759 CM2208 -0.2612
-3.6541 CM2305 -0.2894
-4.0520 CM2306 -0.2612
-3.5080 CM2307 -0.2612
-3.6541 CMAKE -0.2611
-4.6541 CMT12002 -0.2844
-4.0520 CMT1202 -0.2844
-4.6541 CMT12020 -0.2844
-2.9551 CODE -0.2373
-4.6541 CODESNIFFER\N -0.2736
-4.3531 COLOR -0.2736
-4.6541 COLORAND -0.3007
-4.6541 COLOUR -0.3010
-4.6541 COLOURAND -0.3007
-3.1770 COM -0.2421
-3.2391 COM" -0.2988
-4.6541 COMMAND0 -0.2837
-4.6541 COMMAND1 -0.2837
-4.6541 COMMENT -0.3010
-4.3531 COMMENTS -0.3010
-2.6455 COMMIT -0.2543
-3.9551 COMMIT" -0.2736
-3.9551 COMMON -0.2559
-3.6998 COMP -0.2894
-4.3531 COMPLETE -0.2736
-4.1770 COMPOP -0.2612
-4.1770 COMPOSER -0.2844
-4.6541 COMP\NFOR -0.3003
-4.3531 COM\NEND -0.2736
-4.6541 CON -0.2736
-3.3117 CONF -0.2422
-3.1356 CONFIG -0.2231
-4.3531 CONFIGTEST -0.2736
-4.6541 CONFIGTEST\N -0.2736
-4.1770 CONFIGURE -0.2559
-4.6541 CONF\N\N -0.2736
-4.3531 CONSTRUCTOR -0.2998
-2.7790 CONTAINS -0.2996
-4.6541 CONTENT' -0.2998
-4.6541 CONTRIBUTION" -0.2736
-4.6541 CONTRIBUTIONS, -0.3009
-4.1770 CONTROL -0.2844
-4.6541 CONVERSION -0.3005
-3.1627 COOKIE -0.2830
-4.1770 COPY -0.2736
-4.3531 COPYSTRING -0.2736
-4.0520 CORE -0.2736
-4.0520 COREJAVAFIRSTBOUNCE -0.2894
-4.3531 COREJAVASECONDBOUNCE -0.2894
-4.3531 COREJAVAUNSAFESWING -0.2894
-4.1770 COUNTERDEMO -0.2551
-2.8759 COURSEWORK -0.2422
-3.4236 COURSEWORK1 -0.2612
-4.1770 COURSEWORK2 -0.2612
-4.6541 COUSESWORK1 -0.2736
-4.3531 COUSEWORK -0.2736
-4.6541 COUSEWORK1 -0.2736
-4.0520 COUSEWORK2 -0.2736
-4.6541 COVERSHEET -0.3005
-3.9551 COW -0.2718
-4.6541 COWS -0.2894
-2.9551 COWSAY -0.2408
-4.3531 COWSAYS -0.2559
-4.3531 COWTHINK -0.2731
-3.7510 CP -0.2701
-4.3531 CPLUSPLUS -0.2612
-3.8090 CPP -0.2559
-3.6541 CPROGS -0.2612
-4.6541 CRDOWNLOAD -0.2736
-4.6541 CRDOWNLOAD" -0.2736
-4.1770 CREDENTIAL -0.2837
-4.1770 CREVIEWCODE -0.2894
-4.6541 CROSS -0.3010
-3.1917 CS -0.2837
-3.9551 CSMYSQL -0.2837
-4.1770 CSORACLE -0.2837
-3.7510 CSS -0.2716
-4.6541 CSS" -0.2736
-4.0520 CSV -0.2736
-3.7510 CURL -0.2554
-4.6541 CURL\N -0.2736
-3.9551 CURRENT -0.3008
-4.6541 CURSOR -0.2844
-4.0520 CUSTOM -0.2843
-4.6541 CVLC -0.3010
-4.6541 CVV" -0.2736
-3.8759 CW -0.2612
-4.0520 CW1 -0.2612
-4.1770 CWNEW -0.2612
-4.6541 CXXXXXX -0.2736
-4.6541 CYAN -0.2736
-3.8090 C\N -0.3005
-3.9551 C\NECHO -0.3008
-3.9551 C\NEND -0.2736
-3.8090 C\NGCC -0.2844
-3.6541 D -0.2612
-4.6541 DAEMON -0.2736
-4.3531 DARK -0.2844
-4.6541 DARK" -0.2736
-1.4257 DASH -0.2192
-3.1356 DATA -0.2702
-3.9551 DATA:WWW -0.2844
-4.6541 DATA_ACCESS -0.2837
-4.6541 DATEPARSER -0.2736
-4.6541 DAVID -0.2837
-4.1770 DAVIDBLUR -0.2837
-4.3531 DAVIDBLUROMP -0.2837
-3.5401 DB -0.2551
-4.3531 DB" -0.2736
-4.6541 DBCONNECT" -0.2736
-4.1770 DBLPY -0.2736
-4.3531 DBVIEWER -0.2735
-4.6541 DBVIWER -0.2736
-4.6541 DC -0.3010
-4.3531 DCONF -0.2844
-4.6541 DE -0.2736
-4.0520 DEB -0.2736
-4.6541 DEBUG -0.3010
-4.6541 DEBUG" -0.2736
-4.6541 DECOMPILATION -0.2736
-4.3531 DEEP -0.2844
-3.6541 DEFAULT -0.2229
-4.3531 DEFINE1 -0.2736
-4.6541 DELETE -0.2998
-4.6541 DELUGE -0.2736
-4.6541 DEMO -0.3010
-4.6541 DENSEVECTOR -0.2736
-4.6541 DEP -0.3010
-3.5749 DEPOSITFILES -0.2894
-2.9217 DESEGMENT_TCP_STREAMS:0 -0.2844
-3.4236 DESKTOP -0.2421
-4.1770 DESKTOPSCRIPT -0.2837
-4.0520 DETAILS -0.2728
-4.6541 DETAILS" -0.2736
-4.3531 DETERMINANT3 -0.2551
-2.8688 DEV -0.2715
-4.3531 DEV\N -0.2736
-4.3531 DIA -0.2736
-4.1770 DIC -0.2559
-4.0520 DICT -0.2735
-4.6541 DICTIONARY -0.2837
-4.6541 DIC\N -0.2736
-3.8090 DIFF -0.3008
-3.4780 DIG -0.2827
-3.8759 DIR -0.2559
-4.6541 DIRECTORY -0.3010
-4.3531 DIRECTORY" -0.2736
-4.6541 DIRNAME(SR -0.2837
-4.3531 DISABLESITE -0.2736
-4.6541 DISABLESITE\NSUDO -0.3010
-4.0520 DISCORD -0.2559
-4.3531 DISCOVER -0.2736
-4.6541 DISK -0.2736
-4.3531 DISOWN -0.3010
-4.6541 DISPLAY" -0.2736
-4.3531 DISQUS" -0.2736
-4.0520 DIST -0.2430
-4.0520 DJANGO -0.2559
-4.3531 DJANGOEXAMPLE -0.2736
-4.3531 DMESG -0.2998
-4.1770 DO -0.2559
-4.6541 DOC -0.3008
-3.6127 DOCSEARCH -0.2836
-4.3531 DOCX' -0.3008
-4.3531 DOLPHIN -0.2736
-1.4071 DOT -0.2099
-4.6541 DOUBLE -0.3010
-4.6541 DOUBLEME -0.2837
-4.6541 DOW -0.2736
-4.3531 DOWNLOAD -0.3004
-4.0520 DOWNLOADING -0.2734
-3.9551 DOWNLOADS -0.2894
-4.0520 DO\NGCC -0.2844
-4.0520 DPKG -0.2844
-4.6541 DQP -0.2736
-4.1770 DQS -0.2612
-3.6998 DRAGON -0.2544
-4.6541 DRAGONANDLOLCAT -0.2844
-4.0520 DRAW -0.2837
-4.6541 DRAWIO -0.2736
-4.6541 DRI -0.3010
-3.6127 DRIVE -0.2723
-4.6541 DRIVER -0.3010
-4.3531 DRIVES -0.2894
-3.6127 DRIVESTARTUP -0.2837
-4.6541 DROPDOWN -0.3009
-4.6541 DS2SOFS0000 -0.2837
-3.9551 DU -0.2559
-4.6541 DUMP -0.2736
-2.9465 E -0.2646
-4.1770 EBAYBIDDER -0.2736
-4.0520 EBAYSTRATEGYEXAMPLE -0.2894
-3.4236 ECHO -0.2488
-3.5080 ECLIPSE -0.2231
-3.9551 ECT -0.2894
-4.1770 EDEN -0.2736
-4.3531 EDIT -0.3006
-4.6541 EDIT" -0.2736
-4.6541 EDITING" -0.2736
-4.3531 EDITOR -0.2736
-4.6541 EDITQUESTION -0.3010
-4.6541 EFFECT -0.2736
-3.8759 EG2 -0.2837
-4.6541 EG3 -0.2837
-4.6541 EG4 -0.2837
-4.6541 EG5 -0.2837
-3.9551 ELCODE -0.2421
-4.3531 ELCODE\NIO -0.2837
-3.4780 ELEMENTARY -0.2537
-4.3531 ELEMENTARYPLUS -0.2736
-4.6541 ELEMENTARYPLUS\N -0.2736
-4.6541 ELEMENTARYPLUS\NSUDO -0.2985
-4.6541 ELEMENTAY -0.2844
-4.1770 ELEMENTRY -0.2844
-4.6541 ELEMENTS -0.3005
-4.3531 EMACS -0.2736
-4.6541 EMAIL -0.3010
-3.9551 EN -0.2844
-4.3531 ENABLESITE -0.2736
-4.6541 ENABLESITE\NA2ENSITE -0.3007
-4.3531 ENABLESITE\NSUDO -0.3009
-4.6541 ENTER -0.3005
-4.6541 ENVOLOPE -0.3010
-4.6541 EOF -0.2736
-4.3531 EPIPHANY -0.2736
-4.3531 EPLEASE -0.3010
-4.3531 EQUIL -0.2837
-4.6541 ERASE -0.3009
-4.6541 ERLANG -0.2736
-3.6998 ERROR -0.2837
-3.0308 ESEPARATOR= -0.2894
-3.5401 ESPDIFF -0.2540
-4.6541 ESSENTIAL -0.3010
-2.9465 ETC -0.2612
-3.6998 ETH0 -0.2559
-3.9551 ETH1 -0.2844
-4.6541 ETHER -0.2736
-4.6541 ETHO -0.2736
-3.9551 EVAL -0.3002
-4.6541 EVAL($OUT)\NEND -0.2736
-4.6541 EX -0.2736
-3.7510 EXAMPLE -0.2664
-4.6541 EXAMPLES -0.2736
-4.0520 EXE -0.2736
-4.6541 EXE" -0.2736
-4.6541 EXERCISELAB1 -0.2894
-4.6541 EXIT -0.2736
-4.6541 EXPAND -0.2736
-4.3531 EXPORT -0.3010
-4.6541 EXUT -0.2736
-4.6541 EYES -0.3009
-2.7350 EZGIT -0.2714
-4.6541 EZGIT\NGIT -0.3007
-2.9551 F -0.2390
-4.3531 FACE -0.3008
-4.6541 FACTOR -0.2998
-4.3531 FALSE -0.2736
-4.6541 FARM -0.2837
-4.6541 FDISK -0.2844
-4.6541 FEEDBACK" -0.2736
-4.3531 FEELS -0.3010
-4.6541 FEILDS -0.2844
-4.3531 FELLOWSHIP -0.2837
-4.0520 FETCH -0.2559
-4.6541 FG -0.2736
-4.6541 FHDSAFPHDSAFOIDSA -0.2736
-3.0413 FIELDS -0.2844
-4.6541 FIGLET -0.2736
-3.2069 FILE -0.2532
-3.3988 FILES -0.2401
-3.9551 FILES" -0.2736
-4.6541 FILESELECTOR -0.3005
-4.6541 FILESELECTOR() -0.3010
-4.3531 FILM -0.2894
-4.1770 FILMTIMES -0.2837
-4.6541 FILTER" -0.2736
-4.6541 FINAL -0.2894
-4.1770 FINALCOUNTER -0.2894
-3.6998 FIND -0.2416
-4.6541 FINE! -0.3010
-4.6541 FINGER -0.3008
-4.6541 FINISH -0.2736
-4.3531 FINNISHED -0.3010
-4.3531 FIREFOX -0.2736
-4.3531 FIRMWARE -0.3010
-4.3531 FIRST -0.3010
-4.3531 FIRSTLASTNAME -0.2736
-3.3531 FISH -0.2599
-4.6541 FISH_CONFIG -0.2736
-4.1770 FISH_GREETING -0.2551
-4.6541 FISH_GREETING\NEND -0.2736
-4.6541 FISH_GREETING\N\NEND -0.2736
-4.6541 FISH_HISTORY -0.2736
-4.6541 FISH_PROMPT -0.2736
-4.3531 FIX -0.2844
-3.8090 FIXED -0.2733
-4.6541 FIXED' -0.2736
-4.6541 FIXED? -0.2736
-4.6541 FIXES -0.2736
-4.6541 FIXES" -0.2736
-4.6541 FIXING -0.3010
-4.1770 FLASH -0.2736
-4.3531 FLASHPLAYER -0.2736
-4.3531 FLASHPLUGIN -0.2844
-4.6541 FLASHPLUGIN\N -0.2736
-4.3531 FLATPAK -0.2736
-4.6541 FOACE -0.2736
-4.6541 FOLDER -0.2736
-4.6541 FONT -0.2736
-4.6541 FOOTER -0.3010
-3.8090 FOPENMP -0.2844
-2.8280 FOR -0.2983
-4.0520 FORCE -0.2734
-4.6541 FORGOT" -0.2736
-4.6541 FORMATS" -0.2736
-3.8759 FORMULA_ONE_1984 -0.2837
-3.3531 FORTUNE -0.2722
-4.3531 FORTUNEANDCOWSAY -0.2559
-4.6541 FORTUNES -0.2894
-3.9551 FORWARD -0.2844
-4.6541 FOSS -0.2736
-4.6541 FRAME" -0.2844
-4.6541 FREE -0.2736
-4.0520 FREEGLUT3 -0.2844
-4.6541 FROG -0.3005
-3.8759 FROM -0.2791
-4.3531 FULL -0.3007
-4.6541 FULLY -0.3010
-3.4500 FULL_URI -0.3003
-4.0520 FUN -0.2612
-3.9551 FUNCED -0.3006
-4.6541 FUNCEDIT -0.2736
-3.3753 FUNCSAVE -0.2960
-3.0009 FUNCTION -0.2988
-4.1770 FUNCTION" -0.2736
-4.6541 FUNCTIONAL -0.3010
-4.6541 FUNCTIONALITY -0.3005
-3.0413 FUNCTIONS -0.2415
-4.6541 FUNCTIOS -0.2736
-4.3531 FUNTION -0.3007
-4.6541 FUSERMOUNT -0.2844
-4.3531 G -0.2736
-4.6541 G' -0.2894
-3.6541 G++ -0.2553
-3.7510 G0 -0.2837
-4.0520 GAME -0.2736
-4.1770 GAMES -0.2612
-4.6541 GAMETEST -0.2837
-3.8759 GAPS -0.2559
-3.1356 GCC -0.2542
-4.6541 GCHI -0.2736
-3.9551 GDEBI -0.3008
-3.9551 GDRIVE -0.2430
-4.6541 GDRIVE\NECHO -0.3010
-4.6541 GDRIVE\NEND -0.2736
-4.6541 GDRIVE\NLS -0.2894
-4.6541 GEDIR -0.3010
-3.6127 GEDIT -0.2600
-4.6541 GENERATE -0.3009
-4.6541 GENRE -0.3010
-4.3531 GEOCLUE -0.2844
-3.3753 GEORGE -0.2612
-4.6541 GEORGE\\ -0.3010
-2.6412 GET -0.2496
-3.8759 GETIP -0.3002
-4.6541 GETIP="% -0.3009
-4.3531 GETTERS -0.2998
-4.3531 GF -0.2736
-4.3531 GGC -0.2736
-3.9551 GHC -0.2559
-3.8090 GHCI -0.2554
-4.6541 GIMP -0.2736
-2.2579 GIT -0.2324
-4.1770 GITHUB -0.2837
-3.8759 GITIGNORE -0.2736
-3.9551 GITLAB -0.2837
-3.8090 GITSCRIPT -0.2729
-4.6541 GITSCRIPT\NGIT -0.3007
-4.1770 GKSUDO -0.2732
-4.3531 GLAPP -0.2559
-4.6541 GLASTONBURY -0.2837
-3.8759 GLOBAL -0.3008
-4.0520 GLUEGEN -0.2894
-4.3531 GLX -0.3010
-3.5401 GNOME -0.2231
-4.1770 GNU -0.2723
-4.6541 GO -0.2736
-4.3531 GOOD -0.3005
-3.1356 GOOGLE -0.2537
-3.5080 GOOGLEDRIVE -0.2609
-4.6541 GOT -0.3009
-3.6998 GOTOGROUP -0.2551
-3.7510 GOV -0.2551
-4.1770 GPARTED -0.2736
-4.6541 GPASSWD -0.2844
-4.6541 GRAIN" -0.2736
-4.6541 GRAMMAR" -0.2736
-4.6541 GRANULAR -0.3010
-4.6541 GRANULAR" -0.2736
-4.3531 GRAPHICSLAB2 -0.2894
-4.6541 GRAPH_FOR_Q2 -0.2837
-4.6541 GREEETER -0.2736
-4.3531 GREETER -0.2736
-3.5401 GREP -0.2555
-4.0520 GRIVE -0.2559
-4.6541 GRIVE\N -0.2736
-3.0630 GROUP -0.2358
-4.6541 GROUP" -0.2736
-4.6541 GROUP, -0.3010
-4.6541 GROUP1 -0.2894
-4.3531 GROUP12 -0.2612
-4.6541 GROUPMENU" -0.2736
-4.6541 GROUPPAGE -0.2837
-3.8759 GRUB -0.2736
-3.7510 GSETTINGS -0.2725
-4.6541 GSUDO -0.2736
-3.4500 GTK -0.2366
-4.0520 GTK3 -0.2559
-4.6541 GUI -0.2736
-4.6541 GUI" -0.2736
-4.6541 GUT -0.3009
-4.6541 GV -0.2736
-3.8759 GVIM -0.2558
-3.6127 H -0.2551
-4.6541 HANDLING -0.2736
-4.3531 HARD -0.3009
-3.9551 HASH -0.2844
-4.6541 HASK -0.2736
-3.6998 HASKELL -0.2227
-4.6541 HASKELL" -0.2736
-4.6541 HASKELL\NCOMMAND -0.3010
-4.6541 HASKELL\NGHCI -0.3010
-3.9551 HEAD -0.2844
-4.3531 HEADER -0.3009
-4.6541 HEADER" -0.2736
-4.6541 HEADLESS -0.3009
-4.6541 HEADLESS\N\N -0.2736
-4.6541 HEAD^ -0.2736
-4.6541 HELIUM -0.2837
-2.9298 HELLO -0.2545
-4.6541 HELLO; -0.2998
-4.0520 HELLOWORLD -0.2551
-4.3531 HELM -0.2736
-4.6541 HELO -0.2736
-3.5749 HELP -0.2551
-4.1770 HELPER -0.3010
-4.6541 HERE -0.2736
-4.3531 HLINT -0.2736
-4.3531 HMM -0.2837
-4.6541 HO -0.2736
-3.3753 HOME -0.2611
-4.6541 HONE -0.2736
-2.9059 HOST -0.2836
-4.3531 HOSTNAME -0.2844
-4.0520 HOSTS -0.2736
-3.6127 HPC -0.2612
-4.6541 HR -0.2894
-3.9551 HS -0.2736
-3.6998 HTML -0.2612
-4.6541 HTML!!" -0.2736
-4.3531 HTML" -0.2736
-2.9217 HTTP -0.2837
-4.0520 HTTPD -0.2715
-3.9551 HTTPHOSTS -0.2837
-3.8090 HTTPS: -0.2894
-4.6541 HUP -0.3009
-4.6541 HWADDR' -0.2736
-2.7790 I -0.2347
-3.2561 I3 -0.2429
-4.6541 I386 -0.2736
-4.6541 I3GAPS -0.2736
-4.1770 I3MAN -0.2837
-3.6998 I3STATUS -0.2366
-4.3531 I3STATUSMAN -0.2837
-4.6541 I3STATYS -0.2736
-4.6541 IC -0.2844
-4.6541 ICALANDAR -0.2736
-4.3531 ICALENDAR -0.2736
-4.6541 ICCCM4 -0.2844
-4.3531 ICON -0.2844
-4.6541 ICONFIG -0.2736
-3.9551 ICONS -0.2612
-3.9551 IDEA -0.2231
-4.3531 IDEAPROJECTS -0.2894
-4.1770 ID_RSA -0.2551
-4.6541 IF -0.3009
-4.1770 IF1 -0.2726
-3.8759 IFCONFIG -0.2546
-4.6541 IFELSE -0.2736
-4.6541 IGNORE" -0.2736
-4.3531 II -0.2735
-4.6541 II" -0.2736
-4.6541 IMAGES -0.3010
-4.6541 IMAGES, -0.3010
-4.6541 IMAGES?" -0.2736
-4.3531 IMGUR -0.3010
-4.6541 IMG_0442\\ -0.3010
-3.7510 IMPLEMENTED -0.3005
-4.3531 IMPLEMENTING -0.3010
-4.6541 IMPORTING" -0.2736
-4.1770 IMPORT_BASH_ALIASES -0.2551
-2.9728 IN -0.2532
-4.6541 INCOMPLETE -0.3010
-4.6541 INDENT -0.3010
-4.6541 INDEX -0.2837
-4.0520 INDICATOR -0.2558
-4.1770 INDIVIDUAL -0.2881
-4.6541 INDIVIDUAL" -0.2736
-4.6541 INET -0.2736
-4.3531 INFOGRAFÍA -0.2837
-4.6541 INFO\N -0.2736
-3.6541 INI -0.2736
-4.1770 INIT -0.2551
-4.6541 INITAL -0.3000
-4.3531 INI\N -0.2736
-4.1770 INMIC -0.3010
-4.6541 INPUT" -0.2736
-4.6541 INPUTS" -0.2736
-4.6541 INPUTTEST -0.2736
-4.6541 INPUTTEST\N -0.2736
-4.6541 INPUTTEST\NQ -0.2736
-4.6541 INSALL -0.3010
-4.3531 INST -0.2736
-2.2008 INSTALL -0.2202
-3.9551 INSTALLER -0.2421
-4.6541 INSTALLS -0.3008
-4.6541 INSTALL\NSUDO -0.3010
-4.1770 INSTALL_PLUGIN -0.2736
-4.6541 INSTEALL -0.3010
-3.6998 INTERFACE -0.2734
-4.6541 INVERSE3X3 -0.2837
-4.6541 INVOKE -0.2844
-3.5749 IO -0.2231
-4.6541 IO,STAT,30,"COUNT(FRAME) -0.3010
-4.1770 IOSEQTRIPLE -0.2551
-4.0520 IP -0.2551
-4.6541 IPCONFID -0.2736
-4.6541 IPCONFIG -0.2736
-3.5080 IPTABLES -0.2556
-3.6998 IPV4 -0.2422
-3.8090 IP_FORWARD -0.2736
-4.3531 IP_FORWARD=1\N -0.2736
-4.6541 IR -0.2736
-3.5749 IS -0.2994
-4.3531 ISOS -0.2894
-4.6541 ISSUES\N -0.2736
-4.6541 ISTALL -0.3010
-4.1770 IT -0.2736
-4.3531 IT" -0.2736
-4.6541 IV -0.2736
-4.6541 IWCONFIG -0.2736
-3.8090 J -0.3010
-3.5401 JAR -0.2731
-2.4927 JAVA -0.2174
-4.3531 JAVA" -0.2736
-4.6541 JAVA' -0.2736
-3.1917 JAVAC -0.2541
-3.2069 JAVAGO -0.2546
-4.1770 JAVAGO="JAVAC -0.3001
-4.6541 JAVAGO='JAVAC -0.3001
-4.3531 JAVAGO\NCOMMAND -0.3008
-4.6541 JAVAGO\NJAVAC -0.3001
-4.6541 JAVASCRIPT!" -0.2736
-4.6541 JAVA\NCOMMAND -0.2996
-4.6541 JAVA\NEND -0.2736
-4.6541 JAVA\NJAVA -0.3010
-3.8090 JDK -0.2558
-4.1770 JFLAP -0.2612
-3.9551 JFLAP7 -0.2837
-4.6541 JOBS -0.2736
-4.1770 JOGL -0.2612
-4.6541 JOGLTEST -0.2894
-4.6541 JOURNAL -0.2736
-4.6541 JOURNALCTL -0.2998
-4.6541 JPG -0.2736
-3.8759 JRE -0.2558
-4.3531 JRE1 -0.2837
-4.6541 JS -0.3010
-4.3531 K -0.3010
-4.3531 K6 -0.2736
-3.0009 KERMIT -0.3000
-4.3531 KEY -0.2733
-4.6541 KEYPRESS -0.2736
-4.6541 KEYSYMS1 -0.2844
-4.3531 KILL -0.2844
-3.5401 KILLALL -0.2807
-4.3531 KNOWN_HOSTS -0.2736
-4.3531 KUBUNTU -0.2844
-4.6541 K\N -0.2736
-3.1627 L -0.2724
-3.6541 LA -0.2546
-4.6541 LAB -0.2736
-4.1770 LAB1 -0.2894
-4.3531 LAB5 -0.2612
-4.6541 LABS -0.2736
-4.6541 LABX01 -0.2837
-4.6541 LABX03 -0.2837
-4.6541 LABX20 -0.2837
-4.6541 LABX27 -0.2837
-4.1770 LAMBDA -0.2736
-4.6541 LAMP -0.2736
-4.6541 LANGUAGE -0.2844
-3.8759 LAPIS -0.2837
-3.9551 LAPLACEOMP -0.2366
-3.7510 LAPLACESEQ -0.2366
-4.0520 LAUNCHER -0.2726
-4.6541 LAUNCHER; -0.2972
-4.3531 LAUNCHER\N -0.2736
-4.6541 LD -0.2837
-4.6541 LDCONFIG -0.2736
-4.0520 LDD -0.2612
-4.6541 LEARNING_HUB -0.2894
-4.6541 LECT10PROGS -0.2894
-4.6541 LECT12PROGRAMS -0.2894
-4.3531 LECT13PROGRAMS -0.2894
-4.6541 LECT14PROGRAMS -0.2894
-4.6541 LECT15PROGRAMS -0.2894
-4.6541 LECT8PROGS -0.2894
-4.1770 LET -0.3010
-4.6541 LETO19 -0.2894
-4.6541 LG -0.2736
-4.6541 LGL -0.2736
-4.6541 LGLU -0.2844
-4.6541 LGLUT -0.2844
-3.9551 LIB -0.2894
-4.6541 LIBASOUND2 -0.2844
-4.3531 LIBC6 -0.2844
-4.3531 LIBCANBERRA -0.2844
-3.9551 LIBCLNTSH -0.2837
-4.3531 LIBDVD -0.2844
-4.6541 LIBEV -0.2844
-3.8759 LIBGL1 -0.2844
-4.6541 LIBGLAPI -0.2844
-4.3531 LIBGLEW1 -0.2837
-3.8759 LIBGLU1 -0.2844
-4.6541 LIBGLX -0.2844
-4.3531 LIBICE -0.2844
-4.6541 LIBNNZ10 -0.2837
-4.6541 LIBOSMESA6\N -0.2736
-4.6541 LIBPANGO1 -0.2837
-4.6541 LIBPULSE -0.2844
-4.3531 LIBSM -0.2844
-4.6541 LIBSTARTUP -0.2844
-4.3531 LIBSTDC++ -0.2844
-4.3531 LIBSTDC++6 -0.3010
-4.6541 LIBTOOL -0.3010
-4.3531 LIBUDEV -0.2844
-4.3531 LIBX11 -0.2844
-3.8090 LIBXCB -0.2844
-4.6541 LIBXCB1 -0.2844
-4.3531 LIBXCURSOR -0.2844
-4.3531 LIBXEXT -0.2844
-4.3531 LIBXI -0.2844
-4.3531 LIBXINERAMA -0.2844
-4.3531 LIBXKBCOMMON -0.2844
-4.3531 LIBXRANDR -0.2844
-4.3531 LIBXRENDER -0.2844
-4.3531 LIBXXF86VM -0.2844
-4.6541 LIBYAJL -0.2844
-4.6541 LIFE" -0.2736
-4.3531 LIKE -0.3005
-4.6541 LINE -0.3004
-3.8759 LINK -0.2725
-4.6541 LINK" -0.2736
-4.6541 LINKEDLIST -0.2736
-4.6541 LINKS" -0.2736
-4.1770 LINK\\ -0.3010
-4.6541 LINUX -0.2844
-3.6541 LIST -0.2216
-4.1770 LISTGROUP -0.2837
-4.6541 LIST\N -0.2736
-4.6541 LL -0.2736
-4.6541 LLS -0.2736
-3.4236 LM -0.2365
-3.5749 LM;\NEND -0.2736
-4.6541 LM;\NEND\NEND -0.2736
-4.6541 LM\NECHO -0.3010
-3.6998 LN -0.2844
-4.6541 LO -0.2736
-4.0520 LOAD -0.2839
-4.6541 LOADED\N -0.2736
-4.6541 LOADER -0.3010
-4.1770 LOADING -0.2994
-4.6541 LOADMARKING -0.3005
-4.6541 LOADS -0.3008
-3.3753 LOCAL -0.2612
-4.6541 LOCALHOST98000 -0.2736
-4.6541 LOCALHOST:6000 -0.2736
-4.6541 LOCALHOST:7000 -0.2736
-4.1770 LOCALHOST:8000 -0.2736
-4.6541 LOCALHOST:8001 -0.2736
-4.3531 LOCALHOST:9000 -0.2735
-4.6541 LOCALHOST:9001 -0.2736
-4.6541 LOCALHOST:9002 -0.2736
-3.1489 LOG -0.2406
-3.7510 LOGIN -0.2556
-4.1770 LOGIN, -0.3008
-4.3531 LOGO -0.2837
-4.6541 LOGO, -0.3010
-4.6541 LOGO? -0.3010
-4.1770 LOGOUT -0.2736
-4.6541 LOGS -0.2894
-4.3531 LOG\N -0.2736
-4.6541 LOG_PRONOUNCE -0.2736
-3.5749 LOLCAT -0.2558
-4.3531 LOLCAY -0.2736
-4.3531 LONG -0.3010
-4.6541 LOOKING -0.3006
-4.6541 LOOKS -0.3005
-4.1770 LOOP -0.2831
-4.6541 LOSE -0.2736
-4.6541 LR -0.2736
-3.2227 LS -0.2416
-4.6541 LSA -0.2736
-4.6541 LSLS -0.2736
-4.6541 LSPCI -0.2736
-4.6541 LS\N -0.2736
-4.6541 LS`" -0.2736
-3.9551 LUA -0.2736
-4.6541 LUA\\ -0.3010
-4.6541 LUE -0.2736
-4.3531 LYNX -0.2736
-2.5018 M -0.2695
-4.6541 M' -0.2736
-3.8090 M) -0.2835
-3.9551 M)\NEND -0.2736
-4.6541 MAC -0.2736
-4.6541 MAC='IFCONFIG -0.2998
-4.6541 MAIL -0.2736
-4.6541 MAIL='THUNDERBIRD' -0.2736
-4.1770 MAIN -0.2837
-4.6541 MAINPAGE -0.2837
-4.3531 MAJEL -0.2894
-3.8090 MAKE -0.2612
-4.1770 MAKEFILE -0.2736
-4.6541 MALLOC1 -0.2736
-2.9381 MAN -0.2366
-4.1770 MANAGER -0.2559
-4.3531 MANDATORY -0.3004
-4.6541 MANUALLY\N -0.2736
-4.6541 MARKED -0.2736
-4.1770 MARKING -0.3003
-4.3531 MARKING" -0.2736
-4.6541 MASQUERADE -0.2736
-4.6541 MASQUERADE\N -0.2894
-3.8759 MASTER -0.2736
-4.6541 MASTER' -0.2736
-3.6541 MASTER,0 -0.2725
-4.6541 MASTER,1 -0.2736
-4.6541 MATCH -0.3005
-3.5080 MATE -0.2664
-4.6541 MATER -0.2736
-4.0520 MATHS -0.2612
-3.5749 MATLAB -0.2430
-3.8090 MATLAB2 -0.2612
-4.6541 MATLAB_INSTALL -0.2894
-4.3531 MATPLOTLIB -0.2736
-4.6541 MATPLOTLIB\N -0.2736
-3.6541 MATRIXADD1 -0.2837
-3.8090 MATRIXADD2 -0.2837
-4.6541 MATRIXMULTI -0.2736
-4.6541 MATRIXMULTI>RESULTS -0.2837
-4.6541 MATRIXMULTI>RESULTS2 -0.2837
-4.6541 MATRIXMULTI>RESULTS3 -0.2837
-4.6541 MATRIXMULTIPLY -0.2837
-4.3531 MATRIXREAD -0.2837
-4.6541 MATRIXTRANSPOSE -0.2837
-4.6541 MAX -0.2736
-4.3531 MAYBE -0.3010
-4.6541 MAYBE" -0.2736
-4.3531 MD -0.2736
-4.1770 ME -0.3000
-4.6541 MEASURETIME -0.2736
-4.6541 MEASURETIME>TIMING -0.2837
-4.3531 MEDIA -0.2612
-4.6541 MEMBERS -0.3010
-4.6541 MEMFREE -0.2894
-4.6541 MEMINFO -0.2736
-4.6541 MEMINFO\N -0.2736
-4.3531 MEMVISFAILUREEXAMPLE -0.2894
-4.3531 MEMVISTEST -0.2551
-3.9551 MENU -0.2731
-4.6541 MENU" -0.2736
-4.3531 MENUBAR -0.3010
-4.6541 MERGE" -0.2736
-3.4780 MESA -0.2843
-4.6541 MESA0 -0.3010
-4.6541 MESSAGE -0.2736
-4.6541 MESSAGES -0.2736
-4.6541 METHOD" -0.2736
-4.6541 MIGHT -0.3010
-4.6541 MIGRATIONS -0.3004
-4.1770 MINECRAFT -0.2559
-4.1770 MINIMAL -0.2735
-3.2924 MKDIR -0.2354
-4.3531 MLAPP -0.2736
-4.6541 MLAPP" -0.2736
-4.6541 MLINT -0.2736
-3.7510 MMCW -0.2612
-4.6541 MOD -0.2736
-4.3531 MODE -0.2736
-4.1770 MODEL -0.2715
-3.8090 MODULE -0.2843
-4.6541 MODULES -0.3010
-4.6541 MODULE\N -0.2736
-4.0520 MONITOR -0.2559
-4.6541 MONITORS -0.2837
-4.3531 MONO -0.3010
-4.1770 MORE -0.3009
-4.6541 MORE' -0.2736
-4.3531 MOV -0.2736
-4.0520 MOVE -0.3010
-4.1770 MOVED -0.3009
-4.3531 MOVIES -0.2736
-4.3531 MOVIES" -0.2736
-4.6541 MOVIES' -0.2736
-4.6541 MOVING, -0.3010
-4.6541 MPIEXEC -0.2736
-4.3531 MRDIR -0.2844
-4.6541 MUIP -0.2736
-4.0520 MULTIMEDIA -0.2894
-4.3531 MUSESCORE -0.2736
-4.0520 MUTT -0.2736
-3.8759 MV -0.2736
-4.3531 MY -0.2837
-4.6541 MYIP -0.2736
-4.3531 MYLINKEDLIST -0.2736
-4.6541 MYMAC -0.2736
-3.7510 MYSQL -0.2559
-3.9551 M\N -0.3010
-3.7510 M\NCP -0.2830
-3.4500 N -0.2553
-3.8759 NAME -0.2715
-4.6541 NAME=' -0.2736
-4.6541 NAMES" -0.2736
-3.9551 NANO -0.2422
-4.3531 NAT -0.2844
-4.0520 NAUTILUS -0.2559
-4.3531 NEED -0.2998
-4.6541 NEOLAMBDA -0.2736
-4.6541 NEOVIM -0.2736
-3.6127 NET -0.2231
-4.6541 NETFLOW -0.2736
-4.3531 NETSTAT -0.2559
-4.3531 NETWORK -0.2844
-4.6541 NETWORKMINE -0.2837
-3.8759 NETWORKMINER -0.2422
-4.6541 NETWORKMINER_2 -0.2844
-4.0520 NEW -0.3009
-4.6541 NEW" -0.2736
-4.6541 NEWFOLDER -0.2894
-4.6541 NEWQUESTION -0.3010
-4.6541 NEWQUESTIONSET -0.3006
-4.3531 NEWREPO -0.2736
-4.3531 NIMOY -0.2837
-4.3531 NINJA -0.2844
-2.8907 NL -0.2844
-4.1770 NO -0.2844
-4.3531 NON -0.3010
-4.6541 NONEXEC -0.2736
-4.1770 NONREFRESHINGCOUNTER -0.2894
-4.6541 NOT -0.3010
-4.6541 NOTEPAD -0.2736
-4.3531 NOTEPAD++ -0.2736
-4.6541 NOTIFICATION0 -0.2844
-3.8759 NOTIFY -0.2844
-4.6541 NOTLIKETHIS" -0.2736
-4.1770 NOW -0.2736
-4.1770 NOW" -0.2736
-4.6541 NOWTVUNIS -0.2837
-4.1770 NS -0.3010
-4.1770 NUMPY -0.2736
-4.1770 NUMS -0.2837
-4.3531 NUM_RESULTS -0.2837
-4.3531 NVL -0.2736
-4.1770 NX -0.2844
-4.1770 NY -0.3010
-4.1770 NÚMEROS -0.2837
-2.6498 O -0.2707
-3.9551 OBJECT -0.2559
-3.6998 OCAMLFUSE -0.2555
-4.1770 OCI8 -0.2551
-4.6541 OCI8\N -0.2736
-4.3531 OCTOBER\\ -0.3010
-3.8090 OF -0.3003
-4.6541 OH -0.2844
-3.2739 OMF -0.2679
-4.6541 OMP_NUM_THREADS=2 -0.2736
-4.6541 OMP_NUM_THREADS=8 -0.2736
-4.6541 OMP_SCHEDULE -0.2736
-3.6541 ON -0.2997
-4.6541 ONCE -0.3010
-4.6541 OPEN -0.2844
-3.6998 OPENJDK -0.2844
-4.1770 OPENJFX -0.2735
-4.6541 OPENMP -0.2837
-3.8759 OPENMPTEST -0.2549
-3.8090 OPENMPTEST2 -0.2537
-4.1770 OPENMW -0.2559
-4.0520 OPT -0.2894
-4.0520 OPTIONS -0.3005
-4.3531 OPTIONS' -0.2736
-4.6541 OR -0.3010
-3.9551 ORACLE -0.2736
-4.3531 ORACLEPW -0.2736
-4.6541 ORDER -0.3010
-4.6541 ORDER" -0.2736
-4.6541 ORDEREDVALUES -0.2736
-4.3531 ORDERS -0.3010
-3.8090 ORG -0.2837
-3.6541 ORIGIN -0.2611
-4.3531 ORIGIN1 -0.2736
-4.6541 OS -0.2837
-4.3531 OSI8 -0.2837
-4.6541 OTHER -0.3010
-3.8090 OUT -0.2551
-4.0520 OUTOMP -0.2837
-4.6541 OUTPUT" -0.2736
-4.3531 OUTSEQ -0.2837
-4.6541 OWN -0.3008
-4.3531 OYTHON -0.2730
-4.6541 OYTHON3 -0.2736
-3.6541 P -0.2612
-4.3531 P7ZIP -0.2844
-4.6541 P; -0.3010
-4.6541 PACKAGE\N -0.2736
-4.0520 PACTL -0.3009
-3.7510 PAGE -0.2536
-4.1770 PAGE" -0.2736
-4.1770 PAGES -0.2732
-3.9551 PANEL -0.2559
-4.6541 PANEL, -0.3008
-4.6541 PANNEL -0.2736
-4.1770 PANTHEON -0.2844
-4.3531 PAPIRUS -0.2559
-4.6541 PART -0.3010
-4.6541 PART1 -0.2736
-4.6541 PART2 -0.2736
-4.6541 PARTED -0.2736
-4.6541 PARTY -0.2894
-4.6541 PASTA' -0.2736
-4.1770 PATH -0.2736
-4.6541 PATTERNS -0.3010
-4.6541 PATTERNS" -0.2736
-4.3531 PAYMENT -0.3010
-2.8907 PCAP -0.2559
-4.1770 PDML -0.2844
-4.6541 PEAKFILTERS -0.2736
-4.6541 PEAR -0.2736
-4.3531 PECL -0.2983
-3.7510 PEPE -0.2545
-4.6541 PERC -0.2983
-4.6541 PH -0.2736
-2.8412 PHP -0.2224
-4.6541 PHP7 -0.2837
-4.6541 PHPINFO -0.2837
-4.1770 PHPSERVER -0.2736
-4.6541 PHPSERVER\NPHP -0.2844
-4.3531 PHP_CODESNIFFER\N -0.2736
-4.6541 PICTURES -0.2894
-4.6541 PID -0.2736
-3.4236 PING -0.2545
-4.6541 PINGG -0.2736
-4.3531 PINGG="PING -0.3010
-2.8412 PIP -0.2513
-4.6541 PIP2 -0.2837
-3.3117 PIP3 -0.2706
-4.6541 PIP; -0.2998
-4.6541 PIP\N -0.2736
-4.3531 PKG -0.2736
-4.1770 PLANK -0.2844
-4.3531 PLATFORM -0.2736
-4.6541 PLAY -0.3010
-4.6541 PLAYBACK -0.3010
-4.0520 PLEASE -0.3010
-4.6541 PLL -0.2736
-4.1770 PLOT -0.2837
-4.6541 PLULMA -0.2894
-3.1100 PLUMA -0.2705
-4.3531 PNG -0.2736
-3.5749 POCKETSPHINX -0.2559
-4.1770 POCKETSPHINX\N -0.2736
-4.1770 POCKETSPHINX_CONTINUOUS -0.2844
-4.6541 POINT -0.2837
-4.6541 POPULATE -0.3010
-4.6541 POPULATION -0.3010
-4.6541 POPUP -0.2736
-4.3531 POSTROUTING -0.2844
-4.1770 PPA -0.2559
-4.1770 PPA:ALESSANDRO -0.2844
-4.6541 PPA:ATAREAO -0.2894
-4.3531 PPA:CYBRE -0.2894
-4.6541 PPA:HVR -0.2894
-4.6541 PPA:KGILMER -0.2894
-4.6541 PPA:LINUXGNDU -0.2894
-4.6541 PPA:NILARIMOGARD -0.2894
-4.6541 PPA:PAPIRUS -0.2894
-4.6541 PPABASH -0.2736
-4.6541 PPTX -0.3008
-3.9551 PRESETS -0.2422
-4.6541 PRESETTESTER -0.2837
-4.6541 PRETTY -0.2736
-4.6541 PREVENT -0.3010
-3.6998 PRIMEARRAY -0.2548
-4.6541 PRINT(P -0.2837
-3.7510 PROC -0.2612
-4.6541 PROGRAMS -0.2894
-4.6541 PROJECT -0.2894
-4.1770 PROJECTCENTRAL -0.2736
-4.3531 PROJECT_CENTRAL -0.2894
-4.6541 PRONOUNCIATION -0.2844
-4.6541 PROPERLY -0.2736
-4.3531 PROPERTIES -0.2844
-3.5401 PS -0.2735
-4.3531 PUB -0.2736
-4.6541 PUBLIC -0.2894
-4.6541 PUBLIC_HTML -0.2736
-3.6541 PULL -0.2558
-4.6541 PULLALL -0.2736
-4.0520 PULSEAUDIO -0.2559
-3.7510 PUSH -0.2557
-4.3531 PUSHALL -0.2736
-4.3531 PUSH\NEND -0.2736
-4.1770 PW -0.2730
-4.3531 PWD -0.2736
-2.6903 PY -0.2726
-4.6541 PY" -0.2736
-3.4500 PY3 -0.2358
-4.6541 PY3="PYTHON3" -0.2736
-4.6541 PYGAME -0.2844
-3.9551 PYLINT -0.2736
-4.6541 PYLINY -0.2736
-3.1917 PYTHON -0.2417
-4.1770 PYTHON2 -0.2837
-2.5749 PYTHON3 -0.2316
-4.6541 PYTHONLABS -0.2894
-3.6127 Q -0.3009
-3.9551 QUESTION -0.2730
-4.6541 QUESTION" -0.2736
-4.3531 QUESTION1 -0.2736
-3.8759 QUESTION2 -0.2422
-4.6541 QUESTION3 -0.2837
-4.3531 QUESTIONSET -0.2995
-4.6541 QUID -0.2736
-2.9913 QUIZ -0.2405
-4.6541 QUIZ" -0.2736
-4.3531 QUIZMASTER -0.3010
-4.3531 QUIZMASTER" -0.2736
-4.6541 QUIZSDA -0.2736
-4.6541 QUOTA -0.2736
-4.3531 QUOTES -0.3004
-4.6541 QZ -0.3010
-2.7733 R -0.2706
-4.6541 RAGE:\N\N\NEND -0.2736
-4.6541 RAINBOW -0.2736
-4.1770 RAINBOWS -0.2736
-4.0520 RAINBOWSTREAM -0.2736
-4.3531 RAINBOWSTREAM\N -0.2736
-4.6541 RANDARRAY -0.2736
-4.3531 RANDLIST -0.2551
-4.3531 RANDOM -0.2732
-4.3531 RANDOMARRAY -0.2736
-4.6541 RANDR0 -0.2844
-4.6541 RAW -0.2736
-3.5401 RC -0.2715
-4.6541 RDW -0.2736
-4.6541 RDW\N -0.2736
-4.3531 RE -0.2736
-4.6541 READ -0.2736
-4.3531 READFORMATTEDLINE -0.2736
-4.6541 READLINE -0.2736
-4.3531 READLINK -0.3010
-4.3531 README -0.2837
-4.6541 README" -0.2736
-4.6541 README, -0.3009
-4.6541 REAL -0.3007
-4.6541 REAL" -0.2736
-4.6541 REAL? -0.3010
-4.6541 REAL?" -0.2736
-4.0520 REBOOT -0.2736
-4.6541 RECOMMENDS -0.3010
-4.3531 RECONFIGURE -0.3009
-4.6541 RECURRING -0.3009
-4.3531 RECURSE -0.3005
-4.6541 REDDIT -0.2837
-4.3531 REDIRECT -0.3005
-4.6541 REDIRECT' -0.2736
-4.6541 REDIRECTS -0.2837
-4.6541 REDSHFT -0.2736
-4.3531 REDSHIFT -0.2559
-4.6541 REFACTOR -0.2736
-4.3531 REINSTALL -0.2736
-4.1770 RELATED,ESTABLISHED -0.2844
-4.3531 RELEASE -0.2844
-4.1770 RELOAD -0.2733
-3.9551 REMOTE -0.2838
-3.6998 REMOVE -0.2726
-4.1770 REMOVED -0.3009
-4.3531 REN -0.3001
-4.6541 RENAMING -0.3010
-4.6541 REPEAT -0.2736
-4.3531 REPORT -0.2837
-4.6541 REPORT" -0.2736
-3.6127 REPOSITORY -0.2843
-3.2227 REQUEST -0.2829
-4.3531 REQUIRE -0.2844
-4.6541 RES -0.2736
-4.0520 RESET -0.2559
-4.6541 RESTART -0.2736
-4.3531 RESTARTAPACHE -0.2736
-4.6541 RESTARTAPACHE\NSUDO -0.3010
-4.6541 RESTART\N -0.2736
-4.6541 RESTART\NEND -0.2736
-3.8759 RESULT -0.2837
-4.6541 RESULTS -0.2837
-4.6541 RETURN -0.3010
-4.6541 REUPLOADING" -0.2736
-4.1770 REVERB -0.2736
-4.6541 REVERSECHARS -0.2736
-4.6541 REVERTED -0.3010
-4.6541 REVIEW -0.3010
-4.0520 REVIEWS -0.3003
-4.1770 RF -0.3009
-4.6541 RICER\N -0.2736
-2.9381 RM -0.2308
-4.6541 RMF -0.2844
-4.6541 ROLA -0.2837
-4.0520 ROOMS -0.2612
-4.6541 ROOT" -0.2736
-4.6541 ROUT -0.2736
-4.3531 ROUTE -0.2736
-4.6541 ROUTINFO -0.2736
-4.6541 ROUTINFO='ARPING -0.2844
-4.3531 RPM -0.2736
-3.9551 RUBBISH\\ -0.3008
-4.6541 RUN -0.3010
-4.6541 RUN\N -0.2736
-4.6541 RUSH -0.2736
-4.6541 RX -0.2736
-3.2391 S -0.2720
-4.6541 S' -0.2736
-4.6541 SADASD -0.2736
-4.6541 SAFE -0.2736
-4.3531 SAFEFASTERCACHE -0.2894
-4.3531 SAFESLOWCACHE -0.2894
-4.6541 SAFESYNCHRONIZEDSINGLETON -0.2837
-4.3531 SAME -0.3009
-4.6541 SANE -0.2844
-4.6541 SATUS -0.2736
-3.6998 SAVE -0.2709
-4.6541 SAVE() -0.3006
-4.6541 SAVED -0.3005
-4.6541 SAVEQUESTIONSET -0.3010
-4.6541 SAVING -0.3010
-3.5401 SBIN -0.2612
-4.6541 SCALING -0.2844
-4.6541 SCAN -0.2844
-4.6541 SCANF1 -0.2736
-4.6541 SCANNER -0.2736
-4.6541 SCHEME" -0.2736
-4.6541 SCREENS -0.2894
-4.6541 SCRIPT -0.3010
-4.6541 SCRIPT" -0.2736
-4.3531 SCRIPTTEST -0.2837
-4.6541 SD -0.2736
-4.6541 SEACH -0.3010
-4.6541 SEAHORSE -0.2844
-4.6541 SEARCH -0.3010
-4.6541 SEARCH" -0.2736
-4.3531 SED -0.2844
-4.6541 SEETICKETS -0.2837
-4.6541 SELECT -0.2736
-4.6541 SELECTION -0.3010
-4.6541 SELECTION, -0.3010
-4.6541 SELECTOR" -0.2736
-3.8090 SEND -0.2724
-4.6541 SENSOR -0.2736
-4.6541 SENT -0.2736
-4.6541 SEPERATE -0.3009
-4.6541 SEPERATED -0.3010
-4.6541 SERVER" -0.2736
-3.9551 SERVICE -0.3007
-4.1770 SESSION -0.2736
-3.7510 SET -0.3009
-4.0520 SET1 -0.2736
-4.6541 SET2 -0.2736
-4.1770 SET3 -0.2736
-4.6541 SET4 -0.2736
-4.6541 SETASSIGNMENT -0.2837
-4.6541 SETS -0.3010
-4.6541 SETTERS -0.3010
-4.6541 SETTERS, -0.3010
-4.0520 SETTINGS -0.2559
-4.6541 SETUP -0.2837
-3.8759 SETUPTOOLS -0.3010
-3.9551 SFTP -0.2736
-4.6541 SFTPSITE -0.2736
-3.0978 SH -0.2609
-3.7510 SHARE -0.2894
-3.8759 SHELL -0.2559
-4.1770 SHORT -0.3007
-4.3531 SHOW -0.2736
-4.6541 SHOWING -0.3006
-3.8090 SHOWS -0.2842
-4.1770 SHUTDOWN -0.2559
-4.3531 SIERRA -0.2894
-4.6541 SIERRA" -0.2736
-4.3531 SIGNUP -0.2836
-4.6541 SIMPLE -0.3010
-4.3531 SIMPLEPROG -0.2551
-4.6541 SINGLE -0.3010
-4.6541 SINGLE' -0.2736
-4.6541 SITE -0.2894
-4.6541 SITEMPA\\ -0.3010
-4.1770 SITES -0.2844
-4.6541 SITE\N -0.2736
-4.6541 SKELETON -0.3009
-4.6541 SKYPE -0.2736
-4.6541 SL2 -0.2736
-1.5771 SLASH -0.1779
-4.3531 SLAVIC -0.2844
-4.6541 SLEEP -0.3006
-4.3531 SLIDING -0.2837
-4.3531 SLIM -0.2735
-3.9551 SLINGSHOT -0.2844
-4.6541 SLS -0.2736
-3.6541 SNAP -0.2982
-3.8090 SO -0.2551
-3.9551 SOFTWARE -0.2844
-4.1770 SOME -0.3010
-3.0978 SORT -0.2555
-3.9551 SORTING -0.2551
-4.3531 SOUNDS -0.2894
-4.6541 SOURCE -0.3010
-3.8759 SOURCES -0.2837
-4.3531 SO\N -0.2736
-3.4500 SPARSEMATRIX -0.2363
-4.3531 SPEC -0.3010
-4.6541 SPEECH -0.2894
-4.0520 SPEECHRECOGNITION -0.2736
-4.1770 SPEECH_RECOGNITION -0.2736
-4.6541 SPEED -0.2844
-4.6541 SPEIGEL -0.2837
-4.3531 SPOTIFY -0.2736
-3.5401 SQL -0.2734
-4.6541 SQLCL -0.2894
-3.8759 SQLDEVELOPER -0.2422
-4.1770 SQLITE -0.2736
-3.8759 SQLITE3 -0.2730
-3.9551 SQLITEBROWSER -0.2735
-4.6541 SQLITEBROWSER\N -0.2736
-4.3531 SQLLITE -0.2736
-4.3531 SQLPLUS -0.2736
-4.1770 SQL_INSTALL -0.2894
-3.6127 SQUID -0.2612
-4.3531 SQUIZLABS -0.2894
-4.6541 SR, -0.3010
-4.1770 SRC -0.2612
-3.6127 SSET -0.3009
-3.7510 SSH -0.2559
-4.6541 STA -0.2736
-4.3531 STABLE -0.2736
-4.1770 STACK -0.2736
-4.6541 STACKOVERFLOW -0.2837
-4.6541 START -0.2736
-4.0520 STARTED -0.3009
-4.6541 START\N -0.2736
-4.3531 STASH -0.2735
-4.0520 STATE -0.2844
-4.3531 STATE\N -0.2844
-4.6541 STATIC -0.3005
-4.6541 STATISTIC -0.2837
-4.6541 STATISTICS -0.3010
-4.6541 STATMENT -0.3004
-4.6541 STATS -0.3008
-4.6541 STATU -0.2736
-3.8759 STATUS -0.2736
-4.0520 STDIN -0.2736
-3.9551 STEAM -0.2612
-4.6541 STFP -0.2736
-4.6541 STFT -0.2837
-4.6541 STORE -0.2736
-4.3531 STORE\N -0.2736
-4.1770 STRADA -0.2894
-4.6541 STRANGE -0.3010
-4.6541 STRANGE" -0.2736
-4.6541 STRUCTURE -0.3005
-4.3531 STSDC -0.2837
-4.6541 STUDENTEDITOR -0.2736
-3.9551 STUFF -0.2729
-4.1770 STUFF" -0.2736
-4.6541 STUFF, -0.3010
-4.3531 STYLE -0.2837
-4.6541 STYLING" -0.2736
-3.9551 SUBMISSION -0.3009
-4.6541 SUBMISSIONS!" -0.2736
-4.6541 SUBMISSIONS" -0.2736
-2.0542 SUDO -0.2063
-4.1770 SUDOERS -0.2551
-4.6541 SUPERVISOR -0.3010
-4.6541 SUPERVISORS -0.3005
-4.0520 SUPPORT -0.2998
-4.1770 SWIG -0.2711
-4.6541 SYNC!"\NEND -0.2736
-4.0520 SYNCDRIVE -0.2736
-4.3531 SYNCDRIVE\NGRIVE -0.2723
-4.6541 SYNTHESIS -0.2998
-3.8759 SYS -0.2894
-4.1770 SYSCTL -0.2843
-4.6541 SYSTEM -0.2844
-4.3531 SYSTEMCTL -0.3009
-2.6903 T -0.2550
-4.6541 TABLE" -0.2736
-4.3531 TAC -0.3010
-3.8090 TAIL -0.2844
-4.6541 TAIL\N -0.2736
-4.0520 TASK -0.3000
-4.0520 TASK3 -0.2736
-4.3531 TASKEL -0.2707
-4.3531 TASKSEL -0.2707
-4.6541 TASKSEL\N -0.2736
-2.9217 TCP -0.2837
-3.9551 TCPDUMP -0.2844
-3.8759 TEAM -0.2844
-4.3531 TELNET -0.3007
-4.3531 TEMPCONVERT -0.2551
-4.6541 TEMPOARY -0.3010
-4.6541 TERMINAL\N -0.2736
-3.0743 TEST -0.2421
-4.3531 TEST2 -0.2837
-4.3531 TESTING -0.3004
-4.6541 TESTING" -0.2736
-4.3531 TESTQESTIONS -0.2551
-4.6541 TESTQUESTION -0.2736
-3.9551 TESTQUESTIONS -0.2551
-4.6541 TESTQUESTIONSCD -0.2736
-4.6541 TESTTOURN1 -0.2837
-4.3531 TEST_DBG -0.2837
-3.6541 TEXT -0.2612
-4.6541 TFW -0.3010
-4.3531 THAT -0.3010
-3.3117 THE -0.2730
-4.6541 THEM -0.3005
-4.6541 THEM" -0.2736
-3.5749 THEME -0.2734
-4.0520 THEMES -0.2612
-4.1770 THINKPYTHON -0.2894
-4.6541 THIRD -0.2844
-4.6541 THIS -0.3010
-4.6541 THREADLOCALDEMO -0.2736
-4.1770 THREADLOCALEXAMPLE -0.2894
-4.3531 THUNDERBIRD -0.2736
-4.6541 TID -0.2736
-3.9551 TIDE -0.2551
-4.1770 TIDEAPP -0.2894
-4.3531 TIDER -0.2612
-4.1770 TILDA -0.2736
-4.0520 TIME -0.2548
-4.6541 TIME' -0.2736
-4.3531 TIMES -0.3004
-4.1770 TK -0.2736
-4.1770 TKINTER -0.2736
-4.0520 TLP -0.2844
-4.6541 TMP -0.2736
-4.6541 TMP; -0.2972
-2.8907 TO -0.2992
-4.6541 TOGGLE -0.2736
-4.6541 TOILET -0.2736
-4.6541 TOOL -0.2736
-4.3531 TOOLS -0.2736
-3.3117 TOUCH -0.2699
-4.3531 TOUCHPAD -0.2844
-4.1770 TO\\ -0.3010
-3.6998 TRACEPATH -0.2555
-4.6541 TRACEROUT -0.3010
-3.5080 TRACEROUTE -0.2551
-4.6541 TRACEROUTR -0.3010
-4.0520 TRASH -0.2612
-4.3531 TRASH: -0.2894
-4.1770 TRUE -0.2736
-4.6541 TRUE: -0.3010
-4.3531 TRUE:\NBORED\NEND -0.2736
-4.3531 TRUE\N -0.2837
-4.6541 TRUE\NBORED\NEND -0.2736
-4.3531 TRUE\NSYNCDRIVE -0.3010
-4.6541 TSD -0.2736
-2.7848 TSHARK -0.2365
-4.6541 TUPAN -0.2736
-4.6541 TURBINE -0.2844
-4.3531 TURTLE -0.2731
-3.8759 TUX -0.2559
-4.6541 TWEAK -0.2736
-3.6541 TWEAKS -0.2736
-4.6541 TWEAKS, -0.3010
-4.6541 TWIDGE -0.2736
-4.6541 TWITTER -0.2837
-4.6541 TX -0.2736
-2.4637 TXT -0.2728
-4.3531 TXT" -0.2736
-4.6541 TYPING -0.3005
-4.3531 TYPO" -0.2736
-4.6541 TYPO' -0.2736
-3.4236 U -0.2712
-4.3531 U+W -0.3009
-4.3531 UBUNTU -0.2844
-2.9728 UK -0.2416
-4.3531 UK" -0.2736
-4.6541 UNAME -0.2844
-4.3531 UNI -0.2736
-3.9551 UNINSTALL -0.3003
-4.3531 UNINTERRUPTABLECOUNTER -0.2894
-4.6541 UNITE -0.2844
-3.5749 UNIVERSAL -0.2837
-4.6541 UNI\NCOMMAND -0.3010
-4.6541 UNI\NSSH -0.2844
-4.6541 UNLOAD -0.2844
-4.0520 UNMUTE -0.2736
-4.3531 UNRAR -0.2736
-4.3531 UNSAFECACHE -0.2612
-4.6541 UNSAFECACHEPSEUDOSERVLET -0.2736
-4.6541 UNSAFECACHEPSEUDOSERVLETDEMO -0.2736
-4.6541 UNSET -0.3010
-4.6541 UNSETENV -0.3010
-4.6541 UNUSED -0.3008
-4.6541 UNZIP -0.3010
-4.1770 UP -0.2736
-4.6541 UP" -0.2736
-3.3988 UPDATE -0.2543
-4.3531 UPDATE; -0.2959
-4.6541 UPDATED -0.3010
-4.3531 UPDATE\N -0.2736
-4.6541 UPDATE\NSUDO -0.2985
-4.3531 UPGRADABLE -0.2736
-3.2561 UPGRADE -0.2727
-4.6541 UPGRADE; -0.2972
-4.6541 UPGRADE\N -0.2736
-4.0520 UPLOAD -0.2735
-4.6541 UPLOADED -0.3010
-4.3531 UPLOADING -0.2736
-3.5080 URI -0.2829
-4.3531 URL -0.3010
-3.8759 US -0.2422
-4.3531 USE -0.3010
-3.8759 USER -0.2545
-4.6541 USERFUN1 -0.2736
-4.3531 USERNAME -0.2993
-4.6541 USERS -0.3005
-4.3531 USES -0.3010
-3.3753 USR -0.2894
-4.6541 UTIL0 -0.2844
-4.6541 UTILS -0.2736
-3.7510 V -0.2733
-4.6541 V9ET4 -0.2844
-4.6541 VADER -0.2736
-4.6541 VALID -0.3010
-3.5080 VAR -0.2612
-4.6541 VECTORMULTIPLY -0.2837
-4.0520 VERSION -0.2736
-4.6541 VERSION" -0.2736
-4.6541 VERSOIN -0.2736
-4.3531 VGRIVE -0.2894
-4.6541 VI -0.2736
-4.3531 VIDEOS -0.2894
-4.0520 VIEW -0.3003
-4.6541 VIEWING -0.3010
-4.6541 VIEWS -0.3004
-4.1770 VIM -0.2559
-4.6541 VIM\N -0.2736
-4.1770 VIRTENV -0.2736
-4.3531 VIRTUAL -0.3010
-4.6541 VISIBILITY" -0.2736
-4.3531 VISOR -0.2837
-4.6541 VISUAL_PARADIGM -0.2894
-4.6541 VIVALDI -0.2736
-4.0520 VLC -0.2734
-4.1770 VMWARE -0.2612
-4.0520 VP -0.2837
-4.0520 VPNC -0.2559
-4.1770 VSCODE -0.2733
-4.6541 VV -0.2736
-3.6998 W -0.2558
-4.6541 W2 -0.2736
-4.6541 WANT -0.3010
-4.6541 WANT" -0.2736
-4.6541 WANT' -0.2736
-4.6541 WARNING\N -0.2736
-4.1770 WATCH -0.2559
-3.2924 WAV -0.2722
-3.6998 WC -0.2559
-4.6541 WCONFIG -0.2736
-4.3531 WEB -0.2837
-4.6541 WEBSITES -0.2837
-4.3531 WEBSTUFF -0.2612
-4.6541 WEBUPD8\N -0.2736
-4.6541 WEIRDNESS -0.2736
-4.6541 WEIRDPTR -0.2736
-4.6541 WELCOME -0.2736
-4.6541 WELL -0.3010
-4.1770 WGET -0.3006
-4.1770 WHAT -0.3003
-3.9551 WHATSAPP -0.2366
-4.3531 WHATSAPP\NCHROMIUM -0.2844
-4.3531 WHEEL -0.2736
-4.3531 WHEEL\N -0.2736
-4.3531 WHEEL\NPIP -0.2983
-4.6541 WHEEL\NPIP3 -0.2983
-4.6541 WHEEL\NPYTHON3 -0.2844
-4.6541 WHEEL_FILENAME -0.2736
-4.6541 WHELL -0.2736
-4.6541 WHEN -0.3009
-3.3117 WHEREIS -0.2583
-4.6541 WHERIS -0.3009
-4.0520 WHICH -0.2736
-3.6998 WHILE -0.3009
-4.3531 WHOAMI -0.2736
-4.6541 WHOLE -0.3010
-4.3531 WI -0.2736
-4.6541 WIDEDIVE -0.2736
-4.6541 WIDEVINE -0.2736
-4.6541 WIFI -0.2736
-2.6498 WILDCARD -0.2204
-4.6541 WILDCARD" -0.2736
-4.6541 WILDCARD\N -0.2736
-4.3531 WILDCARD\NGIT -0.3000
-4.6541 WILL -0.3010
-4.6541 WIND -0.2844
-4.6541 WINDOWS -0.2894
-4.6541 WINDOWS\\ -0.3010
-4.1770 WINE -0.2559
-4.3531 WINEHQ -0.2664
-3.7510 WINGPANEL -0.2558
-4.3531 WINGPANEL; -0.3010
-4.6541 WINGPANEL\N -0.2736
-4.3531 WINTERMUTEHOME -0.2736
-3.6998 WIRESHARK -0.2559
-4.3531 WITH -0.3010
-4.6541 WIZARD -0.2736
-4.3531 WLAN -0.2559
-4.1770 WLP3S0 -0.2844
-4.3531 WM -0.2736
-4.6541 WMCTRL -0.2736
-3.8090 WMG -0.2736
-4.3531 WNCK -0.2736
-4.6541 WONT -0.3010
-4.1770 WORK -0.3009
-4.3531 WORKING -0.3009
-4.6541 WORKING! -0.2736
-4.6541 WORKSPACES -0.2736
-4.3531 WORLD -0.2723
-4.1770 WORLD!" -0.2736
-4.6541 WRONG -0.3010
-4.6541 WUIZ -0.2736
-3.0859 WWW -0.2536
-4.6541 WWWW -0.2837
-4.6541 X -0.2736
-4.0520 X11 -0.2723
-4.6541 X64 -0.2894
-4.6541 X64_BIN -0.2837
-4.3531 XAMP -0.2736
-4.6541 XAMPP -0.2844
-3.8759 XBACKLIGHT -0.2555
-4.6541 XBRIGHTNESS -0.3006
-4.1770 XDOTOOL -0.2736
-4.3531 XEV -0.2736
-4.6541 XINERAMA0 -0.2844
-4.6541 XKB -0.2844
-4.6541 XLINT:DEPRECATION -0.2736
-4.6541 XML -0.2736
-4.0520 XORG -0.2664
-4.6541 XS -0.2736
-4.6541 XUTILS -0.2844
-4.6541 XX -0.2736
-2.7676 Y -0.2550
-3.6541 YEAR -0.2878
-4.6541 YEAR1 -0.2736
-4.3531 YEAR2 -0.2612
-4.6541 YEAR3 -0.2894
-4.6541 YEARLS -0.2736
-3.0630 YEAR\\ -0.3000
-4.6541 YEAR\\2 -0.2736
-4.0520 YES -0.2559
-4.1770 YETZI -0.2837
-4.1770 YETZI2 -0.2837
-4.6541 YOSHIMI -0.2736
-4.6541 YOUTUBE -0.2837
-4.6541 YUM -0.3010
-4.6541 ZESTY -0.2894
-4.6541 ZIP -0.2837
-4.6541 ZSH -0.2736
-3.9551 ZYNADDSUBFX -0.2723
-4.1770 [ -0.3002
-4.3531 [A -0.2736
-3.6998 \N -0.2727
-4.3531 \NBORED\NEND -0.2736
-4.6541 \ND\N" -0.2736
-3.8759 \NECHO -0.3009
-3.5401 \NEND -0.2736
-4.3531 \NSLEEP -0.3010
-4.6541 \NSUDO -0.3009
-4.6541 \N\N -0.2736
-4.3531 \N\NEND -0.2736
-4.6541 \\(0C4405FD\\) -0.2837
-4.3531 \\2 -0.2894
-4.6541 \\A -0.2736
-4.6541 \\ANDZ -0.2736
-4.1770 ]\N -0.3010
-4.6541 __FILE__))" -0.2736
-4.6541 `SUDO -0.2985
-3.8759 {$ARGV} -0.2836
-4.6541 {$ARGV}; -0.2837
-4.1770 {$ARGV};\NEVAL -0.2837
-4.3531 {$ARGV}\NEND -0.2736
-4.1770 {$ARGV}\NEND\N -0.2736
-4.6541 {PRINT -0.3010
-3.2227 ~ -0.2881
-4.6541 “ -0.2998
-4.6541 “HTTP -0.2837
-4.6541 “UTM” -0.3010

\2-grams:
-0.3010 !! </s> -0.3010
-1.3375 " " -0.1876
-1.9395 " "\\ 0.0000
-1.6385 " + 0.0000
-1.0944 " </s> -0.3010
-1.4624 " >QUESTION3 0.0000
-0.7091 " AND -0.2252
-1.7634 " DASH -0.2923
-1.0364 " SLASH -0.2955
-0.3010 "" </s> -0.3010
-0.3010 "$ARGV"\NGIT PUSH\NEND 0.0000
-0.3010 "%U" </s> -0.3010
-0.3010 "' </s> -0.3010
-0.3010 "ADD WILDCARD" 0.0000
-1.9138 "ADDED (HOPEFULLY) 0.0000
-1.9138 "ADDED A -0.2968
-1.9138 "ADDED ADD -0.2872
-1.9138 "ADDED CART -0.2430
-1.9138 "ADDED COMMENTS -0.1761
-1.9138 "ADDED COOKIE -0.2940
-1.9138 "ADDED DISQUS" 0.0000
-1.9138 "ADDED EDITQUESTION 0.0000
-1.9138 "ADDED FILE -0.2771
-1.9138 "ADDED FOOTER 0.0000
-1.9138 "ADDED FUNCTIONS -0.2957
-1.9138 "ADDED GRANULAR 0.0000
-1.6128 "ADDED IMGUR 0.0000
-1.9138 "ADDED LINK -0.2632
-1.6128 "ADDED LOGIN -0.2430
-1.9138 "ADDED LOOP -0.2218
-1.9138 "ADDED NEW -0.2430
-1.9138 "ADDED NEWQUESTION 0.0000
-1.9138 "ADDED NEWQUESTIONSET 0.0000
-1.9138 "ADDED ORDER 0.0000
-1.9138 "ADDED ORDERS 0.0000
-1.9138 "ADDED PAGE -0.2730
-1.9138 "ADDED QUIZMASTER -0.1761
-1.9138 "ADDED RETURN 0.0000
-1.9138 "ADDED REVIEW 0.0000
-1.9138 "ADDED SAVE -0.2762
-1.9138 "ADDED SAVEQUESTIONSET 0.0000
-1.9138 "ADDED SEARCH 0.0000
-1.9138 "ADDED SEARCH" 0.0000
-1.9138 "ADDED SEND -0.2688
-1.9138 "ADDED SETTERS 0.0000
-1.9138 "ADDED SETTERS, 0.0000
-1.6128 "ADDED SPEC 0.0000
-1.9138 "ADDED STATIC 0.0000
-1.9138 "ADDED STATS 0.0000
-1.9138 "ADDED TEST -0.2953
-1.9138 "ADDED TESTING -0.1761
-1.9138 "ADDED TO -0.2973
-0.3010 "ATTEPT TO -0.2897
-0.3010 "CH DASH -0.3008
-1.0792 "CHANGED CALENDAR -0.1761
-1.0792 "CHANGED CART" 0.0000
-1.0792 "CHANGED CHAT -0.2632
-1.0792 "CHANGED DBCONNECT" 0.0000
-1.0792 "CHANGED HEADER -0.1761
-1.0792 "CHANGED LOGO, 0.0000
-0.3010 "CHANGES" </s> -0.3010
-0.6021 "CLEANED UP -0.2218
-0.6021 "CLEANED UP" 0.0000
-0.3010 "CLEANUP" </s> -0.3010
-0.3010 "CLOSEG@CARDIFF DOT -0.2955
-0.3010 "COMMENTED OUT -0.2688
-0.3010 "COMMIT" </s> -0.3010
-0.3010 "DEFAULT DOT -0.3008
-0.3010 "DELETED MIGRATIONS 0.0000
-0.3010 "DEPOSITFILES DOT -0.2978
-0.3010 "DEPOSITFILES" " -0.2066
-0.3010 "DID STUFF -0.2041
-0.3010 "DONE SYNC!"\NEND 0.0000
-0.3010 "ELEMENTARY DARK" 0.0000
-0.3010 "EQUIL DOT -0.3009
-0.3010 "FINAL COMMIT" 0.0000
-0.3010 "FIRST COMPLETE -0.1761
-0.3010 "FIX NEW -0.2430
-0.3010 "FIX" </s> -0.3010
-1.5563 "FIXED ADD -0.2872
-1.5563 "FIXED BASE 0.0000
-1.5563 "FIXED BUG 0.0000
-1.5563 "FIXED CART?" 0.0000
-1.5563 "FIXED CHECKOUT 0.0000
-1.5563 "FIXED FILE -0.2932
-1.5563 "FIXED FILESELECTOR() 0.0000
-1.5563 "FIXED GENRE 0.0000
-1.5563 "FIXED GOOGLE -0.2944
-1.5563 "FIXED IMAGES, 0.0000
-1.5563 "FIXED INDENT 0.0000
-1.5563 "FIXED LOGO -0.1761
-1.5563 "FIXED REDIRECTS 0.0000
-1.5563 "FIXED SOME -0.2218
-1.2553 "FIXED TYPO" 0.0000
-1.2553 "FIXED URL 0.0000
-0.3010 "FIXED" </s> -0.3010
-0.3010 "FIXES" </s> -0.3010
-0.3010 "FIXEWD" </s> -0.3010
-0.3010 "FIXEWWD PAGES -0.2218
-0.3010 "FULLY IMPLEMENTED -0.2730
-0.3010 "GEORGE CLOSE" 0.0000
-0.3010 "GOOGLE" " -0.2066
-0.3010 "HASKELL SLASH -0.3008
-0.3010 "HELLO WORLD!" 0.0000
-0.3010 "HELLO!" </s> -0.3010
-0.3010 "HELLO" </s> -0.3010
-0.3010 "HTTP DOT -0.2850
-0.3010 "I LIKE 0.0000
-1.0000 "IMPLEMENTED DOWNLOADING -0.2430
-1.0000 "IMPLEMENTED LOGIN, -0.1249
-1.0000 "IMPLEMENTED RENAMING 0.0000
-1.0000 "IMPLEMENTED SIMPLE 0.0000
-1.0000 "IMPLEMENTED UPLOADING -0.1761
-0.3010 "IMPORT SPEECH_RECOGNITION -0.2218
-0.3010 "IMPROVED PLAY 0.0000
-0.3010 "INITAL COMMIT" 0.0000
-0.3010 "LA DASH -0.3009
-0.3010 "LINK TO -0.2973
-0.3010 "MADE GENERATE 0.0000
-0.3010 "MAYBE WONT 0.0000
-0.3010 "MAYBE?" </s> -0.3010
-0.3010 "MERGE" </s> -0.3010
-0.3010 "MINOR CLEANUP 0.0000
-0.3010 "MODIFYED DB" 0.0000
-0.3010 "MORE MOVING, 0.0000
-1.0792 "MOVED A -0.2968
-1.0792 "MOVED ALL -0.2852
-1.0792 "MOVED FILES" 0.0000
-1.0792 "MOVED LOGO? 0.0000
-1.0792 "MOVED STUFF -0.2553
-1.0792 "MOVED USER -0.1761
-0.3010 "MURGE" </s> -0.3010
-0.3010 "NETWORKMINER DOT -0.3009
-0.3010 "NO NEED -0.1761
-0.3010 "PLAYONLINUX'S VIRTUAL 0.0000
-0.3010 "PLEAS EPLEASE 0.0000
-0.3010 "PROGRAM WILL 0.0000
-0.3010 "PULLS AND -0.2993
-0.3010 "READLINK LINK\\ 0.0000
-0.3010 "REFACTOR" </s> -0.3010
-1.5051 "REMOVED AUDIO" 0.0000
-1.2041 "REMOVED CALLS 0.0000
-1.5051 "REMOVED COMMENTS -0.1761
-1.5051 "REMOVED COPY -0.2218
-1.5051 "REMOVED DB -0.2840
-1.5051 "REMOVED DB" 0.0000
-1.5051 "REMOVED DEBUG 0.0000
-1.5051 "REMOVED DEBUG" 0.0000
-1.5051 "REMOVED DISQUS" 0.0000
-1.2041 "REMOVED FOR -0.2945
-1.5051 "REMOVED REVIEWS -0.2430
-1.5051 "REMOVED SEACH 0.0000
-1.5051 "REMOVED STUFF -0.2553
-1.5051 "REMOVED STUFF" 0.0000
-0.3010 "REVERTED CARTS" 0.0000
-0.3010 "SADASD" </s> -0.3010
-0.3010 "SMALL FIXES" 0.0000
-0.7782 "SOME CHANGES -0.1761
-0.7782 "SOME TESTING" 0.0000
-0.7782 "SOME TWEAKS, 0.0000
-0.3010 "SS" </s> -0.3010
-0.3010 "STAGE MERGE" 0.0000
-0.3010 "STARTED IMPLEMENTING -0.1761
-0.3010 "STASH" </s> -0.3010
-0.3010 "STUFF" </s> -0.3010
-0.3010 "THE ARGUMENT 0.0000
-0.3010 "THIS IS -0.2825
-0.3010 "THISONEGOESTOELEVEN DOT -0.3008
-0.3010 "TRYING SINGLE 0.0000
-0.3010 "TURN AND -0.2976
-0.3010 "TWEAKED LOGIN -0.2730
-0.3010 "UNCONFIRMED 108163 0.0000
-0.3010 "UPDATE" </s> -0.3010
-1.1461 "UPDATED ADD -0.2942
-1.1461 "UPDATED GROUP -0.2954
-1.1461 "UPDATED LOADMARKING 0.0000
-1.1461 "UPDATED README" 0.0000
-1.1461 "UPDATED README, 0.0000
-1.1461 "UPDATED SETASSIGNMENT 0.0000
-1.1461 "UPDATED UPLOAD -0.2430
-0.3010 "UTM" " -0.1287
-0.3010 "UTMA" " -0.1609
-0.3010 "WOOO I -0.2981
-0.7782 "YEAR 1" 0.0000
-0.4771 "YEAR 2" 0.0000
-0.6021 "\\ "`ECHO 0.0000
-0.6021 "\\ "`LS`" 0.0000
-0.3010 "__UTM " -0.2806
-0.3010 "__UTM" " -0.2480
-0.3010 "`ECHO LS`" 0.0000
-0.3010 "`LS`" </s> -0.3010
-1.0792 # </s> -0.3010
-1.0792 # INSTALLS 0.0000
-1.0792 # LOADS 0.0000
-0.6021 # SHOWS -0.1963
-0.3010 #TO BE -0.2430
-1.0792 $ ECHO -0.2881
-1.0792 $ OMF -0.2533
-1.0792 $ PHP -0.2440
-0.6021 $ SUDO -0.1560
-0.3010 $(IP ROUTE -0.1761
-0.3010 $2}' SLASH -0.2998
-0.3010 $3}')' </s> -0.3010
-0.3010 $5, $3}')' 0.0000
-0.6021 $ARGV & -0.0872
-0.6021 $ARGV DOT -0.2935
-0.3010 $ARGV\NEND </s> -0.3010
-0.3010 $FORTUNE </s> -0.3010
-1.3554 $I $I -0.1070
-2.1335 $I $I\NEND 0.0000
-1.8325 $I = -0.2499
-2.1335 $I BASENAME( 0.0000
-1.5315 $I BASENAME($I -0.0792
-1.1335 $I DASH -0.2992
-0.5425 $I DOT -0.2691
-1.8325 $I IN -0.1181
-1.6564 $I SLASH -0.3005
-0.3010 $I) $I -0.1543
-0.3010 $I\NEND </s> -0.3010
-0.3010 $I\NEND\NEND\N </s> -0.3010
-0.3010 $OUT\NEND </s> -0.3010
-0.3010 $PATH </s> -0.3010
-1.0792 $USER </s> -0.3010
-1.0792 $USER ICONS -0.2041
-1.0792 $USER PHP -0.2590
-1.0792 $USER THEMES -0.0969
-1.0792 $USER WIRESHARK -0.0458
-1.0792 $USER ~ -0.0600
-0.3010 %ARGV\NGIT PUSH\NEND 0.0000
-0.3010 %U </s> -0.3010
-0.9542 & </s> -0.3010
-0.4102 & DOT -0.2832
-0.3554 && HTTP 0.0000
-1.5315 && JAVA -0.2995
-1.5315 && JAVA" 0.0000
-0.3010 &\N </s> -0.3010
-0.6021 ' </s> -0.3010
-0.6021 ' SLASH -0.3008
-0.3010 '08_LOS NÚMEROS -0.1249
-0.3010 '10' </s> -0.3010
-1.2041 'ADDED <P>' 0.0000
-1.2041 'ADDED ACCOUNT -0.2218
-1.2041 'ADDED ACCOUNT' 0.0000
-1.2041 'ADDED BUTTONS' 0.0000
-1.2041 'ADDED CALL 0.0000
-1.2041 'ADDED COPY -0.2218
-1.2041 'ADDED NAME=' 0.0000
-1.2041 'ADDED S' 0.0000
-0.3010 'ARP' </s> -0.3010
-0.3010 'CHANGE TO -0.2973
-0.3010 'CHANGED DOUBLE 0.0000
-0.3010 'COMMIT DASH -0.3009
-0.3010 'FIXED TYPO' 0.0000
-0.3010 'GOOD TIMES 0.0000
-0.3010 'HTTP DOT -0.2977
-0.3010 'LINK TO -0.2973
-0.6021 'MOVED BUTTONS 0.0000
-0.9031 'MOVED BUTTONS' 0.0000
-0.9031 'MOVED LOGOUT -0.1249
-0.3010 'PLEASE PLEASE -0.2430
-0.3010 'PLS THIS 0.0000
-0.3010 'PLS' </s> -0.3010
-0.3010 'PUSH ORIGIN -0.2788
-0.3010 'REMOVED LOGOUT -0.1249
-0.3010 'S SLASH -0.2977
-0.3010 'TEST CONTENT' 0.0000
-0.3010 'TO LONG 0.0000
-0.3010 'UTM' " -0.2066
-0.3010 '{PRINT $5, 0.0000
-0.3010 (1) DOT -0.3008
-0.3291 (BASENAME $I -0.1543
-1.5051 (BASENAME $I) 0.0000
-0.3010 (HOPEFULLY) TEMPOARY 0.0000
-0.3010 + CAT($ARGV)\NECHO 0.0000
-0.9031 +SHORT " -0.2646
-0.6021 +SHORT CARDIFF 0.0000
-0.9031 +SHORT STACKOVERFLOW 0.0000
-0.3010 +SHORT" </s> -0.3010
-0.3010 +X VP 0.0000
-0.3010 , DOT -0.2986
-0.3010 ,, </s> -0.3010
-1.7782 0 $ARGV -0.1761
-1.6021 0 'ARP' 0.0000
-1.7782 0 </s> -0.3010
-2.0792 0 AND -0.2993
-1.6021 0 DASH -0.2921
-0.4771 0 DOT -0.2774
-1.3010 0 SLASH -0.2518
-2.0792 0 {$ARGV} -0.2632
-2.0792 0 {$ARGV}; 0.0000
-2.0792 0 {$ARGV};\NEVAL 0.0000
-0.3010 000 DASH -0.3009
-0.3010 0000001 </s> -0.3010
-0.3010 0110000104EA4B1A SLASH -0.2538
-0.3010 06_LOS\\ NÚMEROS -0.2218
-0.3010 0` DOT -0.2986
-0.7501 1 </s> -0.3010
-1.9542 1 > -0.2762
-1.6532 1 DASH -0.2930
-0.6118 1 DOT -0.2854
-1.6532 1 LIBCLNTSH 0.0000
-1.6532 1 SLASH -0.3005
-0.3010 1" </s> -0.3010
-0.9031 1+ </s> -0.3010
-0.4260 1+ UNMUTE 0.0000
-0.9031 10 </s> -0.3010
-1.6021 10 BLUE 0.0000
-0.6021 10 DOT -0.2902
-1.6021 10 LUE 0.0000
-1.1249 10 THE -0.2016
-0.6021 100 </s> -0.3010
-0.6021 100 THE -0.2016
-0.3010 1000 DASH -0.3003
-0.3010 106" </s> -0.3010
-0.3010 108163 DOT -0.3008
-0.3010 10\\ X64 0.0000
-0.3010 11 DOT -0.2923
-0.3010 111 </s> -0.3010
-0.3010 1111 </s> -0.3010
-0.3010 1111100000 </s> -0.3010
-0.3010 11188 </s> -0.3010
-0.9183 12 </s> -0.3010
-0.8603 12 DOT -0.2906
-0.6173 12 SLASH -0.2510
-0.3010 126 DOT -0.3009
-0.3010 128 SLASH -0.2538
-0.3010 12\NEND </s> -0.3010
-0.3010 12\NRESTARTAPACHE \NEND 0.0000
-0.3010 12\NRESTARTAPACHE\NEND </s> -0.3010
-0.3010 13 DOT -0.2957
-0.3010 13421 </s> -0.3010
-0.3010 14 SLASH -0.3005
-0.3010 14_HOMEWORK DOT -0.3009
-0.3010 1548201941818 DOT -0.2987
-0.3010 1550748745441 DOT -0.2987
-0.3010 168 DOT -0.2977
-0.3010 17 </s> -0.3010
-0.3010 173 DOT -0.3008
-0.3010 1766 DASH -0.3009
-0.3010 18 </s> -0.3010
-0.3010 192 DOT -0.3005
-0.3010 194 DOT -0.3008
-0.3010 1UBUNTU1\N </s> -0.3010
-1.0731 2 </s> -0.3010
-2.1523 2 COMPLETE -0.1761
-1.3072 2 DASH -0.2950
-0.9762 2 DOT -0.2847
-2.1523 2 HTTP 0.0000
-2.1523 2 IP -0.1761
-0.6208 2 SLASH -0.2415
-0.4771 2" </s> -0.3010
-0.7782 2" SLASH -0.2538
-0.3010 2+2 </s> -0.3010
-0.6021 20 </s> -0.3010
-0.9031 20 DOT -0.2986
-0.9031 20 THE -0.2016
-0.3010 2000 </s> -0.3010
-0.3010 2016 DASH -0.3003
-0.3010 20160303 SLASH -0.2534
-0.3010 2018 DASH -0.2973
-0.3010 2019 DOT -0.3008
-0.3010 208 DOT -0.3009
-0.7782 22 </s> -0.3010
-0.4771 22 GHC -0.1461
-0.7782 25 </s> -0.3010
-0.4771 25 THE -0.2016
-0.3010 2:8 DOT -0.2957
-0.3010 2? </s> -0.3010
-0.3010 2LS </s> -0.3010
-0.3010 2_LINUX DASH -0.3009
-1.2041 3 </s> -0.3010
-0.5757 3 DOT -0.2872
-0.7648 3 SLASH -0.2512
-0.3010 300 SYNCDRIVE 0.0000
-0.3010 300\NEND </s> -0.3010
-0.3010 32X32 SLASH -0.2538
-0.3010 340 DOT -0.3009
-1.1761 4 </s> -0.3010
-0.5229 4 DOT -0.2863
-1.4771 4 SLASH -0.2538
-1.0000 4 WWW -0.1130
-0.9542 5 </s> -0.3010
-0.9542 5 DASH -0.2927
-1.2553 5 DOCSEARCH -0.0378
-1.0792 5 DOT -0.2986
-1.5563 5 LIBGLEW1 0.0000
-1.0792 5 SLASH -0.2538
-1.5563 5 THE -0.2016
-0.3010 500\NEND </s> -0.3010
-0.3010 5031 DOT -0.2997
-0.3010 52 DOT -0.3009
-0.9700 6 DASH -0.2836
-0.4058 6 DOT -0.2892
-0.3010 67 DOT -0.3008
-0.3010 6817 DOT -0.3009
-1.0212 7 </s> -0.3010
-0.4771 7 DOT -0.2932
-1.3222 7 INSTALL -0.2987
-1.6232 7 PIP -0.1216
-0.3010 73 </s> -0.3010
-0.9031 755 FILES -0.1597
-0.6021 755 GROUP -0.1249
-0.9031 755 XAMPP 0.0000
-0.7782 777 APACHE2 -0.2467
-0.4771 777 RC -0.0322
-0.3010 778507 </s> -0.3010
-1.6628 8 </s> -0.3010
-0.7085 8 DASH -0.2996
-0.5488 8 DOT -0.2897
-0.3010 80 </s> -0.3010
-1.4150 9 9870 0.0000
-1.4150 9 </s> -0.3010
-1.4150 9 APT -0.2985
-0.5119 9 DOT -0.2982
-1.4150 9 JAVA -0.2383
-1.4150 9 PHP -0.2165
-0.3010 93 DOT -0.2998
-0.3010 94 DOT -0.3009
-0.3010 9870 </s> -0.3010
-0.3010 :" </s> -0.3010
-0.3010 :(" </s> -0.3010
-0.3010 :WARN\N </s> -0.3010
-0.3010 :X </s> -0.3010
-0.3010 ;L </s> -0.3010
-0.3010 ;S </s> -0.3010
-0.3010 <P>' </s> -0.3010
-3.7412 <s> !! 0.0000
-2.9630 <s> $ 0.0000
-3.7412 <s> $I -0.2946
-3.7412 <s> $PATH 0.0000
-3.7412 <s> , 0.0000
-3.7412 <s> 0 -0.1249
-3.7412 <s> 0000001 0.0000
-3.7412 <s> 1 -0.2160
-3.7412 <s> 2+2 0.0000
-3.7412 <s> :X 0.0000
-3.7412 <s> ;L 0.0000
-3.7412 <s> ;S 0.0000
-3.7412 <s> A -0.2319
-3.7412 <s> A2DISITE 0.0000
-3.7412 <s> A2DISSITE -0.0969
-3.0422 <s> A2ENSITE 0.0000
-3.7412 <s> A;B;C 0.0000
-3.7412 <s> AL 0.0000
-3.2640 <s> ALERT -0.0792
-2.5651 <s> ALIAS -0.0669
-3.7412 <s> ALIS 0.0000
-3.4401 <s> ALMIXER 0.0000
-3.7412 <s> ALSAINFO 0.0000
-3.2640 <s> ALSAMIXER 0.0000
-2.7869 <s> AMIXER 0.0000
-3.7412 <s> ANEALING 0.0000
-3.2640 <s> ANT -0.0669
-3.7412 <s> APACHE2 -0.2814
-3.4401 <s> APACHE2CTL 0.0000
-3.2640 <s> APACHECTL 0.0000
-3.7412 <s> APACHELOG 0.0000
-2.8381 <s> APT -0.0669
-3.7412 <s> APTITUDE 0.0000
-3.7412 <s> ARB 0.0000
-3.7412 <s> ARP -0.1091
-3.7412 <s> ARW 0.0000
-3.7412 <s> AT 0.0000
-3.7412 <s> AUDACITY 0.0000
-3.7412 <s> AUDIENCE 0.0000
-3.7412 <s> AWK -0.1761
-3.7412 <s> BALSA 0.0000
-2.9630 <s> BASH 0.0000
-3.7412 <s> BAT 0.0000
-3.4401 <s> BG 0.0000
-3.7412 <s> BORED 0.0000
-3.7412 <s> BY -0.1761
-3.7412 <s> C -0.2122
-3.7412 <s> CA 0.0000
-3.1391 <s> CABAL -0.1549
-2.8961 <s> CAJA 0.0000
-3.7412 <s> CAKA 0.0000
-3.7412 <s> CAL 0.0000
-1.9216 <s> CAT -0.0000
-3.7412 <s> CATTEST 0.0000
-2.3098 <s> CCOMP 0.0000
-3.2640 <s> CCOMPALL -0.1383
-1.1861 <s> CD -0.0000
-3.0422 <s> CDLS 0.0000
-3.7412 <s> CEXIT 0.0000
-3.4401 <s> CFGPARSER 0.0000
-3.1391 <s> CHMOD -0.0378
-3.2640 <s> CHOWN -0.0746
-3.7412 <s> CHROME 0.0000
-2.9630 <s> CHROMIUM -0.0580
-3.7412 <s> CLA 0.0000
-3.7412 <s> CLEAR 0.0000
-3.7412 <s> CLER 0.0000
-3.7412 <s> CLOSE -0.1249
-3.7412 <s> CLS 0.0000
-3.7412 <s> CM2307 -0.1963
-3.1391 <s> CMAKE -0.0792
-2.2360 <s> CODE -0.0719
-3.7412 <s> COMP 0.0000
-3.7412 <s> COMPOSER -0.1249
-3.7412 <s> COPY -0.2218
-2.3794 <s> COWSAY -0.0086
-3.7412 <s> COWSAYS -0.1761
-3.4401 <s> COWTHINK 0.0000
-2.8961 <s> CP 0.0000
-3.7412 <s> CPROGS -0.0792
-2.8961 <s> CURL 0.0000
-3.7412 <s> CVLC 0.0000
-3.7412 <s> DBVIEWER -0.1761
-3.7412 <s> DC 0.0000
-3.7412 <s> DCONF 0.0000
-3.7412 <s> DIA 0.0000
-2.8961 <s> DIFF 0.0000
-2.6272 <s> DIG -0.0280
-3.1391 <s> DIR 0.0000
-3.7412 <s> DISABLESITE 0.0000
-3.7412 <s> DISCORD -0.0969
-3.4401 <s> DISOWN 0.0000
-3.4401 <s> DMESG 0.0000
-3.7412 <s> DO -0.1249
-3.7412 <s> DOLPHIN 0.0000
-1.8273 <s> DOT -0.2815
-3.4401 <s> DRAW 0.0000
-3.7412 <s> DRAWIO 0.0000
-3.1391 <s> DU 0.0000
-3.7412 <s> DUMP 0.0000
-2.5950 <s> ECHO -0.0483
-3.7412 <s> ECLIPSE -0.2341
-3.2640 <s> ELCODE -0.0792
-3.7412 <s> ELEMENTARY -0.2218
-3.7412 <s> ELEMENTAY 0.0000
-3.7412 <s> ELEMENTRY 0.0000
-3.7412 <s> EMACS 0.0000
-3.7412 <s> ENABLESITE 0.0000
-3.7412 <s> EOF 0.0000
-3.7412 <s> EPIPHANY 0.0000
-2.7412 <s> ESPDIFF 0.0000
-3.7412 <s> ETH0 -0.2762
-3.7412 <s> ETHO 0.0000
-3.2640 <s> EVAL -0.1461
-3.7412 <s> EX 0.0000
-3.7412 <s> EXIT 0.0000
-3.4401 <s> EXPORT 0.0000
-3.7412 <s> EXUT 0.0000
-1.8273 <s> EZGIT -0.0052
-3.7412 <s> FG 0.0000
-3.7412 <s> FHDSAFPHDSAFOIDSA 0.0000
-3.7412 <s> FIGLET 0.0000
-3.1391 <s> FILE -0.2430
-3.7412 <s> FILES -0.2632
-3.0422 <s> FIND -0.1249
-3.7412 <s> FINGER 0.0000
-3.7412 <s> FIREFOX -0.1761
-3.7412 <s> FISH -0.0792
-3.7412 <s> FISH_CONFIG 0.0000
-3.7412 <s> FISH_GREETING -0.1249
-2.2097 <s> FOR -0.1739
-3.7412 <s> FORMULA_ONE_1984 0.0000
-2.5950 <s> FORTUNE 0.0000
-3.4401 <s> FORTUNEANDCOWSAY 0.0000
-3.7412 <s> FOSS 0.0000
-3.7412 <s> FREE 0.0000
-3.0422 <s> FUNCED 0.0000
-3.7412 <s> FUNCEDIT 0.0000
-2.4624 <s> FUNCSAVE -0.0000
-2.1391 <s> FUNCTION -0.0458
-2.6272 <s> FUNCTIONS -0.2261
-3.7412 <s> FUNCTIOS 0.0000
-3.4401 <s> FUNTION 0.0000
-3.7412 <s> FUSERMOUNT 0.0000
-3.7412 <s> G 0.0000
-2.8961 <s> G++ -0.0792
-2.4189 <s> GCC -0.0256
-3.7412 <s> GCHI 0.0000
-3.7412 <s> GDEBI -0.2041
-3.2640 <s> GDRIVE 0.0000
-3.7412 <s> GEDIR 0.0000
-2.8381 <s> GEDIT -0.0378
-3.2640 <s> GETIP -0.1761
-3.4401 <s> GHCI -0.2341
-1.3628 <s> GIT -0.0069
-3.1391 <s> GITSCRIPT -0.0000
-3.4401 <s> GKSUDO -0.1249
-3.4401 <s> GLUEGEN 0.0000
-3.1391 <s> GNOME -0.1413
-3.7412 <s> GO 0.0000
-2.8961 <s> GOOGLE -0.2374
-3.7412 <s> GOT 0.0000
-3.4401 <s> GOTOGROUP -0.1597
-3.7412 <s> GREP -0.2663
-3.2640 <s> GRIVE 0.0000
-3.7412 <s> GROUP -0.2897
-2.8381 <s> GSETTINGS 0.0000
-3.7412 <s> GSUDO 0.0000
-3.7412 <s> GUT 0.0000
-3.7412 <s> GV 0.0000
-3.4401 <s> GVIM -0.1761
-3.7412 <s> HASK 0.0000
-3.2640 <s> HASKELL -0.1597
-3.7412 <s> HELLO -0.2251
-3.7412 <s> HELO 0.0000
-3.1391 <s> HELP -0.2218
-3.7412 <s> HERE 0.0000
-3.7412 <s> HOME -0.2653
-3.7412 <s> HONE 0.0000
-3.4401 <s> HOSTNAME 0.0000
-3.7412 <s> HOSTS 0.0000
-3.7412 <s> I -0.2981
-3.1391 <s> I3 -0.1703
-3.4401 <s> I3STATUS -0.1597
-3.7412 <s> I3STATYS 0.0000
-3.7412 <s> ICONFIG 0.0000
-3.7412 <s> IDEA -0.2041
-2.9630 <s> IFCONFIG 0.0000
-3.4401 <s> IMPORT_BASH_ALIASES -0.1249
-3.7412 <s> INDICATOR -0.2430
-3.7412 <s> INSTALL_PLUGIN 0.0000
-3.7412 <s> INVOKE 0.0000
-2.8961 <s> IO -0.1513
-3.4401 <s> IP -0.1761
-3.7412 <s> IPCONFID 0.0000
-3.7412 <s> IPCONFIG 0.0000
-3.0422 <s> IPTABLES 0.0000
-3.7412 <s> IP_FORWARD 0.0000
-3.7412 <s> IWCONFIG 0.0000
-1.8067 <s> JAVA -0.0535
-2.3262 <s> JAVAC 0.0000
-2.3987 <s> JAVAGO -0.0300
-3.7412 <s> JOBS 0.0000
-3.7412 <s> JOURNALCTL 0.0000
-3.4401 <s> KILL 0.0000
-2.6620 <s> KILLALL -0.0322
-3.7412 <s> L -0.1899
-2.8961 <s> LA -0.0792
-3.1391 <s> LDD 0.0000
-3.7412 <s> LL 0.0000
-3.7412 <s> LLS 0.0000
-3.7412 <s> LM -0.1675
-2.7869 <s> LN 0.0000
-3.7412 <s> LO 0.0000
-3.2640 <s> LOLCAT -0.0348
-3.7412 <s> LOLCAY 0.0000
-3.7412 <s> LOSE 0.0000
-2.4859 <s> LS 0.0000
-3.7412 <s> LSA 0.0000
-3.7412 <s> LSLS 0.0000
-3.7412 <s> LSPCI 0.0000
-3.7412 <s> LS\N 0.0000
-3.2640 <s> LUA -0.1461
-3.7412 <s> LYNX 0.0000
-3.7412 <s> MAC 0.0000
-3.7412 <s> MAIL 0.0000
-3.7412 <s> MAKE -0.1963
-3.7412 <s> MAKEFILE 0.0000
-2.0510 <s> MAN -0.0244
-2.8381 <s> MATE -0.1091
-3.4401 <s> MATLAB -0.1249
-3.7412 <s> MATLAB2 -0.1091
-3.7412 <s> MAX 0.0000
-3.7412 <s> MENU -0.2041
-3.7412 <s> MESSAGE 0.0000
-3.7412 <s> MINECRAFT -0.2218
-2.4401 <s> MKDIR -0.0362
-3.7412 <s> MONITOR -0.2430
-3.4401 <s> MONO 0.0000
-3.7412 <s> MPIEXEC 0.0000
-3.7412 <s> MRDIR -0.1761
-3.7412 <s> MUIP 0.0000
-3.7412 <s> MUSESCORE 0.0000
-3.7412 <s> MUTT 0.0000
-3.0422 <s> MV -0.0669
-3.7412 <s> MYIP 0.0000
-3.7412 <s> MYMAC 0.0000
-2.9630 <s> MYSQL 0.0000
-3.7412 <s> N -0.2872
-3.7412 <s> NANO -0.2553
-3.7412 <s> NAUTILUS -0.0969
-3.7412 <s> NETFLOW 0.0000
-3.4401 <s> NETSTAT 0.0000
-3.0422 <s> NOTIFY 0.0000
-3.7412 <s> NOW -0.1249
-2.3794 <s> OMF 0.0000
-3.4401 <s> OPENMW 0.0000
-3.4401 <s> OYTHON 0.0000
-3.7412 <s> OYTHON3 0.0000
-3.4401 <s> PACTL -0.1761
-3.7412 <s> PANNEL 0.0000
-3.7412 <s> PARTED 0.0000
-3.7412 <s> PATH -0.1249
-3.7412 <s> PECL 0.0000
-2.5950 <s> PHP -0.0792
-3.4401 <s> PHPSERVER 0.0000
-2.5107 <s> PING 0.0000
-3.7412 <s> PINGG 0.0000
-2.7869 <s> PIP -0.1062
-3.7412 <s> PIP2 0.0000
-2.5950 <s> PIP3 0.0000
-2.5950 <s> PLUMA -0.0357
-3.2640 <s> POCKETSPHINX_CONTINUOUS 0.0000
-3.7412 <s> PS -0.2840
-3.2640 <s> PULSEAUDIO 0.0000
-3.7412 <s> PW -0.2218
-3.7412 <s> PWD 0.0000
-3.7412 <s> PY -0.2987
-2.5950 <s> PY3 -0.0263
-3.7412 <s> PYLINT 0.0000
-2.5950 <s> PYTHON 0.0000
-3.7412 <s> PYTHON2 0.0000
-1.7326 <s> PYTHON3 -0.0072
-3.7412 <s> QUID 0.0000
-3.7412 <s> QUIZ -0.1946
-3.7412 <s> QUOTA 0.0000
-3.7412 <s> RAINBOWS 0.0000
-3.7412 <s> RAINBOWSTREAM 0.0000
-3.7412 <s> RANDOM -0.1761
-3.7412 <s> RE -0.1761
-3.7412 <s> READLINK 0.0000
-3.4401 <s> REBOOT 0.0000
-3.7412 <s> REDSHFT 0.0000
-3.4401 <s> REDSHIFT 0.0000
-3.4401 <s> REN 0.0000
-3.7412 <s> REPEAT 0.0000
-3.7412 <s> RES 0.0000
-3.7412 <s> RESTARTAPACHE 0.0000
-2.3098 <s> RM -0.1591
-3.7412 <s> RMF 0.0000
-3.7412 <s> ROUT 0.0000
-3.7412 <s> ROUTE -0.1761
-3.7412 <s> ROUTINFO 0.0000
-3.7412 <s> RPM 0.0000
-3.7412 <s> RUSH 0.0000
-3.7412 <s> S -0.2926
-3.7412 <s> SANE 0.0000
-3.7412 <s> SD 0.0000
-3.4401 <s> SETTINGS -0.0969
-3.0422 <s> SFTP 0.0000
-3.7412 <s> SFTPSITE 0.0000
-3.4401 <s> SH -0.2888
-3.4401 <s> SHUTDOWN 0.0000
-2.9630 <s> SLASH -0.2922
-3.7412 <s> SLEEP 0.0000
-3.7412 <s> SLS 0.0000
-3.1391 <s> SNAP -0.0792
-3.7412 <s> SOFTWARE 0.0000
-3.7412 <s> SORTING -0.2041
-3.7412 <s> SPOTIFY 0.0000
-3.4401 <s> SQL -0.1648
-3.7412 <s> SQLDEVELOPER -0.1761
-3.7412 <s> SQLITE 0.0000
-3.2640 <s> SQLITE3 0.0000
-3.4401 <s> SQLITEBROWSER 0.0000
-3.7412 <s> SQLPLUS 0.0000
-3.7412 <s> SQUID -0.1047
-2.9630 <s> SSH 0.0000
-3.4401 <s> STACK -0.1249
-3.7412 <s> STATUS -0.1761
-3.7412 <s> STEAM -0.0792
-3.7412 <s> STFP 0.0000
-1.1557 <s> SUDO -0.0011
-3.7412 <s> SYNCDRIVE 0.0000
-3.4401 <s> SYSCTL 0.0000
-3.7412 <s> SYSTEMCTL -0.1761
-3.4401 <s> TAC 0.0000
-2.8961 <s> TAIL 0.0000
-3.4401 <s> TELNET 0.0000
-3.7412 <s> TEST -0.0537
-3.4401 <s> THUNDERBIRD 0.0000
-3.4401 <s> TILDA 0.0000
-3.2640 <s> TIME -0.0969
-3.7412 <s> TOILET 0.0000
-2.4189 <s> TOUCH -0.0000
-3.7412 <s> TOUCHPAD 0.0000
-2.8381 <s> TRACEPATH 0.0000
-3.7412 <s> TRACEROUT 0.0000
-2.6620 <s> TRACEROUTE 0.0000
-3.7412 <s> TRACEROUTR 0.0000
-1.9558 <s> TSHARK -0.0229
-3.7412 <s> TWEAKS 0.0000
-3.4401 <s> UBUNTU 0.0000
-3.7412 <s> UNAME 0.0000
-3.7412 <s> UNI 0.0000
-3.7412 <s> UNRAR 0.0000
-3.7412 <s> UNSET 0.0000
-3.7412 <s> UNSETENV 0.0000
-3.7412 <s> UNZIP 0.0000
-3.7412 <s> UPDATE -0.2762
-3.7412 <s> VI 0.0000
-3.7412 <s> VIDEOS 0.0000
-3.4401 <s> VIEW -0.1761
-3.4401 <s> VIM -0.1249
-3.1391 <s> VLC 0.0000
-3.7412 <s> VMWARE -0.1249
-3.7412 <s> VPNC -0.0969
-3.4401 <s> VSCODE -0.1249
-3.7412 <s> W -0.2762
-3.7412 <s> W2 0.0000
-3.4401 <s> WATCH 0.0000
-3.7412 <s> WCONFIG 0.0000
-3.2640 <s> WGET 0.0000
-3.7412 <s> WHATSAPP -0.2041
-2.4189 <s> WHEREIS -0.0193
-3.7412 <s> WHERIS 0.0000
-3.2640 <s> WHICH 0.0000
-2.7869 <s> WHILE 0.0000
-3.4401 <s> WHOAMI 0.0000
-3.7412 <s> WI 0.0000
-3.7412 <s> WIFI 0.0000
-3.7412 <s> WINE -0.1249
-3.4401 <s> WINGPANEL -0.1383
-3.4401 <s> WIRESHARK -0.0458
-3.7412 <s> WLAN -0.1761
-3.7412 <s> X 0.0000
-3.7412 <s> XAMP 0.0000
-3.1391 <s> XBACKLIGHT 0.0000
-3.7412 <s> XBRIGHTNESS 0.0000
-3.4401 <s> XEV 0.0000
-3.7412 <s> XS 0.0000
-3.7412 <s> XX 0.0000
-3.7412 <s> Y -0.2982
-3.7412 <s> YES -0.2430
-3.7412 <s> ZSH 0.0000
-3.7412 <s> [A 0.0000
-3.7412 <s> \\ANDZ 0.0000
-3.7412 <s> `SUDO 0.0000
-0.6532 = "THE 0.0000
-1.2553 = 1 -0.2160
-0.9542 = 10 -0.2430
-0.9542 = 192 0.0000
-0.3010 =" DIG -0.2863
-0.6021 ="DIG +SHORT -0.2430
-0.6021 ="DIG +SHORT" 0.0000
-0.3010 =10 </s> -0.3010
-0.6021 == "DEPOSITFILES 0.0000
-0.6021 == "DEPOSITFILES" 0.0000
-0.7782 > HTTPHOSTS 0.0000
-1.2553 > I3MAN 0.0000
-1.2553 > QUESTION2 -0.1249
-0.9542 > RESULT 0.0000
-1.2553 > SLASH -0.2998
-1.2553 > TSHARK -0.2921
-0.3010 >> AUTHORIZED_KEYS 0.0000
-0.3010 >HTTPHOSTS DOT -0.2815
-0.3010 >I3STATUSMAN DOT -0.2815
-0.3010 >OUT DOT -0.2815
-0.3010 >PAGE DOT -0.2815
-0.3010 >QUESTION2 DOT -0.2815
-0.3010 >QUESTION3 DOT -0.2815
-0.3010 >RESULT DOT -0.2815
-0.3010 >RESULTS DOT -0.2815
-0.3010 >SORT OUT -0.1963
-0.3010 >STEP3 DOT -0.2815
-0.3010 >TASK3 DOT -0.2815
-0.3010 >TASK3A DOT -0.2815
-0.3010 >URI DOT -0.2815
-2.0086 A $USER -0.2632
-2.0086 A :" 0.0000
-0.8325 A </s> -0.3010
-2.0086 A CHANGE' 0.0000
-2.0086 A CHANGE2' 0.0000
-1.0544 A DATA -0.1150
-1.4065 A DOT -0.2978
-1.7076 A FILE -0.2688
-1.3096 A FORWARD 0.0000
-2.0086 A FUNCTION -0.2913
-2.0086 A LINK -0.2218
-2.0086 A NEW -0.2430
-1.7076 A POSTROUTING 0.0000
-1.7076 A QUESTION -0.1461
-2.0086 A SLASH -0.3001
-2.0086 A VALID 0.0000
-1.5315 A ~ -0.2676
-0.3010 A1 </s> -0.3010
-0.3010 A2 </s> -0.3010
-0.3010 A2DISITE GROUP -0.1249
-0.4260 A2DISSITE GROUP -0.1249
-0.9031 A2DISSITE PROJECTCENTRAL 0.0000
-0.6021 A2ENSITE GROUP -0.1249
-1.0000 A2ENSITE PROJECTCENTRAL 0.0000
-1.3010 A2ENSITE TEST -0.2953
-1.0000 A2ENSITE WINTERMUTEHOME 0.0000
-0.3010 A;B;C </s> -0.3010
-0.3010 ABILITY TO -0.2935
-0.3010 ABLE TO -0.2973
-0.3010 ABOUT </s> -0.3010
-0.3010 ABR </s> -0.3010
-0.3010 AC DOT -0.2948
-0.3010 ACCEPT </s> -0.3010
-0.3010 ACCEPT\N SLASH -0.2988
-0.3010 ACCESS DOT -0.2987
-0.7782 ACCOUNT APP' 0.0000
-0.7782 ACCOUNT FIXED' 0.0000
-0.7782 ACCOUNT FOR -0.2978
-0.3010 ACCOUNT" </s> -0.3010
-0.3010 ACCOUNT' </s> -0.3010
-0.3010 ACCOUNTS" </s> -0.3010
-0.3010 ACOUSTIC DASH -0.3006
-1.8062 ADD </s> -0.3010
-1.8062 ADD ALL -0.2341
-0.7270 ADD DASH -0.2995
-1.8062 ADD DOT -0.3007
-1.8062 ADD FUNCTIONS -0.1354
-1.8062 ADD NEW -0.2430
-1.8062 ADD PROJECT_CENTRAL 0.0000
-1.5051 ADD README 0.0000
-1.5051 ADD REVIEWS -0.1761
-1.8062 ADD SUBMISSION -0.2553
-1.5051 ADD TO -0.2935
-1.2041 ADD WILDCARD -0.2767
-1.5051 ADD WILDCARD\NGIT 0.0000
-1.8062 ADD WINEHQ -0.1761
-0.3010 ADD, DELETE 0.0000
-0.3010 ADD2 </s> -0.3010
-0.6021 ADD2FILE </s> -0.3010
-0.6021 ADD2FILE DOT -0.2935
-0.3010 ADDAL </s> -0.3010
-0.7782 ADDALL "ADD 0.0000
-0.4771 ADDALL </s> -0.3010
-0.3010 ADDARRAY </s> -0.3010
-0.3010 ADDDED SIGNUP -0.1761
-1.5315 ADDED ABILITY 0.0000
-1.5315 ADDED ADMIN -0.2218
-1.5315 ADDED AJAX -0.2218
-1.5315 ADDED BASIC 0.0000
-1.5315 ADDED CUSTOM -0.2430
-1.5315 ADDED DEMO 0.0000
-1.5315 ADDED JS 0.0000
-1.5315 ADDED LOGIN -0.2730
-1.5315 ADDED LOGOUT -0.2218
-1.5315 ADDED MORE -0.2218
-1.5315 ADDED PEAKFILTERS 0.0000
-1.5315 ADDED RANDOM -0.1761
-1.5315 ADDED REAL 0.0000
-1.5315 ADDED SOME -0.2218
-1.5315 ADDED SUBMISSION -0.2553
-1.2304 ADDED SUPPORT -0.0969
-0.3010 ADDR = -0.2499
-0.3010 ADDRESS SHOW -0.1761
-0.3010 ADDUSER DOT -0.2996
-0.7782 ADMIN </s> -0.3010
-0.7782 ADMIN PAGE -0.2730
-0.7782 ADMIN PAGE" 0.0000
-0.3010 ADOBE DASH -0.3009
-0.3010 AFTER LOGIN, -0.2218
-0.3010 AGAIN </s> -0.3010
-0.3010 AGAIN" </s> -0.3010
-0.3010 AGAIN' </s> -0.3010
-0.3010 AGNOSTER </s> -0.3010
-0.4771 AJAX FOR -0.2912
-0.7782 AJAX STUFF -0.2041
-0.3010 AL </s> -0.3010
-0.6990 ALERT "HELLO 0.0000
-1.0000 ALERT "HELLO" 0.0000
-1.0000 ALERT </s> -0.3010
-1.0000 ALERT FROM -0.2632
-1.5563 ALIAS </s> -0.3010
-1.5563 ALIAS DASH -0.2973
-1.0792 ALIAS DOT -0.3007
-1.0792 ALIAS GETIP -0.1761
-1.5563 ALIAS GETIP="% 0.0000
-1.0792 ALIAS JAVAGO="JAVAC 0.0000
-1.5563 ALIAS JAVAGO='JAVAC 0.0000
-1.5563 ALIAS MAC='IFCONFIG 0.0000
-1.5563 ALIAS MAIL='THUNDERBIRD' 0.0000
-1.5563 ALIAS PINGG="PING 0.0000
-1.5563 ALIAS PY3="PYTHON3" 0.0000
-1.5563 ALIAS ROUTINFO='ARPING 0.0000
-0.3010 ALIEN </s> -0.3010
-0.3010 ALIS PINGG="PING 0.0000
-0.8451 ALL </s> -0.3010
-1.4472 ALL BLUETOOTH -0.2788
-1.4472 ALL DASH -0.2931
-1.4472 ALL FILE -0.2932
-1.4472 ALL FILES -0.2888
-1.4472 ALL GROUP -0.2954
-1.1461 ALL P7ZIP 0.0000
-1.4472 ALL PAGES -0.1249
-1.4472 ALL RECURRING 0.0000
-1.4472 ALL WILDCARD -0.2812
-0.6021 ALLOWS FOR -0.2978
-0.6021 ALLOWS QUIZMASTER -0.1761
-0.6021 ALMIXER </s> -0.3010
-0.6021 ALMIXER DASH -0.2996
-0.3010 ALSAINFO </s> -0.3010
-0.4771 ALSAMIXER </s> -0.3010
-0.7782 ALSAMIXER DASH -0.2996
-0.3010 ALSO ADDED -0.2881
-0.3010 AMD64 DASH -0.3003
-0.3010 AMIXER DASH -0.2996
-2.1072 AND ADDED -0.2747
-2.4082 AND APT -0.2942
-2.4082 AND AWK -0.1761
-2.4082 AND CLICKING 0.0000
-2.4082 AND CONSTRUCTOR -0.1761
-1.0280 AND COWSAY -0.0569
-2.4082 AND COWSAYS -0.1761
-2.4082 AND DASH -0.3009
-2.4082 AND DOT -0.2832
-2.1072 AND EDIT 0.0000
-2.1072 AND FACE 0.0000
-2.4082 AND FISH -0.0792
-2.4082 AND FIXED -0.2688
-2.4082 AND FORMATS" 0.0000
-2.1072 AND FORTUNE -0.2175
-2.4082 AND FUNCTION -0.2913
-2.4082 AND FUNCTIONALITY 0.0000
-2.1072 AND GIT -0.2966
-1.4082 AND GREP -0.0902
-2.1072 AND GROUP -0.2897
-1.7093 AND HEAD 0.0000
-2.4082 AND HTTP 0.0000
-2.4082 AND JAVA" 0.0000
-2.4082 AND JAVA' 0.0000
-2.4082 AND JAVA\NEND 0.0000
-2.4082 AND LOAD -0.2430
-1.5631 AND LOLCAT -0.0669
-2.4082 AND LS -0.1707
-2.1072 AND MOVED -0.1249
-2.4082 AND RAINBOW 0.0000
-2.4082 AND SED -0.1761
-2.4082 AND SLASH -0.3008
-0.8897 AND SORT -0.0119
-1.7093 AND SUDO -0.1560
-2.4082 AND TAIL\N 0.0000
-1.5051 AND WC 0.0000
-1.3010 ANDCOWSAY </s> -0.3010
-1.3010 ANDCOWSAY ANDLOLCAT -0.0621
-0.4559 ANDCOWSAY DASH -0.2948
-1.3010 ANDCOWSAY WWW -0.2891
-1.0000 ANDGREP :WARN\N 0.0000
-1.0000 ANDGREP DISK 0.0000
-1.0000 ANDGREP KEYPRESS 0.0000
-1.0000 ANDGREP PHP -0.2165
-1.0000 ANDGREP WARNING\N 0.0000
-0.3736 ANDLOLCAT </s> -0.3010
-1.1139 ANDLOLCAT DASH -0.2964
-0.3010 ANDSORT DASH -0.2991
-0.3010 ANEALING DOT -0.2897
-0.3010 ANEALINGTEST DOT -0.2897
-0.3010 ANSWERQUESTION TO -0.2973
-0.4771 ANT </s> -0.3010
-1.0792 ANT DASH -0.3000
-1.0792 ANT GIT -0.2993
-0.3010 ANY CROSS 0.0000
-0.3010 ANYTREE </s> -0.3010
-0.6021 APACHE SERVER" 0.0000
-0.6021 APACHE SLASH -0.2994
-1.3554 APACHE2 </s> -0.3010
-0.9294 APACHE2 DOT -0.2987
-1.8325 APACHE2 RELOAD -0.1249
-1.8325 APACHE2 RESTART 0.0000
-1.8325 APACHE2 RESTART\N 0.0000
-1.8325 APACHE2 RESTART\NEND 0.0000
-0.5538 APACHE2 SLASH -0.2433
-0.3010 APACHE2CTL CONFIGTEST 0.0000
-0.3010 APACHE2\N </s> -0.3010
-0.3010 APACHE:APACHE GROUP -0.1249
-0.7782 APACHECTL </s> -0.3010
-0.7782 APACHECTL CONFIGTEST\N 0.0000
-0.7782 APACHECTL START 0.0000
-0.3010 APACHELOG </s> -0.3010
-0.3010 APACHELOG\NTAIL DASH -0.2948
-0.7782 APP </s> -0.3010
-0.4771 APP DASH -0.3008
-0.3010 APP" </s> -0.3010
-0.3010 APP' </s> -0.3010
-0.3010 APPLIED CAN 0.0000
-0.6021 APPS </s> -0.3010
-0.6021 APPS SLASH -0.2538
-2.2355 APT </s> -0.3010
-2.7126 APT APT -0.2022
-2.4116 APT AUTOREMOVE 0.0000
-2.7126 APT AUTOREMOVE\N 0.0000
-2.7126 APT BUILD -0.1761
-0.6915 APT DASH -0.2786
-2.7126 APT DIST -0.2430
-1.9345 APT GET -0.0699
-0.6833 APT INSTALL -0.1411
-2.7126 APT INSTEALL 0.0000
-2.4116 APT LIST -0.2553
-2.2355 APT REMOVE -0.2218
-2.1106 APT SLASH -0.3003
-2.7126 APT SOURCE 0.0000
-2.7126 APT UP -0.2218
-1.8096 APT UPDATE -0.0458
-2.4116 APT UPDATE; 0.0000
-2.7126 APT UPDATE\N 0.0000
-1.8096 APT UPGRADE -0.1931
-0.3010 APTITUDE </s> -0.3010
-0.3010 APT\N </s> -0.3010
-0.3010 ARB </s> -0.3010
-0.3010 ARCHITECTURE I386 0.0000
-0.9031 ARE IN -0.2778
-0.9031 ARE LOADED\N 0.0000
-0.6021 ARE MANDATORY 0.0000
-0.7782 ARGS1 </s> -0.3010
-0.4771 ARGS1 HELLO -0.2152
-0.3010 ARGUMENT IS -0.2218
-0.3010 AROUND" </s> -0.3010
-0.4472 ARP </s> -0.3010
-1.1461 ARP DASH -0.3009
-1.1461 ARP \\A 0.0000
-0.3010 ARPSCAN DOT -0.2938
-0.3010 ARRAYTEST DOT -0.2935
-0.3010 ARTFUL SLASH -0.3008
-0.3010 ARW </s> -0.3010
-1.2041 AS A -0.2837
-1.2041 AS INDIVIDUAL" 0.0000
-1.2041 AS P; 0.0000
-0.9031 AS PW -0.1249
-1.2041 AS SAVE -0.2762
-1.2041 AS SR, 0.0000
-1.2041 AS WELL 0.0000
-0.3979 ASCIIVAL </s> -0.3010
-1.0000 ASCIIVAL DOT -0.2935
-0.6021 ASSIGN </s> -0.3010
-0.6021 ASSIGN GROUP" 0.0000
-0.3010 AT </s> -0.3010
-0.3010 ATAREAO </s> -0.3010
-0.3010 AUDACITY </s> -0.3010
-0.3010 AUDIENCE </s> -0.3010
-0.3388 AUDIO DOT -0.2982
-1.3802 AUDIO FILES -0.2632
-0.3010 AUDIO" </s> -0.3010
-0.3010 AUTHORIZED_KEYS </s> -0.3010
-0.3010 AUTOCONF XUTILS 0.0000
-0.3010 AUTOMAKE\N </s> -0.3010
-0.3010 AUTOPEP8 DASH -0.2923
-0.3010 AUTOREMOVE </s> -0.3010
-0.3010 AUTOREMOVE\N </s> -0.3010
-0.3010 AUTOSTART SLASH -0.2538
-0.3010 AUX AND -0.2837
-0.3010 AVAILABLE SLASH -0.2538
-0.6021 AWK ' -0.1761
-0.6021 AWK '{PRINT 0.0000
-0.3010 A\N </s> -0.3010
-0.3010 A\NEND </s> -0.3010
-1.1461 B </s> -0.3010
-0.8451 B DASH -0.2948
-0.5441 B WWW -0.1130
-0.3010 BACKLIGHT SLASH -0.2538
-0.3010 BAK #TO 0.0000
-0.3010 BALLPANEL </s> -0.3010
-0.3010 BALSA </s> -0.3010
-0.3010 BANANA </s> -0.3010
-0.3010 BASE DOT -0.3008
-0.3010 BASENAME( DOT -0.2958
-0.3979 BASENAME($I $I -0.1543
-1.3010 BASENAME($I DOT -0.3002
-1.3010 BASENAME($I I -0.2952
-0.3010 BASENAME(I I -0.2952
-1.0792 BASH </s> -0.3010
-1.0792 BASH DIR -0.1761
-0.7782 BASH DOT -0.2832
-0.7782 BASH PY3 -0.2430
-0.3010 BASHCOMPLETION DOT -0.3008
-0.3010 BASH_ALIASES </s> -0.3010
-0.3010 BASIC SUPPORT -0.0969
-0.3010 BAT NANO -0.1461
-0.9031 BE ABLE 0.0000
-0.9031 BE MARKED 0.0000
-0.9031 BE SAFE 0.0000
-0.9031 BE SAVED 0.0000
-0.4771 BG </s> -0.3010
-0.7782 BG BANANA 0.0000
-0.3010 BIIN </s> -0.3010
-0.7447 BIN </s> -0.3010
-0.4949 BIN SLASH -0.2454
-0.3010 BLABLA\N </s> -0.3010
-0.3010 BLUE </s> -0.3010
-0.8239 BLUETOOTH # -0.1249
-1.3010 BLUETOOTH </s> -0.3010
-1.3010 BLUETOOTH AND -0.2837
-1.0000 BLUETOOTH DASH -0.3008
-1.3010 BLUETOOTH DRIVER 0.0000
-1.3010 BLUETOOTH FIRMWARE -0.1761
-1.3010 BLUETOOTH MODULES 0.0000
-0.6435 BLUR </s> -0.3010
-1.0414 BLUR BLUR -0.2374
-0.8653 BLUR DOT -0.2935
-1.3424 BLUR \NEND 0.0000
-1.1461 BLUROMP </s> -0.3010
-0.8451 BLUROMP BLUROMP -0.1963
-0.6690 BLUROMP DOT -0.2935
-1.1461 BLUROMP \NEND 0.0000
-0.3010 BOOK </s> -0.3010
-0.3010 BOOK" </s> -0.3010
-0.3010 BOOK2" </s> -0.3010
-0.3010 BOOKS SLASH -0.2538
-0.3010 BORED </s> -0.3010
-0.3010 BORED\NFORTUNE AND -0.2993
-0.3010 BOUNCE </s> -0.3010
-0.3010 BOUNCETHREAD </s> -0.3010
-0.4771 BOUTIQUE </s> -0.3010
-0.7782 BOUTIQUE DASH -0.2923
-0.3010 BOX </s> -0.3010
-0.3010 BRAINWAVE DASH -0.3008
-0.3010 BREAK MY -0.1761
-0.3010 BROKEN INSTALL -0.2933
-0.6532 BROWSER </s> -0.3010
-1.2553 BROWSER PAGE -0.2109
-1.2553 BROWSER PROJECT_CENTRAL 0.0000
-1.2553 BROWSER WEB 0.0000
-0.9542 BROWSER WWW -0.1130
-0.3010 BROWSERS" </s> -0.3010
-0.3010 BSU </s> -0.3010
-0.3010 BTS\\ OCTOBER\\ 0.0000
-0.3010 BUG WITH -0.1761
-0.3010 BUGS" </s> -0.3010
-0.9031 BUILD </s> -0.3010
-0.6021 BUILD DASH -0.3008
-0.9031 BUILD STRUCTURE 0.0000
-0.3010 BUTTON TO -0.2973
-0.3010 BUTTON" </s> -0.3010
-0.3010 BUTTON' </s> -0.3010
-0.6021 BUTTONS AGAIN' 0.0000
-0.6021 BUTTONS ONCE 0.0000
-0.3010 BUTTONS" </s> -0.3010
-0.3010 BUTTONS' </s> -0.3010
-0.6021 BY DASH -0.3009
-0.6021 BY TYPING 0.0000
-2.1644 C "IMPORT 0.0000
-1.6872 C $I -0.2679
-1.8633 C & -0.0872
-0.7330 C </s> -0.3010
-1.8633 C AND -0.2583
-2.1644 C BLUROMP -0.1963
-1.8633 C COURSEWORK -0.0414
-0.8219 C DASH -0.2788
-1.8633 C DOT -0.2922
-1.6872 C DO\NGCC 0.0000
-2.1644 C FIELDS 0.0000
-1.6872 C HELLO -0.1508
-2.1644 C LAPLACESEQ -0.2109
-2.1644 C LM -0.1675
-1.8633 C TCP 0.0000
-0.3010 C) $I -0.1070
-0.3010 C);\N GCC -0.1627
-0.3010 C);\NGCC DASH -0.2881
-0.3010 C)\NEND </s> -0.3010
-0.3010 C16 </s> -0.3010
-0.7160 C1736823 </s> -0.3010
-0.7160 C1736823 DASH -0.2983
-1.1139 C1736823 SLASH -0.3007
-1.4150 C1736823 \NEND 0.0000
-0.3010 C1736823@LAPIS DOT -0.2974
-0.3010 C1736823@WEBSITES DOT -0.2974
-0.3010 C1736823\NEND </s> -0.3010
-0.3010 C; DO\NGCC 0.0000
-0.3010 C;\NEND </s> -0.3010
-0.3010 CA 'TO 0.0000
-1.1461 CABAL </s> -0.3010
-0.6690 CABAL DASH -0.3004
-0.8451 CABAL INSTALL -0.2980
-1.1461 CABAL UPDATE -0.1427
-0.6021 CAJA </s> -0.3010
-0.8239 CAJA DASH -0.2902
-1.3010 CAJA GOTOGROUP -0.1919
-1.3010 CAJA SLASH -0.2538
-0.3010 CAKA </s> -0.3010
-0.3010 CAL </s> -0.3010
-0.6021 CALENDAR IMPORTING" 0.0000
-0.6021 CALENDAR LINK -0.2632
-0.3010 CALL TO -0.2935
-0.3010 CALL" </s> -0.3010
-0.3010 CALLS TO -0.2897
-0.3010 CALLS" </s> -0.3010
-0.3010 CAN BE -0.2430
-0.6021 CAPTURES </s> -0.3010
-0.6021 CAPTURES SLASH -0.2538
-0.3010 CARDIFF DOT -0.2955
-0.9031 CART AND -0.2976
-0.6021 CART BUTTON" 0.0000
-0.9031 CART FOR -0.2912
-0.3010 CART" </s> -0.3010
-0.3010 CART?" </s> -0.3010
-0.3010 CARTS" </s> -0.3010
-2.1584 CAT "%U" 0.0000
-2.1584 CAT %U 0.0000
-2.1584 CAT 'TO 0.0000
-2.1584 CAT 1548201941818 0.0000
-2.1584 CAT 1550748745441 0.0000
-1.5563 CAT 5031 0.0000
-1.6812 CAT </s> -0.3010
-2.1584 CAT A -0.2837
-1.8573 CAT ACCESS 0.0000
-1.8573 CAT APACHE2 -0.0813
-2.1584 CAT ARPSCAN 0.0000
-1.8573 CAT CORE 0.0000
-2.1584 CAT DATA -0.2944
-1.6812 CAT DOT -0.2810
-2.1584 CAT DS2SOFS0000 0.0000
-2.1584 CAT ETC -0.0084
-2.1584 CAT GOTOGROUP -0.1919
-2.1584 CAT GROUP -0.1249
-1.8573 CAT HELLO -0.1622
-2.1584 CAT HTTPHOSTS 0.0000
-2.1584 CAT I3MAN 0.0000
-1.8573 CAT I3STATUSMAN 0.0000
-1.6812 CAT ID_RSA 0.0000
-2.1584 CAT IMG_0442\\ 0.0000
-2.1584 CAT INDEX 0.0000
-2.1584 CAT JAVA -0.2980
-2.1584 CAT KNOWN_HOSTS 0.0000
-2.1584 CAT LANGUAGE 0.0000
-2.1584 CAT LISTGROUP 0.0000
-2.1584 CAT NANO -0.1461
-2.1584 CAT NUM_RESULTS 0.0000
-2.1584 CAT OMP_SCHEDULE 0.0000
-2.1584 CAT ORACLEPW 0.0000
-2.1584 CAT OUT -0.1963
-2.1584 CAT PEPE -0.2109
-2.1584 CAT PRONOUNCIATION 0.0000
-2.1584 CAT QUESTION2 -0.1249
-2.1584 CAT QUESTION3 0.0000
-2.1584 CAT RC -0.0322
-2.1584 CAT RESULT 0.0000
-2.1584 CAT RESULTS 0.0000
-1.0444 CAT SLASH -0.2828
-2.1584 CAT TEST -0.0537
-2.1584 CAT TSHARK -0.2921
-2.1584 CAT URI -0.2688
-2.1584 CAT WIND 0.0000
-0.9031 CAT($ARGV)\NECHO $ARGV\NEND 0.0000
-0.9031 CAT($ARGV)\NECHO $OUT\NEND 0.0000
-0.9031 CAT($ARGV)\NECHO EVAL -0.2553
-0.9031 CAT($ARGV)\NECHO EVAL($OUT)\NEND 0.0000
-0.3010 CATTEST </s> -0.3010
-0.3010 CATTEST\N$OUT = -0.1919
-0.3010 CC </s> -0.3010
-1.1761 CCOMP </s> -0.3010
-1.7782 CCOMP ADD2 0.0000
-1.7782 CCOMP ADD2FILE -0.1761
-1.7782 CCOMP ADDARRAY 0.0000
-1.3010 CCOMP ASCIIVAL 0.0000
-1.4771 CCOMP BLUR -0.1891
-1.7782 CCOMP COPYSTRING 0.0000
-1.7782 CCOMP FIRSTLASTNAME 0.0000
-1.7782 CCOMP HELLO -0.2251
-1.7782 CCOMP IFELSE 0.0000
-1.7782 CCOMP INPUTTEST 0.0000
-1.7782 CCOMP INPUTTEST\N 0.0000
-1.7782 CCOMP INPUTTEST\NQ 0.0000
-1.7782 CCOMP ORDEREDVALUES 0.0000
-1.1761 CCOMP PRIMEARRAY -0.0458
-1.7782 CCOMP READFORMATTEDLINE 0.0000
-1.7782 CCOMP READLINE 0.0000
-1.7782 CCOMP REVERSECHARS 0.0000
-1.4771 CCOMP TEMPCONVERT 0.0000
-1.7782 CCOMP WILDCARD -0.0601
-0.5051 CCOMPALL </s> -0.3010
-0.7270 CCOMPALL DOT -0.2992
-0.3010 CCOMPALL\NFOR I -0.1856
-0.3010 CCOMPALL\NMKDIR COMP\NFOR 0.0000
-0.3010 CCOMPFOR I -0.1856
-0.8451 CCOMP\NGCC $ARGV -0.1761
-0.4472 CCOMP\NGCC {$ARGV} -0.0669
-2.8573 CD " -0.2591
-2.8573 CD "GEORGE 0.0000
-2.8573 CD "READLINK 0.0000
-2.3802 CD "YEAR 0.0000
-2.8573 CD ,, 0.0000
-2.8573 CD 0110000104EA4B1A 0.0000
-2.8573 CD 128 0.0000
-2.8573 CD 20160303 0.0000
-2.8573 CD 32X32 0.0000
-2.8573 CD 7 -0.1249
-2.2553 CD </s> -0.3010
-2.8573 CD AND -0.2993
-2.8573 CD APACHE2 -0.1587
-2.5563 CD APPS 0.0000
-2.8573 CD BIIN 0.0000
-2.5563 CD BIN 0.0000
-2.8573 CD BOOKS 0.0000
-2.8573 CD C -0.2122
-2.8573 CD C16 0.0000
-2.8573 CD CAPTURES -0.1761
-2.8573 CD CLI 0.0000
-2.8573 CD CM210 0.0000
-2.8573 CD CM2102 0.0000
-2.8573 CD CM2104 0.0000
-2.5563 CD CM2207 0.0000
-2.3802 CD CM2208 -0.0669
-2.2553 CD CM2305 0.0000
-2.5563 CD CM2306 0.0000
-2.0792 CD CM2307 0.0000
-2.8573 CD CMT12002 0.0000
-2.2553 CD CMT1202 0.0000
-2.8573 CD CMT12020 0.0000
-2.8573 CD COMP 0.0000
-2.8573 CD COMPOP -0.1249
-2.8573 CD CONF -0.2486
-2.8573 CD CORE 0.0000
-2.8573 CD COREJAVAFIRSTBOUNCE 0.0000
-2.8573 CD COREJAVASECONDBOUNCE 0.0000
-2.8573 CD COREJAVAUNSAFESWING 0.0000
-2.8573 CD COURSEWORK -0.2900
-2.5563 CD COURSEWORK1 0.0000
-2.5563 CD COURSEWORK2 0.0000
-2.8573 CD COUSESWORK1 0.0000
-2.8573 CD COUSEWORK1 0.0000
-2.8573 CD COUSEWORK2 0.0000
-2.8573 CD CPLUSPLUS -0.1761
-2.0792 CD CPROGS 0.0000
-2.8573 CD CREVIEWCODE 0.0000
-2.5563 CD CW 0.0000
-2.8573 CD CW1 -0.1761
-2.5563 CD CWNEW -0.1249
-2.5563 CD DASH -0.2997
-2.8573 CD DESKTOP -0.2009
-2.5563 CD DIST -0.0969
-2.3802 CD DJANGO 0.0000
-2.8573 CD DJANGOEXAMPLE 0.0000
-2.8573 CD DO -0.2218
-1.4424 CD DOT -0.2887
-2.8573 CD DOW 0.0000
-2.8573 CD DOWNLOADS 0.0000
-2.8573 CD DQP 0.0000
-2.8573 CD DQS -0.1249
-2.8573 CD DRIVE -0.2596
-2.8573 CD EBAYSTRATEGYEXAMPLE 0.0000
-2.3802 CD ECLIPSE -0.1326
-2.8573 CD ELEMENTARY -0.2863
-2.3802 CD EN 0.0000
-2.2553 CD ETC -0.0084
-2.8573 CD F -0.2788
-2.8573 CD FILES -0.1597
-2.8573 CD FILM 0.0000
-2.8573 CD FINAL 0.0000
-2.8573 CD FINALCOUNTER 0.0000
-2.8573 CD FISH -0.2672
-2.3802 CD FUN 0.0000
-2.8573 CD FUNCTIONS -0.1354
-2.8573 CD G 0.0000
-2.8573 CD GDRIVE -0.2041
-2.5563 CD GEORGE -0.0223
-2.8573 CD GEORGE\\ 0.0000
-2.8573 CD GLUEGEN 0.0000
-2.8573 CD GNOME -0.2840
-2.2553 CD GOOGLEDRIVE -0.0300
-2.8573 CD GRAPHICSLAB2 0.0000
-2.8573 CD GROUP -0.1249
-2.8573 CD GROUP12 -0.1761
-2.5563 CD HASKELL -0.1919
-2.3802 CD HPC 0.0000
-2.8573 CD ICONS -0.2041
-2.5563 CD IDEAPROJECTS 0.0000
-2.8573 CD ISOS 0.0000
-1.9542 CD JAVA -0.2206
-2.8573 CD JFLAP -0.1249
-2.8573 CD JOGL -0.2218
-2.8573 CD JOGLTEST 0.0000
-2.8573 CD LAB1 0.0000
-2.8573 CD LABS 0.0000
-2.8573 CD LEARNING_HUB 0.0000
-2.8573 CD LECT13PROGRAMS 0.0000
-2.8573 CD LECT8PROGS 0.0000
-2.8573 CD LOGS 0.0000
-2.8573 CD LS -0.1707
-2.8573 CD LUA\\ 0.0000
-2.8573 CD MAJEL 0.0000
-2.8573 CD MAKE -0.1549
-2.8573 CD MATHS -0.1761
-2.3802 CD MATLAB -0.0348
-2.1584 CD MATLAB2 0.0000
-2.8573 CD MATLAB_INSTALL 0.0000
-2.8573 CD MEDIA -0.1761
-2.8573 CD MEMVISFAILUREEXAMPLE 0.0000
-2.8573 CD MMCW -0.0512
-2.8573 CD MULTIMEDIA 0.0000
-2.8573 CD NETWORKMINER -0.2632
-2.8573 CD NETWORKMINER_2 0.0000
-2.8573 CD NEWFOLDER 0.0000
-2.8573 CD NEWREPO 0.0000
-2.8573 CD NONREFRESHINGCOUNTER 0.0000
-2.8573 CD OPT 0.0000
-2.8573 CD PART1 0.0000
-2.8573 CD PART2 0.0000
-2.5563 CD PHP -0.1648
-2.8573 CD PICTURES 0.0000
-2.8573 CD PLANK 0.0000
-2.8573 CD POCKETSPHINX -0.2825
-2.8573 CD PUBLIC 0.0000
-1.9031 CD PYTHON -0.1908
-2.8573 CD PYTHONLABS 0.0000
-2.8573 CD QUESTION1 0.0000
-2.5563 CD QUESTION2 -0.2218
-2.5563 CD QUIZ -0.2511
-2.8573 CD READLINK 0.0000
-2.8573 CD RUBBISH\\ 0.0000
-2.8573 CD SBIN -0.2663
-2.8573 CD SITES 0.0000
-1.2663 CD SLASH -0.2240
-2.5563 CD SLINGSHOT 0.0000
-2.8573 CD SOUNDS -0.1761
-2.8573 CD SQLCL 0.0000
-2.5563 CD SQLDEVELOPER -0.0669
-2.3802 CD SQL_INSTALL 0.0000
-2.8573 CD SRC -0.2218
-2.8573 CD STEAM -0.2553
-2.8573 CD TASK -0.2430
-2.8573 CD TASK3 0.0000
-2.8573 CD TEST -0.2953
-2.8573 CD TEXT -0.0414
-2.8573 CD THREADLOCALEXAMPLE 0.0000
-2.8573 CD TID 0.0000
-2.5563 CD TIDEAPP 0.0000
-2.5563 CD TIDER 0.0000
-2.8573 CD TRASH -0.2430
-2.8573 CD TRASH: 0.0000
-2.8573 CD UNINTERRUPTABLECOUNTER 0.0000
-2.8573 CD UNSAFECACHE -0.1761
-2.3802 CD USR 0.0000
-2.8573 CD VAR -0.0300
-2.8573 CD VGRIVE 0.0000
-2.8573 CD VIDEOS 0.0000
-2.8573 CD VISUAL_PARADIGM 0.0000
-2.8573 CD VMWARE -0.2218
-2.5563 CD WEBSTUFF 0.0000
-2.8573 CD WUIZ 0.0000
-2.1584 CD YEAR -0.0792
-2.8573 CD YEAR1 0.0000
-2.5563 CD YEAR2 0.0000
-2.8573 CD YEAR3 0.0000
-2.8573 CD YEARLS 0.0000
-1.3259 CD YEAR\\ 0.0000
-2.8573 CD YEAR\\2 0.0000
-2.8573 CD ZYNADDSUBFX -0.2041
-2.3802 CD ~ -0.0600
-1.0000 CDLS </s> -0.3010
-1.0000 CDLS HASKELL -0.2218
-1.0000 CDLS JAVA -0.2383
-1.0000 CDLS YEAR -0.2304
-1.0000 CDLS YEAR\\ -0.1079
-0.3010 CENTER </s> -0.3010
-0.3010 CENTRE </s> -0.3010
-0.3010 CEXIT </s> -0.3010
-0.3010 CF DOT -0.2955
-0.3010 CFG DOT -0.2815
-0.3010 CFGPARSER DOT -0.2897
-0.3010 CFGPARSERNEW DOT -0.2897
-0.3010 CH DASH -0.3006
-0.3010 CHAGED CHAT -0.2632
-0.3010 CHANGE' </s> -0.3010
-0.3010 CHANGE2' </s> -0.3010
-0.6021 CHANGES I -0.2981
-0.6021 CHANGES TO -0.2935
-0.3010 CHANGES" </s> -0.3010
-1.0792 CHAT </s> -0.3010
-1.0792 CHAT BOX 0.0000
-1.0792 CHAT FONT 0.0000
-1.0792 CHAT MESSAGES 0.0000
-1.0792 CHAT POPUP 0.0000
-1.0792 CHAT STYLING" 0.0000
-0.3010 CHAT" </s> -0.3010
-0.3010 CHECKOUT CALL" 0.0000
-1.3424 CHMOD +X 0.0000
-0.7404 CHMOD 755 0.0000
-0.8653 CHMOD 777 0.0000
-1.3424 CHMOD </s> -0.3010
-1.0414 CHMOD DASH -0.2912
-1.5051 CHOWN </s> -0.3010
-1.2041 CHOWN APACHE:APACHE 0.0000
-0.6601 CHOWN DASH -0.2912
-0.7270 CHOWN WWW -0.2513
-0.3010 CHROME </s> -0.3010
-0.3010 CHROMEIUM </s> -0.3010
-1.1461 CHROMIUM </s> -0.3010
-0.3680 CHROMIUM DASH -0.2992
-0.3010 CIRCLE DOT -0.2897
-0.3010 CL SLASH -0.2538
-0.3010 CLA </s> -0.3010
-0.6990 CLASS </s> -0.3010
-1.0000 CLASS AND -0.2993
-1.0000 CLASS SLASH -0.3008
-1.0000 CLASS TESTQUESTIONS -0.1461
-0.3010 CLASSIC </s> -0.3010
-0.3010 CLASSPATH </s> -0.3010
-0.3010 CLEAN </s> -0.3010
-0.3010 CLEANED UP -0.2218
-0.3010 CLEANUP TO -0.2935
-0.3010 CLEAR </s> -0.3010
-0.3010 CLER </s> -0.3010
-0.3010 CLI SLASH -0.2499
-0.3010 CLICKING SAVE -0.2762
-0.8451 CLIENT </s> -0.3010
-0.4472 CLIENT DOT -0.2940
-0.3010 CLI\N </s> -0.3010
-0.3010 CLONE HTTPS: 0.0000
-0.4771 CLOSE </s> -0.3010
-0.7782 CLOSE SLASH -0.2538
-0.3010 CLOSE" </s> -0.3010
-0.3010 CLOSEG@CARDIFF DOT -0.2955
-0.3010 CLOSEG@WEBSITES DOT -0.2974
-0.3010 CLS </s> -0.3010
-0.3010 CM210 </s> -0.3010
-0.3010 CM2102 SLASH -0.2538
-0.3010 CM2104 SLASH -0.3008
-0.9542 CM2207 </s> -0.3010
-0.4102 CM2207 SLASH -0.2983
-1.0792 CM2208 </s> -0.3010
-0.3802 CM2208 SLASH -0.2508
-0.3010 CM2305 SLASH -0.2514
-0.9031 CM2306 </s> -0.3010
-0.4260 CM2306 SLASH -0.2532
-0.6690 CM2307 </s> -0.3010
-0.5441 CM2307 SLASH -0.2524
-0.6990 CMAKE </s> -0.3010
-1.0000 CMAKE CMAKE -0.1461
-1.0000 CMAKE SLASH -0.2458
-1.0000 CMAKE ZYNADDSUBFX -0.1461
-0.3010 CMT12002 DASH -0.3003
-0.3010 CMT1202 DASH -0.3001
-0.3010 CMT12020 DASH -0.3003
-2.0000 CODE $ARGV\NEND 0.0000
-2.0000 CODE 000 0.0000
-1.2218 CODE </s> -0.3010
-2.0000 CODE APACHE2 -0.2467
-2.0000 CODE CCOMPALL -0.2109
-2.0000 CODE CLIENT -0.1091
-1.6990 CODE CODE -0.2742
-2.0000 CODE COUNTERDEMO -0.2218
-1.6990 CODE CUSTOM -0.1761
-2.0000 CODE DEFAULT -0.2553
-2.0000 CODE DESKTOPSCRIPT 0.0000
-1.6990 CODE DOT -0.2998
-2.0000 CODE DRIVESTARTUP 0.0000
-2.0000 CODE FISH_GREETING -0.2218
-2.0000 CODE GITIGNORE 0.0000
-2.0000 CODE GOTOGROUP -0.1919
-2.0000 CODE GROUP -0.1249
-2.0000 CODE GTK -0.2430
-2.0000 CODE HOSTS 0.0000
-2.0000 CODE JAVAGO -0.2932
-2.0000 CODE MAIN -0.1249
-2.0000 CODE OPENMPTEST -0.1761
-2.0000 CODE OPENMPTEST2 -0.1963
-2.0000 CODE PEPE -0.2109
-1.5229 CODE PHP -0.1648
-1.6990 CODE QUESTION2 -0.1249
-2.0000 CODE SCRIPTTEST 0.0000
-1.0969 CODE SLASH -0.2887
-2.0000 CODE TSD 0.0000
-2.0000 CODE TSHARK -0.2921
-2.0000 CODE URI -0.2688
-2.0000 CODE \NEND 0.0000
-0.3010 CODESNIFFER\N </s> -0.3010
-0.3010 COLOR </s> -0.3010
-0.3010 COLORAND SORT -0.2762
-0.3010 COLOUR SCHEME" 0.0000
-0.3010 COLOURAND SORT -0.2762
-1.7782 COM 80 0.0000
-0.3979 COM </s> -0.3010
-1.4771 COM ACCESS 0.0000
-1.4771 COM DOT -0.3008
-1.7782 COM SLASH -0.3008
-0.7160 COM" " -0.1397
-0.5399 COM" && -0.0483
-1.7160 COM" AND -0.2993
-0.3010 COMMAND0 DOT -0.3004
-0.3010 COMMAND1 DOT -0.3004
-0.3010 COMMENT STUFF" 0.0000
-0.6021 COMMENTS APP" 0.0000
-0.6021 COMMENTS LINE 0.0000
-2.3096 COMMIT "FIXED" 0.0000
-2.3096 COMMIT "INITAL 0.0000
-2.3096 COMMIT </s> -0.3010
-0.3229 COMMIT DASH -0.2839
-2.3096 COMMIT QUIZ -0.2768
-2.3096 COMMIT WILDCARD -0.2812
-0.3010 COMMIT" </s> -0.3010
-0.5229 COMMON </s> -0.3010
-0.6990 COMMON DASH -0.2931
-0.3010 COMP SLASH -0.2516
-0.6021 COMPLETE </s> -0.3010
-0.6021 COMPLETE WORKING -0.1761
-0.7782 COMPOP </s> -0.3010
-0.4771 COMPOP SLASH -0.2534
-0.7782 COMPOSER DASH -0.3009
-0.4771 COMPOSER REQUIRE 0.0000
-0.3010 COMP\NFOR I -0.1856
-0.3010 COM\NEND </s> -0.3010
-0.3010 CON </s> -0.3010
-0.4674 CONF </s> -0.3010
-0.9445 CONF DOT -0.3000
-1.6435 CONF SLASH -0.3007
-1.6435 CONF \N\N 0.0000
-0.7782 CONFIG </s> -0.3010
-1.5185 CONFIG CREDENTIAL 0.0000
-0.9744 CONFIG DASH -0.2922
-1.8195 CONFIG DOT -0.2992
-0.7404 CONFIG SLASH -0.2465
-0.3010 CONFIGTEST </s> -0.3010
-0.3010 CONFIGTEST\N </s> -0.3010
-0.4771 CONFIGURE </s> -0.3010
-0.7782 CONFIGURE DASH -0.2964
-0.3010 CONF\N\N </s> -0.3010
-0.6021 CONSTRUCTOR FOR -0.2978
-0.6021 CONSTRUCTOR TO -0.2973
-1.0300 CONTAINS " -0.2591
-0.7782 CONTAINS "DEPOSITFILES 0.0000
-1.0969 CONTAINS "DEPOSITFILES" 0.0000
-2.1761 CONTAINS "GOOGLE" 0.0000
-1.0300 CONTAINS "UTM" 0.0000
-1.8751 CONTAINS "UTMA" 0.0000
-1.8751 CONTAINS "__UTM 0.0000
-1.6990 CONTAINS "__UTM" 0.0000
-2.1761 CONTAINS 'UTM' 0.0000
-2.1761 CONTAINS “UTM” 0.0000
-0.3010 CONTENT' AND -0.2976
-0.3010 CONTRIBUTION" </s> -0.3010
-0.3010 CONTRIBUTIONS, ADDED -0.2881
-0.3010 CONTROL DASH -0.3006
-0.3010 CONVERSION TO -0.2973
-0.4307 COOKIE CONTAINS -0.2287
-1.0142 COOKIE DASH -0.2913
-1.7924 COOKIE FOR -0.2978
-1.7924 COOKIE HANDLING 0.0000
-0.7782 COPY </s> -0.3010
-0.7782 COPY OF -0.2688
-0.7782 COPY PASTA' 0.0000
-0.3010 COPYSTRING </s> -0.3010
-0.3010 CORE </s> -0.3010
-0.3010 COREJAVAFIRSTBOUNCE SLASH -0.2454
-0.3010 COREJAVASECONDBOUNCE SLASH -0.2458
-0.3010 COREJAVAUNSAFESWING SLASH -0.2458
-0.4771 COUNTERDEMO </s> -0.3010
-0.7782 COUNTERDEMO DOT -0.2965
-1.6021 COURSEWORK </s> -0.3010
-0.3468 COURSEWORK DOT -0.2938
-1.6021 COURSEWORK SLASH -0.2528
-0.6284 COURSEWORK1 </s> -0.3010
-0.5772 COURSEWORK1 SLASH -0.2532
-0.4771 COURSEWORK2 </s> -0.3010
-0.7782 COURSEWORK2 SLASH -0.2538
-0.3010 COUSESWORK1 </s> -0.3010
-0.3010 COUSEWORK </s> -0.3010
-0.3010 COUSEWORK1 </s> -0.3010
-0.3010 COUSEWORK2 </s> -0.3010
-0.3010 COVERSHEET TO -0.2935
-0.5229 COW </s> -0.3010
-1.0000 COW AND -0.2890
-1.0000 COW HELLO -0.2251
-0.3010 COWS SLASH -0.2538
-2.0000 COWSAY $FORTUNE 0.0000
-1.5229 COWSAY </s> -0.3010
-1.5229 COWSAY AND -0.2545
-0.3979 COWSAY DASH -0.2732
-2.0000 COWSAY FORTUNE -0.2175
-2.0000 COWSAY HELLO -0.2251
-2.0000 COWSAY SLASH -0.3008
-0.6021 COWSAYS </s> -0.3010
-0.6021 COWSAYS DASH -0.2948
-0.6021 COWTHINK </s> -0.3010
-0.6021 COWTHINK HELLO -0.2251
-0.7270 CP DOT -0.2958
-0.9031 CP FUNCTIONS -0.1354
-0.9031 CP SLASH -0.2890
-1.2041 CP WILDCARD -0.0601
-0.6021 CPLUSPLUS </s> -0.3010
-0.6021 CPLUSPLUS SLASH -0.2538
-0.4472 CPP </s> -0.3010
-0.8451 CPP DASH -0.2881
-1.0000 CPROGS </s> -0.3010
-0.3979 CPROGS SLASH -0.2506
-0.3010 CRDOWNLOAD </s> -0.3010
-0.3010 CRDOWNLOAD" </s> -0.3010
-0.3010 CREDENTIAL DOT -0.3007
-0.3010 CREVIEWCODE SLASH -0.2538
-0.3010 CROSS SYNTHESIS 0.0000
-0.3010 CS DOT -0.2974
-0.3010 CSMYSQL DOT -0.2974
-0.3010 CSORACLE DOT -0.2974
-0.5051 CSS </s> -0.3010
-1.2041 CSS AND -0.2976
-1.2041 CSS BUGS" 0.0000
-1.2041 CSS FOR -0.2978
-0.3010 CSS" </s> -0.3010
-0.3010 CSV </s> -0.3010
-0.9031 CURL </s> -0.3010
-1.2041 CURL CARDIFF 0.0000
-0.6021 CURL DASH -0.2883
-1.2041 CURL WWW -0.1130
-0.3010 CURL\N </s> -0.3010
-0.3010 CURRENT FILE -0.2604
-0.3010 CURSOR DASH -0.2931
-0.9031 CUSTOM CSS -0.2730
-0.6021 CUSTOM DASH -0.3008
-0.9031 CUSTOM PRESETS -0.2553
-0.3010 CVLC LOOP -0.1249
-0.3010 CVV" </s> -0.3010
-0.6021 CW </s> -0.3010
-0.6021 CW SLASH -0.2538
-0.6021 CW1 </s> -0.3010
-0.6021 CW1 SLASH -0.2538
-0.7782 CWNEW </s> -0.3010
-0.4771 CWNEW SLASH -0.2528
-0.3010 CXXXXXX </s> -0.3010
-0.3010 CYAN </s> -0.3010
-1.1461 C\N ECHO -0.2881
-0.3680 C\N GCC -0.1627
-0.6990 C\NECHO (BASENAME -0.0263
-0.5229 C\NECHO CURRENT 0.0000
-0.3010 C\NEND </s> -0.3010
-0.3010 C\NGCC DASH -0.2881
-0.6990 D </s> -0.3010
-0.5229 D SLASH -0.2538
-0.3010 DAEMON </s> -0.3010
