Language model created by QuickLM on Wed Jan 29 06:35:50 EST 2020
Copyright (c) 1996-2010 Carnegie Mellon University and Alexander I. Rudnicky

The model is in standard ARPA format, designed by Doug Paul while he was at MITRE.

The code that was used to produce this language model is available in Open Source.
Please visit http://www.speech.cs.cmu.edu/tools/ for more information

The (fixed) discount mass is 0.5. The backoffs are computed using the ratio method.
This model based on a corpus of 154 sentences and 151 words

\data\
ngram 1=151
ngram 2=316
ngram 3=289

\1-grams:
-3.1335 !! -0.2488
-3.1335 + -0.2488
-3.1335 --CHECK -0.2488
-2.8325 --COLOR -0.2459
-3.1335 --COLOUR -0.2488
-3.1335 --FIX-BROKEN -0.2900
-3.1335 -40 -0.2488
-3.1335 -B -0.2488
-3.1335 -CHECK -0.2488
-3.1335 -COLOR -0.2488
-3.1335 -COLOUR -0.2488
-3.1335 -GET -0.2488
-2.6564 -L -0.2488
-3.1335 -LIST -0.2488
-2.8325 -M -0.3004
-2.6564 -RF -0.3001
-3.1335 -SR -0.2488
-3.1335 -V -0.2488
-3.1335 .. -0.2488
-3.1335 ../EN-US/ -0.2488
-3.1335 .ICONS -0.2488
-3.1335 /DEV/SDA -0.2488
-3.1335 /ETC/DEFAULT/GRUB -0.2488
-3.1335 /ETC/MODPROBE.D/ -0.2488
-3.1335 /ETC/X11/XORG.CONF -0.2488
-3.1335 /SNAP/BIN/SPOTIFY -0.2488
-3.1335 /SYS/CLASS/BACKLIGHT/ -0.2488
-2.6564 0 -0.2488
-3.1335 1 -0.2488
-3.1335 3/COMPOP/CW1/ -0.2488
-3.1335 3/MAJEL/ -0.2488
-3.1335 5031.LM -0.3001
-2.6564 5031.LM.BIN -0.2488
-0.9460 </s> -0.3010
-0.9460 <s> -0.2271
-2.8325 = -0.2998
-2.6564 AN -0.2936
-1.6284 APT -0.2874
-2.8325 APT-GET -0.2887
-2.8325 AT -0.2478
-3.1335 AUDACITY -0.2488
-3.1335 AUDIACITY -0.2488
-3.1335 BORED -0.2488
-3.1335 CAJA -0.2488
-3.1335 CHANGELOG.TXT -0.2488
-3.1335 CLIGHT -0.2488
-3.1335 CODE -0.2488
-3.1335 COLOUR -0.2488
-3.1335 CP -0.3007
-2.8325 DISCORD -0.2488
-3.1335 DIST-UPGRADE -0.2488
-2.6564 DMPS -0.2988
-2.8325 DOWNLOADS/ -0.2488
-2.8325 DPMS -0.3001
-2.8325 DRACULA.WAV -0.2488
-3.1335 ELCODE -0.2488
-3.1335 ELETWEAKS -0.2488
-3.1335 EN-CL -0.2488
-3.1335 EN-CL/ -0.2488
-3.1335 EN-US/ -0.2488
-3.1335 ENV -0.2488
-3.1335 ESG -0.3007
-3.1335 EXIT -0.2488
-3.1335 F -0.2488
-2.8325 FDISK -0.3001
-3.1335 FISH -0.2488
-2.6564 FORCE -0.2994
-3.1335 FUNCSAVE -0.3001
-3.1335 FUNCTIONS -0.2488
-2.8325 GDEBI -0.2481
-2.6564 GET-PIP.PY -0.2488
-3.1335 GIT -0.2488
-3.1335 GNOME-TERMINAL -0.2488
-3.1335 GREP -0.3007
-3.1335 IDEAIC-2019.3.1.TAR.GZ -0.2488
-3.1335 INPUT_FONTS/ -0.2488
-1.6021 INSTALL -0.2213
-2.6564 INSTALL.TXT -0.2488
-3.1335 INTELLIJ-IDEA-COMMUNITY -0.2488
-3.1335 JOURNALCTL -0.3007
-3.1335 KDIR -0.3007
-3.1335 KS -0.2488
-3.1335 LA -0.2488
-3.1335 LAMBDA -0.2488
-3.1335 LANGUAGE-MODEL.LM.BIN -0.2488
-2.8325 LICENSE.TXT -0.2488
-2.2304 LIST -0.2467
-2.6564 LS -0.2478
-2.8325 MINECRAFT -0.2488
-2.8325 MINECRAFT.DEB -0.2488
-2.6564 NANO -0.3001
-2.6564 NAUTILUS -0.2488
-3.1335 NUMPY -0.2488
-3.1335 ODE -0.3007
-2.5315 OFF -0.2488
-3.1335 OMF -0.2900
-3.1335 ON -0.2488
-2.5315 OPENMW -0.2485
-3.1335 OPENMW-LAUNCHER -0.2488
-3.1335 OUNT -0.3007
-3.1335 PIP -0.2900
-3.1335 PLANK-THEMES/ -0.2488
-3.1335 POCKETSPHINX-DATA/ -0.2488
-2.6564 PYTHON -0.2994
-2.6564 PYTHON3 -0.2470
-3.1335 QUIT -0.2488
-3.1335 README.TXT -0.2488
-3.1335 REB -0.2488
-3.1335 REBOOT -0.2488
-3.1335 REM -0.3001
-3.1335 REMOVE -0.2952
-2.1335 RM -0.2965
-3.1335 RN -0.3004
-3.1335 ROOT -0.2488
-3.1335 S -0.2488
-3.1335 SCRIPTS/ -0.2488
-3.1335 SET -0.3001
-3.1335 SETUPTOOLS -0.2488
-3.1335 SITE -0.2488
-1.8783 SNAP -0.2297
-3.1335 SNAPD -0.2488
-2.8325 SPOTIFY -0.2488
-3.1335 STEAM -0.2488
-2.8325 SU -0.2485
-1.4433 SUDO -0.2155
-3.1335 SWIG -0.2488
-3.1335 TEST -0.2488
-2.6564 TESTSR -0.2488
-3.1335 THINKPAD -0.2488
-2.5315 UKUU -0.2481
-3.1335 UKUU-GTK -0.2488
-3.1335 UNAME -0.3007
-2.8325 UNRAR -0.2488
-2.5315 UPDATE -0.2474
-2.8325 UPDATE-GRUB -0.2488
-3.1335 UPGRADE -0.2998
-2.6564 VBETOOL -0.2478
-2.6564 VLC -0.2481
-3.1335 VS-CODE -0.2488
-3.1335 VSCODE -0.2488
-2.2884 XBACKLIGHT -0.2463
-2.8325 XBOXDRV -0.2488
-2.8325 XBRIGHTNESS -0.2485
-3.1335 XENV -0.2488
-3.1335 XEV -0.2488
-2.6564 XFCE4-POWER-MANAGER -0.2488
-3.1335 XINPUT -0.2488
-2.5315 XSET -0.2991
-2.8325 YEAR\\ -0.3004
-3.1335 [1;5R -0.2488
-3.1335 | -0.3007

\2-grams:
-0.3010 !! </s> -0.3010
-0.3010 + </s> -0.3010
-0.3010 --CHECK </s> -0.3010
-0.6021 --COLOR </s> -0.3010
-0.6021 --COLOR LIST -0.2109
-0.3010 --COLOUR </s> -0.3010
-0.3010 --FIX-BROKEN INSTALL -0.2946
-0.3010 -40 </s> -0.3010
-0.3010 -B </s> -0.3010
-0.3010 -CHECK </s> -0.3010
-0.3010 -COLOR </s> -0.3010
-0.3010 -COLOUR </s> -0.3010
-0.3010 -GET </s> -0.3010
-0.3010 -L </s> -0.3010
-0.3010 -LIST </s> -0.3010
-0.6021 -M PIP 0.0000
-0.6021 -M SITE 0.0000
-0.7782 -RF INPUT_FONTS/ 0.0000
-0.7782 -RF PLANK-THEMES/ 0.0000
-0.7782 -RF SCRIPTS/ 0.0000
-0.3010 -SR </s> -0.3010
-0.3010 -V </s> -0.3010
-0.3010 .. </s> -0.3010
-0.3010 ../EN-US/ </s> -0.3010
-0.3010 .ICONS </s> -0.3010
-0.3010 /DEV/SDA </s> -0.3010
-0.3010 /ETC/DEFAULT/GRUB </s> -0.3010
-0.3010 /ETC/MODPROBE.D/ </s> -0.3010
-0.3010 /ETC/X11/XORG.CONF </s> -0.3010
-0.3010 /SNAP/BIN/SPOTIFY </s> -0.3010
-0.3010 /SYS/CLASS/BACKLIGHT/ </s> -0.3010
-0.3010 0 </s> -0.3010
-0.3010 1 </s> -0.3010
-0.3010 3/COMPOP/CW1/ </s> -0.3010
-0.3010 3/MAJEL/ </s> -0.3010
-0.3010 5031.LM 5031.LM.BIN 0.0000
-0.3010 5031.LM.BIN </s> -0.3010
-2.4886 <s> + 0.0000
-2.4886 <s> .. 0.0000
-2.4886 <s> ../EN-US/ 0.0000
-2.4886 <s> /SNAP/BIN/SPOTIFY 0.0000
-2.0114 <s> AN 0.0000
-2.1875 <s> APT -0.0631
-2.1875 <s> AT 0.0000
-2.4886 <s> BORED 0.0000
-2.4886 <s> DOWNLOADS/ 0.0000
-2.4886 <s> ELCODE 0.0000
-2.4886 <s> EN-CL 0.0000
-2.4886 <s> EN-CL/ 0.0000
-2.4886 <s> EN-US/ 0.0000
-2.4886 <s> ENV 0.0000
-2.4886 <s> ESG 0.0000
-2.4886 <s> EXIT 0.0000
-2.4886 <s> F 0.0000
-2.4886 <s> FDISK 0.0000
-2.4886 <s> FUNCSAVE 0.0000
-2.4886 <s> FUNCTIONS 0.0000
-2.4886 <s> GNOME-TERMINAL 0.0000
-2.4886 <s> INTELLIJ-IDEA-COMMUNITY 0.0000
-2.4886 <s> JOURNALCTL 0.0000
-2.4886 <s> KDIR 0.0000
-2.4886 <s> KS 0.0000
-2.4886 <s> LA 0.0000
-2.0114 <s> LS 0.0000
-2.1875 <s> NANO -0.1249
-2.4886 <s> NAUTILUS 0.0000
-2.4886 <s> ODE 0.0000
-2.4886 <s> OMF 0.0000
-2.4886 <s> OPENMW -0.2430
-2.4886 <s> OPENMW-LAUNCHER 0.0000
-2.4886 <s> OUNT 0.0000
-2.4886 <s> POCKETSPHINX-DATA/ 0.0000
-2.1875 <s> PYTHON 0.0000
-2.1875 <s> PYTHON3 -0.1249
-2.4886 <s> QUIT 0.0000
-2.4886 <s> REB 0.0000
-2.4886 <s> REBOOT 0.0000
-2.4886 <s> REM 0.0000
-1.5343 <s> RM 0.0000
-2.4886 <s> RN 0.0000
-1.4094 <s> SNAP -0.1065
-2.4886 <s> SPOTIFY 0.0000
-2.1875 <s> SU 0.0000
-0.7984 <s> SUDO 0.0000
-2.4886 <s> TEST 0.0000
-2.1875 <s> TESTSR 0.0000
-2.0114 <s> UKUU 0.0000
-2.4886 <s> UNAME 0.0000
-2.4886 <s> UPDATE-GRUB 0.0000
-2.4886 <s> VBETOOL -0.1249
-2.1875 <s> VLC -0.1249
-1.7104 <s> XBACKLIGHT 0.0000
-2.4886 <s> XBOXDRV 0.0000
-2.4886 <s> XBRIGHTNESS -0.1761
-2.4886 <s> XENV 0.0000
-2.4886 <s> XEV 0.0000
-2.4886 <s> XFCE4-POWER-MANAGER 0.0000
-2.4886 <s> XINPUT 0.0000
-1.8865 <s> XSET 0.0000
-2.1875 <s> YEAR\\ 0.0000
-2.4886 <s> [1;5R 0.0000
-0.6021 = -40 0.0000
-0.6021 = 0 0.0000
-0.7782 AN SNAP -0.2632
-0.7782 AN UNRAR 0.0000
-0.7782 AN XFCE4-POWER-MANAGER 0.0000
-1.8062 APT --FIX-BROKEN 0.0000
-1.8062 APT DIST-UPGRADE 0.0000
-0.3912 APT INSTALL -0.0813
-1.8062 APT REMOVE 0.0000
-1.5051 APT UPDATE 0.0000
-1.8062 APT UPGRADE 0.0000
-0.6021 APT-GET INSTALL -0.2946
-0.6021 APT-GET UPDATE -0.0969
-0.6021 AT </s> -0.3010
-0.6021 AT INSTALL.TXT 0.0000
-0.3010 AUDACITY </s> -0.3010
-0.3010 AUDIACITY </s> -0.3010
-0.3010 BORED </s> -0.3010
-0.3010 CAJA </s> -0.3010
-0.3010 CHANGELOG.TXT </s> -0.3010
-0.3010 CLIGHT </s> -0.3010
-0.3010 CODE </s> -0.3010
-0.3010 COLOUR </s> -0.3010
-0.3010 CP 5031.LM 0.0000
-0.3010 DISCORD </s> -0.3010
-0.3010 DIST-UPGRADE </s> -0.3010
-0.7782 DMPS FORCE -0.1249
-0.4771 DMPS OFF 0.0000
-0.3010 DOWNLOADS/ </s> -0.3010
-0.3010 DPMS FORCE 0.0000
-0.3010 DRACULA.WAV </s> -0.3010
-0.3010 ELCODE </s> -0.3010
-0.3010 ELETWEAKS </s> -0.3010
-0.3010 EN-CL </s> -0.3010
-0.3010 EN-CL/ </s> -0.3010
-0.3010 EN-US/ </s> -0.3010
-0.3010 ENV </s> -0.3010
-0.3010 ESG | 0.0000
-0.3010 EXIT </s> -0.3010
-0.3010 F </s> -0.3010
-0.3010 FDISK -L 0.0000
-0.3010 FISH </s> -0.3010
-0.4771 FORCE OFF 0.0000
-0.7782 FORCE ON 0.0000
-0.3010 FUNCSAVE TESTSR 0.0000
-0.3010 FUNCTIONS </s> -0.3010
-0.6021 GDEBI </s> -0.3010
-0.6021 GDEBI MINECRAFT.DEB 0.0000
-0.3010 GET-PIP.PY </s> -0.3010
-0.3010 GIT </s> -0.3010
-0.3010 GNOME-TERMINAL </s> -0.3010
-0.3010 GREP THINKPAD 0.0000
-0.3010 IDEAIC-2019.3.1.TAR.GZ </s> -0.3010
-0.3010 INPUT_FONTS/ </s> -0.3010
-1.8325 INSTALL </s> -0.3010
-1.8325 INSTALL AUDACITY 0.0000
-1.8325 INSTALL AUDIACITY 0.0000
-1.8325 INSTALL CAJA 0.0000
-1.8325 INSTALL CLIGHT 0.0000
-1.8325 INSTALL CODE 0.0000
-1.5315 INSTALL DISCORD 0.0000
-1.8325 INSTALL ELETWEAKS 0.0000
-1.8325 INSTALL FISH 0.0000
-1.8325 INSTALL GDEBI -0.1761
-1.8325 INSTALL GIT 0.0000
-1.8325 INSTALL LAMBDA 0.0000
-1.5315 INSTALL MINECRAFT 0.0000
-1.8325 INSTALL MINECRAFT.DEB 0.0000
-1.8325 INSTALL NAUTILUS 0.0000
-1.8325 INSTALL NUMPY 0.0000
-1.8325 INSTALL OPENMW -0.0969
-1.8325 INSTALL SETUPTOOLS 0.0000
-1.8325 INSTALL SNAP -0.2632
-1.8325 INSTALL SNAPD 0.0000
-1.8325 INSTALL SPOTIFY 0.0000
-1.8325 INSTALL STEAM 0.0000
-1.8325 INSTALL SWIG 0.0000
-1.8325 INSTALL UKUU -0.1761
-1.8325 INSTALL UNRAR 0.0000
-1.8325 INSTALL VBETOOL -0.2218
-1.8325 INSTALL VLC -0.2218
-1.8325 INSTALL VS-CODE 0.0000
-1.8325 INSTALL VSCODE 0.0000
-1.8325 INSTALL XBACKLIGHT -0.2341
-1.8325 INSTALL XBOXDRV 0.0000
-1.8325 INSTALL XBRIGHTNESS -0.1761
-0.3010 INSTALL.TXT </s> -0.3010
-0.3010 INTELLIJ-IDEA-COMMUNITY </s> -0.3010
-0.3010 JOURNALCTL -B 0.0000
-0.3010 KDIR .ICONS 0.0000
-0.3010 KS </s> -0.3010
-0.3010 LA </s> -0.3010
-0.3010 LAMBDA </s> -0.3010
-0.3010 LANGUAGE-MODEL.LM.BIN </s> -0.3010
-0.3010 LICENSE.TXT </s> -0.3010
-1.2041 LIST --COLOR -0.1761
-1.2041 LIST --COLOUR 0.0000
-1.2041 LIST -COLOR 0.0000
-1.2041 LIST -COLOUR 0.0000
-0.7270 LIST </s> -0.3010
-1.2041 LIST COLOUR 0.0000
-0.7782 LS /SYS/CLASS/BACKLIGHT/ 0.0000
-0.7782 LS </s> -0.3010
-0.7782 LS DOWNLOADS/ 0.0000
-0.3010 MINECRAFT </s> -0.3010
-0.3010 MINECRAFT.DEB </s> -0.3010
-0.7782 NANO /ETC/DEFAULT/GRUB 0.0000
-0.7782 NANO /ETC/MODPROBE.D/ 0.0000
-0.7782 NANO /ETC/X11/XORG.CONF 0.0000
-0.3010 NAUTILUS </s> -0.3010
-0.3010 NUMPY </s> -0.3010
-0.3010 ODE LANGUAGE-MODEL.LM.BIN 0.0000
-0.3010 OFF </s> -0.3010
-0.3010 OMF INSTALL -0.2946
-0.3010 ON </s> -0.3010
-0.9031 OPENMW -V 0.0000
-0.4260 OPENMW </s> -0.3010
-0.3010 OPENMW-LAUNCHER </s> -0.3010
-0.3010 OUNT /DEV/SDA 0.0000
-0.3010 PIP INSTALL -0.2946
-0.3010 PLANK-THEMES/ </s> -0.3010
-0.3010 POCKETSPHINX-DATA/ </s> -0.3010
-0.7782 PYTHON -M -0.1761
-0.4771 PYTHON GET-PIP.PY 0.0000
-0.7782 PYTHON3 -M -0.1761
-0.7782 PYTHON3 </s> -0.3010
-0.7782 PYTHON3 GET-PIP.PY 0.0000
-0.3010 QUIT </s> -0.3010
-0.3010 README.TXT </s> -0.3010
-0.3010 REB </s> -0.3010
-0.3010 REBOOT </s> -0.3010
-0.3010 REM INSTALL.TXT 0.0000
-0.3010 REMOVE SNAP -0.2632
-0.8239 RM -RF 0.0000
-1.0000 RM 5031.LM.BIN 0.0000
-1.3010 RM CHANGELOG.TXT 0.0000
-1.3010 RM IDEAIC-2019.3.1.TAR.GZ 0.0000
-1.3010 RM INSTALL.TXT 0.0000
-1.3010 RM LICENSE.TXT 0.0000
-1.3010 RM README.TXT 0.0000
-0.3010 RN LICENSE.TXT 0.0000
-0.3010 ROOT </s> -0.3010
-0.3010 S </s> -0.3010
-0.3010 SCRIPTS/ </s> -0.3010
-0.3010 SET 0 0.0000
-0.3010 SETUPTOOLS </s> -0.3010
-0.3010 SITE </s> -0.3010
-1.5563 SNAP --COLOR -0.1761
-1.5563 SNAP -L 0.0000
-1.5563 SNAP -LIST 0.0000
-1.0792 SNAP </s> -0.3010
-0.9542 SNAP INSTALL -0.2679
-0.7112 SNAP LIST 0.0000
-1.5563 SNAP UPDATE -0.0969
-0.3010 SNAPD </s> -0.3010
-0.3010 SPOTIFY </s> -0.3010
-0.3010 STEAM </s> -0.3010
-0.6021 SU </s> -0.3010
-0.6021 SU ROOT 0.0000
-1.9912 SUDO !! 0.0000
-1.9912 SUDO </s> -0.3010
-0.5141 SUDO APT -0.0134
-1.6902 SUDO APT-GET 0.0000
-1.9912 SUDO CP 0.0000
-1.9912 SUDO FDISK 0.0000
-1.9912 SUDO GDEBI -0.1761
-1.9912 SUDO NANO -0.2218
-1.9912 SUDO NAUTILUS 0.0000
-1.9912 SUDO PYTHON -0.1249
-1.9912 SUDO PYTHON3 -0.2218
-1.9912 SUDO RM -0.2553
-1.5141 SUDO SNAP -0.2218
-1.9912 SUDO UKUU-GTK 0.0000
-1.9912 SUDO UPDATE-GRUB 0.0000
-1.9912 SUDO VBETOOL -0.1249
-1.9912 SUDO XFCE4-POWER-MANAGER 0.0000
-0.3010 SWIG </s> -0.3010
-0.3010 TEST </s> -0.3010
-0.3010 TESTSR </s> -0.3010
-0.3010 THINKPAD </s> -0.3010
-0.9031 UKUU --CHECK 0.0000
-0.9031 UKUU -CHECK 0.0000
-0.6021 UKUU </s> -0.3010
-0.3010 UKUU-GTK </s> -0.3010
-0.3010 UNAME -SR 0.0000
-0.3010 UNRAR </s> -0.3010
-0.4260 UPDATE </s> -0.3010
-0.9031 UPDATE OPENMW -0.0969
-0.3010 UPDATE-GRUB </s> -0.3010
-0.3010 UPGRADE OPENMW -0.0969
-0.7782 VBETOOL </s> -0.3010
-0.4771 VBETOOL DMPS -0.1249
-0.7782 VLC </s> -0.3010
-0.4771 VLC DRACULA.WAV 0.0000
-0.3010 VS-CODE </s> -0.3010
-0.3010 VSCODE </s> -0.3010
-1.1461 XBACKLIGHT -GET 0.0000
-1.1461 XBACKLIGHT 0 0.0000
-0.8451 XBACKLIGHT </s> -0.3010
-0.8451 XBACKLIGHT = 0.0000
-1.1461 XBACKLIGHT SET 0.0000
-0.3010 XBOXDRV </s> -0.3010
-0.6021 XBRIGHTNESS 1 0.0000
-0.6021 XBRIGHTNESS </s> -0.3010
-0.3010 XENV </s> -0.3010
-0.3010 XEV </s> -0.3010
-0.3010 XFCE4-POWER-MANAGER </s> -0.3010
-0.3010 XINPUT </s> -0.3010
-0.9031 XSET DMPS -0.2218
-0.6021 XSET DPMS 0.0000
-0.9031 XSET S 0.0000
-0.6021 YEAR\\ 3/COMPOP/CW1/ 0.0000
-0.6021 YEAR\\ 3/MAJEL/ 0.0000
-0.3010 [1;5R </s> -0.3010
-0.3010 | GREP 0.0000

\3-grams:
-0.3010 --COLOR LIST </s>
-0.3010 --FIX-BROKEN INSTALL </s>
-0.3010 -M PIP INSTALL
-0.3010 -M SITE </s>
-0.3010 -RF INPUT_FONTS/ </s>
-0.3010 -RF PLANK-THEMES/ </s>
-0.3010 -RF SCRIPTS/ </s>
-0.3010 5031.LM 5031.LM.BIN </s>
-0.3010 <s> + </s>
-0.3010 <s> .. </s>
-0.3010 <s> ../EN-US/ </s>
-0.3010 <s> /SNAP/BIN/SPOTIFY </s>
-0.7782 <s> AN SNAP
-0.7782 <s> AN UNRAR
-0.7782 <s> AN XFCE4-POWER-MANAGER
-0.6021 <s> APT --FIX-BROKEN
-0.6021 <s> APT INSTALL
-0.6021 <s> AT </s>
-0.6021 <s> AT INSTALL.TXT
-0.3010 <s> BORED </s>
-0.3010 <s> DOWNLOADS/ </s>
-0.3010 <s> ELCODE </s>
-0.3010 <s> EN-CL </s>
-0.3010 <s> EN-CL/ </s>
-0.3010 <s> EN-US/ </s>
-0.3010 <s> ENV </s>
-0.3010 <s> ESG |
-0.3010 <s> EXIT </s>
-0.3010 <s> F </s>
-0.3010 <s> FDISK -L
-0.3010 <s> FUNCSAVE TESTSR
-0.3010 <s> FUNCTIONS </s>
-0.3010 <s> GNOME-TERMINAL </s>
-0.3010 <s> INTELLIJ-IDEA-COMMUNITY </s>
-0.3010 <s> JOURNALCTL -B
-0.3010 <s> KDIR .ICONS
-0.3010 <s> KS </s>
-0.3010 <s> LA </s>
-0.7782 <s> LS /SYS/CLASS/BACKLIGHT/
-0.7782 <s> LS </s>
-0.7782 <s> LS DOWNLOADS/
-0.6021 <s> NANO /ETC/MODPROBE.D/
-0.6021 <s> NANO /ETC/X11/XORG.CONF
-0.3010 <s> NAUTILUS </s>
-0.3010 <s> ODE LANGUAGE-MODEL.LM.BIN
-0.3010 <s> OMF INSTALL
-0.3010 <s> OPENMW -V
-0.3010 <s> OPENMW-LAUNCHER </s>
-0.3010 <s> OUNT /DEV/SDA
-0.3010 <s> POCKETSPHINX-DATA/ </s>
-0.6021 <s> PYTHON -M
-0.6021 <s> PYTHON GET-PIP.PY
-0.6021 <s> PYTHON3 -M
-0.6021 <s> PYTHON3 </s>
-0.3010 <s> QUIT </s>
-0.3010 <s> REB </s>
-0.3010 <s> REBOOT </s>
-0.3010 <s> REM INSTALL.TXT
-0.7782 <s> RM -RF
-1.2553 <s> RM 5031.LM.BIN
-1.2553 <s> RM CHANGELOG.TXT
-1.2553 <s> RM IDEAIC-2019.3.1.TAR.GZ
-1.2553 <s> RM INSTALL.TXT
-1.2553 <s> RM LICENSE.TXT
-1.2553 <s> RM README.TXT
-0.3010 <s> RN LICENSE.TXT
-1.3802 <s> SNAP --COLOR
-1.3802 <s> SNAP -LIST
-0.9031 <s> SNAP INSTALL
-0.5351 <s> SNAP LIST
-0.3010 <s> SPOTIFY </s>
-0.6021 <s> SU </s>
-0.6021 <s> SU ROOT
-1.9912 <s> SUDO !!
-1.9912 <s> SUDO </s>
-0.5141 <s> SUDO APT
-1.6902 <s> SUDO APT-GET
-1.9912 <s> SUDO CP
-1.9912 <s> SUDO FDISK
-1.9912 <s> SUDO GDEBI
-1.9912 <s> SUDO NANO
-1.9912 <s> SUDO NAUTILUS
-1.9912 <s> SUDO PYTHON
-1.9912 <s> SUDO PYTHON3
-1.9912 <s> SUDO RM
-1.5141 <s> SUDO SNAP
-1.9912 <s> SUDO UKUU-GTK
-1.9912 <s> SUDO UPDATE-GRUB
-1.9912 <s> SUDO VBETOOL
-1.9912 <s> SUDO XFCE4-POWER-MANAGER
-0.3010 <s> TEST </s>
-0.3010 <s> TESTSR </s>
-0.7782 <s> UKUU --CHECK
-0.7782 <s> UKUU -CHECK
-0.7782 <s> UKUU </s>
-0.3010 <s> UNAME -SR
-0.3010 <s> UPDATE-GRUB </s>
-0.3010 <s> VBETOOL DMPS
-0.3010 <s> VLC DRACULA.WAV
-1.0792 <s> XBACKLIGHT -GET
-1.0792 <s> XBACKLIGHT 0
-1.0792 <s> XBACKLIGHT </s>
-0.7782 <s> XBACKLIGHT =
-1.0792 <s> XBACKLIGHT SET
-0.3010 <s> XBOXDRV </s>
-0.3010 <s> XBRIGHTNESS 1
-0.3010 <s> XENV </s>
-0.3010 <s> XEV </s>
-0.3010 <s> XFCE4-POWER-MANAGER </s>
-0.3010 <s> XINPUT </s>
-0.9031 <s> XSET DMPS
-0.6021 <s> XSET DPMS
-0.9031 <s> XSET S
-0.6021 <s> YEAR\\ 3/COMPOP/CW1/
-0.6021 <s> YEAR\\ 3/MAJEL/
-0.3010 <s> [1;5R </s>
-0.3010 = -40 </s>
-0.3010 = 0 </s>
-0.3010 AN SNAP </s>
-0.3010 AN UNRAR </s>
-0.3010 AN XFCE4-POWER-MANAGER </s>
-0.3010 APT --FIX-BROKEN INSTALL
-0.3010 APT DIST-UPGRADE </s>
-1.7160 APT INSTALL AUDACITY
-1.7160 APT INSTALL AUDIACITY
-1.7160 APT INSTALL CAJA
-1.7160 APT INSTALL CLIGHT
-1.7160 APT INSTALL CODE
-1.7160 APT INSTALL ELETWEAKS
-1.7160 APT INSTALL FISH
-1.7160 APT INSTALL GDEBI
-1.7160 APT INSTALL GIT
-1.7160 APT INSTALL MINECRAFT
-1.7160 APT INSTALL MINECRAFT.DEB
-1.7160 APT INSTALL NAUTILUS
-1.7160 APT INSTALL OPENMW
-1.7160 APT INSTALL SETUPTOOLS
-1.7160 APT INSTALL SNAP
-1.7160 APT INSTALL SNAPD
-1.7160 APT INSTALL STEAM
-1.7160 APT INSTALL SWIG
-1.7160 APT INSTALL UNRAR
-1.7160 APT INSTALL VBETOOL
-1.7160 APT INSTALL VLC
-1.7160 APT INSTALL VS-CODE
-1.7160 APT INSTALL VSCODE
-1.7160 APT INSTALL XBACKLIGHT
-1.7160 APT INSTALL XBOXDRV
-1.7160 APT INSTALL XBRIGHTNESS
-0.3010 APT REMOVE SNAP
-0.6021 APT UPDATE </s>
-0.6021 APT UPDATE OPENMW
-0.3010 APT UPGRADE OPENMW
-0.3010 APT-GET INSTALL UKUU
-0.3010 APT-GET UPDATE </s>
-0.3010 AT INSTALL.TXT </s>
-0.3010 CP 5031.LM 5031.LM.BIN
-0.3010 DMPS FORCE OFF
-0.3010 DMPS OFF </s>
-0.6021 DPMS FORCE OFF
-0.6021 DPMS FORCE ON
-0.3010 ESG | GREP
-0.3010 FDISK -L </s>
-0.3010 FORCE OFF </s>
-0.3010 FORCE ON </s>
-0.3010 FUNCSAVE TESTSR </s>
-0.3010 GDEBI MINECRAFT.DEB </s>
-0.3010 GREP THINKPAD </s>
-0.3010 INSTALL AUDACITY </s>
-0.3010 INSTALL AUDIACITY </s>
-0.3010 INSTALL CAJA </s>
-0.3010 INSTALL CLIGHT </s>
-0.3010 INSTALL CODE </s>
-0.3010 INSTALL DISCORD </s>
-0.3010 INSTALL ELETWEAKS </s>
-0.3010 INSTALL FISH </s>
-0.3010 INSTALL GDEBI </s>
-0.3010 INSTALL GIT </s>
-0.3010 INSTALL LAMBDA </s>
-0.3010 INSTALL MINECRAFT </s>
-0.3010 INSTALL MINECRAFT.DEB </s>
-0.3010 INSTALL NAUTILUS </s>
-0.3010 INSTALL NUMPY </s>
-0.3010 INSTALL OPENMW </s>
-0.3010 INSTALL SETUPTOOLS </s>
-0.3010 INSTALL SNAP </s>
-0.3010 INSTALL SNAPD </s>
-0.3010 INSTALL SPOTIFY </s>
-0.3010 INSTALL STEAM </s>
-0.3010 INSTALL SWIG </s>
-0.3010 INSTALL UKUU </s>
-0.3010 INSTALL UNRAR </s>
-0.3010 INSTALL VBETOOL </s>
-0.3010 INSTALL VLC </s>
-0.3010 INSTALL VS-CODE </s>
-0.3010 INSTALL VSCODE </s>
-0.3010 INSTALL XBACKLIGHT </s>
-0.3010 INSTALL XBOXDRV </s>
-0.3010 INSTALL XBRIGHTNESS </s>
-0.3010 JOURNALCTL -B </s>
-0.3010 KDIR .ICONS </s>
-0.3010 LIST --COLOR </s>
-0.3010 LIST --COLOUR </s>
-0.3010 LIST -COLOR </s>
-0.3010 LIST -COLOUR </s>
-0.3010 LIST COLOUR </s>
-0.3010 LS /SYS/CLASS/BACKLIGHT/ </s>
-0.3010 LS DOWNLOADS/ </s>
-0.3010 NANO /ETC/DEFAULT/GRUB </s>
-0.3010 NANO /ETC/MODPROBE.D/ </s>
-0.3010 NANO /ETC/X11/XORG.CONF </s>
-0.3010 ODE LANGUAGE-MODEL.LM.BIN </s>
-0.3010 OMF INSTALL LAMBDA
-0.3010 OPENMW -V </s>
-0.3010 OUNT /DEV/SDA </s>
-0.3010 PIP INSTALL NUMPY
-0.3010 PYTHON -M SITE
-0.3010 PYTHON GET-PIP.PY </s>
-0.3010 PYTHON3 -M PIP
-0.3010 PYTHON3 GET-PIP.PY </s>
-0.3010 REM INSTALL.TXT </s>
-0.3010 REMOVE SNAP </s>
-0.7782 RM -RF INPUT_FONTS/
-0.7782 RM -RF PLANK-THEMES/
-0.7782 RM -RF SCRIPTS/
-0.3010 RM 5031.LM.BIN </s>
-0.3010 RM CHANGELOG.TXT </s>
-0.3010 RM IDEAIC-2019.3.1.TAR.GZ </s>
-0.3010 RM INSTALL.TXT </s>
-0.3010 RM LICENSE.TXT </s>
-0.3010 RM README.TXT </s>
-0.3010 RN LICENSE.TXT </s>
-0.3010 SET 0 </s>
-0.3010 SNAP --COLOR LIST
-0.3010 SNAP -L </s>
-0.3010 SNAP -LIST </s>
-0.6021 SNAP INSTALL DISCORD
-0.9031 SNAP INSTALL MINECRAFT
-0.9031 SNAP INSTALL SPOTIFY
-1.1461 SNAP LIST --COLOR
-1.1461 SNAP LIST --COLOUR
-1.1461 SNAP LIST -COLOR
-1.1461 SNAP LIST -COLOUR
-0.8451 SNAP LIST </s>
-1.1461 SNAP LIST COLOUR
-0.3010 SNAP UPDATE </s>
-0.3010 SU ROOT </s>
-0.3010 SUDO !! </s>
-1.7782 SUDO APT DIST-UPGRADE
-0.3802 SUDO APT INSTALL
-1.7782 SUDO APT REMOVE
-1.4771 SUDO APT UPDATE
-1.7782 SUDO APT UPGRADE
-0.6021 SUDO APT-GET INSTALL
-0.6021 SUDO APT-GET UPDATE
-0.3010 SUDO CP 5031.LM
-0.3010 SUDO FDISK -L
-0.3010 SUDO GDEBI MINECRAFT.DEB
-0.3010 SUDO NANO /ETC/DEFAULT/GRUB
-0.3010 SUDO NAUTILUS </s>
-0.3010 SUDO PYTHON GET-PIP.PY
-0.3010 SUDO PYTHON3 GET-PIP.PY
-0.3010 SUDO RM 5031.LM.BIN
-0.7782 SUDO SNAP -L
-0.7782 SUDO SNAP INSTALL
-0.7782 SUDO SNAP UPDATE
-0.3010 SUDO UKUU-GTK </s>
-0.3010 SUDO UPDATE-GRUB </s>
-0.3010 SUDO VBETOOL DMPS
-0.3010 SUDO XFCE4-POWER-MANAGER </s>
-0.3010 UKUU --CHECK </s>
-0.3010 UKUU -CHECK </s>
-0.3010 UNAME -SR </s>
-0.3010 UPDATE OPENMW </s>
-0.3010 UPGRADE OPENMW </s>
-0.3010 VBETOOL DMPS OFF
-0.3010 VLC DRACULA.WAV </s>
-0.3010 XBACKLIGHT -GET </s>
-0.3010 XBACKLIGHT 0 </s>
-0.6021 XBACKLIGHT = -40
-0.6021 XBACKLIGHT = 0
-0.3010 XBACKLIGHT SET 0
-0.3010 XBRIGHTNESS 1 </s>
-0.3010 XSET DMPS FORCE
-0.3010 XSET DPMS FORCE
-0.3010 XSET S </s>
-0.3010 YEAR\\ 3/COMPOP/CW1/ </s>
-0.3010 YEAR\\ 3/MAJEL/ </s>
-0.3010 | GREP THINKPAD

\end\
