Language model created by QuickLM on Wed Jan 29 07:10:17 EST 2020
Copyright (c) 1996-2010 Carnegie Mellon University and Alexander I. Rudnicky

The model is in standard ARPA format, designed by Doug Paul while he was at MITRE.

The code that was used to produce this language model is available in Open Source.
Please visit http://www.speech.cs.cmu.edu/tools/ for more information

The (fixed) discount mass is 0.5. The backoffs are computed using the ratio method.
This model based on a corpus of 473 sentences and 468 words

\data\
ngram 1=468
ngram 2=1252
ngram 3=1557

\1-grams:
-3.9747 !! -0.2787
-3.9747 "CLOSEG@CARDIFF -0.2820
-3.9747 "GEORGE -0.3010
-3.9747 "IMPLEMENTED -0.3010
-3.6737 "IMPORT -0.3007
-3.9747 "NINTENDO -0.3010
-3.4976 '%F\\N' -0.2783
-3.9747 'PATCH -0.3010
-3.1965 * -0.2570
-3.9747 + -0.2787
-2.7986 0 -0.2582
-2.7706 1 -0.2370
-2.3836 10 -0.2663
-3.9747 100 -0.3007
-3.4976 120 -0.3005
-3.4976 15 -0.3002
-3.9747 1575286395 -0.2820
-3.6737 1576681836_AMD64 -0.2820
-3.0205 2 -0.2587
-3.6737 2019 -0.2820
-3.9747 21743:0:30460,X2= -0.2830
-3.9747 23636:0:30969 -0.3008
-3.9747 28945:0:21951,Y2= -0.2830
-2.5597 3 -0.2128
-3.2757 30 -0.3006
-3.9747 31320:0:20650,Y1= -0.2830
-3.1296 4 -0.2564
-3.6737 40 -0.2785
-3.9747 4000 -0.2830
-3.6737 41 -0.2820
-3.9747 45096 -0.2830
-3.9747 4\N -0.2787
-3.9747 4\NSUDO -0.3008
-2.7194 5 -0.2762
-2.7706 5031 -0.2820
-2.9333 6 -0.2606
-3.1965 60 -0.3002
-3.9747 7Z' -0.2806
-3.6737 8 -0.2787
-3.9747 80 -0.2820
-3.4976 9 -0.2820
-1.2998 </s> -0.3010
-1.2998 <s> -0.2142
-3.6737 = -0.2823
-3.0716 > -0.2804
-3.9747 A -0.2787
-3.9747 ABSMAP -0.3010
-3.9747 ABS_X=X1,ABS_Y=Y1,ABS_RX=X2,ABS_RY=Y2,ABS_HAT0X=DPAD_X,ABS_HAT0Y=DPAD_Y -0.3008
-3.9747 AC -0.2820
-3.0716 ACOUSTIC -0.2830
-3.9747 ACPI -0.3010
-2.6959 ACPI_VIDEO0 -0.2806
-3.6737 ACTUAL_BRIGHTNESS -0.2787
-3.4976 ADD -0.2830
-3.9747 AKE -0.2787
-3.9747 ALSAMIXER -0.2787
-3.1965 AN -0.2985
-3.9747 ANEALING -0.2820
-2.1422 APT -0.2769
-3.9747 ARMSTRONG_SMALL_STEP -0.2820
-3.2757 AS -0.2828
-2.7442 AT -0.2509
-3.9747 AUDACITY -0.2787
-3.9747 AUDIACITY -0.2787
-3.9747 AXISMAP -0.2830
-3.6737 B -0.2786
-2.5123 BACKLIGHT -0.2572
-2.7706 BIN -0.2372
-3.6737 BIRCH -0.2787
-3.9747 BOOT -0.2806
-3.9747 BOOTSTRAP -0.2820
-3.9747 BORED -0.2787
-2.8286 BRIGHTNESS -0.2787
-3.9747 BRIGHTNESS_MODE=1 -0.2787
-3.6737 BROKEN -0.2969
-3.9747 BTN_TL=LT,BTN_TR=RT,BTN_SOUTH=A,BTN_EAST=B,BTN_C=X,BTN_NORTH=Y,BTN_WEST=LB,BTN_Z=RB,BTN_SELECT=TL,BTN_START=TR,BTN_TL2=BACK,BTN_TR2=START,BTN_MODE=GUIDE -0.3008
-3.6737 BUILD -0.2617
-3.9747 BUTTON -0.2830
-3.6737 C -0.3009
-3.9747 CAJA -0.2787
-3.9747 CALIBRATION -0.3010
-3.4976 CFG -0.2787
-3.9747 CHANGELOG -0.2820
-3.6737 CHECK -0.2787
-2.8955 CL -0.2278
-2.6737 CL2 -0.2560
-2.5768 CLASS -0.2806
-3.9747 CLASSIC -0.2787
-3.6737 CLEAN_FILESYSTEM -0.2820
-3.2757 CLEAN_FISH -0.2820
-3.9747 CLIGHT -0.2787
-3.6737 CLONE -0.3008
-3.9747 CLOSE" -0.2787
-3.1296 CMUDICT -0.2631
-3.9747 CMUSPHINX -0.2806
-3.6737 CODE -0.2787
-3.6737 CODE_1 -0.2820
-3.4976 COLOR -0.2782
-3.4976 COLOUR -0.2787
-3.4976 COM -0.2572
-3.9747 COMMANDS2 -0.2820
-3.9747 COMMON -0.2979
-3.3726 COMMUNISM -0.2787
-3.6737 COMMUNITY -0.2597
-3.9747 COMPOP -0.2806
-3.9747 CONF -0.2787
-3.3726 CONFIG -0.2617
-3.9747 CONTROLLER" -0.2787
-3.1296 COUNT -0.2597
-3.9747 COWSAW -0.3009
-3.9747 COWSAY -0.3009
-3.0205 CP -0.2823
-3.9747 CW1 -0.2806
-3.4976 CWNEW -0.2806
-3.3726 D -0.2617
-1.3915 DASH -0.2511
-3.2757 DATA -0.2806
-3.9747 DATA\\ -0.3009
-3.9747 DEADZONE -0.3010
-2.9333 DEB -0.2787
-3.6737 DECODE -0.2996
-3.9747 DEFAULT -0.2806
-2.8608 DESKTOP -0.2806
-3.9747 DETACH -0.2830
-3.1296 DEV -0.2567
-3.3726 DEVICE -0.2617
-3.9747 DEVICES -0.2787
-3.1296 DIC -0.2593
-2.7442 DICT -0.2585
-3.0716 DICTIONARY -0.2820
-3.6737 DIRNAME(SR -0.2820
-3.2757 DISCORD -0.2597
-3.4976 DIST -0.2830
-3.3726 DKMS -0.2526
-3.9747 DL -0.2787
-3.4976 DMPS -0.3007
-1.3672 DOT -0.2100
-3.3726 DOWNLOADS -0.2806
-3.9747 DOWNLOAD\NTAR -0.3010
-3.4976 DPKG -0.2828
-3.6737 DPMS -0.3008
-3.0205 DRACULA -0.2818
-3.6737 DRIVER -0.2597
-3.0716 ECHO -0.2802
-3.9747 ELCODE -0.2787
-3.6737 ELECTED -0.2787
-3.9747 ELEMENTARY -0.2830
-3.9747 ELETWEAKS -0.2787
-3.9747 EMAIL -0.3010
-2.9333 EN -0.2830
-3.9747 ENV -0.2787
-3.9747 ESG -0.3007
-3.9747 ESSENTIAL -0.3009
-3.4976 ETC -0.2806
-3.9747 EUROPE -0.2787
-3.4976 EVDEV -0.2617
-3.9747 EVENTX -0.3008
-3.9747 EXIT -0.2787
-3.9747 EZGIT -0.3010
-3.9747 F -0.2787
-3.6737 FDISK -0.2830
-3.9747 FEEDBACK -0.3008
-3.6737 FILE -0.2820
-3.6737 FILES -0.2806
-3.6737 FILESYSTEM -0.2820
-3.4976 FILESYSTEM_CLEANED -0.2820
-3.6737 FILESYSTEM_CLEANED_WORDS -0.2820
-3.0205 FIND -0.2570
-2.9747 FIREFOX -0.2586
-3.3726 FISH -0.2568
-3.2757 FISH_HISTORY -0.2586
-3.9747 FISH_HISTORY_CLEANED -0.2787
-3.6737 FIX -0.2830
-3.4976 FOLDERS -0.2820
-3.6737 FONT -0.2830
-3.9747 FOR -0.3010
-3.3726 FORCE -0.2828
-3.9747 FORMULA_ONE_1984 -0.2820
-3.6737 FORTUNE -0.3009
-3.9747 FUNCSAVE -0.3009
-3.3726 FUNCTION -0.3008
-3.9747 FUNCTIONS -0.2787
-3.9747 G -0.2806
-2.7706 G2P -0.2372
-3.9747 G2P%20MODELS -0.2806
-3.4976 GAMES -0.2806
-3.4976 GAWK -0.2787
-3.9747 GC -0.2806
-3.6737 GDEBI -0.2783
-2.6525 GET -0.2332
-3.9747 GET_WORDS -0.2820
-3.0205 GIT -0.2567
-3.6737 GITHUB -0.2820
-3.6737 GITIGNORE -0.2787
-3.6737 GLOBAL -0.3009
-3.9747 GLUE -0.2787
-3.3726 GNOME -0.2830
-3.9747 GOOGLE -0.2820
-3.6737 GREP -0.3005
-3.2757 GRUB -0.2361
-3.4976 GTK -0.2787
-3.3726 GZ -0.2358
-3.9747 GZIP -0.2787
-3.9747 GZ\N -0.2787
-3.9747 H -0.2787
-3.1965 HMM -0.2816
-3.9747 HOME -0.2806
-3.9747 HTTPS -0.3010
-3.2757 HTTPS: -0.2806
-3.4976 I -0.3007
-3.6737 I686 -0.2830
-3.9747 ICONS -0.2787
-3.6737 IDEA -0.2830
-3.6737 IDEAIC -0.2830
-3.9747 IGNORE -0.3008
-3.9747 INECRAFT -0.2830
-3.0205 INMIC -0.3006
-3.9747 INPUT -0.2806
-3.6737 INPUTMONO -0.2806
-3.4976 INPUT_FONTS -0.2806
-3.9747 INS -0.2787
-2.0253 INSTALL -0.2210
-3.6737 INSTALLED -0.2784
-3.6737 INTELLIJ -0.2830
-3.4976 INTERACTIVE -0.2830
-3.6737 INTERPOLATE -0.2830
-3.9747 IO -0.2806
-3.6737 JOURNALCTL -0.2830
-3.6737 JSTEST -0.2830
-3.3726 KDIR -0.2801
-3.9747 KDISCOUNT -0.2830
-3.6737 KERNEL -0.2830
-3.9747 KEYMAP -0.3010
-3.9747 KNDISCOUNT -0.2830
-3.9747 KS -0.2787
-3.3726 L -0.2784
-3.9747 LA -0.2787
-3.9747 LAMBDA -0.2787
-3.1296 LANGUAGE -0.2830
-3.4976 LANGUAGE2 -0.2806
-3.1965 LANGUAGES -0.2572
-3.6737 LANGUAGE_MODEL -0.2820
-3.3726 LAUNCHER -0.2787
-3.0205 LIB -0.2572
-3.9747 LIBASOUND2 -0.2830
-3.6737 LIBPULSE -0.2830
-3.6737 LICENSE -0.2820
-2.9333 LIST -0.2596
-2.4432 LM -0.2357
-3.1296 LOCAL -0.2806
-3.9747 LOG -0.2787
-3.6737 LOLCAT -0.2787
-2.6130 LS -0.2140
-3.9747 LSUSB -0.2787
-3.1965 LS_DOWNLOADS -0.2820
-2.7986 M -0.2987
-3.6737 M64 -0.2806
-2.9333 MAJEL -0.2806
-3.9747 MAKE -0.2820
-3.6737 MAKEFILE -0.2787
-3.3726 MANAGER -0.2787
-3.3726 MANIFESTO -0.2820
-3.9747 MAXDEPTH -0.3003
-3.3726 MAX_BRIGHTNESS -0.2787
-3.9747 MICTEST -0.2820
-3.9747 MIMIC -0.2830
-3.0716 MINECRAFT -0.2586
-3.4976 MMCW -0.2806
-2.5768 MODEL -0.2408
-3.3726 MODEL_DIR -0.2819
-3.9747 MODEL_FOLDER_PATH -0.2787
-3.9747 MODPROBE -0.2820
-3.4976 MULTIMEDIA -0.2806
-3.6737 MV -0.2826
-3.9747 MY -0.2820
-3.6737 NAME -0.3009
-3.1296 NANO -0.2601
-3.4976 NAUTILUS -0.2787
-3.9747 NET -0.2806
-3.4976 NGRAM -0.2597
-3.6737 NIX -0.2820
-3.6737 NIXON_RESIGNATION_AUDIO_WITH_BUZZ_REMOVED -0.2820
-3.6737 NONE -0.2998
-3.2757 NOSTRESS -0.2606
-3.9747 NUMPY -0.2787
-3.6737 O -0.2993
-3.3726 ODE -0.2989
-3.3726 OFF -0.2787
-3.6737 OGG -0.2768
-3.9747 OH -0.2830
-3.9747 OMF -0.2969
-3.9747 ON -0.2787
-2.7706 OPENMW -0.2142
-3.9747 OPTIONS -0.3009
-3.6737 OS -0.2820
-3.9747 OUNT -0.2806
-3.6737 P -0.2996
-3.6737 P; -0.3009
-3.1296 PACKAGES -0.2806
-3.6737 PAROJ -0.2806
-3.9747 PART -0.2787
-3.6737 PATH -0.3008
-3.9747 PING -0.3010
-2.4562 PIP -0.2468
-3.9747 PKG -0.2830
-3.9747 PLANK -0.2830
-3.0205 POCKETSPHINX -0.2597
-3.2757 POCKETSPHINX_CONTINUOUS -0.2830
-3.9747 PORTAUDIO19 -0.2830
-3.3726 POWER -0.2830
-3.9747 PPA -0.2787
-3.9747 PPA:OPENMW -0.2806
-3.9747 PPA:RAEL -0.2830
-3.9747 PPA:TEEJEE2008 -0.2806
-3.6737 PRINT(P -0.2820
-3.4976 PRINTF -0.3009
-3.9747 PRO -0.3010
-3.9747 PROJECTS -0.2806
-3.0716 PRONOUNCIATION -0.2830
-3.9747 PROPERTIES -0.2830
-3.9747 PROTOTYPE" -0.2787
-3.9747 PURGE -0.3006
-3.9747 PURISTS -0.2830
-1.9102 PY -0.2289
-3.1965 PYAUDIO -0.2787
-3.9747 PYPA -0.2820
-3.0205 PYTHON -0.2812
-1.8508 PYTHON3 -0.2074
-3.9747 QUIT -0.2787
-3.1965 RAR -0.2594
-3.9747 README -0.2820
-3.9747 REB -0.2787
-3.9747 REBOOT -0.2787
-3.9747 REM -0.2969
-3.6737 REMOVE -0.2996
-3.4976 REPOSITORY -0.2829
-3.0205 RF -0.2798
-2.7986 RM -0.2771
-3.9747 RMMOD -0.3005
-3.9747 RN -0.3009
-3.9747 ROOT -0.2787
-3.9747 S -0.2787
-3.9747 SCRIPTS -0.2806
-3.9747 SDA -0.2787
-3.6737 SENTANCE1 -0.2820
-3.9747 SENTANCE2 -0.2820
-2.8286 SEQ2SEQ -0.2372
-3.9747 SET -0.3003
-3.9747 SETTINGS -0.2820
-3.0716 SETUP -0.2820
-3.3726 SETUPTOOLS -0.2785
-3.9747 SHARE -0.2806
-3.9747 SIDEWINDER -0.2820
-3.9747 SILENT -0.2830
-3.1965 SITE -0.2597
-1.3382 SLASH -0.1594
-3.3726 SMALL -0.2787
-3.9747 SMALL_STEP -0.2820
-2.6737 SNAP -0.2312
-3.9747 SNAPD -0.2787
-3.9747 SOFTWARE -0.2830
-2.5768 SOUNDS -0.2806
-3.9747 SOURCEFORGE -0.2820
-3.6737 SPECTRE -0.2820
-3.4976 SPEECH -0.2820
-3.4976 SPEECH_EDIT -0.2820
-3.1296 SPEECH_RECOGNITION -0.2804
-3.4976 SPOTIFY -0.2787
-3.9747 SR -0.2787
-3.6737 SR, -0.3009
-3.6737 SRC -0.2806
-3.6737 SRILM -0.2572
-3.9747 STEAM -0.2787
-3.6737 SU -0.2786
-1.8317 SUDO -0.2166
-2.8608 SUDO_APT_UPDATE -0.2820
-3.0716 SUDO_LS -0.2586
-3.9747 SUDP -0.2979
-3.6737 SUN -0.2768
-3.6737 SWIG -0.2783
-3.9747 SWITCH -0.3010
-2.5768 SYS -0.2806
-3.2757 TAR -0.2820
-3.3726 TEE -0.2806
-3.4976 TENSOR2TENSOR -0.2787
-3.9747 TENSOR2TENSOR[TENSORFLOW] -0.2787
-3.9747 TENSOR2TENSOR[TENSORFLOW_GPU] -0.2787
-3.4976 TENSORFLOW -0.2787
-3.9747 TENSORFLOW1 -0.2820
-3.9747 TENSORFLOW==1 -0.2820
-3.6737 TERMINAL -0.2787
-1.9879 TEST -0.2586
-3.4976 TESTSR -0.2787
-3.3726 TESTSR\NPOCKETSPHINX_CONTINUOUS -0.2830
-3.6737 TEXT -0.2996
-3.3726 THE -0.2787
-3.0205 THELDERSCR3IIMOMORROWINDGOTYGOG -0.2606
-3.9747 THEMES -0.2806
-3.6737 THINKPAD -0.2597
-3.1965 THINKPAD_SCREEN -0.2806
-3.9747 TO -0.2787
-3.9747 TOUCH -0.2820
-3.9747 TRANSPORT -0.2830
-3.9747 TRIGGER -0.2830
-3.9747 TTF -0.2787
-3.9747 TWEAKS -0.2787
-2.7194 TXT -0.2581
-3.3726 TYPE -0.2785
-3.6737 UBUNTU -0.2830
-3.9747 UK" -0.2787
-3.2757 UKUU -0.2597
-3.4976 ULTIMATE_QUESTION_INTRO -0.2820
-3.6737 UNAME -0.2597
-3.9747 UNI -0.2787
-3.9747 UNINSTALL -0.3009
-3.0716 UNRAR -0.2589
-2.8955 UPDATE -0.2583
-3.0205 UPGRADE -0.2756
-3.9747 URAR -0.3006
-3.6737 URL -0.2828
-2.8608 US -0.2718
-3.9747 USB -0.2830
-3.6737 USER -0.2820
-3.1296 USR -0.2806
-3.0716 V -0.2568
-3.9747 VAR -0.2806
-3.4976 VBETOOL -0.2785
-3.6737 VIEWER -0.2994
-3.3726 VLC -0.2782
-3.9747 VS -0.2830
-3.9747 VSCODE -0.2787
-2.8955 WATERGATE -0.2586
-3.6737 WATERGATE2 -0.2820
-2.0504 WAV -0.2515
-3.9747 WGET -0.2787
-3.9747 WHEEL -0.2787
-3.6737 WHEELS -0.2787
-3.9747 WMG -0.2787
-3.1296 X -0.2782
-3.9747 X11 -0.2806
-3.9747 X1= -0.2830
-3.1296 XBACKLIGHT -0.2588
-2.9747 XBOXDRV -0.2596
-3.9747 XBOXDRV:I386 -0.2787
-3.6737 XBRIGHTNESS -0.2779
-3.9747 XENV -0.2787
-3.9747 XEV -0.2787
-3.9747 XF -0.3003
-3.3726 XFCE4 -0.2830
-3.9747 XINPUT -0.2787
-3.9747 XORG -0.2820
-2.9333 XPAD -0.2151
-3.3726 XSET -0.3008
-3.6737 Y -0.3006
-3.9747 Y1=Y1, -0.2830
-3.9747 Y2=Y2 -0.3008
-2.7986 YEAR\\ -0.2998
-3.0205 YES -0.2830
-3.9747 YOUTUBE -0.2830
-3.9747 [1;5R -0.2787
-3.3726 \NEND -0.2787
-3.9747 \N\NWGET -0.2830
-3.1965 \\\N -0.2830
-3.6737 __FILE__))\N" -0.2787
-3.1296 | -0.2943
-3.9747 |GREP -0.2997
-2.4833 ~ -0.2806
-3.9747 –DETACH -0.2830

\2-grams:
-0.3010 !! </s> -0.3010
-0.3010 "CLOSEG@CARDIFF DOT -0.3005
-0.3010 "GEORGE CLOSE" 0.0000
-0.3010 "IMPLEMENTED PROTOTYPE" 0.0000
-0.3010 "IMPORT SPEECH_RECOGNITION -0.2341
-0.3010 "NINTENDO SWITCH 0.0000
-0.4771 '%F\\N' </s> -0.3010
-0.7782 '%F\\N' > -0.2730
-0.3010 'PATCH FOR 0.0000
-1.0792 * </s> -0.3010
-0.6021 * DOT -0.2529
-0.7782 * ~ 0.0000
-0.3010 + </s> -0.3010
-1.0000 0 </s> -0.3010
-0.4357 0 DOT -0.2951
-1.4771 0 | -0.1549
-1.5051 1 </s> -0.3010
-1.2041 1 > -0.0969
-0.9031 1 DASH -0.2976
-1.2041 1 DOT -0.2983
-0.6601 1 SOUNDS 0.0000
-1.5911 10 </s> -0.3010
-1.5911 10 BIRCH 0.0000
-1.1139 10 CL -0.1761
-0.9379 10 CL2 -0.1614
-1.8921 10 COUNT -0.1091
-1.2900 10 SMALL 0.0000
-1.8921 10 SOUNDS 0.0000
-1.5911 10 SUDO -0.2883
-1.8921 10 SUN -0.1761
-1.8921 10 THE 0.0000
-1.4150 10 UPDATE -0.0969
-1.1931 10 US -0.2083
-1.5911 10 WATERGATE -0.1513
-0.3010 100 | -0.1549
-0.7782 120 COMMUNISM 0.0000
-0.4771 120 COUNT -0.1091
-0.4771 15 WATERGATE -0.1513
-0.7782 15 | -0.1549
-0.3010 1575286395 DOT -0.3005
-0.3010 1576681836_AMD64 DOT -0.2951
-1.2553 2 </s> -0.3010
-0.9542 2 CL2 -0.2430
-0.4771 2 DASH -0.2965
-0.3010 2019 DOT -0.3000
-0.3010 21743:0:30460,X2= DASH -0.3005
-0.3010 23636:0:30969 \\\N 0.0000
-0.3010 28945:0:21951,Y2= DASH -0.3005
-1.4150 3 </s> -0.3010
-1.4150 3 > -0.0969
-1.2389 3 CL2 -0.0792
-1.7160 3 DASH -0.3005
-1.4150 3 DOT -0.2989
-0.5399 3 SLASH -0.2934
-1.7160 3 US -0.2840
-1.0000 30 COMMUNISM 0.0000
-1.0000 30 GLUE 0.0000
-0.5229 30 THE 0.0000
-0.3010 31320:0:20650,Y1= DASH -0.3005
-0.6690 4 </s> -0.3010
-0.8451 4 > -0.0969
-1.1461 4 COUNT -0.1091
-1.1461 4 SLASH -0.3005
-0.6021 40 </s> -0.3010
-0.6021 40 COMMUNISM 0.0000
-0.3010 4000 DASH -0.2777
-0.3010 41 DOT -0.2989
-0.3010 45096 DASH -0.2993
-0.3010 4\N </s> -0.3010
-0.3010 4\NSUDO DKMS -0.1761
-1.0792 5 </s> -0.3010
-1.5563 5 CL2 -0.2430
-0.4424 5 SOUNDS 0.0000
-1.5563 5 | -0.1549
-0.3010 5031 DOT -0.2802
-0.6435 6 DOT -0.2983
-0.5643 6 SLASH -0.2975
-1.0792 60 COMMUNISM 0.0000
-0.7782 60 ELECTED 0.0000
-1.0792 60 EUROPE 0.0000
-0.7782 60 WATERGATE -0.1513
-0.3010 7Z' SLASH -0.2975
-0.3010 8 </s> -0.3010
-0.3010 80 DOT -0.2967
-0.3010 9 DOT -0.2951
-2.9759 <s> + 0.0000
-2.9759 <s> AKE 0.0000
-2.9759 <s> ALSAMIXER 0.0000
-2.1977 <s> AN 0.0000
-2.2769 <s> APT -0.0308
-1.7454 <s> AT 0.0000
-2.6749 <s> BIN -0.2430
-2.9759 <s> BORED 0.0000
-2.9759 <s> DESKTOP 0.0000
-2.1977 <s> DOT -0.2802
-2.9759 <s> DOWNLOADS 0.0000
-2.1977 <s> ECHO 0.0000
-2.9759 <s> ELCODE 0.0000
-2.4988 <s> EN 0.0000
-2.9759 <s> ENV 0.0000
-2.9759 <s> ESG 0.0000
-2.9759 <s> EXIT 0.0000
-2.9759 <s> EZGIT 0.0000
-2.9759 <s> F 0.0000
-2.9759 <s> FDISK 0.0000
-2.1308 <s> FIND -0.0872
-2.9759 <s> FUNCSAVE 0.0000
-2.3738 <s> FUNCTION 0.0000
-2.9759 <s> FUNCTIONS 0.0000
-2.0728 <s> G2P -0.0263
-2.9759 <s> GAWK 0.0000
-2.4988 <s> GIT -0.2218
-2.9759 <s> GNOME 0.0000
-2.9759 <s> GZIP 0.0000
-2.9759 <s> I686 0.0000
-2.9759 <s> INECRAFT 0.0000
-2.9759 <s> INTELLIJ 0.0000
-2.6749 <s> JOURNALCTL 0.0000
-2.9759 <s> JSTEST 0.0000
-2.3738 <s> KDIR 0.0000
-2.9759 <s> KS 0.0000
-2.9759 <s> LA 0.0000
-2.9759 <s> LIB -0.2762
-2.1308 <s> LS -0.0362
-2.9759 <s> LSUSB 0.0000
-2.2769 <s> NANO 0.0000
-2.9759 <s> NAUTILUS 0.0000
-2.3738 <s> ODE 0.0000
-2.9759 <s> OMF 0.0000
-2.2769 <s> OPENMW -0.1181
-2.9759 <s> OPTIONS 0.0000
-2.9759 <s> OUNT 0.0000
-2.6749 <s> P 0.0000
-2.9759 <s> PING 0.0000
-2.0216 <s> PIP -0.1249
-2.9759 <s> PKG 0.0000
-2.9759 <s> POCKETSPHINX -0.1597
-2.2769 <s> POCKETSPHINX_CONTINUOUS 0.0000
-2.3738 <s> PYTHON -0.0458
-0.9228 <s> PYTHON3 -0.0254
-2.9759 <s> QUIT 0.0000
-2.9759 <s> REB 0.0000
-2.9759 <s> REBOOT 0.0000
-2.9759 <s> REM 0.0000
-1.8967 <s> RM -0.0544
-2.9759 <s> RN 0.0000
-2.3738 <s> SLASH -0.2965
-1.8967 <s> SNAP -0.0969
-2.9759 <s> SPOTIFY 0.0000
-2.9759 <s> SRILM -0.1761
-2.6749 <s> SU 0.0000
-0.8931 <s> SUDO -0.0331
-2.9759 <s> SUDP 0.0000
-2.9759 <s> TEST -0.2920
-2.6749 <s> TESTSR 0.0000
-2.9759 <s> TOUCH 0.0000
-2.4988 <s> UKUU 0.0000
-2.6749 <s> UNAME 0.0000
-2.9759 <s> UNI 0.0000
-2.2769 <s> UNRAR -0.0969
-2.9759 <s> UPDATE -0.2632
-2.9759 <s> URAR 0.0000
-2.6749 <s> URL 0.0000
-2.9759 <s> USB 0.0000
-2.2769 <s> V -0.1383
-2.9759 <s> VBETOOL -0.1249
-2.4988 <s> VLC -0.0969
-2.1977 <s> XBACKLIGHT -0.0000
-2.6749 <s> XBOXDRV -0.1139
-2.9759 <s> XBRIGHTNESS -0.1761
-2.9759 <s> XENV 0.0000
-2.9759 <s> XEV 0.0000
-2.9759 <s> XFCE4 0.0000
-2.9759 <s> XINPUT 0.0000
-2.9759 <s> XPAD -0.2374
-2.3738 <s> XSET 0.0000
-2.3738 <s> YEAR\\ 0.0000
-2.9759 <s> YOUTUBE 0.0000
-2.9759 <s> [1;5R 0.0000
-2.9759 <s> \N\NWGET 0.0000
-0.6021 = 0 -0.2553
-0.6021 = DASH -0.3005
-1.2041 > FILESYSTEM 0.0000
-1.2041 > FOLDERS 0.0000
-0.4260 > SLASH -0.2883
-0.3010 A </s> -0.3010
-0.3010 ABSMAP ABS_X=X1,ABS_Y=Y1,ABS_RX=X2,ABS_RY=Y2,ABS_HAT0X=DPAD_X,ABS_HAT0Y=DPAD_Y 0.0000
-0.3010 ABS_X=X1,ABS_Y=Y1,ABS_RX=X2,ABS_RY=Y2,ABS_HAT0X=DPAD_X,ABS_HAT0Y=DPAD_Y \\\N 0.0000
-0.3010 AC DOT -0.3005
-0.3010 ACOUSTIC DASH -0.2890
-0.3010 ACPI BRIGHTNESS_MODE=1 0.0000
-0.3010 ACPI_VIDEO0 SLASH -0.2628
-0.3010 ACTUAL_BRIGHTNESS </s> -0.3010
-0.3010 ADD DASH -0.2988
-0.3010 AKE </s> -0.3010
-0.3010 ALSAMIXER </s> -0.3010
-1.0792 AN FIND -0.2499
-1.0792 AN FIREFOX -0.2553
-1.0792 AN GAWK 0.0000
-1.0792 AN SNAP -0.2672
-1.0792 AN UNRAR -0.2430
-1.0792 AN XFCE4 0.0000
-0.3010 ANEALING DOT -0.2339
-0.8325 APT DASH -0.2650
-2.1335 APT DIST 0.0000
-0.5208 APT INSTALL -0.1475
-1.8325 APT LIST -0.1627
-2.1335 APT REMOVE -0.1761
-1.8325 APT UPDATE -0.0969
-2.1335 APT UPGRADE -0.2762
-0.3010 ARMSTRONG_SMALL_STEP DOT -0.3000
-1.0000 AS DASH -0.3005
-0.6990 AS P; 0.0000
-0.6990 AS SR, 0.0000
-1.5315 AT </s> -0.3010
-1.5315 AT FISH_HISTORY_CLEANED 0.0000
-1.5315 AT INSTALL -0.2936
-1.5315 AT MAKEFILE 0.0000
-0.4523 AT SLASH -0.2878
-1.5315 AT ~ 0.0000
-0.3010 AUDACITY </s> -0.3010
-0.3010 AUDIACITY </s> -0.3010
-0.3010 AXISMAP DASH -0.3005
-0.6021 B </s> -0.3010
-0.6021 B |GREP 0.0000
-1.7634 BACKLIGHT </s> -0.3010
-0.3163 BACKLIGHT SLASH -0.2617
-0.6601 BIN </s> -0.3010
-0.8062 BIN DASH -0.2959
-0.9031 BIN SLASH -0.2741
-0.3010 BIRCH </s> -0.3010
-0.3010 BOOT SLASH -0.2995
-0.3010 BOOTSTRAP DOT -0.3005
-0.3010 BORED </s> -0.3010
-0.3010 BRIGHTNESS </s> -0.3010
-0.3010 BRIGHTNESS_MODE=1 </s> -0.3010
-0.3010 BROKEN INSTALL -0.2887
-0.3010 BTN_TL=LT,BTN_TR=RT,BTN_SOUTH=A,BTN_EAST=B,BTN_C=X,BTN_NORTH=Y,BTN_WEST=LB,BTN_Z=RB,BTN_SELECT=TL,BTN_START=TR,BTN_TL2=BACK,BTN_TR2=START,BTN_MODE=GUIDE \\\N 0.0000
-0.6021 BUILD DASH -0.3005
-0.6021 BUILD SLASH -0.3005
-0.3010 BUTTON DASH -0.2777
-0.3010 C "IMPORT 0.0000
-0.3010 CAJA </s> -0.3010
-0.3010 CALIBRATION X1= 0.0000
-0.3010 CFG </s> -0.3010
-0.3010 CHANGELOG DOT -0.2913
-0.3010 CHECK </s> -0.3010
-1.0792 CL </s> -0.3010
-0.9031 CL DASH -0.2993
-1.3802 CL LS -0.1434
-1.3802 CL SLASH -0.2752
-0.9031 CL SUDO -0.2883
-1.0792 CL UPDATE -0.1249
-0.9031 CL2 </s> -0.3010
-0.5607 CL2 LS -0.1434
-1.0000 CL2 SLASH -0.2715
-0.3010 CLASS SLASH -0.2868
-0.3010 CLASSIC </s> -0.3010
-0.3010 CLEAN_FILESYSTEM DOT -0.2339
-0.3010 CLEAN_FISH DOT -0.2339
-0.3010 CLIGHT </s> -0.3010
-0.3010 CLONE HTTPS: 0.0000
-0.3010 CLOSE" </s> -0.3010
-0.4472 CMUDICT DASH -0.2982
-0.8451 CMUDICT DOT -0.2983
-0.3010 CMUSPHINX SLASH -0.3005
-0.3010 CODE </s> -0.3010
-0.3010 CODE_1 DOT -0.3000
-0.4771 COLOR </s> -0.3010
-0.7782 COLOR LIST -0.2139
-0.3010 COLOUR </s> -0.3010
-0.7782 COM </s> -0.3010
-0.4771 COM SLASH -0.3000
-0.3010 COMMANDS2 DOT -0.2913
-0.3010 COMMON APT -0.2319
-0.3010 COMMUNISM </s> -0.3010
-0.6021 COMMUNITY </s> -0.3010
-0.6021 COMMUNITY DASH -0.2777
-0.3010 COMPOP SLASH -0.3005
-0.3010 CONF </s> -0.3010
-0.6021 CONFIG DASH -0.2777
-0.6021 CONFIG SLASH -0.2990
-0.3010 CONTROLLER" </s> -0.3010
-0.4472 COUNT </s> -0.3010
-0.8451 COUNT DASH -0.2999
-0.3010 COWSAW LOLCAT 0.0000
-0.3010 COWSAY LOLCAT 0.0000
-0.5563 CP 5031 0.0000
-0.6532 CP DASH -0.2959
-0.3010 CW1 SLASH -0.2752
-0.3010 CWNEW SLASH -0.2995
-0.4260 D DASH -0.2993
-0.9031 D SLASH -0.2752
-2.1853 DASH 0 -0.1027
-2.8842 DASH 1 -0.2430
-2.8842 DASH 100 0.0000
-2.8842 DASH 1575286395 0.0000
-2.5832 DASH 1576681836_AMD64 0.0000
-2.8842 DASH 2 -0.1249
-2.5832 DASH 2019 0.0000
-2.8842 DASH 21743:0:30460,X2= 0.0000
-2.8842 DASH 23636:0:30969 0.0000
-2.8842 DASH 28945:0:21951,Y2= 0.0000
-2.4071 DASH 3 -0.2752
-2.8842 DASH 31320:0:20650,Y1= 0.0000
-2.8842 DASH 40 -0.1761
-2.8842 DASH 45096 0.0000
-2.1853 DASH 6 -0.1891
-2.8842 DASH A 0.0000
-2.8842 DASH ABSMAP 0.0000
-2.8842 DASH ACPI 0.0000
-2.5832 DASH ADD 0.0000
-2.8842 DASH APT -0.2319
-2.8842 DASH AS -0.2553
-2.8842 DASH AXISMAP 0.0000
-2.5832 DASH B 0.0000
-2.5832 DASH BROKEN 0.0000
-2.8842 DASH BUTTON 0.0000
-2.5832 DASH C 0.0000
-2.8842 DASH CALIBRATION 0.0000
-2.5832 DASH CHECK 0.0000
-2.5832 DASH CL -0.2430
-2.5832 DASH CL2 -0.2553
-2.8842 DASH CLASSIC 0.0000
-2.0391 DASH CMUDICT 0.0000
-2.8842 DASH CODE 0.0000
-2.4071 DASH COLOR 0.0000
-2.5832 DASH COLOUR 0.0000
-2.8842 DASH COMMON 0.0000
-2.5832 DASH COMMUNITY 0.0000
-2.5832 DASH COUNT -0.2341
-1.2822 DASH DASH -0.2631
-2.1853 DASH DATA 0.0000
-2.8842 DASH DEADZONE 0.0000
-2.5832 DASH DECODE 0.0000
-2.8842 DASH DETACH 0.0000
-2.1853 DASH DEV -0.1091
-2.8842 DASH DEVICE -0.2430
-2.8842 DASH DEVICES 0.0000
-1.9300 DASH DICT -0.1675
-1.9811 DASH DICTIONARY 0.0000
-2.8842 DASH DL 0.0000
-2.5832 DASH DRIVER 0.0000
-2.8842 DASH ESSENTIAL 0.0000
-2.4071 DASH EVDEV 0.0000
-2.8842 DASH FEEDBACK 0.0000
-2.5832 DASH FIX 0.0000
-2.5832 DASH FONT 0.0000
-2.8842 DASH FORCE -0.2430
-2.8842 DASH GC 0.0000
-1.7081 DASH GET -0.1091
-2.5832 DASH GLOBAL 0.0000
-2.5832 DASH GRUB -0.1461
-2.4071 DASH GTK 0.0000
-2.1061 DASH HMM 0.0000
-2.8842 DASH HTTPS 0.0000
-2.4071 DASH I 0.0000
-2.5832 DASH IDEA 0.0000
-1.9300 DASH INMIC 0.0000
-2.5832 DASH INSTALLED 0.0000
-2.4071 DASH INTERACTIVE 0.0000
-2.5832 DASH INTERPOLATE 0.0000
-2.8842 DASH KDISCOUNT 0.0000
-2.5832 DASH KERNEL 0.0000
-2.8842 DASH KEYMAP 0.0000
-2.8842 DASH KNDISCOUNT 0.0000
-2.2822 DASH L 0.0000
-2.4071 DASH LANGUAGE2 0.0000
-2.2822 DASH LAUNCHER 0.0000
-2.8842 DASH LIST -0.2139
-1.8428 DASH LM -0.2009
-1.7081 DASH M 0.0000
-2.5832 DASH M64 0.0000
-2.2822 DASH MANAGER 0.0000
-2.8842 DASH MAXDEPTH 0.0000
-2.8842 DASH MIMIC 0.0000
-1.5620 DASH MODEL 0.0000
-2.2822 DASH MODEL_DIR 0.0000
-2.8842 DASH MY 0.0000
-2.8842 DASH NAME -0.1761
-2.1853 DASH NOSTRESS 0.0000
-2.5832 DASH O 0.0000
-2.0391 DASH PACKAGES 0.0000
-2.0391 DASH PIP -0.2523
-2.2822 DASH POWER 0.0000
-2.4071 DASH PRINTF 0.0000
-2.8842 DASH PROPERTIES 0.0000
-2.8842 DASH PYAUDIO 0.0000
-2.4071 DASH REPOSITORY 0.0000
-1.9300 DASH RF 0.0000
-1.7381 DASH SEQ2SEQ 0.0000
-2.8842 DASH SILENT 0.0000
-2.8842 DASH SR 0.0000
-2.5832 DASH TERMINAL 0.0000
-2.5832 DASH TEXT 0.0000
-2.8842 DASH THEMES 0.0000
-2.8842 DASH TRANSPORT 0.0000
-2.8842 DASH TRIGGER 0.0000
-2.8842 DASH TWEAKS 0.0000
-2.4071 DASH TYPE -0.0969
-1.9811 DASH UPGRADE -0.0458
-2.0391 DASH US -0.1648
-2.4071 DASH V -0.2109
-2.5832 DASH VIEWER 0.0000
-2.2822 DASH X -0.0580
-2.5832 DASH XBOXDRV -0.1139
-2.8842 DASH XPAD -0.1891
-2.5832 DASH Y 0.0000
-2.8842 DASH Y1=Y1, 0.0000
-2.8842 DASH Y2=Y2 0.0000
-0.3010 DATA SLASH -0.2736
-0.3010 DATA\\ FILES 0.0000
-0.3010 DEADZONE 4000 0.0000
-0.3010 DEB </s> -0.3010
-0.3010 DECODE ~ 0.0000
-0.3010 DEFAULT SLASH -0.2995
-0.3010 DESKTOP SLASH -0.2682
-0.3010 DETACH DASH -0.2999
-0.6690 DEV </s> -0.3010
-0.8451 DEV PYTHON -0.1597
-0.8451 DEV SLASH -0.3000
-0.9031 DEVICE DASH -0.3005
-0.4260 DEVICE SLASH -0.2868
-0.3010 DEVICES </s> -0.3010
-0.6690 DIC </s> -0.3010
-0.8451 DIC DASH -0.2976
-0.8451 DIC PRONOUNCIATION 0.0000
-0.9294 DICT 5031 0.0000
-1.5315 DICT 80 0.0000
-0.9294 DICT </s> -0.3010
-0.9294 DICT DASH -0.2976
-0.9294 DICT PRONOUNCIATION 0.0000
-0.3010 DICTIONARY DOT -0.2929
-0.3010 DIRNAME(SR DOT -0.3000
-0.6990 DISCORD </s> -0.3010
-0.5229 DISCORD DASH -0.2982
-0.3010 DIST DASH -0.2924
-0.9031 DKMS </s> -0.3010
-0.6021 DKMS INSTALL -0.2759
-0.9031 DKMS SLASH -0.2985
-0.3010 DL </s> -0.3010
-0.7782 DMPS FORCE -0.1761
-0.4771 DMPS OFF 0.0000
-2.4314 DOT 0 -0.1027
-2.3064 DOT 1 -0.2109
-2.2095 DOT 2 -0.1249
-2.6075 DOT 3 -0.2840
-2.4314 DOT 4 -0.1549
-2.6075 DOT 41 0.0000
-2.9085 DOT 4\N 0.0000
-2.9085 DOT 4\NSUDO 0.0000
-2.1303 DOT 6 -0.1627
-2.9085 DOT 7Z' 0.0000
-2.6075 DOT 8 0.0000
-2.4314 DOT 9 0.0000
-2.6075 DOT </s> -0.3010
-2.9085 DOT AC 0.0000
-1.8293 DOT BIN -0.0969
-2.4314 DOT CFG 0.0000
-2.4314 DOT COM 0.0000
-2.9085 DOT CONF 0.0000
-2.6075 DOT CONFIG -0.1761
-2.9085 DOT D -0.2430
-1.8671 DOT DEB 0.0000
-2.0634 DOT DIC 0.0000
-2.0054 DOT DICT -0.1845
-2.6075 DOT DIRNAME(SR 0.0000
-1.7945 DOT DOT -0.2896
-2.9085 DOT EMAIL 0.0000
-2.9085 DOT FISH -0.2430
-2.6075 DOT GIT -0.2499
-2.6075 DOT GITIGNORE 0.0000
-2.3064 DOT GZ 0.0000
-2.9085 DOT GZ\N 0.0000
-2.9085 DOT H 0.0000
-2.9085 DOT ICONS 0.0000
-2.9085 DOT IO 0.0000
-1.5468 DOT LM 0.0000
-2.1303 DOT LOCAL 0.0000
-2.9085 DOT LOG 0.0000
-2.9085 DOT NAME -0.1761
-2.9085 DOT NET 0.0000
-2.6075 DOT OGG 0.0000
-2.9085 DOT OH 0.0000
-2.9085 DOT PART 0.0000
-2.6075 DOT PATH 0.0000
-0.8440 DOT PY 0.0000
-2.9085 DOT PYPA 0.0000
-2.1303 DOT RAR 0.0000
-1.6297 DOT SLASH -0.2611
-2.2095 DOT TAR 0.0000
-2.9085 DOT TTF 0.0000
-1.6532 DOT TXT 0.0000
-2.9085 DOT UK" 0.0000
-0.9842 DOT WAV 0.0000
-2.9085 DOT WMG 0.0000
-2.6075 DOT __FILE__))\N" 0.0000
-0.3010 DOWNLOADS SLASH -0.2741
-0.3010 DOWNLOAD\NTAR XF 0.0000
-0.4771 DPKG DASH -0.2993
-0.7782 DPKG DISCORD -0.1461
-0.3010 DPMS FORCE -0.0969
-1.2553 DRACULA 120 -0.1249
-0.3522 DRACULA DOT -0.2535
-0.6021 DRIVER </s> -0.3010
-0.6021 DRIVER DASH -0.2777
-1.2041 ECHO 0 -0.2863
-0.9031 ECHO 1 -0.2730
-1.2041 ECHO 15 -0.2218
-0.9031 ECHO 4 -0.2341
-1.2041 ECHO 5 -0.2888
-1.2041 ECHO DASH -0.3005
-0.3010 ELCODE </s> -0.3010
-0.3010 ELECTED </s> -0.3010
-0.3010 ELEMENTARY DASH -0.3005
-0.3010 ELETWEAKS </s> -0.3010
-0.3010 EMAIL "CLOSEG@CARDIFF 0.0000
-0.3010 EN DASH -0.2947
-0.3010 ENV </s> -0.3010
-0.3010 ESG | -0.2341
-0.3010 ESSENTIAL SWIG -0.1761
-0.3010 ETC SLASH -0.2995
-0.3010 EUROPE </s> -0.3010
-0.4771 EVDEV DASH -0.2999
-0.7782 EVDEV SLASH -0.3000
-0.3010 EVENTX \\\N 0.0000
-0.3010 EXIT </s> -0.3010
-0.3010 EZGIT "IMPLEMENTED 0.0000
-0.3010 F </s> -0.3010
-0.3010 FDISK DASH -0.2988
-0.3010 FEEDBACK \\\N 0.0000
-0.3010 FILE DOT -0.2535
-0.3010 FILES SLASH -0.2747
-0.3010 FILESYSTEM DOT -0.2913
-0.3010 FILESYSTEM_CLEANED DOT -0.2913
-0.3010 FILESYSTEM_CLEANED_WORDS DOT -0.2913
-0.9542 FIND </s> -0.3010
-1.2553 FIND NGRAM -0.2218
-1.2553 FIND SIDEWINDER 0.0000
-0.5563 FIND SLASH -0.2731
-1.0000 FIREFOX </s> -0.3010
-0.3979 FIREFOX DOT -0.2535
-0.6021 FISH </s> -0.3010
-0.9031 FISH SLASH -0.2985
-0.9031 FISH | -0.2688
-0.3979 FISH_HISTORY </s> -0.3010
-1.0000 FISH_HISTORY DOT -0.2907
-0.3010 FISH_HISTORY_CLEANED </s> -0.3010
-0.3010 FIX DASH -0.2999
-0.3010 FOLDERS DOT -0.2913
-0.3010 FONT DASH -0.2999
-0.3010 FOR PURISTS 0.0000
-0.9031 FORCE DASH -0.3005
-0.6021 FORCE OFF 0.0000
-0.9031 FORCE ON 0.0000
-0.3010 FORMULA_ONE_1984 DOT -0.3005
-0.6021 FORTUNE COWSAW 0.0000
-0.6021 FORTUNE COWSAY 0.0000
-0.3010 FUNCSAVE TESTSR 0.0000
-0.3010 FUNCTION TESTSR\NPOCKETSPHINX_CONTINUOUS 0.0000
-0.3010 FUNCTIONS </s> -0.3010
-0.3010 G SLASH -0.2965
-1.5051 G2P </s> -0.3010
-0.3590 G2P DASH -0.2930
-1.5051 G2P SLASH -0.2752
-0.3010 G2P%20MODELS SLASH -0.2980
-0.3010 GAMES SLASH -0.2747
-0.3010 GAWK </s> -0.3010
-0.3010 GC SLASH -0.3005
-0.6021 GDEBI </s> -0.3010
-0.6021 GDEBI MINECRAFT -0.0969
-1.6232 GET </s> -0.3010
-0.9243 GET DASH -0.2970
-1.6232 GET DOT -0.3005
-0.5819 GET INSTALL -0.2353
-1.6232 GET PURGE 0.0000
-1.6232 GET REMOVE -0.1761
-1.6232 GET UPDATE -0.1249
-0.3010 GET_WORDS DOT -0.2339
-1.2553 GIT </s> -0.3010
-0.9542 GIT CLONE 0.0000
-0.9542 GIT CONFIG -0.1761
-1.2553 GIT IGNORE 0.0000
-1.2553 GIT LIBPULSE 0.0000
-0.9542 GIT SLASH -0.2975
-0.3010 GITHUB DOT -0.2994
-0.3010 GITIGNORE </s> -0.3010
-0.3010 GLOBAL USER 0.0000
-0.3010 GLUE </s> -0.3010
-0.3010 GNOME DASH -0.2988
-0.3010 GOOGLE DOT -0.2994
-0.6021 GREP FIREFOX -0.2553
-0.6021 GREP THINKPAD -0.1761
-0.5229 GRUB </s> -0.3010
-1.0000 GRUB DOT -0.2994
-1.0000 GRUB SLASH -0.2995
-0.3010 GTK </s> -0.3010
-0.9031 GZ </s> -0.3010
-0.9031 GZ DOT -0.3005
-0.9031 GZ HTTPS: 0.0000
-0.9031 GZ SLASH -0.3005
-0.3010 GZIP </s> -0.3010
-0.3010 GZ\N </s> -0.3010
-0.3010 H </s> -0.3010
-1.0792 HMM ACOUSTIC 0.0000
-0.3802 HMM DOT -0.2940
-0.3010 HOME SLASH -0.3005
-0.3010 HTTPS WGET 0.0000
-0.3010 HTTPS: SLASH -0.2975
-0.4771 I CODE_1 0.0000
-0.7782 I DISCORD -0.1461
-0.3010 I686 DASH -0.2999
-0.3010 ICONS </s> -0.3010
-0.3010 IDEA DASH -0.2999
-0.3010 IDEAIC DASH -0.2999
-0.3010 IGNORE * -0.1761
-0.3010 INECRAFT DASH -0.2988
-0.3010 INMIC YES 0.0000
-0.3010 INPUT SLASH -0.3005
-0.3010 INPUTMONO SLASH -0.2990
-0.3010 INPUT_FONTS SLASH -0.2741
-0.3010 INS </s> -0.3010
-1.5514 INSTALL </s> -0.3010
-2.2504 INSTALL AUDACITY 0.0000
-2.2504 INSTALL AUDIACITY 0.0000
-2.2504 INSTALL CAJA 0.0000
-2.2504 INSTALL CLIGHT 0.0000
-2.2504 INSTALL CODE 0.0000
-1.2504 INSTALL DASH -0.2674
-1.7733 INSTALL DISCORD 0.0000
-2.2504 INSTALL DKMS -0.2430
-1.7733 INSTALL DOT -0.2913
-2.2504 INSTALL ELEMENTARY 0.0000
-2.2504 INSTALL ELETWEAKS 0.0000
-2.2504 INSTALL FISH -0.1761
-1.9494 INSTALL FORTUNE 0.0000
-2.2504 INSTALL GAWK 0.0000
-2.2504 INSTALL GDEBI -0.1761
-2.2504 INSTALL GIT -0.2762
-2.2504 INSTALL GNOME 0.0000
-2.2504 INSTALL INTELLIJ 0.0000
-2.2504 INSTALL JSTEST 0.0000
-2.2504 INSTALL LAMBDA 0.0000
-2.2504 INSTALL LIBASOUND2 0.0000
-2.2504 INSTALL LIBPULSE 0.0000
-1.4053 INSTALL MINECRAFT 0.0000
-2.2504 INSTALL NAUTILUS 0.0000
-2.2504 INSTALL NUMPY 0.0000
-1.7733 INSTALL OPENMW -0.1576
-1.9494 INSTALL POCKETSPHINX -0.1919
-2.2504 INSTALL PORTAUDIO19 0.0000
-1.6484 INSTALL PYAUDIO 0.0000
-2.2504 INSTALL PYTHON3 -0.2775
-2.2504 INSTALL SETUPTOOLS -0.2430
-2.2504 INSTALL SNAP -0.2672
-2.2504 INSTALL SNAPD 0.0000
-2.2504 INSTALL SOFTWARE 0.0000
-2.2504 INSTALL SPOTIFY 0.0000
-2.2504 INSTALL STEAM 0.0000
-2.2504 INSTALL SWIG -0.1761
-1.7733 INSTALL TENSOR2TENSOR 0.0000
-2.2504 INSTALL TENSOR2TENSOR[TENSORFLOW] 0.0000
-2.2504 INSTALL TENSOR2TENSOR[TENSORFLOW_GPU] 0.0000
-1.9494 INSTALL TENSORFLOW 0.0000
-2.2504 INSTALL TENSORFLOW1 0.0000
-2.2504 INSTALL TENSORFLOW==1 0.0000
-2.2504 INSTALL UBUNTU 0.0000
-2.2504 INSTALL UKUU -0.2041
-2.2504 INSTALL UNRAR -0.2430
-2.2504 INSTALL VBETOOL -0.2218
-2.2504 INSTALL VLC -0.2430
-2.2504 INSTALL VS 0.0000
-2.2504 INSTALL VSCODE 0.0000
-2.2504 INSTALL XBACKLIGHT -0.2341
-2.2504 INSTALL XBOXDRV -0.1139
-2.2504 INSTALL XBRIGHTNESS -0.1761
-2.2504 INSTALL XFCE4 0.0000
-2.2504 INSTALL XPAD -0.2374
-0.6021 INSTALLED </s> -0.3010
-0.6021 INSTALLED | -0.2341
-0.3010 INTELLIJ DASH -0.2999
-0.3010 INTERACTIVE DASH -0.2777
-0.3010 INTERPOLATE DASH -0.2999
-0.3010 IO SLASH -0.3000
-0.3010 JOURNALCTL DASH -0.2999
-0.3010 JSTEST DASH -0.2993
-0.9031 KDIR DOT -0.3005
-0.9031 KDIR LANGUAGES -0.2632
-0.9031 KDIR SRILM -0.1761
-0.9031 KDIR ~ 0.0000
-0.3010 KDISCOUNT DASH -0.2999
-0.3010 KERNEL DASH -0.2999
-0.3010 KEYMAP BTN_TL=LT,BTN_TR=RT,BTN_SOUTH=A,BTN_EAST=B,BTN_C=X,BTN_NORTH=Y,BTN_WEST=LB,BTN_Z=RB,BTN_SELECT=TL,BTN_START=TR,BTN_TL2=BACK,BTN_TR2=START,BTN_MODE=GUIDE 0.0000
-0.3010 KNDISCOUNT DASH -0.2999
-0.3010 KS </s> -0.3010
-0.4260 L </s> -0.3010
-0.9031 L HTTPS: 0.0000
-0.3010 LA </s> -0.3010
-0.3010 LAMBDA </s> -0.3010
-0.3010 LANGUAGE DASH -0.2890
-0.3010 LANGUAGE2 SLASH -0.2985
-1.0792 LANGUAGES </s> -0.3010
-0.3802 LANGUAGES SLASH -0.2709
-0.3010 LANGUAGE_MODEL DOT -0.2885
-0.3010 LAUNCHER </s> -0.3010
-1.2553 LIB </s> -0.3010
-0.3522 LIB SLASH -0.2970
-0.3010 LIBASOUND2 DASH -0.2982
-0.3010 LIBPULSE DASH -0.2982
-0.3010 LICENSE DOT -0.2913
-0.7404 LIST </s> -0.3010
-1.3424 LIST COLOUR 0.0000
-0.5643 LIST DASH -0.2747
-1.1335 LM 5031 0.0000
-1.3554 LM </s> -0.3010
-1.2304 LM DASH -0.2959
-0.7533 LM DOT -0.2945
-1.0544 LM LANGUAGE 0.0000
-1.8325 LM LANGUAGE_MODEL 0.0000
-1.3554 LM ~ 0.0000
-0.3010 LOCAL SLASH -0.2965
-0.3010 LOG </s> -0.3010
-0.3010 LOLCAT </s> -0.3010
-0.5166 LS </s> -0.3010
-1.6628 LS BIN -0.2430
-1.6628 LS DASH -0.3005
-1.3617 LS DOT -0.2535
-1.6628 LS DOWNLOADS 0.0000
-1.0607 LS SLASH -0.2883
-0.3010 LSUSB </s> -0.3010
-0.3010 LS_DOWNLOADS DOT -0.2535
-0.3979 M PIP -0.1347
-1.4771 M SITE -0.2632
-1.1761 M XPAD -0.1891
-0.3010 M64 SLASH -0.2752
-0.3010 MAJEL SLASH -0.2704
-0.3010 MAKE DOT -0.3005
-0.3010 MAKEFILE </s> -0.3010
-0.3010 MANAGER </s> -0.3010
-0.3010 MANIFESTO DOT -0.2535
-0.3010 MAXDEPTH 1 -0.2430
-0.3010 MAX_BRIGHTNESS </s> -0.3010
-0.3010 MICTEST DOT -0.2339
-0.3010 MIMIC DASH -0.3005
-0.9031 MINECRAFT </s> -0.3010
-0.4260 MINECRAFT DOT -0.2951
-0.3010 MMCW SLASH -0.2990
-1.0000 MODEL DASH -0.2982
-0.6198 MODEL DOT -0.2813
-0.7959 MODEL SLASH -0.2682
-0.4260 MODEL_DIR DOT -0.2940
-0.9031 MODEL_DIR MODEL_FOLDER_PATH 0.0000
-0.3010 MODEL_FOLDER_PATH </s> -0.3010
-0.3010 MODPROBE DOT -0.3005
-0.3010 MULTIMEDIA SLASH -0.2995
-0.6021 MV DASH -0.2959
-0.6021 MV THELDERSCR3IIMOMORROWINDGOTYGOG -0.2218
-0.3010 MY DOT -0.3005
-0.6021 NAME "GEORGE 0.0000
-0.6021 NAME "NINTENDO 0.0000
-1.1461 NANO DOT -0.3000
-1.1461 NANO MAKEFILE 0.0000
-1.1461 NANO SETUP 0.0000
-0.5441 NANO SLASH -0.2990
-0.3010 NAUTILUS </s> -0.3010
-0.3010 NET SLASH -0.3005
-0.7782 NGRAM </s> -0.3010
-0.4771 NGRAM DASH -0.2999
-0.3010 NIX DOT -0.2535
-0.3010 NIXON_RESIGNATION_AUDIO_WITH_BUZZ_REMOVED DOT -0.2523
-0.3010 NONE 3 -0.2663
-1.0000 NOSTRESS DOT -0.2983
-0.3979 NOSTRESS SLASH -0.2752
-0.3010 NUMPY </s> -0.3010
-0.6021 O G2P -0.0512
-0.6021 O GET -0.2460
-0.9031 ODE LANGUAGE 0.0000
-0.9031 ODE PRONOUNCIATION 0.0000
-0.6021 ODE ~ 0.0000
-0.3010 OFF </s> -0.3010
-0.6021 OGG 10 -0.2782
-0.6021 OGG </s> -0.3010
-0.3010 OH DASH -0.3005
-0.3010 OMF INSTALL -0.2986
-0.3010 ON </s> -0.3010
-0.6601 OPENMW </s> -0.3010
-0.9031 OPENMW DASH -0.2970
-1.5051 OPENMW DOT -0.2994
-1.2041 OPENMW OPENMW -0.2430
-1.2041 OPENMW SLASH -0.2985
-0.3010 OPTIONS THINKPAD -0.1761
-0.3010 OS DOT -0.3000
-0.3010 OUNT SLASH -0.3000
-0.3010 P ~ 0.0000
-0.3010 P; PRINT(P 0.0000
-0.3010 PACKAGES SLASH -0.2725
-0.3010 PAROJ SLASH -0.2985
-0.3010 PART </s> -0.3010
-0.3010 PATH AS -0.2041
-0.3010 PING GOOGLE 0.0000
-1.8195 PIP </s> -0.3010
-1.8195 PIP BUILD -0.1761
-1.1206 PIP DOT -0.2339
-0.4973 PIP INSTALL -0.2325
-1.8195 PIP PYTHON3 -0.2978
-1.3424 PIP SETUPTOOLS -0.0969
-1.8195 PIP UNINSTALL 0.0000
-0.3010 PKG DASH -0.2993
-0.3010 PLANK DASH -0.3005
-0.6532 POCKETSPHINX </s> -0.3010
-0.5563 POCKETSPHINX DASH -0.2982
-0.3010 POCKETSPHINX_CONTINUOUS DASH -0.2959
-0.3010 PORTAUDIO19 DASH -0.2982
-0.3010 POWER DASH -0.2988
-0.3010 PPA </s> -0.3010
-0.3010 PPA:OPENMW SLASH -0.2990
-0.3010 PPA:RAEL DASH -0.3005
-0.3010 PPA:TEEJEE2008 SLASH -0.3005
-0.3010 PRINT(P DOT -0.3000
-0.3010 PRINTF '%F\\N' 0.0000
-0.3010 PRO CONTROLLER" 0.0000
-0.3010 PROJECTS SLASH -0.3005
-0.3010 PRONOUNCIATION DASH -0.2965
-0.3010 PROPERTIES DASH -0.3005
-0.3010 PROTOTYPE" </s> -0.3010
-0.3010 PURGE XBOXDRV -0.2788
-0.3010 PURISTS DASH -0.3005
-1.5204 PY 1 -0.1938
-2.3655 PY 10 -0.2954
-1.8884 PY 2 -0.2218
-1.8884 PY 3 -0.2571
-2.3655 PY 4 -0.1963
-1.1350 PY 5 -0.0235
-1.5204 PY </s> -0.3010
-2.3655 PY ARMSTRONG_SMALL_STEP 0.0000
-2.3655 PY DASH -0.2999
-1.5204 PY DRACULA 0.0000
-2.3655 PY FILESYSTEM 0.0000
-2.3655 PY FILESYSTEM_CLEANED 0.0000
-2.0645 PY FIREFOX -0.0792
-2.3655 PY FOLDERS 0.0000
-2.3655 PY FORMULA_ONE_1984 0.0000
-2.3655 PY INS 0.0000
-1.8884 PY INSTALL -0.2887
-2.3655 PY LS -0.2817
-1.5873 PY LS_DOWNLOADS 0.0000
-1.7634 PY MANIFESTO 0.0000
-2.0645 PY NIX 0.0000
-2.3655 PY NIXON_RESIGNATION_AUDIO_WITH_BUZZ_REMOVED 0.0000
-2.0645 PY NONE 0.0000
-2.3655 PY SENTANCE1 0.0000
-2.3655 PY SENTANCE2 0.0000
-2.3655 PY SMALL_STEP 0.0000
-2.0645 PY SPECTRE 0.0000
-1.8884 PY SPEECH 0.0000
-2.3655 PY SPEECH_EDIT 0.0000
-1.6665 PY SUDO -0.2900
-1.4112 PY SUDO_APT_UPDATE 0.0000
-2.3655 PY SUDO_LS -0.0512
-1.8884 PY TEST -0.2920
-1.6665 PY WATERGATE -0.1996
-2.0645 PY WATERGATE2 0.0000
-1.4624 PY ~ 0.0000
-0.3010 PYAUDIO </s> -0.3010
-0.3010 PYPA DOT -0.3005
-0.5563 PYTHON DASH -0.2837
-0.9542 PYTHON GET -0.2460
-1.2553 PYTHON PYTHON -0.1597
-1.2553 PYTHON SETUP 0.0000
-2.1239 PYTHON3 </s> -0.3010
-2.4249 PYTHON3 ANEALING 0.0000
-2.1239 PYTHON3 CLEAN_FILESYSTEM 0.0000
-1.7259 PYTHON3 CLEAN_FISH 0.0000
-1.2788 PYTHON3 DASH -0.2872
-1.6467 PYTHON3 DOT -0.2978
-2.4249 PYTHON3 GET -0.2460
-2.4249 PYTHON3 GET_WORDS 0.0000
-2.4249 PYTHON3 MICTEST 0.0000
-1.6467 PYTHON3 SETUP 0.0000
-2.4249 PYTHON3 SLASH -0.3000
-0.4564 PYTHON3 TEST -0.0175
-0.3010 QUIT </s> -0.3010
-0.4771 RAR </s> -0.3010
-1.0792 RAR DASH -0.2988
-1.0792 RAR X -0.2341
-0.3010 README DOT -0.2913
-0.3010 REB </s> -0.3010
-0.3010 REBOOT </s> -0.3010
-0.3010 REM INSTALL -0.2936
-0.6021 REMOVE SNAP -0.2672
-0.6021 REMOVE XBOXDRV -0.1139
-0.7782 REPOSITORY DASH -0.2999
-0.7782 REPOSITORY PPA:OPENMW 0.0000
-0.7782 REPOSITORY PPA:TEEJEE2008 0.0000
-0.9542 RF DOT -0.2907
-1.2553 RF FIND -0.2499
-1.2553 RF INPUT_FONTS 0.0000
-1.2553 RF PLANK 0.0000
-1.2553 RF SCRIPTS 0.0000
-0.7782 RF ~ 0.0000
-1.1761 RM 5031 0.0000
-1.4771 RM CHANGELOG 0.0000
-0.8751 RM DASH -0.2959
-1.1761 RM IDEAIC 0.0000
-1.4771 RM INSTALL -0.2936
-1.4771 RM LANGUAGE_MODEL 0.0000
-1.4771 RM LICENSE 0.0000
-1.4771 RM NIXON_RESIGNATION_AUDIO_WITH_BUZZ_REMOVED 0.0000
-1.4771 RM PRONOUNCIATION 0.0000
-1.4771 RM README 0.0000
-0.3010 RMMOD XPAD -0.2374
-0.3010 RN LICENSE 0.0000
-0.3010 ROOT </s> -0.3010
-0.3010 S </s> -0.3010
-0.3010 SCRIPTS SLASH -0.2752
-0.3010 SDA </s> -0.3010
-0.3010 SENTANCE1 DOT -0.2535
-0.3010 SENTANCE2 DOT -0.2535
-1.4472 SEQ2SEQ </s> -0.3010
-0.3680 SEQ2SEQ DASH -0.2607
-1.4472 SEQ2SEQ SLASH -0.2752
-0.3010 SET 0 -0.2553
-0.3010 SETTINGS DOT -0.2994
-0.3010 SETUP DOT -0.2339
-0.9031 SETUPTOOLS </s> -0.3010
-0.9031 SETUPTOOLS WHEEL 0.0000
-0.6021 SETUPTOOLS WHEELS 0.0000
-0.3010 SHARE SLASH -0.3005
-0.3010 SIDEWINDER DOT -0.3005
-0.3010 SILENT DASH -0.2777
-1.0792 SITE </s> -0.3010
-0.3802 SITE DASH -0.2970
-2.3355 SLASH * 0.0000
-2.9375 SLASH 0 -0.1027
-1.2385 SLASH </s> -0.3010
-2.9375 SLASH > -0.2730
-2.0924 SLASH ACOUSTIC 0.0000
-1.6588 SLASH ACPI_VIDEO0 0.0000
-2.6365 SLASH ACTUAL_BRIGHTNESS 0.0000
-1.4904 SLASH BACKLIGHT -0.0147
-2.9375 SLASH BIN -0.2430
-2.9375 SLASH BOOT 0.0000
-2.9375 SLASH BOOTSTRAP 0.0000
-1.7914 SLASH BRIGHTNESS 0.0000
-2.9375 SLASH BUILD -0.1761
-2.4604 SLASH CL -0.2430
-2.4604 SLASH CL2 -0.1903
-1.5396 SLASH CLASS 0.0000
-2.9375 SLASH CMUSPHINX 0.0000
-2.9375 SLASH COMMANDS2 0.0000
-2.9375 SLASH COMPOP 0.0000
-2.9375 SLASH CW1 0.0000
-2.4604 SLASH CWNEW 0.0000
-2.4604 SLASH DASH -0.2988
-2.9375 SLASH DATA\\ 0.0000
-2.9375 SLASH DEFAULT 0.0000
-1.8583 SLASH DESKTOP 0.0000
-2.6365 SLASH DEV -0.2341
-2.4604 SLASH DEVICE -0.0969
-2.6365 SLASH DIST 0.0000
-2.9375 SLASH DKMS -0.2430
-1.9833 SLASH DOT -0.2863
-2.9375 SLASH DOWNLOADS 0.0000
-2.9375 SLASH DOWNLOAD\NTAR 0.0000
-2.0344 SLASH EN 0.0000
-2.4604 SLASH ETC 0.0000
-2.9375 SLASH EVENTX 0.0000
-2.9375 SLASH FILE 0.0000
-2.9375 SLASH FILES 0.0000
-2.6365 SLASH FILESYSTEM_CLEANED 0.0000
-2.6365 SLASH FILESYSTEM_CLEANED_WORDS 0.0000
-2.1594 SLASH FIREFOX -0.0792
-2.9375 SLASH FISH -0.2430
-2.2385 SLASH FISH_HISTORY 0.0000
-2.9375 SLASH G 0.0000
-2.1594 SLASH G2P -0.0263
-2.9375 SLASH G2P%20MODELS 0.0000
-2.4604 SLASH GAMES 0.0000
-2.6365 SLASH GET -0.2341
-2.6365 SLASH GITHUB 0.0000
-2.4604 SLASH GRUB 0.0000
-2.9375 SLASH HOME 0.0000
-2.9375 SLASH I686 0.0000
-2.9375 SLASH INPUT 0.0000
-2.6365 SLASH INPUTMONO 0.0000
-2.6365 SLASH INPUT_FONTS 0.0000
-2.2385 SLASH LANGUAGES -0.0669
-2.0344 SLASH LIB -0.0458
-2.9375 SLASH LOCAL 0.0000
-2.9375 SLASH LS -0.2817
-1.8961 SLASH MAJEL 0.0000
-2.9375 SLASH MAKE 0.0000
-2.3355 SLASH MAX_BRIGHTNESS 0.0000
-2.4604 SLASH MMCW 0.0000
-2.3355 SLASH MODEL -0.1818
-2.9375 SLASH MODPROBE 0.0000
-2.4604 SLASH MULTIMEDIA 0.0000
-2.6365 SLASH NGRAM -0.1249
-2.3355 SLASH OPENMW -0.1383
-2.6365 SLASH PAROJ 0.0000
-2.3355 SLASH POCKETSPHINX -0.1597
-2.9375 SLASH PPA 0.0000
-2.9375 SLASH PROJECTS 0.0000
-2.0924 SLASH PYTHON3 -0.2894
-2.9375 SLASH SDA 0.0000
-2.9375 SLASH SETTINGS 0.0000
-2.9375 SLASH SHARE 0.0000
-2.2385 SLASH SITE -0.0669
-2.0924 SLASH SLASH -0.2945
-2.9375 SLASH SNAP -0.2900
-2.3355 SLASH SOUNDS 0.0000
-2.9375 SLASH SOURCEFORGE 0.0000
-2.9375 SLASH SPEECH_EDIT 0.0000
-2.2385 SLASH SPEECH_RECOGNITION -0.1091
-2.9375 SLASH SPOTIFY 0.0000
-2.6365 SLASH SRC 0.0000
-2.6365 SLASH SUDO -0.2900
-2.3355 SLASH SUDO_APT_UPDATE 0.0000
-2.0924 SLASH SUDO_LS 0.0000
-1.5396 SLASH SYS 0.0000
-2.9375 SLASH THELDERSCR3IIMOMORROWINDGOTYGOG -0.2218
-2.1594 SLASH THINKPAD_SCREEN 0.0000
-2.9375 SLASH TYPE -0.2430
-2.9375 SLASH UBUNTU 0.0000
-2.4604 SLASH ULTIMATE_QUESTION_INTRO 0.0000
-2.0924 SLASH USR 0.0000
-2.9375 SLASH VAR 0.0000
-2.9375 SLASH X11 0.0000
-2.9375 SLASH XORG 0.0000
-2.2385 SLASH XPAD -0.1047
-1.8961 SLASH YEAR\\ 0.0000
-2.3355 SLASH \NEND 0.0000
-2.9375 SLASH ~ 0.0000
-0.3010 SMALL </s> -0.3010
-0.3010 SMALL_STEP DOT -0.2535
-1.1249 SNAP </s> -0.3010
-1.1249 SNAP DASH -0.2747
-0.9031 SNAP INSTALL -0.2707
-0.7570 SNAP LIST 0.0000
-1.6021 SNAP SLASH -0.3005
-1.6021 SNAP UPDATE -0.1249
-0.3010 SNAPD </s> -0.3010
-0.3010 SOFTWARE DASH -0.3005
-0.3010 SOUNDS SLASH -0.2622
-0.3010 SOURCEFORGE DOT -0.3005
-0.3010 SPECTRE DOT -0.2535
-0.3010 SPEECH DOT -0.2535
-0.3010 SPEECH_EDIT DOT -0.2535
-0.8451 SPEECH_RECOGNITION AS -0.2041
-0.4472 SPEECH_RECOGNITION SLASH -0.2731
-0.3010 SPOTIFY </s> -0.3010
-0.3010 SR </s> -0.3010
-0.3010 SR, OS 0.0000
-0.3010 SRC SLASH -0.2985
-0.6021 SRILM </s> -0.3010
-0.6021 SRILM SLASH -0.2752
-0.3010 STEAM </s> -0.3010
-0.6021 SU </s> -0.3010
-0.6021 SU ROOT 0.0000
-2.4440 SUDO !! 0.0000
-1.5410 SUDO </s> -0.3010
-2.4440 SUDO ADD 0.0000
-0.6659 SUDO APT -0.0126
-1.4898 SUDO CP 0.0000
-2.1430 SUDO DASH -0.2993
-2.4440 SUDO DKMS -0.1761
-1.5989 SUDO DOT -0.2535
-1.9669 SUDO DPKG 0.0000
-2.1430 SUDO ECHO -0.1761
-2.4440 SUDO FDISK 0.0000
-2.4440 SUDO GDEBI -0.1761
-2.1430 SUDO GIT -0.2499
-2.1430 SUDO GNOME 0.0000
-2.4440 SUDO LS -0.2615
-2.1430 SUDO MV 0.0000
-2.1430 SUDO NANO -0.1549
-2.4440 SUDO NAUTILUS 0.0000
-2.4440 SUDO PIP -0.1347
-2.4440 SUDO PYTHON -0.2499
-1.4027 SUDO PYTHON3 -0.2653
-1.9669 SUDO RM -0.2389
-2.4440 SUDO RMMOD 0.0000
-1.8420 SUDO SNAP -0.1903
-1.8420 SUDO TEE 0.0000
-2.4440 SUDO UKUU -0.1461
-2.4440 SUDO UNRAR -0.2430
-2.4440 SUDO UPDATE -0.2632
-2.4440 SUDO VBETOOL -0.1249
-1.9669 SUDO XBOXDRV -0.0414
-2.4440 SUDO XFCE4 0.0000
-0.3010 SUDO_APT_UPDATE DOT -0.2535
-1.2041 SUDO_LS </s> -0.3010
-0.3590 SUDO_LS DOT -0.2535
-0.3010 SUDP APT -0.2319
-0.6021 SUN 10 -0.2897
-0.6021 SUN </s> -0.3010
-0.6021 SWIG </s> -0.3010
-0.6021 SWIG GIT -0.2762
-0.3010 SWITCH PRO 0.0000
-0.3010 SYS SLASH -0.2883
-0.3010 TAR DOT -0.2983
-0.3010 TEE SLASH -0.2883
-0.3010 TENSOR2TENSOR </s> -0.3010
-0.3010 TENSOR2TENSOR[TENSORFLOW] </s> -0.3010
-0.3010 TENSOR2TENSOR[TENSORFLOW_GPU] </s> -0.3010
-0.3010 TENSORFLOW </s> -0.3010
-0.3010 TENSORFLOW1 DOT -0.3000
-0.3010 TENSORFLOW==1 DOT -0.3000
-0.3010 TERMINAL </s> -0.3010
-1.6857 TEST </s> -0.3010
-0.3193 TEST DOT -0.2339
-0.3010 TESTSR </s> -0.3010
-0.3010 TESTSR\NPOCKETSPHINX_CONTINUOUS DASH -0.2959
-0.3010 TEXT ~ 0.0000
-0.3010 THE </s> -0.3010
-0.4771 THELDERSCR3IIMOMORROWINDGOTYGOG DOT -0.2978
-0.7782 THELDERSCR3IIMOMORROWINDGOTYGOG SLASH -0.2970
-0.3010 THEMES SLASH -0.2752
-0.6021 THINKPAD </s> -0.3010
-0.6021 THINKPAD DASH -0.3005
-0.3010 THINKPAD_SCREEN SLASH -0.2904
-0.3010 TO </s> -0.3010
-0.3010 TOUCH DOT -0.3000
-0.3010 TRANSPORT DASH -0.3005
-0.3010 TRIGGER DASH -0.3005
-0.3010 TTF </s> -0.3010
-0.3010 TWEAKS </s> -0.3010
-0.4771 TXT </s> -0.3010
-0.9542 TXT DASH -0.2711
-1.2553 TXT ~ 0.0000
-0.9031 TYPE </s> -0.3010
-0.4260 TYPE D -0.0969
-0.3010 UBUNTU DASH -0.2999
-0.3010 UK" </s> -0.3010
-0.6990 UKUU </s> -0.3010
-0.5229 UKUU DASH -0.2747
-0.3010 ULTIMATE_QUESTION_INTRO DOT -0.2535
-0.6021 UNAME </s> -0.3010
-0.6021 UNAME DASH -0.3005
-0.3010 UNI </s> -0.3010
-0.3010 UNINSTALL TENSORFLOW 0.0000
-0.9031 UNRAR </s> -0.3010
-0.7270 UNRAR DASH -0.2988
-1.2041 UNRAR THELDERSCR3IIMOMORROWINDGOTYGOG -0.1249
-0.9031 UNRAR X -0.1091
-0.4771 UPDATE </s> -0.3010
-1.3802 UPDATE CL -0.2632
-1.0792 UPDATE DASH -0.2999
-1.3802 UPDATE OPENMW -0.1938
-1.2553 UPGRADE </s> -0.3010
-1.2553 UPGRADE OPENMW -0.1938
-0.6532 UPGRADE PIP -0.2739
-0.9542 UPGRADE POCKETSPHINX -0.1919
-1.2553 UPGRADE PYAUDIO 0.0000
-0.3010 URAR THELDERSCR3IIMOMORROWINDGOTYGOG -0.1249
-0.6021 URL DASH -0.2988
-0.6021 URL HTTPS: 0.0000
-1.4150 US COUNT -0.1091
-1.4150 US LS -0.1434
-0.5699 US SLASH -0.2715
-1.1139 US SUDO -0.2883
-1.4150 US TO 0.0000
-1.4150 US UPDATE -0.1249
-0.3010 USB DASH -0.3005
-0.3010 USER DOT -0.3000
-0.3010 USR SLASH -0.2940
-1.2041 V * -0.1761
-0.9031 V 0 -0.1027
-1.2041 V </s> -0.3010
-1.2041 V DOT -0.2940
-1.2041 V FOLDERS 0.0000
-1.2041 V SPEECH_EDIT 0.0000
-1.2041 V THELDERSCR3IIMOMORROWINDGOTYGOG -0.2218
-0.3010 VAR SLASH -0.2970
-0.7782 VBETOOL </s> -0.3010
-0.4771 VBETOOL DMPS -0.1249
-0.6021 VIEWER DOWNLOADS 0.0000
-0.6021 VIEWER ~ 0.0000
-0.9031 VLC </s> -0.3010
-0.6021 VLC DRACULA -0.0458
-0.9031 VLC FILE 0.0000
-0.3010 VS DASH -0.3005
-0.3010 VSCODE </s> -0.3010
-0.5351 WATERGATE </s> -0.3010
-0.6812 WATERGATE DOT -0.2535
-0.3010 WATERGATE2 DOT -0.2535
-0.6690 WAV 10 -0.0110
-1.9243 WAV 120 0.0000
-1.9243 WAV 15 -0.1249
-2.2253 WAV 3 -0.2752
-1.5263 WAV 30 0.0000
-2.2253 WAV 4 -0.2688
-2.2253 WAV 40 -0.1761
-1.4472 WAV 60 0.0000
-0.8274 WAV </s> -0.3010
-2.2253 WAV DOT -0.2907
-2.2253 WAV SENTANCE1 0.0000
-2.2253 WAV SUN -0.1761
-2.2253 WAV WATERGATE -0.1513
-2.2253 WAV ~ 0.0000
-0.3010 WGET </s> -0.3010
-0.3010 WHEEL </s> -0.3010
-0.3010 WHEELS </s> -0.3010
-0.3010 WMG </s> -0.3010
-1.1461 X 'PATCH 0.0000
-0.8451 X </s> -0.3010
-0.5441 X THELDERSCR3IIMOMORROWINDGOTYGOG -0.1249
-0.3010 X11 SLASH -0.3005
-0.3010 X1= DASH -0.3005
-1.1461 XBACKLIGHT 0 -0.2553
-0.8451 XBACKLIGHT </s> -0.3010
-0.8451 XBACKLIGHT = 0.0000
-1.1461 XBACKLIGHT DASH -0.2924
-1.1461 XBACKLIGHT SET 0.0000
-0.4559 XBOXDRV </s> -0.3010
-1.3010 XBOXDRV DASH -0.2777
-1.3010 XBOXDRV XBOXDRV:I386 0.0000
-1.3010 XBOXDRV –DETACH 0.0000
-0.3010 XBOXDRV:I386 </s> -0.3010
-0.6021 XBRIGHTNESS 1 -0.2872
-0.6021 XBRIGHTNESS </s> -0.3010
-0.3010 XENV </s> -0.3010
-0.3010 XEV </s> -0.3010
-0.3010 XF G2P -0.0512
-0.3010 XFCE4 DASH -0.2988
-0.3010 XINPUT </s> -0.3010
-0.3010 XORG DOT -0.3005
-0.8653 XPAD </s> -0.3010
-0.6435 XPAD DASH -0.2729
-1.0414 XPAD DOT -0.3000
-1.3424 XPAD SLASH -0.3005
-0.9031 XSET DMPS -0.2218
-0.6021 XSET DPMS 0.0000
-0.9031 XSET S 0.0000
-0.6021 Y PPA:RAEL 0.0000
-0.6021 Y PYTHON -0.2762
-0.3010 Y1=Y1, DASH -0.3005
-0.3010 Y2=Y2 \\\N 0.0000
-0.3010 YEAR\\ 3 -0.1532
-0.3010 YES DASH -0.2947
-0.3010 YOUTUBE DASH -0.3005
-0.3010 [1;5R </s> -0.3010
-0.3010 \NEND </s> -0.3010
-0.3010 \N\NWGET DASH -0.2999
-0.3010 \\\N DASH -0.2777
-0.3010 __FILE__))\N" </s> -0.3010
-1.1461 | FISH -0.1761
-0.8451 | GREP 0.0000
-0.5441 | SUDO -0.2947
-0.3010 |GREP BACKLIGHT -0.2935
-0.3010 ~ SLASH -0.2810
-0.3010 –DETACH DASH -0.2999

\3-grams:
-0.3010 "CLOSEG@CARDIFF DOT AC
-0.3010 "GEORGE CLOSE" </s>
-0.3010 "IMPLEMENTED PROTOTYPE" </s>
-0.3010 "IMPORT SPEECH_RECOGNITION AS
-0.3010 "NINTENDO SWITCH PRO
-0.3010 '%F\\N' > FOLDERS
-0.3010 'PATCH FOR PURISTS
-0.7782 * DOT TTF
-0.4771 * DOT WAV
-0.3010 * ~ SLASH
-0.8653 0 DOT 0
-0.8653 0 DOT 4
-1.3424 0 DOT 4\N
-1.3424 0 DOT 4\NSUDO
-0.8653 0 DOT 9
-0.3010 0 | SUDO
-0.3010 1 > SLASH
-0.9031 1 DASH 1575286395
-0.6021 1 DASH 1576681836_AMD64
-0.9031 1 DASH TYPE
-0.3010 1 DOT TAR
-0.3010 1 SOUNDS SLASH
-0.3010 10 BIRCH </s>
-1.0792 10 CL LS
-0.6021 10 CL SUDO
-0.7782 10 CL UPDATE
-0.3010 10 CL2 LS
-0.3010 10 COUNT </s>
-0.3010 10 SMALL </s>
-0.3010 10 SOUNDS SLASH
-0.3010 10 SUDO </s>
-0.3010 10 SUN </s>
-0.3010 10 THE </s>
-0.4771 10 UPDATE </s>
-0.7782 10 UPDATE CL
-1.0000 10 US COUNT
-0.6990 10 US SUDO
-1.0000 10 US TO
-1.0000 10 US UPDATE
-0.3010 10 WATERGATE </s>
-0.3010 100 | SUDO
-0.3010 120 COMMUNISM </s>
-0.3010 120 COUNT </s>
-0.3010 15 WATERGATE </s>
-0.3010 15 | SUDO
-0.3010 1575286395 DOT 7Z'
-0.3010 1576681836_AMD64 DOT DEB
-0.3010 2 CL2 </s>
-1.0792 2 DASH 1
-0.3802 2 DASH CMUDICT
-0.3010 2019 DOT 3
-0.3010 21743:0:30460,X2= DASH 28945:0:21951,Y2=
-0.3010 23636:0:30969 \\\N DASH
-0.3010 28945:0:21951,Y2= DASH 23636:0:30969
-0.3010 3 > SLASH
-0.7782 3 CL2 </s>
-0.4771 3 CL2 LS
-0.3010 3 DASH 2
-0.3010 3 DOT 1
-1.4771 3 SLASH COMPOP
-0.4357 3 SLASH MAJEL
-1.0000 3 SLASH MULTIMEDIA
-0.3010 3 US LS
-0.3010 30 COMMUNISM </s>
-0.3010 30 GLUE </s>
-0.3010 30 THE </s>
-0.3010 31320:0:20650,Y1= DASH 21743:0:30460,X2=
-0.3010 4 > SLASH
-0.3010 4 COUNT </s>
-0.3010 4 SLASH BUILD
-0.3010 40 COMMUNISM </s>
-0.3010 4000 DASH DASH
-0.3010 41 DOT 1
-0.3010 45096 DASH 3
-0.3010 4\NSUDO DKMS INSTALL
-0.3010 5 CL2 </s>
-0.3010 5 SOUNDS SLASH
-0.3010 5 | SUDO
-0.8062 5031 DOT DIC
-1.5051 5031 DOT DICT
-0.5051 5031 DOT LM
-0.3010 6 DOT 2
-1.0792 6 SLASH DIST
-0.3802 6 SLASH SITE
-0.3010 60 COMMUNISM </s>
-0.3010 60 ELECTED </s>
-0.3010 60 EUROPE </s>
-0.3010 60 WATERGATE </s>
-0.3010 7Z' SLASH USR
-0.3010 80 DOT DICT
-0.3010 9 DOT DEB
-0.3010 <s> + </s>
-0.3010 <s> AKE </s>
-0.3010 <s> ALSAMIXER </s>
-1.0792 <s> AN FIND
-1.0792 <s> AN FIREFOX
-1.0792 <s> AN GAWK
-1.0792 <s> AN SNAP
-1.0792 <s> AN UNRAR
-1.0792 <s> AN XFCE4
-0.6990 <s> APT DASH
-1.0000 <s> APT INSTALL
-0.6990 <s> APT LIST
-1.5315 <s> AT </s>
-1.5315 <s> AT FISH_HISTORY_CLEANED
-1.5315 <s> AT INSTALL
-1.5315 <s> AT MAKEFILE
-0.4523 <s> AT SLASH
-1.5315 <s> AT ~
-0.3010 <s> BIN SLASH
-0.3010 <s> BORED </s>
-0.3010 <s> DESKTOP SLASH
-0.6021 <s> DOT DOT
-1.0792 <s> DOT LOCAL
-0.7782 <s> DOT SLASH
-0.3010 <s> DOWNLOADS SLASH
-1.0792 <s> ECHO 0
-1.0792 <s> ECHO 1
-1.0792 <s> ECHO 15
-1.0792 <s> ECHO 4
-1.0792 <s> ECHO 5
-1.0792 <s> ECHO DASH
-0.3010 <s> ELCODE </s>
-0.3010 <s> EN DASH
-0.3010 <s> ENV </s>
-0.3010 <s> ESG |
-0.3010 <s> EXIT </s>
-0.3010 <s> EZGIT "IMPLEMENTED
-0.3010 <s> F </s>
-0.3010 <s> FDISK DASH
-1.1461 <s> FIND NGRAM
-1.1461 <s> FIND SIDEWINDER
-0.4472 <s> FIND SLASH
-0.3010 <s> FUNCSAVE TESTSR
-0.3010 <s> FUNCTION TESTSR\NPOCKETSPHINX_CONTINUOUS
-0.3010 <s> FUNCTIONS </s>
-0.3590 <s> G2P DASH
-1.2041 <s> G2P SLASH
-0.3010 <s> GAWK </s>
-0.4771 <s> GIT CONFIG
-0.7782 <s> GIT IGNORE
-0.3010 <s> GNOME DASH
-0.3010 <s> GZIP </s>
-0.3010 <s> I686 DASH
-0.3010 <s> INECRAFT DASH
-0.3010 <s> INTELLIJ DASH
-0.3010 <s> JOURNALCTL DASH
-0.3010 <s> JSTEST DASH
-0.9031 <s> KDIR DOT
-0.9031 <s> KDIR LANGUAGES
-0.9031 <s> KDIR SRILM
-0.9031 <s> KDIR ~
-0.3010 <s> KS </s>
-0.3010 <s> LA </s>
-0.3010 <s> LIB </s>
-1.1461 <s> LS </s>
-1.1461 <s> LS BIN
-1.1461 <s> LS DASH
-1.1461 <s> LS DOWNLOADS
-0.6690 <s> LS SLASH
-0.3010 <s> LSUSB </s>
-1.0000 <s> NANO DOT
-1.0000 <s> NANO MAKEFILE
-1.0000 <s> NANO SETUP
-0.6990 <s> NANO SLASH
-0.3010 <s> NAUTILUS </s>
-0.9031 <s> ODE LANGUAGE
-0.9031 <s> ODE PRONOUNCIATION
-0.6021 <s> ODE ~
-0.3010 <s> OMF INSTALL
-0.5229 <s> OPENMW </s>
-0.6990 <s> OPENMW DASH
-0.3010 <s> OPTIONS THINKPAD
-0.3010 <s> OUNT SLASH
-0.3010 <s> P ~
-0.3010 <s> PING GOOGLE
-0.3522 <s> PIP INSTALL
-1.2553 <s> PIP UNINSTALL
-0.3010 <s> PKG DASH
-0.3010 <s> POCKETSPHINX DASH
-0.3010 <s> POCKETSPHINX_CONTINUOUS DASH
-0.6021 <s> PYTHON DASH
-0.9031 <s> PYTHON GET
-0.9031 <s> PYTHON SETUP
-2.3541 <s> PYTHON3 </s>
-2.3541 <s> PYTHON3 ANEALING
-2.0531 <s> PYTHON3 CLEAN_FILESYSTEM
-1.6551 <s> PYTHON3 CLEAN_FISH
-1.5090 <s> PYTHON3 DASH
-2.3541 <s> PYTHON3 GET_WORDS
-2.3541 <s> PYTHON3 MICTEST
-2.0531 <s> PYTHON3 SETUP
-0.3856 <s> PYTHON3 TEST
-0.3010 <s> QUIT </s>
-0.3010 <s> REB </s>
-0.3010 <s> REBOOT </s>
-0.3010 <s> REM INSTALL
-1.3802 <s> RM 5031
-1.3802 <s> RM CHANGELOG
-0.7782 <s> RM DASH
-1.0792 <s> RM IDEAIC
-1.3802 <s> RM INSTALL
-1.3802 <s> RM LICENSE
-1.3802 <s> RM NIXON_RESIGNATION_AUDIO_WITH_BUZZ_REMOVED
-1.3802 <s> RM README
-0.3010 <s> RN LICENSE
-0.9031 <s> SLASH HOME
-0.9031 <s> SLASH SNAP
-0.6021 <s> SLASH USR
-1.0792 <s> SNAP DASH
-0.9031 <s> SNAP INSTALL
-0.5351 <s> SNAP LIST
-0.3010 <s> SPOTIFY </s>
-0.3010 <s> SRILM SLASH
-0.6021 <s> SU </s>
-0.6021 <s> SU ROOT
-2.3838 <s> SUDO !!
-2.3838 <s> SUDO </s>
-2.3838 <s> SUDO ADD
-0.6057 <s> SUDO APT
-1.4296 <s> SUDO CP
-2.0828 <s> SUDO DASH
-2.3838 <s> SUDO DKMS
-1.9067 <s> SUDO DPKG
-2.0828 <s> SUDO ECHO
-2.3838 <s> SUDO FDISK
-2.3838 <s> SUDO GDEBI
-2.0828 <s> SUDO GIT
-2.0828 <s> SUDO GNOME
-2.3838 <s> SUDO LS
-2.0828 <s> SUDO MV
-2.0828 <s> SUDO NANO
-2.3838 <s> SUDO NAUTILUS
-2.3838 <s> SUDO PIP
-2.3838 <s> SUDO PYTHON
-1.3424 <s> SUDO PYTHON3
-1.9067 <s> SUDO RM
-2.3838 <s> SUDO RMMOD
-1.7818 <s> SUDO SNAP
-2.3838 <s> SUDO UKUU
-2.3838 <s> SUDO UNRAR
-2.3838 <s> SUDO UPDATE
-2.3838 <s> SUDO VBETOOL
-1.9067 <s> SUDO XBOXDRV
-2.3838 <s> SUDO XFCE4
-0.3010 <s> SUDP APT
-0.3010 <s> TEST </s>
-0.3010 <s> TESTSR </s>
-0.3010 <s> TOUCH DOT
-0.7782 <s> UKUU </s>
-0.4771 <s> UKUU DASH
-0.6021 <s> UNAME </s>
-0.6021 <s> UNAME DASH
-0.3010 <s> UNI </s>
-0.5229 <s> UNRAR DASH
-1.0000 <s> UNRAR THELDERSCR3IIMOMORROWINDGOTYGOG
-1.0000 <s> UNRAR X
-0.3010 <s> UPDATE DASH
-0.3010 <s> URAR THELDERSCR3IIMOMORROWINDGOTYGOG
-0.6021 <s> URL DASH
-0.6021 <s> URL HTTPS:
-0.3010 <s> USB DASH
-1.0000 <s> V *
-1.0000 <s> V DOT
-1.0000 <s> V FOLDERS
-1.0000 <s> V SPEECH_EDIT
-1.0000 <s> V THELDERSCR3IIMOMORROWINDGOTYGOG
-0.3010 <s> VBETOOL DMPS
-0.4771 <s> VLC DRACULA
-0.7782 <s> VLC FILE
-1.0792 <s> XBACKLIGHT 0
-1.0792 <s> XBACKLIGHT </s>
-0.7782 <s> XBACKLIGHT =
-1.0792 <s> XBACKLIGHT DASH
-1.0792 <s> XBACKLIGHT SET
-0.3010 <s> XBOXDRV </s>
-0.3010 <s> XBRIGHTNESS 1
-0.3010 <s> XENV </s>
-0.3010 <s> XEV </s>
-0.3010 <s> XFCE4 DASH
-0.3010 <s> XINPUT </s>
-0.3010 <s> XPAD </s>
-0.9031 <s> XSET DMPS
-0.6021 <s> XSET DPMS
-0.9031 <s> XSET S
-0.3010 <s> YEAR\\ 3
-0.3010 <s> YOUTUBE DASH
-0.3010 <s> [1;5R </s>
-0.3010 <s> \N\NWGET DASH
-0.3010 = 0 </s>
-0.3010 = DASH 40
-0.3010 > FILESYSTEM DOT
-0.3010 > FOLDERS DOT
-0.3010 > SLASH SYS
-0.3010 ABSMAP ABS_X=X1,ABS_Y=Y1,ABS_RX=X2,ABS_RY=Y2,ABS_HAT0X=DPAD_X,ABS_HAT0Y=DPAD_Y \\\N
-0.3010 ABS_X=X1,ABS_Y=Y1,ABS_RX=X2,ABS_RY=Y2,ABS_HAT0X=DPAD_X,ABS_HAT0Y=DPAD_Y \\\N DASH
-0.3010 AC DOT UK"
-0.3010 ACOUSTIC DASH MODEL
-0.3010 ACPI BRIGHTNESS_MODE=1 </s>
-1.5798 ACPI_VIDEO0 SLASH </s>
-1.5798 ACPI_VIDEO0 SLASH ACTUAL_BRIGHTNESS
-0.5006 ACPI_VIDEO0 SLASH BRIGHTNESS
-1.1027 ACPI_VIDEO0 SLASH DEVICE
-1.2788 ACPI_VIDEO0 SLASH MAX_BRIGHTNESS
-0.7782 ADD DASH APT
-0.4771 ADD DASH REPOSITORY
-0.3010 AN FIND </s>
-0.3010 AN FIREFOX </s>
-0.3010 AN GAWK </s>
-0.3010 AN SNAP </s>
-0.3010 AN UNRAR </s>
-0.3010 AN XFCE4 DASH
-0.3010 ANEALING DOT PY
-1.3010 APT DASH ADD
-1.3010 APT DASH DASH
-0.4559 APT DASH GET
-1.6021 APT DASH REPOSITORY
-1.6021 APT DASH TRANSPORT
-0.3010 APT DIST DASH
-1.9138 APT INSTALL AUDACITY
-1.9138 APT INSTALL AUDIACITY
-1.9138 APT INSTALL CAJA
-1.9138 APT INSTALL CLIGHT
-1.9138 APT INSTALL CODE
-1.9138 APT INSTALL DISCORD
-1.9138 APT INSTALL DKMS
-1.9138 APT INSTALL ELEMENTARY
-1.9138 APT INSTALL ELETWEAKS
-1.9138 APT INSTALL FISH
-1.6128 APT INSTALL FORTUNE
-1.9138 APT INSTALL GAWK
-1.9138 APT INSTALL GDEBI
-1.9138 APT INSTALL GIT
-1.9138 APT INSTALL GNOME
-1.9138 APT INSTALL LIBPULSE
-1.4367 APT INSTALL MINECRAFT
-1.9138 APT INSTALL NAUTILUS
-1.9138 APT INSTALL OPENMW
-1.9138 APT INSTALL POCKETSPHINX
-1.9138 APT INSTALL PYAUDIO
-1.9138 APT INSTALL PYTHON3
-1.9138 APT INSTALL SETUPTOOLS
-1.9138 APT INSTALL SNAP
-1.9138 APT INSTALL SNAPD
-1.9138 APT INSTALL SOFTWARE
-1.9138 APT INSTALL STEAM
-1.9138 APT INSTALL SWIG
-1.9138 APT INSTALL UNRAR
-1.9138 APT INSTALL VBETOOL
-1.9138 APT INSTALL VLC
-1.9138 APT INSTALL VS
-1.9138 APT INSTALL VSCODE
-1.9138 APT INSTALL XBACKLIGHT
-1.9138 APT INSTALL XBOXDRV
-1.9138 APT INSTALL XBRIGHTNESS
-1.9138 APT INSTALL XFCE4
-1.9138 APT INSTALL XPAD
-0.3010 APT LIST DASH
-0.3010 APT REMOVE SNAP
-0.6021 APT UPDATE </s>
-0.6021 APT UPDATE OPENMW
-0.3010 APT UPGRADE OPENMW
-0.3010 ARMSTRONG_SMALL_STEP DOT OGG
-0.3010 AS DASH BUTTON
-0.3010 AS P; PRINT(P
-0.3010 AS SR, OS
-0.3010 AT FISH_HISTORY_CLEANED </s>
-0.3010 AT INSTALL DOT
-0.3010 AT MAKEFILE </s>
-0.3388 AT SLASH SYS
-1.3802 AT SLASH VAR
-0.3010 AT ~ SLASH
-0.3010 AXISMAP DASH Y1=Y1,
-0.3010 B |GREP BACKLIGHT
-1.2711 BACKLIGHT SLASH </s>
-0.4694 BACKLIGHT SLASH ACPI_VIDEO0
-0.9700 BACKLIGHT SLASH THINKPAD_SCREEN
-0.3010 BIN DASH DICT
-0.6021 BIN SLASH </s>
-0.9031 BIN SLASH I686
-0.9031 BIN SLASH SPOTIFY
-0.3010 BOOT SLASH GRUB
-0.3010 BOOTSTRAP DOT PYPA
-0.3010 BROKEN INSTALL </s>
-0.3010 BTN_TL=LT,BTN_TR=RT,BTN_SOUTH=A,BTN_EAST=B,BTN_C=X,BTN_NORTH=Y,BTN_WEST=LB,BTN_Z=RB,BTN_SELECT=TL,BTN_START=TR,BTN_TL2=BACK,BTN_TR2=START,BTN_MODE=GUIDE \\\N DASH
-0.3010 BUILD DASH ESSENTIAL
-0.3010 BUILD SLASH MAKE
-0.3010 BUTTON DASH DASH
-0.3010 C "IMPORT SPEECH_RECOGNITION
-0.3010 CALIBRATION X1= DASH
-0.3010 CHANGELOG DOT TXT
-0.3010 CL DASH LANGUAGE2
-0.3010 CL LS </s>
-0.3010 CL SLASH </s>
-0.3010 CL SUDO </s>
-0.3010 CL UPDATE </s>
-0.3010 CL2 LS </s>
-0.6021 CL2 SLASH </s>
-0.6021 CL2 SLASH ACOUSTIC
-0.3010 CLASS SLASH BACKLIGHT
-0.3010 CLEAN_FILESYSTEM DOT PY
-0.3010 CLEAN_FISH DOT PY
-0.3010 CLONE HTTPS: SLASH
-0.3010 CMUDICT DASH NOSTRESS
-0.3010 CMUDICT DOT TAR
-0.3010 CMUSPHINX SLASH FILES
-0.3010 CODE_1 DOT 41
-0.3010 COLOR LIST </s>
-0.3010 COM SLASH PAROJ
-0.3010 COMMANDS2 DOT TXT
-0.3010 COMMON APT DASH
-0.3010 COMMUNITY DASH DASH
-0.3010 COMPOP SLASH CW1
-0.3010 CONFIG DASH DASH
-0.3010 CONFIG SLASH OPENMW
-0.6021 COUNT DASH KDISCOUNT
-0.6021 COUNT DASH KNDISCOUNT
-0.3010 COWSAW LOLCAT </s>
-0.3010 COWSAY LOLCAT </s>
-0.3010 CP 5031 DOT
-0.3010 CP DASH RF
-0.3010 CW1 SLASH </s>
-0.3010 CWNEW SLASH MMCW
-0.3010 D DASH PRINTF
-0.3010 D SLASH </s>
-0.3010 DASH 0 DOT
-0.3010 DASH 1 DASH
-0.3010 DASH 100 |
-0.3010 DASH 1575286395 DOT
-0.3010 DASH 1576681836_AMD64 DOT
-0.3010 DASH 2 DASH
-0.3010 DASH 2019 DOT
-0.3010 DASH 21743:0:30460,X2= DASH
-0.3010 DASH 23636:0:30969 \\\N
-0.3010 DASH 28945:0:21951,Y2= DASH
-0.4771 DASH 3 >
-0.7782 DASH 3 DASH
-0.3010 DASH 31320:0:20650,Y1= DASH
-0.3010 DASH 40 </s>
-0.3010 DASH 45096 DASH
-0.3010 DASH 6 DOT
-0.3010 DASH A </s>
-0.3010 DASH ABSMAP ABS_X=X1,ABS_Y=Y1,ABS_RX=X2,ABS_RY=Y2,ABS_HAT0X=DPAD_X,ABS_HAT0Y=DPAD_Y
-0.3010 DASH ACPI BRIGHTNESS_MODE=1
-0.3010 DASH ADD DASH
-0.3010 DASH APT DASH
-0.3010 DASH AS DASH
-0.3010 DASH AXISMAP DASH
-0.6021 DASH B </s>
-0.6021 DASH B |GREP
-0.3010 DASH BROKEN INSTALL
-0.3010 DASH BUTTON DASH
-0.3010 DASH C "IMPORT
-0.3010 DASH CALIBRATION X1=
-0.3010 DASH CHECK </s>
-0.6021 DASH CL </s>
-0.6021 DASH CL SLASH
-0.3010 DASH CL2 SLASH
-0.3010 DASH CLASSIC </s>
-0.4472 DASH CMUDICT DASH
-0.8451 DASH CMUDICT DOT
-0.3010 DASH CODE </s>
-0.4771 DASH COLOR </s>
-0.7782 DASH COLOR LIST
-0.3010 DASH COLOUR </s>
-0.3010 DASH COMMON APT
-0.6021 DASH COMMUNITY </s>
-0.6021 DASH COMMUNITY DASH
-0.3010 DASH COUNT DASH
-1.9031 DASH DASH AXISMAP
-1.9031 DASH DASH CALIBRATION
-1.9031 DASH DASH CHECK
-1.9031 DASH DASH CLASSIC
-1.6021 DASH DASH COLOR
-1.9031 DASH DASH COLOUR
-1.9031 DASH DASH DEADZONE
-1.6021 DASH DASH DECODE
-1.9031 DASH DASH DETACH
-1.9031 DASH DASH DEVICE
-1.4260 DASH DASH EVDEV
-1.6021 DASH DASH FIX
-1.9031 DASH DASH FORCE
-1.6021 DASH DASH GLOBAL
-1.6021 DASH DASH INSTALLED
-1.4260 DASH DASH INTERACTIVE
-1.9031 DASH DASH MIMIC
-1.9031 DASH DASH MODEL
-1.3010 DASH DASH MODEL_DIR
-1.9031 DASH DASH SILENT
-1.9031 DASH DASH TRIGGER
-1.0580 DASH DASH UPGRADE
-0.3010 DASH DATA SLASH
-0.3010 DASH DEADZONE 4000
-0.3010 DASH DECODE ~
-0.3010 DASH DETACH DASH
-0.5229 DASH DEV </s>
-0.6990 DASH DEV PYTHON
-0.3010 DASH DEVICE DASH
-0.3010 DASH DEVICES </s>
-0.6532 DASH DICT 5031
-1.2553 DASH DICT 80
-0.6532 DASH DICT PRONOUNCIATION
-0.3010 DASH DICTIONARY DOT
-0.3010 DASH DL </s>
-0.6021 DASH DRIVER </s>
-0.6021 DASH DRIVER DASH
-0.3010 DASH ESSENTIAL SWIG
-0.4771 DASH EVDEV DASH
-0.7782 DASH EVDEV SLASH
-0.3010 DASH FEEDBACK \\\N
-0.3010 DASH FIX DASH
-0.3010 DASH FONT DASH
-0.3010 DASH FORCE DASH
-0.3010 DASH GC SLASH
-1.4771 DASH GET </s>
-0.4357 DASH GET INSTALL
-1.4771 DASH GET PURGE
-1.4771 DASH GET REMOVE
-1.4771 DASH GET UPDATE
-0.3010 DASH GLOBAL USER
-0.3010 DASH GRUB </s>
-0.3010 DASH GTK </s>
-1.0792 DASH HMM ACOUSTIC
-0.3802 DASH HMM DOT
-0.3010 DASH HTTPS WGET
-0.4771 DASH I CODE_1
-0.7782 DASH I DISCORD
-0.3010 DASH IDEA DASH
-0.3010 DASH INMIC YES
-0.6021 DASH INSTALLED </s>
-0.6021 DASH INSTALLED |
-0.3010 DASH INTERACTIVE DASH
-0.3010 DASH INTERPOLATE DASH
-0.3010 DASH KDISCOUNT DASH
-0.3010 DASH KERNEL DASH
-0.3010 DASH KEYMAP BTN_TL=LT,BTN_TR=RT,BTN_SOUTH=A,BTN_EAST=B,BTN_C=X,BTN_NORTH=Y,BTN_WEST=LB,BTN_Z=RB,BTN_SELECT=TL,BTN_START=TR,BTN_TL2=BACK,BTN_TR2=START,BTN_MODE=GUIDE
-0.3010 DASH KNDISCOUNT DASH
-0.4260 DASH L </s>
-0.9031 DASH L HTTPS:
-0.3010 DASH LANGUAGE2 SLASH
-0.3010 DASH LAUNCHER </s>
-0.3010 DASH LIST </s>
-0.7404 DASH LM 5031
-0.6435 DASH LM LANGUAGE
-1.0414 DASH LM ~
-0.3979 DASH M PIP
-1.4771 DASH M SITE
-1.1761 DASH M XPAD
-0.3010 DASH M64 SLASH
-0.3010 DASH MANAGER </s>
-0.3010 DASH MAXDEPTH 1
-0.3010 DASH MIMIC DASH
-0.9243 DASH MODEL DASH
-0.7202 DASH MODEL DOT
-0.7202 DASH MODEL SLASH
-0.4260 DASH MODEL_DIR DOT
-0.9031 DASH MODEL_DIR MODEL_FOLDER_PATH
-0.3010 DASH MY DOT
-0.3010 DASH NAME "NINTENDO
-1.0000 DASH NOSTRESS DOT
-0.3979 DASH NOSTRESS SLASH
-0.6021 DASH O G2P
-0.6021 DASH O GET
-0.3010 DASH PACKAGES SLASH
-1.1461 DASH PIP BUILD
-0.4472 DASH PIP DOT
-1.1461 DASH PIP PYTHON3
-0.3010 DASH POWER DASH
-0.3010 DASH PRINTF '%F\\N'
-0.3010 DASH PROPERTIES DASH
-0.3010 DASH PYAUDIO </s>
-0.7782 DASH REPOSITORY DASH
-0.7782 DASH REPOSITORY PPA:OPENMW
-0.7782 DASH REPOSITORY PPA:TEEJEE2008
-0.9542 DASH RF DOT
-1.2553 DASH RF FIND
-1.2553 DASH RF INPUT_FONTS
-1.2553 DASH RF PLANK
-1.2553 DASH RF SCRIPTS
-0.7782 DASH RF ~
-1.4472 DASH SEQ2SEQ </s>
-0.3680 DASH SEQ2SEQ DASH
-1.4472 DASH SEQ2SEQ SLASH
-0.3010 DASH SILENT DASH
-0.3010 DASH SR </s>
-0.3010 DASH TERMINAL </s>
-0.3010 DASH TEXT ~
-0.3010 DASH THEMES SLASH
-0.3010 DASH TRANSPORT DASH
-0.3010 DASH TRIGGER DASH
-0.3010 DASH TWEAKS </s>
-0.3010 DASH TYPE D
-1.2041 DASH UPGRADE </s>
-0.6021 DASH UPGRADE PIP
-0.9031 DASH UPGRADE POCKETSPHINX
-1.2041 DASH UPGRADE PYAUDIO
-0.3010 DASH US SLASH
-0.4771 DASH V 0
-0.7782 DASH V </s>
-0.6021 DASH VIEWER DOWNLOADS
-0.6021 DASH VIEWER ~
-0.9031 DASH X </s>
-0.4260 DASH X THELDERSCR3IIMOMORROWINDGOTYGOG
-0.3010 DASH XBOXDRV </s>
-0.3010 DASH XPAD DASH
-0.6021 DASH Y PPA:RAEL
-0.6021 DASH Y PYTHON
-0.3010 DASH Y1=Y1, DASH
-0.3010 DASH Y2=Y2 \\\N
-0.6990 DATA SLASH </s>
-0.5229 DATA SLASH CL2
-0.3010 DATA\\ FILES SLASH
-0.3010 DEADZONE 4000 DASH
-0.3010 DECODE ~ SLASH
-0.3010 DEFAULT SLASH GRUB
-1.4150 DESKTOP SLASH </s>
-0.9379 DESKTOP SLASH CL
-1.4150 DESKTOP SLASH COMMANDS2
-0.8129 DESKTOP SLASH FISH_HISTORY
-0.8129 DESKTOP SLASH MODEL
-0.3010 DETACH DASH KERNEL
-0.3010 DEV PYTHON DASH
-0.6021 DEV SLASH INPUT
-0.6021 DEV SLASH SDA
-0.3010 DEVICE DASH NAME
-0.3010 DEVICE SLASH BACKLIGHT
-0.3010 DIC DASH HMM
-0.3010 DIC PRONOUNCIATION DASH
-0.3010 DICT 5031 DOT
-0.3010 DICT 80 DOT
-0.3010 DICT DASH HMM
-0.3010 DICT PRONOUNCIATION DASH
-0.9031 DICTIONARY DOT DIC
-0.4260 DICTIONARY DOT DICT
-0.3010 DIRNAME(SR DOT __FILE__))\N"
-0.3010 DISCORD DASH 0
-0.4771 DIST DASH PACKAGES
-0.7782 DIST DASH UPGRADE
-0.3010 DKMS INSTALL DASH
-0.3010 DKMS SLASH XPAD
-0.3010 DMPS FORCE OFF
-0.3010 DMPS OFF </s>
-0.3010 DOT 0 DOT
-0.6021 DOT 1 DASH
-0.6021 DOT 1 DOT
-0.3010 DOT 2 DASH
-0.3010 DOT 3 DOT
-0.4771 DOT 4 </s>
-0.7782 DOT 4 SLASH
-0.3010 DOT 41 DOT
-0.3010 DOT 4\N </s>
-0.3010 DOT 4\NSUDO DKMS
-0.3010 DOT 6 SLASH
-0.3010 DOT 7Z' SLASH
-0.3010 DOT 8 </s>
-0.3010 DOT 9 DOT
-0.3010 DOT AC DOT
-0.5351 DOT BIN </s>
-0.6812 DOT BIN DASH
-0.3010 DOT CFG </s>
-0.7782 DOT COM </s>
-0.4771 DOT COM SLASH
-0.3010 DOT CONF </s>
-0.3010 DOT CONFIG SLASH
-0.3010 DOT D SLASH
-0.3010 DOT DEB </s>
-0.6690 DOT DIC </s>
-0.8451 DOT DIC DASH
-0.8451 DOT DIC PRONOUNCIATION
-0.6021 DOT DICT </s>
-0.6021 DOT DICT DASH
-0.3010 DOT DIRNAME(SR DOT
-1.1139 DOT DOT </s>
-0.3736 DOT DOT SLASH
-0.3010 DOT EMAIL "CLOSEG@CARDIFF
-0.3010 DOT FISH |
-0.3010 DOT GIT SLASH
-0.3010 DOT GITIGNORE </s>
-0.9031 DOT GZ </s>
-0.9031 DOT GZ DOT
-0.9031 DOT GZ HTTPS:
-0.9031 DOT GZ SLASH
-0.3010 DOT GZ\N </s>
-0.3010 DOT H </s>
-0.3010 DOT ICONS </s>
-0.3010 DOT IO SLASH
-1.6628 DOT LM 5031
-1.1856 DOT LM </s>
-1.0607 DOT LM DASH
-0.5836 DOT LM DOT
-1.6628 DOT LM LANGUAGE
-1.6628 DOT LM LANGUAGE_MODEL
-1.6628 DOT LM ~
-0.3010 DOT LOCAL SLASH
-0.3010 DOT LOG </s>
-0.3010 DOT NAME "GEORGE
-0.3010 DOT NET SLASH
-0.6021 DOT OGG 10
-0.6021 DOT OGG </s>
-0.3010 DOT OH DASH
-0.3010 DOT PART </s>
-0.3010 DOT PATH AS
-1.5204 DOT PY 1
-2.3655 DOT PY 10
-1.8884 DOT PY 2
-1.8884 DOT PY 3
-2.3655 DOT PY 4
-1.1350 DOT PY 5
-1.5204 DOT PY </s>
-2.3655 DOT PY ARMSTRONG_SMALL_STEP
-2.3655 DOT PY DASH
-1.5204 DOT PY DRACULA
-2.3655 DOT PY FILESYSTEM
-2.3655 DOT PY FILESYSTEM_CLEANED
-2.0645 DOT PY FIREFOX
-2.3655 DOT PY FOLDERS
-2.3655 DOT PY FORMULA_ONE_1984
-2.3655 DOT PY INS
-1.8884 DOT PY INSTALL
-2.3655 DOT PY LS
-1.5873 DOT PY LS_DOWNLOADS
-1.7634 DOT PY MANIFESTO
-2.0645 DOT PY NIX
-2.3655 DOT PY NIXON_RESIGNATION_AUDIO_WITH_BUZZ_REMOVED
-2.0645 DOT PY NONE
-2.3655 DOT PY SENTANCE1
-2.3655 DOT PY SENTANCE2
-2.3655 DOT PY SMALL_STEP
-2.0645 DOT PY SPECTRE
-1.8884 DOT PY SPEECH
-2.3655 DOT PY SPEECH_EDIT
-1.6665 DOT PY SUDO
-1.4112 DOT PY SUDO_APT_UPDATE
-2.3655 DOT PY SUDO_LS
-1.8884 DOT PY TEST
-1.6665 DOT PY WATERGATE
-2.0645 DOT PY WATERGATE2
-1.4624 DOT PY ~
-0.3010 DOT PYPA DOT
-0.4771 DOT RAR </s>
-1.0792 DOT RAR DASH
-1.0792 DOT RAR X
-1.5798 DOT SLASH </s>
-0.8016 DOT SLASH EN
-0.9777 DOT SLASH G2P
-0.9777 DOT SLASH LANGUAGES
-1.2788 DOT SLASH NGRAM
-1.5798 DOT SLASH SOUNDS
-1.5798 DOT SLASH SPEECH_EDIT
-0.3010 DOT TAR DOT
-0.3010 DOT TTF </s>
-0.4771 DOT TXT </s>
-0.9542 DOT TXT DASH
-1.2553 DOT TXT ~
-0.3010 DOT UK" </s>
-0.6690 DOT WAV 10
-1.9243 DOT WAV 120
-1.9243 DOT WAV 15
-2.2253 DOT WAV 3
-1.5263 DOT WAV 30
-2.2253 DOT WAV 4
-2.2253 DOT WAV 40
-1.4472 DOT WAV 60
-0.8274 DOT WAV </s>
-2.2253 DOT WAV DOT
-2.2253 DOT WAV SENTANCE1
-2.2253 DOT WAV SUN
-2.2253 DOT WAV WATERGATE
-2.2253 DOT WAV ~
-0.3010 DOT WMG </s>
-0.3010 DOT __FILE__))\N" </s>
-0.6021 DOWNLOADS SLASH </s>
-0.6021 DOWNLOADS SLASH INPUT_FONTS
-0.3010 DOWNLOAD\NTAR XF G2P
-0.3010 DPKG DASH I
-0.3010 DPKG DISCORD DASH
-0.6021 DPMS FORCE OFF
-0.6021 DPMS FORCE ON
-0.3010 DRACULA 120 COUNT
-0.3010 DRACULA DOT WAV
-0.3010 DRIVER DASH DASH
-0.3010 ECHO 0 |
-0.3010 ECHO 1 >
-0.3010 ECHO 15 |
-0.3010 ECHO 4 >
-0.3010 ECHO 5 |
-0.3010 ECHO DASH 100
-0.3010 ELEMENTARY DASH TWEAKS
-0.3010 EMAIL "CLOSEG@CARDIFF DOT
-1.0414 EN DASH CL
-1.0414 EN DASH CL2
-0.4973 EN DASH US
-0.3010 ESG | GREP
-0.3010 ESSENTIAL SWIG GIT
-0.7782 ETC SLASH DEFAULT
-0.7782 ETC SLASH MODPROBE
-0.7782 ETC SLASH X11
-0.6021 EVDEV DASH ABSMAP
-0.6021 EVDEV DASH KEYMAP
-0.3010 EVDEV SLASH DEV
-0.3010 EVENTX \\\N DASH
-0.3010 EZGIT "IMPLEMENTED PROTOTYPE"
-0.3010 FDISK DASH L
-0.3010 FEEDBACK \\\N DASH
-0.3010 FILE DOT WAV
-0.6021 FILES SLASH </s>
-0.6021 FILES SLASH G2P%20MODELS
-0.3010 FILESYSTEM DOT TXT
-0.3010 FILESYSTEM_CLEANED DOT TXT
-0.3010 FILESYSTEM_CLEANED_WORDS DOT TXT
-0.3010 FIND NGRAM </s>
-0.3010 FIND SIDEWINDER DOT
-1.0000 FIND SLASH </s>
-1.0000 FIND SLASH >
-0.5229 FIND SLASH DASH
-0.3010 FIREFOX DOT WAV
-0.3010 FISH SLASH FISH_HISTORY
-0.3010 FISH | FISH
-0.3010 FISH_HISTORY DOT SLASH
-0.3010 FIX DASH BROKEN
-0.3010 FOLDERS DOT TXT
-0.3010 FONT DASH VIEWER
-0.3010 FOR PURISTS DASH
-0.3010 FORCE DASH FEEDBACK
-0.3010 FORCE OFF </s>
-0.3010 FORCE ON </s>
-0.3010 FORMULA_ONE_1984 DOT WMG
-0.3010 FORTUNE COWSAW LOLCAT
-0.3010 FORTUNE COWSAY LOLCAT
-0.3010 FUNCSAVE TESTSR </s>
-0.3010 FUNCTION TESTSR\NPOCKETSPHINX_CONTINUOUS DASH
-0.3010 G SLASH DOT
-0.3010 G2P DASH SEQ2SEQ
-0.3010 G2P SLASH </s>
-0.3010 G2P%20MODELS SLASH G2P
-0.4771 GAMES SLASH </s>
-0.7782 GAMES SLASH THELDERSCR3IIMOMORROWINDGOTYGOG
-0.3010 GC SLASH UBUNTU
-0.3010 GDEBI MINECRAFT DOT
-0.3010 GET DASH PIP
-0.3010 GET DOT OH
-1.3424 GET INSTALL DASH
-1.3424 GET INSTALL JSTEST
-1.3424 GET INSTALL LIBASOUND2
-0.8653 GET INSTALL MINECRAFT
-1.0414 GET INSTALL OPENMW
-1.3424 GET INSTALL PORTAUDIO19
-1.3424 GET INSTALL UBUNTU
-1.3424 GET INSTALL UKUU
-0.3010 GET PURGE XBOXDRV
-0.3010 GET REMOVE XBOXDRV
-0.3010 GET UPDATE </s>
-0.3010 GET_WORDS DOT PY
-0.3010 GIT CLONE HTTPS:
-0.3010 GIT CONFIG DASH
-0.3010 GIT IGNORE *
-0.3010 GIT LIBPULSE DASH
-0.3010 GIT SLASH USR
-0.3010 GITHUB DOT COM
-0.3010 GLOBAL USER DOT
-0.6021 GNOME DASH FONT
-0.6021 GNOME DASH TERMINAL
-0.3010 GOOGLE DOT COM
-0.3010 GREP FIREFOX </s>
-0.3010 GREP THINKPAD </s>
-0.3010 GRUB DOT CFG
-0.3010 GRUB SLASH GRUB
-0.3010 GZ DOT PART
-0.3010 GZ HTTPS: SLASH
-0.3010 GZ SLASH DOWNLOAD\NTAR
-0.3010 HMM ACOUSTIC DASH
-0.3010 HMM DOT DOT
-0.3010 HOME SLASH G
-0.3010 HTTPS WGET </s>
-0.3010 HTTPS: SLASH SLASH
-0.3010 I CODE_1 DOT
-0.3010 I DISCORD DASH
-0.3010 I686 DASH M64
-0.3010 IDEA DASH COMMUNITY
-0.3010 IDEAIC DASH 2019
-0.3010 IGNORE * DOT
-0.3010 INECRAFT DASH LAUNCHER
-0.3010 INMIC YES DASH
-0.3010 INPUT SLASH EVENTX
-0.3010 INPUTMONO SLASH *
-0.7782 INPUT_FONTS SLASH </s>
-0.4771 INPUT_FONTS SLASH INPUTMONO
-0.3010 INSTALL AUDACITY </s>
-0.3010 INSTALL AUDIACITY </s>
-0.3010 INSTALL CAJA </s>
-0.3010 INSTALL CLIGHT </s>
-0.3010 INSTALL CODE </s>
-0.4559 INSTALL DASH DASH
-1.0000 INSTALL DASH M
-1.3010 INSTALL DASH Y
-0.4771 INSTALL DISCORD </s>
-0.7782 INSTALL DISCORD DASH
-0.3010 INSTALL DKMS </s>
-0.3010 INSTALL DOT TXT
-0.3010 INSTALL ELEMENTARY DASH
-0.3010 INSTALL ELETWEAKS </s>
-0.3010 INSTALL FISH </s>
-0.6021 INSTALL FORTUNE COWSAW
-0.6021 INSTALL FORTUNE COWSAY
-0.3010 INSTALL GAWK </s>
-0.3010 INSTALL GDEBI </s>
-0.3010 INSTALL GIT </s>
-0.3010 INSTALL GNOME DASH
-0.3010 INSTALL INTELLIJ DASH
-0.3010 INSTALL JSTEST DASH
-0.3010 INSTALL LAMBDA </s>
-0.3010 INSTALL LIBASOUND2 DASH
-0.3010 INSTALL LIBPULSE DASH
-0.8451 INSTALL MINECRAFT </s>
-0.4472 INSTALL MINECRAFT DOT
-0.3010 INSTALL NAUTILUS </s>
-0.3010 INSTALL NUMPY </s>
-0.7782 INSTALL OPENMW </s>
-0.4771 INSTALL OPENMW OPENMW
-0.3010 INSTALL POCKETSPHINX </s>
-0.3010 INSTALL PORTAUDIO19 DASH
-0.3010 INSTALL PYAUDIO </s>
-0.3010 INSTALL PYTHON3 DASH
-0.3010 INSTALL SETUPTOOLS </s>
-0.3010 INSTALL SNAP </s>
-0.3010 INSTALL SNAPD </s>
-0.3010 INSTALL SOFTWARE DASH
-0.3010 INSTALL SPOTIFY </s>
-0.3010 INSTALL STEAM </s>
-0.3010 INSTALL SWIG </s>
-0.3010 INSTALL TENSOR2TENSOR </s>
-0.3010 INSTALL TENSOR2TENSOR[TENSORFLOW] </s>
-0.3010 INSTALL TENSOR2TENSOR[TENSORFLOW_GPU] </s>
-0.3010 INSTALL TENSORFLOW </s>
-0.3010 INSTALL TENSORFLOW1 DOT
-0.3010 INSTALL TENSORFLOW==1 DOT
-0.3010 INSTALL UBUNTU DASH
-0.3010 INSTALL UKUU </s>
-0.3010 INSTALL UNRAR </s>
-0.3010 INSTALL VBETOOL </s>
-0.3010 INSTALL VLC </s>
-0.3010 INSTALL VS DASH
-0.3010 INSTALL VSCODE </s>
-0.3010 INSTALL XBACKLIGHT </s>
-0.3010 INSTALL XBOXDRV </s>
-0.3010 INSTALL XBRIGHTNESS </s>
-0.3010 INSTALL XFCE4 DASH
-0.3010 INSTALL XPAD </s>
-0.3010 INSTALLED | GREP
-0.3010 INTELLIJ DASH IDEA
-0.3010 INTERACTIVE DASH DASH
-0.3010 INTERPOLATE DASH TEXT
-0.3010 IO SLASH GET
-0.3010 JOURNALCTL DASH B
-0.3010 JSTEST DASH GTK
-0.3010 KDIR DOT ICONS
-0.3010 KDIR LANGUAGES </s>
-0.3010 KDIR SRILM </s>
-0.3010 KDIR ~ SLASH
-0.3010 KDISCOUNT DASH INTERPOLATE
-0.3010 KERNEL DASH DRIVER
-0.3010 KEYMAP BTN_TL=LT,BTN_TR=RT,BTN_SOUTH=A,BTN_EAST=B,BTN_C=X,BTN_NORTH=Y,BTN_WEST=LB,BTN_Z=RB,BTN_SELECT=TL,BTN_START=TR,BTN_TL2=BACK,BTN_TR2=START,BTN_MODE=GUIDE \\\N
-0.3010 KNDISCOUNT DASH INTERPOLATE
-0.3010 L HTTPS: SLASH
-0.3010 LANGUAGE DASH MODEL
-0.4771 LANGUAGE2 SLASH *
-0.7782 LANGUAGE2 SLASH ~
-0.5229 LANGUAGES SLASH </s>
-0.6990 LANGUAGES SLASH EN
-0.3010 LANGUAGE_MODEL DOT LM
-1.2041 LIB SLASH DKMS
-0.3590 LIB SLASH PYTHON3
-0.3010 LIBASOUND2 DASH DEV
-0.3010 LIBPULSE DASH DEV
-0.3010 LICENSE DOT TXT
-0.3010 LIST COLOUR </s>
-1.0792 LIST DASH COLOR
-1.0792 LIST DASH COLOUR
-0.4771 LIST DASH DASH
-0.3010 LM 5031 DOT
-0.3010 LM DASH DICT
-0.3010 LM DOT BIN
-0.3010 LM LANGUAGE DASH
-0.3010 LM LANGUAGE_MODEL DOT
-0.3010 LM ~ SLASH
-0.3680 LOCAL SLASH LIB
-1.1461 LOCAL SLASH SHARE
-0.3010 LS BIN SLASH
-0.3010 LS DASH A
-0.3010 LS DOT WAV
-0.3010 LS DOWNLOADS SLASH
-0.3010 LS SLASH SYS
-0.3010 LS_DOWNLOADS DOT WAV
-0.3010 M PIP INSTALL
-0.3010 M SITE </s>
-0.3010 M XPAD DASH
-0.3010 M64 SLASH </s>
-0.5643 MAJEL SLASH </s>
-1.0414 MAJEL SLASH FILESYSTEM_CLEANED
-1.0414 MAJEL SLASH FILESYSTEM_CLEANED_WORDS
-1.3424 MAJEL SLASH LANGUAGES
-0.3010 MAKE DOT LOG
-0.3010 MANIFESTO DOT WAV
-0.3010 MAXDEPTH 1 DASH
-0.3010 MICTEST DOT PY
-0.3010 MIMIC DASH XPAD
-0.3010 MINECRAFT DOT DEB
-0.3010 MMCW SLASH SOUNDS
-0.3010 MODEL DASH 6
-1.3802 MODEL DOT DOT
-0.3388 MODEL DOT LM
-0.9031 MODEL SLASH </s>
-0.9031 MODEL SLASH DOT
-0.6021 MODEL SLASH \NEND
-0.3010 MODEL_DIR DOT DOT
-0.3010 MODEL_DIR MODEL_FOLDER_PATH </s>
-0.3010 MODPROBE DOT D
-0.3010 MULTIMEDIA SLASH CWNEW
-0.3010 MV DASH RF
-0.3010 MV THELDERSCR3IIMOMORROWINDGOTYGOG SLASH
-0.3010 MY DOT FISH
-0.3010 NAME "GEORGE CLOSE"
-0.3010 NAME "NINTENDO SWITCH
-0.3010 NANO DOT GITIGNORE
-0.3010 NANO MAKEFILE </s>
-0.3010 NANO SETUP DOT
-0.9031 NANO SLASH BOOT
-0.4260 NANO SLASH ETC
-0.3010 NET SLASH PROJECTS
-0.3010 NGRAM DASH COUNT
-0.3010 NIX DOT WAV
-0.6021 NIXON_RESIGNATION_AUDIO_WITH_BUZZ_REMOVED DOT OGG
-0.6021 NIXON_RESIGNATION_AUDIO_WITH_BUZZ_REMOVED DOT WAV
-0.6021 NONE 3 CL2
-0.6021 NONE 3 US
-0.3010 NOSTRESS DOT TAR
-0.3010 NOSTRESS SLASH </s>
-0.3010 O G2P DASH
-0.3010 O GET DASH
-0.3010 ODE LANGUAGE DASH
-0.3010 ODE PRONOUNCIATION DASH
-0.3010 ODE ~ SLASH
-0.3010 OGG 10 SMALL
-0.3010 OH DASH MY
-0.3010 OMF INSTALL LAMBDA
-0.4260 OPENMW DASH LAUNCHER
-0.9031 OPENMW DASH V
-0.3010 OPENMW DOT CFG
-0.3010 OPENMW OPENMW DASH
-0.6021 OPENMW SLASH OPENMW
-0.6021 OPENMW SLASH SETTINGS
-0.3010 OPTIONS THINKPAD DASH
-0.3010 OS DOT PATH
-0.3010 OUNT SLASH DEV
-0.3010 P ~ SLASH
-0.3010 P; PRINT(P DOT
-0.8451 PACKAGES SLASH </s>
-0.4472 PACKAGES SLASH SPEECH_RECOGNITION
-0.3010 PAROJ SLASH XPAD
-0.3010 PATH AS P;
-0.3010 PING GOOGLE DOT
-0.3010 PIP BUILD DASH
-0.3010 PIP DOT PY
-0.7782 PIP INSTALL DASH
-1.6232 PIP INSTALL NUMPY
-1.6232 PIP INSTALL POCKETSPHINX
-1.1461 PIP INSTALL PYAUDIO
-1.1461 PIP INSTALL TENSOR2TENSOR
-1.6232 PIP INSTALL TENSOR2TENSOR[TENSORFLOW]
-1.6232 PIP INSTALL TENSOR2TENSOR[TENSORFLOW_GPU]
-1.3222 PIP INSTALL TENSORFLOW
-1.6232 PIP INSTALL TENSORFLOW1
-1.6232 PIP INSTALL TENSORFLOW==1
-0.3010 PIP PYTHON3 </s>
-0.7782 PIP SETUPTOOLS WHEEL
-0.4771 PIP SETUPTOOLS WHEELS
-0.3010 PIP UNINSTALL TENSORFLOW
-0.3010 PKG DASH I
-0.3010 PLANK DASH THEMES
-0.3010 POCKETSPHINX DASH DATA
-0.3010 POCKETSPHINX_CONTINUOUS DASH INMIC
-0.3010 PORTAUDIO19 DASH DEV
-0.3010 POWER DASH MANAGER
-0.3010 PPA:OPENMW SLASH OPENMW
-0.3010 PPA:RAEL DASH GC
-0.3010 PPA:TEEJEE2008 SLASH PPA
-0.3010 PRINT(P DOT DIRNAME(SR
-0.4771 PRINTF '%F\\N' </s>
-0.7782 PRINTF '%F\\N' >
-0.3010 PRO CONTROLLER" </s>
-0.3010 PROJECTS SLASH CMUSPHINX
-0.3010 PRONOUNCIATION DASH DICTIONARY
-0.3010 PROPERTIES DASH COMMON
-0.3010 PURGE XBOXDRV XBOXDRV:I386
-0.3010 PURISTS DASH 45096
-0.3010 PY 1 SOUNDS
-0.3010 PY 10 SOUNDS
-0.7782 PY 2 </s>
-0.4771 PY 2 CL2
-0.4771 PY 3 </s>
-0.7782 PY 3 CL2
-0.3010 PY 4 </s>
-1.0544 PY 5 </s>
-1.5315 PY 5 CL2
-0.4175 PY 5 SOUNDS
-0.3010 PY ARMSTRONG_SMALL_STEP DOT
-0.3010 PY DASH O
-1.1461 PY DRACULA 120
-0.3680 PY DRACULA DOT
-0.3010 PY FILESYSTEM DOT
-0.3010 PY FILESYSTEM_CLEANED DOT
-0.3010 PY FIREFOX DOT
-0.3010 PY FOLDERS DOT
-0.3010 PY FORMULA_ONE_1984 DOT
-0.3010 PY INS </s>
-0.3010 PY INSTALL </s>
-0.3010 PY LS DOT
-0.3010 PY LS_DOWNLOADS DOT
-0.3010 PY MANIFESTO DOT
-0.3010 PY NIX DOT
-0.3010 PY NIXON_RESIGNATION_AUDIO_WITH_BUZZ_REMOVED DOT
-0.3010 PY NONE 3
-0.3010 PY SENTANCE1 DOT
-0.3010 PY SENTANCE2 DOT
-0.3010 PY SMALL_STEP DOT
-0.3010 PY SPECTRE DOT
-0.3010 PY SPEECH DOT
-0.3010 PY SPEECH_EDIT DOT
-0.3010 PY SUDO DOT
-0.3010 PY SUDO_APT_UPDATE DOT
-0.3010 PY SUDO_LS DOT
-0.3010 PY TEST </s>
-0.3010 PY WATERGATE DOT
-0.3010 PY WATERGATE2 DOT
-0.3010 PY ~ SLASH
-0.3010 PYPA DOT IO
-1.0000 PYTHON DASH C
-1.0000 PYTHON DASH DEV
-1.0000 PYTHON DASH M
-1.0000 PYTHON DASH PIP
-1.0000 PYTHON DASH PYAUDIO
-0.3010 PYTHON GET DASH
-0.3010 PYTHON PYTHON DASH
-0.3010 PYTHON SETUP DOT
-0.3010 PYTHON3 ANEALING DOT
-0.3010 PYTHON3 CLEAN_FILESYSTEM DOT
-0.3010 PYTHON3 CLEAN_FISH DOT
-1.4472 PYTHON3 DASH C
-0.3680 PYTHON3 DASH M
-1.4472 PYTHON3 DASH PIP
-0.3010 PYTHON3 DOT 6
-0.3010 PYTHON3 GET DASH
-0.3010 PYTHON3 GET_WORDS DOT
-0.3010 PYTHON3 MICTEST DOT
-0.3010 PYTHON3 SETUP DOT
-0.3010 PYTHON3 SLASH DIST
-0.3010 PYTHON3 TEST DOT
-0.3010 RAR DASH X
-0.3010 RAR X </s>
-0.3010 README DOT TXT
-0.3010 REM INSTALL DOT
-0.3010 REMOVE SNAP </s>
-0.3010 REMOVE XBOXDRV </s>
-0.3010 REPOSITORY DASH Y
-0.3010 REPOSITORY PPA:OPENMW SLASH
-0.3010 REPOSITORY PPA:TEEJEE2008 SLASH
-0.3010 RF DOT SLASH
-0.3010 RF FIND </s>
-0.3010 RF INPUT_FONTS SLASH
-0.3010 RF PLANK DASH
-0.3010 RF SCRIPTS SLASH
-0.3010 RF ~ SLASH
-0.3010 RM 5031 DOT
-0.3010 RM CHANGELOG DOT
-0.3010 RM DASH RF
-0.3010 RM IDEAIC DASH
-0.3010 RM INSTALL DOT
-0.3010 RM LANGUAGE_MODEL DOT
-0.3010 RM LICENSE DOT
-0.3010 RM NIXON_RESIGNATION_AUDIO_WITH_BUZZ_REMOVED DOT
-0.3010 RM PRONOUNCIATION DASH
-0.3010 RM README DOT
-0.3010 RMMOD XPAD </s>
-0.3010 RN LICENSE DOT
-0.3010 SCRIPTS SLASH </s>
-0.3010 SENTANCE1 DOT WAV
-0.3010 SENTANCE2 DOT WAV
-1.0792 SEQ2SEQ DASH CMUDICT
-0.6812 SEQ2SEQ DASH DASH
-0.6812 SEQ2SEQ DASH MODEL
-0.3010 SEQ2SEQ SLASH </s>
-0.3010 SET 0 </s>
-0.3010 SETTINGS DOT CFG
-0.3010 SETUP DOT PY
-0.3010 SETUPTOOLS WHEEL </s>
-0.3010 SETUPTOOLS WHEELS </s>
-0.3010 SHARE SLASH FISH
-0.3010 SIDEWINDER DOT H
-0.3010 SILENT DASH DASH
-0.3010 SITE DASH PACKAGES
-0.9031 SLASH * </s>
-0.9031 SLASH * DOT
-0.6021 SLASH * ~
-0.3010 SLASH 0 DOT
-0.3010 SLASH > FILESYSTEM
-0.3010 SLASH ACOUSTIC DASH
-0.3010 SLASH ACPI_VIDEO0 SLASH
-0.3010 SLASH ACTUAL_BRIGHTNESS </s>
-0.3010 SLASH BACKLIGHT SLASH
-0.3010 SLASH BIN SLASH
-0.3010 SLASH BOOT SLASH
-0.3010 SLASH BOOTSTRAP DOT
-0.3010 SLASH BRIGHTNESS </s>
-0.3010 SLASH BUILD SLASH
-0.3010 SLASH CL DASH
-0.7782 SLASH CL2 </s>
-0.4771 SLASH CL2 SLASH
-0.3010 SLASH CLASS SLASH
-0.3010 SLASH CMUSPHINX SLASH
-0.3010 SLASH COMMANDS2 DOT
-0.3010 SLASH COMPOP SLASH
-0.3010 SLASH CW1 SLASH
-0.3010 SLASH CWNEW SLASH
-0.7782 SLASH DASH MAXDEPTH
-0.4771 SLASH DASH TYPE
-0.3010 SLASH DATA\\ FILES
-0.3010 SLASH DEFAULT SLASH
-0.3010 SLASH DESKTOP SLASH
-0.3010 SLASH DEV SLASH
-0.3010 SLASH DEVICE SLASH
-0.3010 SLASH DIST DASH
-0.3010 SLASH DKMS SLASH
-0.9542 SLASH DOT CONFIG
-0.5563 SLASH DOT LOCAL
-0.9542 SLASH DOT SLASH
-0.3010 SLASH DOWNLOADS SLASH
-0.3010 SLASH DOWNLOAD\NTAR XF
-0.3010 SLASH EN DASH
-0.3010 SLASH ETC SLASH
-0.3010 SLASH EVENTX \\\N
-0.3010 SLASH FILE DOT
-0.3010 SLASH FILES SLASH
-0.3010 SLASH FILESYSTEM_CLEANED DOT
-0.3010 SLASH FILESYSTEM_CLEANED_WORDS DOT
-0.3010 SLASH FIREFOX DOT
-0.3010 SLASH FISH SLASH
-0.3979 SLASH FISH_HISTORY </s>
-1.0000 SLASH FISH_HISTORY DOT
-0.3010 SLASH G SLASH
-1.0792 SLASH G2P </s>
-0.3802 SLASH G2P DASH
-0.3010 SLASH G2P%20MODELS SLASH
-0.3010 SLASH GAMES SLASH
-0.6021 SLASH GET DASH
-0.6021 SLASH GET DOT
-0.3010 SLASH GITHUB DOT
-0.7782 SLASH GRUB </s>
-0.7782 SLASH GRUB DOT
-0.7782 SLASH GRUB SLASH
-0.3010 SLASH HOME SLASH
-0.3010 SLASH I686 DASH
-0.3010 SLASH INPUT SLASH
-0.3010 SLASH INPUTMONO SLASH
-0.3010 SLASH INPUT_FONTS SLASH
-0.3010 SLASH LANGUAGES SLASH
-0.3010 SLASH LIB SLASH
-0.3010 SLASH LOCAL SLASH
-0.3010 SLASH LS DOT
-0.3010 SLASH MAJEL SLASH
-0.3010 SLASH MAKE DOT
-0.3010 SLASH MAX_BRIGHTNESS </s>
-0.3010 SLASH MMCW SLASH
-0.3010 SLASH MODEL DOT
-0.3010 SLASH MODPROBE DOT
-0.3010 SLASH MULTIMEDIA SLASH
-0.3010 SLASH NGRAM DASH
-0.9031 SLASH OPENMW </s>
-0.9031 SLASH OPENMW DOT
-0.6021 SLASH OPENMW SLASH
-0.3010 SLASH PAROJ SLASH
-0.3010 SLASH POCKETSPHINX DASH
-0.3010 SLASH PPA </s>
-0.3010 SLASH PROJECTS SLASH
-0.3680 SLASH PYTHON3 DOT
-1.1461 SLASH PYTHON3 SLASH
-0.3010 SLASH SDA </s>
-0.3010 SLASH SETTINGS DOT
-0.3010 SLASH SHARE SLASH
-0.3010 SLASH SITE DASH
-1.1461 SLASH SLASH BOOTSTRAP
-1.1461 SLASH SLASH GET
-0.8451 SLASH SLASH GITHUB
-1.1461 SLASH SLASH SOURCEFORGE
-0.8451 SLASH SLASH USR
-0.3010 SLASH SNAP SLASH
-0.3010 SLASH SOUNDS SLASH
-0.3010 SLASH SOURCEFORGE DOT
-0.3010 SLASH SPEECH_EDIT DOT
-0.3010 SLASH SPEECH_RECOGNITION SLASH
-0.3010 SLASH SPOTIFY </s>
-0.3010 SLASH SRC SLASH
-0.3010 SLASH SUDO DOT
-0.3010 SLASH SUDO_APT_UPDATE DOT
-1.1461 SLASH SUDO_LS </s>
-0.3680 SLASH SUDO_LS DOT
-0.3010 SLASH SYS SLASH
-0.3010 SLASH THELDERSCR3IIMOMORROWINDGOTYGOG SLASH
-0.3010 SLASH THINKPAD_SCREEN SLASH
-0.3010 SLASH TYPE </s>
-0.3010 SLASH UBUNTU DASH
-0.3010 SLASH ULTIMATE_QUESTION_INTRO DOT
-0.3010 SLASH USR SLASH
-0.3010 SLASH VAR SLASH
-0.3010 SLASH X11 SLASH
-0.3010 SLASH XORG DOT
-0.6990 SLASH XPAD DASH
-0.6990 SLASH XPAD DOT
-1.0000 SLASH XPAD SLASH
-0.3010 SLASH YEAR\\ 3
-0.3010 SLASH \NEND </s>
-0.3010 SLASH ~ SLASH
-0.3010 SMALL_STEP DOT WAV
-0.7782 SNAP DASH DASH
-0.7782 SNAP DASH L
-0.7782 SNAP DASH LIST
-0.6990 SNAP INSTALL DISCORD
-1.0000 SNAP INSTALL INTELLIJ
-1.0000 SNAP INSTALL MINECRAFT
-1.0000 SNAP INSTALL SPOTIFY
-0.8451 SNAP LIST </s>
-1.1461 SNAP LIST COLOUR
-0.5441 SNAP LIST DASH
-0.3010 SNAP SLASH BIN
-0.3010 SNAP UPDATE </s>
-0.3010 SOFTWARE DASH PROPERTIES
-1.6990 SOUNDS SLASH </s>
-1.6990 SOUNDS SLASH FILE
-0.9208 SOUNDS SLASH FIREFOX
-1.6990 SOUNDS SLASH LS
-1.3979 SOUNDS SLASH SUDO
-1.0969 SOUNDS SLASH SUDO_APT_UPDATE
-0.8539 SOUNDS SLASH SUDO_LS
-1.2218 SOUNDS SLASH ULTIMATE_QUESTION_INTRO
-0.3010 SOURCEFORGE DOT NET
-0.3010 SPECTRE DOT WAV
-0.3010 SPEECH DOT WAV
-0.3010 SPEECH_EDIT DOT WAV
-0.3010 SPEECH_RECOGNITION AS SR,
-1.0000 SPEECH_RECOGNITION SLASH </s>
-0.3979 SPEECH_RECOGNITION SLASH POCKETSPHINX
-0.3010 SR, OS DOT
-0.3010 SRC SLASH XPAD
-0.3010 SRILM SLASH </s>
-0.3010 SU ROOT </s>
-0.3010 SUDO !! </s>
-0.3010 SUDO ADD DASH
-0.9031 SUDO APT DASH
-2.0792 SUDO APT DIST
-0.4771 SUDO APT INSTALL
-2.0792 SUDO APT REMOVE
-1.7782 SUDO APT UPDATE
-2.0792 SUDO APT UPGRADE
-0.5563 SUDO CP 5031
-0.6532 SUDO CP DASH
-0.3010 SUDO DASH 3
-0.3010 SUDO DKMS INSTALL
-0.3010 SUDO DOT WAV
-0.4771 SUDO DPKG DASH
-0.7782 SUDO DPKG DISCORD
-0.6021 SUDO ECHO 1
-0.6021 SUDO ECHO 4
-0.3010 SUDO FDISK DASH
-0.3010 SUDO GDEBI MINECRAFT
-0.3010 SUDO GIT CLONE
-0.3010 SUDO GNOME DASH
-0.3010 SUDO LS SLASH
-0.6021 SUDO MV DASH
-0.6021 SUDO MV THELDERSCR3IIMOMORROWINDGOTYGOG
-0.3010 SUDO NANO SLASH
-0.3010 SUDO NAUTILUS </s>
-0.3010 SUDO PIP INSTALL
-0.3010 SUDO PYTHON GET
-0.5643 SUDO PYTHON3 DASH
-1.3424 SUDO PYTHON3 GET
-0.7404 SUDO PYTHON3 SETUP
-0.7782 SUDO RM 5031
-0.7782 SUDO RM LANGUAGE_MODEL
-0.7782 SUDO RM PRONOUNCIATION
-0.3010 SUDO RMMOD XPAD
-0.9031 SUDO SNAP DASH
-0.6021 SUDO SNAP INSTALL
-0.9031 SUDO SNAP UPDATE
-0.3010 SUDO TEE SLASH
-0.3010 SUDO UKUU DASH
-0.3010 SUDO UNRAR X
-0.3010 SUDO UPDATE DASH
-0.3010 SUDO VBETOOL DMPS
-0.7782 SUDO XBOXDRV </s>
-0.7782 SUDO XBOXDRV DASH
-0.7782 SUDO XBOXDRV –DETACH
-0.3010 SUDO XFCE4 DASH
-0.3010 SUDO_APT_UPDATE DOT WAV
-0.3010 SUDO_LS DOT WAV
-0.3010 SUDP APT DASH
-0.3010 SUN 10 </s>
-0.3010 SWIG GIT LIBPULSE
-0.3010 SWITCH PRO CONTROLLER"
-0.3010 SYS SLASH CLASS
-0.3979 TAR DOT GZ
-1.0000 TAR DOT GZ\N
-0.3010 TEE SLASH SYS
-0.3010 TENSORFLOW1 DOT 8
-0.3010 TENSORFLOW==1 DOT 8
-0.3010 TEST DOT PY
-0.3010 TESTSR\NPOCKETSPHINX_CONTINUOUS DASH INMIC
-0.3010 TEXT ~ SLASH
-0.3010 THELDERSCR3IIMOMORROWINDGOTYGOG DOT RAR
-0.7782 THELDERSCR3IIMOMORROWINDGOTYGOG SLASH DATA\\
-0.4771 THELDERSCR3IIMOMORROWINDGOTYGOG SLASH SLASH
-0.3010 THEMES SLASH </s>
-0.3010 THINKPAD DASH ACPI
-1.0792 THINKPAD_SCREEN SLASH ACTUAL_BRIGHTNESS
-0.7782 THINKPAD_SCREEN SLASH BRIGHTNESS
-0.7782 THINKPAD_SCREEN SLASH MAX_BRIGHTNESS
-1.0792 THINKPAD_SCREEN SLASH TYPE
-0.3010 TOUCH DOT GITIGNORE
-0.3010 TRANSPORT DASH HTTPS
-0.3010 TRIGGER DASH AS
-0.6021 TXT DASH DASH
-0.6021 TXT DASH LM
-0.3010 TXT ~ SLASH
-0.3010 TYPE D DASH
-0.3010 UBUNTU DASH XBOXDRV
-0.7782 UKUU DASH CHECK
-0.7782 UKUU DASH DASH
-0.7782 UKUU DASH GTK
-0.3010 ULTIMATE_QUESTION_INTRO DOT WAV
-0.3010 UNAME DASH SR
-0.3010 UNINSTALL TENSORFLOW </s>
-0.3010 UNRAR DASH X
-0.3010 UNRAR THELDERSCR3IIMOMORROWINDGOTYGOG DOT
-0.6021 UNRAR X 'PATCH
-0.6021 UNRAR X THELDERSCR3IIMOMORROWINDGOTYGOG
-0.3010 UPDATE CL </s>
-0.3010 UPDATE DASH GRUB
-0.3010 UPDATE OPENMW </s>
-0.3010 UPGRADE OPENMW </s>
-0.9031 UPGRADE PIP </s>
-0.4260 UPGRADE PIP SETUPTOOLS
-0.3010 UPGRADE POCKETSPHINX </s>
-0.3010 UPGRADE PYAUDIO </s>
-0.3010 URAR THELDERSCR3IIMOMORROWINDGOTYGOG DOT
-0.3010 URL DASH L
-0.3010 URL HTTPS: SLASH
-0.3010 US COUNT </s>
-0.3010 US LS </s>
-0.8451 US SLASH </s>
-0.4472 US SLASH ACOUSTIC
-0.3010 US SUDO </s>
-0.3010 US TO </s>
-0.3010 US UPDATE </s>
-0.3010 USB DASH DEVICES
-0.6021 USER DOT EMAIL
-0.6021 USER DOT NAME
-0.6690 USR SLASH GAMES
-1.1461 USR SLASH LIB
-1.1461 USR SLASH LOCAL
-0.8451 USR SLASH SRC
-0.3010 V * DOT
-0.3010 V 0 DOT
-0.3010 V DOT DOT
-0.3010 V FOLDERS DOT
-0.3010 V SPEECH_EDIT DOT
-0.3010 V THELDERSCR3IIMOMORROWINDGOTYGOG SLASH
-0.3010 VAR SLASH LIB
-0.3010 VBETOOL DMPS OFF
-0.3010 VIEWER DOWNLOADS SLASH
-0.3010 VIEWER ~ SLASH
-0.3010 VLC DRACULA DOT
-0.3010 VLC FILE DOT
-0.3010 VS DASH CODE
-0.3010 WATERGATE DOT WAV
-0.3010 WATERGATE2 DOT WAV
-1.8573 WAV 10 </s>
-1.5563 WAV 10 BIRCH
-1.0792 WAV 10 CL
-0.9031 WAV 10 CL2
-1.8573 WAV 10 COUNT
-1.3802 WAV 10 SMALL
-1.5563 WAV 10 SUDO
-1.8573 WAV 10 SUN
-1.8573 WAV 10 THE
-1.3802 WAV 10 UPDATE
-1.1584 WAV 10 US
-1.5563 WAV 10 WATERGATE
-0.6021 WAV 120 COMMUNISM
-0.6021 WAV 120 COUNT
-0.3010 WAV 15 WATERGATE
-0.3010 WAV 3 CL2
-1.0000 WAV 30 COMMUNISM
-1.0000 WAV 30 GLUE
-0.5229 WAV 30 THE
-0.3010 WAV 4 COUNT
-0.3010 WAV 40 COMMUNISM
-1.0792 WAV 60 COMMUNISM
-0.7782 WAV 60 ELECTED
-1.0792 WAV 60 EUROPE
-0.7782 WAV 60 WATERGATE
-0.3010 WAV DOT SLASH
-0.3010 WAV SENTANCE1 DOT
-0.3010 WAV SUN 10
-0.3010 WAV WATERGATE </s>
-0.3010 WAV ~ SLASH
-0.3010 X 'PATCH FOR
-0.3010 X THELDERSCR3IIMOMORROWINDGOTYGOG DOT
-0.3010 X11 SLASH XORG
-0.3010 X1= DASH 31320:0:20650,Y1=
-0.3010 XBACKLIGHT 0 </s>
-0.6021 XBACKLIGHT = 0
-0.6021 XBACKLIGHT = DASH
-0.3010 XBACKLIGHT DASH GET
-0.3010 XBACKLIGHT SET 0
-0.3010 XBOXDRV DASH DASH
-0.3010 XBOXDRV XBOXDRV:I386 </s>
-0.3010 XBOXDRV –DETACH DASH
-0.3010 XBRIGHTNESS 1 </s>
-0.3010 XF G2P DASH
-0.3010 XFCE4 DASH POWER
-0.3010 XORG DOT CONF
-0.6990 XPAD DASH 0
-1.0000 XPAD DASH DASH
-0.6990 XPAD DASH V
-0.3010 XPAD DOT GIT
-0.3010 XPAD SLASH 0
-0.3010 XSET DMPS FORCE
-0.3010 XSET DPMS FORCE
-0.3010 XSET S </s>
-0.3010 Y PPA:RAEL DASH
-0.3010 Y PYTHON PYTHON
-0.3010 Y1=Y1, DASH Y2=Y2
-0.3010 Y2=Y2 \\\N DASH
-0.3010 YEAR\\ 3 SLASH
-0.3010 YES DASH LM
-0.3010 YOUTUBE DASH DL
-0.3010 \N\NWGET DASH O
-0.3010 \\\N DASH DASH
-0.3010 | FISH </s>
-0.6021 | GREP FIREFOX
-0.6021 | GREP THINKPAD
-0.3010 | SUDO TEE
-0.3010 |GREP BACKLIGHT </s>
-0.7132 ~ SLASH DESKTOP
-1.0142 ~ SLASH DOT
-1.7924 ~ SLASH DOWNLOADS
-1.7924 ~ SLASH G2P
-0.7510 ~ SLASH YEAR\\
-0.3010 –DETACH DASH KERNEL

\end\
