Language model created by QuickLM on Tue Jan 28 11:33:34 EST 2020
Copyright (c) 1996-2010 Carnegie Mellon University and Alexander I. Rudnicky

The model is in standard ARPA format, designed by Doug Paul while he was at MITRE.

The code that was used to produce this language model is available in Open Source.
Please visit http://www.speech.cs.cmu.edu/tools/ for more information

The (fixed) discount mass is 0.5. The backoffs are computed using the ratio method.
This model based on a corpus of 14664 sentences and 14301 words

\data\
ngram 1=14301
ngram 2=28662
ngram 3=14457

\1-grams:
-4.9456 !V -0.2221
-4.9456 .ANDROID -0.2221
-4.9456 .AUDACITY-DATA -0.2221
-4.9456 .BIN -0.2221
-4.9456 .BUILD-ID -0.2221
-4.9456 .CACHE -0.2221
-4.9456 .CONFIG -0.2221
-4.9456 .DBUS -0.2221
-4.9456 .EXECDATA -0.2221
-4.9456 .FILETYPES -0.2221
-4.9456 .FONT-UNIX -0.2221
-4.9456 .GIT -0.2221
-4.9456 .GITHUB -0.2221
-4.9456 .GNUPG -0.2221
-4.9456 .GPHOTO -0.2221
-4.9456 .GVFS -0.2221
-4.9456 .HISTORY -0.2221
-4.9456 .ICE-UNIX -0.2221
-4.9456 .ICONS -0.2221
-4.9456 .IDEA -0.2221
-4.9456 .IDEAIC2019.3 -0.2221
-4.9456 .INDEXES -0.2221
-4.9456 .JAVA -0.2221
-4.9456 .LAUNCHES -0.2221
-4.9456 .LIBS -0.2221
-4.9456 .LOCAL -0.2221
-4.9456 .METADATA -0.2221
-4.9456 .MINECRAFT -0.2221
-4.9456 .MOZILLA -0.2221
-4.9456 .MYLYN -0.2221
-4.9456 .ORACLE_JRE_USAGE -0.2221
-4.9456 .PERSISTENT -0.2221
-4.9456 .PKI -0.2221
-4.9456 .PLUGINS -0.2221
-4.9456 .PROJECTS -0.2221
-4.9456 .PYLINT.D -0.2221
-4.9456 .REFACTORINGS -0.2221
-4.9456 .ROOT -0.2221
-4.9456 .SAFETABLE -0.2221
-4.9456 .SETTINGS -0.2221
-4.9456 .STEAM -0.2221
-4.9456 .SVN -0.2221
-4.9456 .SYSTEMPREFS -0.2221
-4.9456 .TASKLISTINDEX -0.2221
-4.9456 .TEST-UNIX -0.2221
-4.9456 .TMP_VERSIONS -0.2221
-4.9456 .USERPREFS -0.2221
-4.9456 .VERSIONS -0.2221
-4.9456 .VSCODE -0.2221
-4.9456 .WORKSPACE -0.2221
-4.9456 .X11-UNIX -0.2221
-4.9456 .XIM-UNIX -0.2221
-4.9456 / -0.2221
-4.9456 0 -0.2221
-4.9456 0.0.9 -0.2221
-4.9456 0.1 -0.2221
-4.9456 0.12.0 -0.2221
-4.9456 0.4 -0.2221
-4.9456 0.4.14 -0.2221
-4.9456 0.4.15 -0.2221
-4.9456 0.51 -0.2221
-4.9456 00 -0.2221
-4.9456 0000:00 -0.2221
-4.9456 0000:00:00.0 -0.2221
-4.9456 0000:00:00.2 -0.2221
-4.9456 0000:00:01.0 -0.2221
-4.9456 0000:00:01.1 -0.2221
-4.9456 0000:00:01.1:PCIE001 -0.2221
-4.9456 0000:00:01.1:PCIE002 -0.2221
-4.9456 0000:00:01.1:PCIE010 -0.2221
-4.9456 0000:00:01.2 -0.2221
-4.9456 0000:00:01.2:PCIE001 -0.2221
-4.9456 0000:00:01.2:PCIE002 -0.2221
-4.9456 0000:00:01.2:PCIE010 -0.2221
-4.9456 0000:00:01.3 -0.2221
-4.9456 0000:00:01.3:PCIE001 -0.2221
-4.9456 0000:00:01.3:PCIE002 -0.2221
-4.9456 0000:00:01.3:PCIE010 -0.2221
-4.9456 0000:00:01.6 -0.2221
-4.9456 0000:00:01.6:PCIE001 -0.2221
-4.9456 0000:00:01.6:PCIE002 -0.2221
-4.9456 0000:00:01.6:PCIE004 -0.2221
-4.9456 0000:00:01.6:PCIE010 -0.2221
-4.9456 0000:00:08.0 -0.2221
-4.9456 0000:00:08.1 -0.2221
-4.9456 0000:00:08.1:PCIE001 -0.2221
-4.9456 0000:00:08.1:PCIE010 -0.2221
-4.9456 0000:00:08.2 -0.2221
-4.9456 0000:00:08.2:PCIE001 -0.2221
-4.9456 0000:00:08.2:PCIE010 -0.2221
-4.9456 0000:00:14.0 -0.2221
-4.9456 0000:00:14.3 -0.2221
-4.9456 0000:00:18.0 -0.2221
-4.9456 0000:00:18.1 -0.2221
-4.9456 0000:00:18.2 -0.2221
-4.9456 0000:00:18.3 -0.2221
-4.9456 0000:00:18.4 -0.2221
-4.9456 0000:00:18.5 -0.2221
-4.9456 0000:00:18.6 -0.2221
-4.9456 0000:00:18.7 -0.2221
-4.9456 0000:01 -0.2221
-4.9456 0000:01:00.0 -0.2221
-4.9456 0000:02 -0.2221
-4.9456 0000:02:00.0 -0.2221
-4.9456 0000:03 -0.2221
-4.9456 0000:03:00.0 -0.2221
-4.9456 0000:04 -0.2221
-4.9456 0000:04:00.0 -0.2221
-4.9456 0000:05 -0.2221
-4.9456 0000:05:00.0 -0.2221
-4.9456 0000:05:00.1 -0.2221
-4.9456 0000:05:00.2 -0.2221
-4.9456 0000:05:00.3 -0.2221
-4.9456 0000:05:00.4 -0.2221
-4.9456 0000:05:00.5 -0.2221
-4.9456 0000:05:00.6 -0.2221
-4.9456 0000:06 -0.2221
-4.9456 0000:06:00.0 -0.2221
-4.9456 001 -0.2221
-4.9456 002 -0.2221
-4.9456 003 -0.2221
-4.9456 004 -0.2221
-4.9456 00:00 -0.2221
-4.9456 00:01 -0.2221
-4.9456 00:02 -0.2221
-4.9456 00:03 -0.2221
-4.9456 00:04 -0.2221
-4.9456 00:05 -0.2221
-4.9456 01 -0.2221
-4.9456 02 -0.2221
-4.9456 03 -0.2221
-4.9456 04 -0.2221
-4.9456 05 -0.2221
-4.9456 05B0FE8524860BD73CBB07EF30FB34CC -0.2221
-4.9456 06 -0.2221
-4.9456 07 -0.2221
-4.9456 08 -0.2221
-4.9456 09 -0.2221
-4.9456 0:0:0:0 -0.2221
-4.9456 0:51 -0.2221
-4.9456 0A -0.2221
-4.9456 0B -0.2221
-4.9456 0C -0.2221
-4.9456 0D -0.2221
-4.9456 0DEOCPYV -0.2221
-4.9456 0E -0.2221
-4.9456 0F -0.2221
-4.9456 0UTAC9XC -0.2221
-4.2467 1 -0.2220
-4.9456 1-0:1.0 -0.2221
-4.9456 1.0 -0.2221
-4.9456 1.0.0 -0.2221
-4.9456 1.0.17 -0.2221
-4.9456 1.0.22 -0.2221
-4.9456 1.1 -0.2221
-4.9456 1.1.3 -0.2221
-4.9456 1.10 -0.2221
-4.9456 1.11.3 -0.2221
-4.9456 1.15.2 -0.2221
-4.9456 1.22.3 -0.2221
-4.9456 1.5.25 -0.2221
-4.9456 1.6.0 -0.2221
-4.9456 1.8.1 -0.2221
-4.9456 1.8.1.1 -0.2221
-4.3436 10 -0.2220
-4.9456 10-VENDOR.D -0.2221
-4.9456 100 -0.2221
-4.9456 1001 -0.2221
-4.9456 1005 -0.2221
-4.9456 1007 -0.2221
-4.9456 1009 -0.2221
-4.9456 101 -0.2221
-4.9456 1010 -0.2221
-4.9456 1011 -0.2221
-4.9456 1019 -0.2221
-4.9456 102 -0.2221
-4.9456 1020201COEX -0.2221
-4.9456 10265 -0.2221
-4.9456 10266 -0.2221
-4.9456 10290 -0.2221
-4.9456 10292 -0.2221
-4.9456 10293 -0.2221
-4.9456 103 -0.2221
-4.9456 104 -0.2221
-4.9456 1042 -0.2221
-4.9456 1044 -0.2221
-4.9456 1046 -0.2221
-4.9456 1046228012SCYN.FILES -0.2221
-4.9456 1048 -0.2221
-4.9456 105 -0.2221
-4.9456 1057 -0.2221
-4.9456 1059 -0.2221
-4.9456 106 -0.2221
-4.9456 1066 -0.2221
-4.9456 1067 -0.2221
-4.9456 10679 -0.2221
-4.9456 1068 -0.2221
-4.9456 10680 -0.2221
-4.9456 1069 -0.2221
-4.9456 107 -0.2221
-4.9456 1070 -0.2221
-4.9456 1071 -0.2221
-4.9456 1072 -0.2221
-4.9456 1073 -0.2221
-4.9456 1074 -0.2221
-4.9456 10742 -0.2221
-4.9456 1075 -0.2221
-4.9456 1076 -0.2221
-4.9456 1077 -0.2221
-4.9456 1078 -0.2221
-4.9456 1079 -0.2221
-4.9456 108 -0.2221
-4.9456 1080 -0.2221
-4.9456 1081 -0.2221
-4.9456 1082 -0.2221
-4.9456 1083 -0.2221
-4.9456 1084 -0.2221
-4.9456 1085 -0.2221
-4.9456 10851 -0.2221
-4.9456 1086 -0.2221
-4.9456 1087 -0.2221
-4.9456 1088 -0.2221
-4.9456 1089 -0.2221
-4.9456 1090 -0.2221
-4.9456 1091 -0.2221
-4.9456 1092 -0.2221
-4.9456 1093 -0.2221
-4.9456 1094 -0.2221
-4.9456 1095 -0.2221
-4.9456 1096 -0.2221
-4.9456 1097 -0.2221
-4.9456 1098 -0.2221
-4.9456 1099 -0.2221
-4.9456 10G -0.2221
-4.9456 10OSVENDOR -0.2221
-4.3436 11 -0.2220
-4.9456 11.0.5 -0.2221
-4.9456 110 -0.2221
-4.9456 1100 -0.2221
-4.9456 1101 -0.2221
-4.9456 1102 -0.2221
-4.9456 1103 -0.2221
-4.9456 1104 -0.2221
-4.9456 1105 -0.2221
-4.9456 1108 -0.2221
-4.9456 111 -0.2221
-4.9456 1110 -0.2221
-4.9456 1111 -0.2221
-4.9456 1112 -0.2221
-4.9456 1113 -0.2221
-4.9456 1114 -0.2221
-4.9456 1116 -0.2221
-4.9456 1119037936PTBC_EDTE.FILES -0.2221
-4.9456 11260 -0.2221
-4.9456 113 -0.2221
-4.9456 11350 -0.2221
-4.9456 114 -0.2221
-4.9456 1142 -0.2221
-4.9456 1143 -0.2221
-4.9456 1144 -0.2221
-4.9456 115 -0.2221
-4.9456 1153 -0.2221
-4.9456 117 -0.2221
-4.9456 11714 -0.2221
-4.9456 11824 -0.2221
-4.9456 119 -0.2221
-4.9456 1195058897-USER -0.2221
-4.3436 12 -0.2220
-4.9456 120 -0.2221
-4.9456 120X120 -0.2221
-4.9456 12183338011.FILES -0.2221
-4.9456 122 -0.2221
-4.9456 123 -0.2221
-4.9456 1234 -0.2221
-4.9456 1235 -0.2221
-4.9456 1236 -0.2221
-4.9456 124 -0.2221
-4.9456 126 -0.2221
-4.9456 12618 -0.2221
-4.9456 12620 -0.2221
-4.9456 12621 -0.2221
-4.9456 127 -0.2221
-4.9456 128 -0.2221
-4.9456 12852 -0.2221
-4.9456 12858 -0.2221
-4.9456 128X128 -0.2221
-4.9456 128X128@2 -0.2221
-4.9456 1299 -0.2221
-4.2467 13 -0.2220
-4.9456 130 -0.2221
-4.9456 1305 -0.2221
-4.9456 1308 -0.2221
-4.9456 131 -0.2221
-4.9456 1310 -0.2221
-4.9456 1314 -0.2221
-4.9456 1315 -0.2221
-4.9456 1316 -0.2221
-4.9456 132 -0.2221
-4.9456 1327 -0.2221
-4.9456 133 -0.2221
-4.9456 134 -0.2221
-4.9456 135 -0.2221
-4.9456 13507 -0.2221
-4.9456 136 -0.2221
-4.9456 1367196241HBOERWINZO.FILES -0.2221
-4.9456 137 -0.2221
-4.9456 13777 -0.2221
-4.9456 138 -0.2221
-4.9456 13840 -0.2221
-4.9456 139 -0.2221
-4.3436 14 -0.2220
-4.9456 140 -0.2221
-4.9456 14092 -0.2221
-4.9456 142 -0.2221
-4.9456 143 -0.2221
-4.9456 144 -0.2221
-4.9456 1440 -0.2221
-4.9456 1447 -0.2221
-4.9456 1448 -0.2221
-4.9456 1449 -0.2221
-4.9456 145 -0.2221
-4.9456 1450 -0.2221
-4.9456 1451 -0.2221
-4.9456 1453 -0.2221
-4.9456 14535 -0.2221
-4.9456 1454 -0.2221
-4.9456 146 -0.2221
-4.9456 14606 -0.2221
-4.9456 14669 -0.2221
-4.9456 147 -0.2221
-4.9456 1473 -0.2221
-4.9456 1474 -0.2221
-4.9456 1475 -0.2221
-4.9456 1476 -0.2221
-4.9456 14761 -0.2221
-4.9456 148 -0.2221
-4.9456 149 -0.2221
-4.9456 15 -0.2221
-4.9456 15090 -0.2221
-4.9456 151 -0.2221
-4.9456 1511 -0.2221
-4.9456 15193 -0.2221
-4.9456 15277 -0.2221
-4.9456 15290 -0.2221
-4.9456 15292 -0.2221
-4.9456 15293 -0.2221
-4.9456 15295 -0.2221
-4.9456 15296 -0.2221
-4.9456 15297 -0.2221
-4.9456 15298 -0.2221
-4.9456 15305 -0.2221
-4.9456 15306 -0.2221
-4.9456 15307 -0.2221
-4.9456 15308 -0.2221
-4.9456 15309 -0.2221
-4.9456 15310 -0.2221
-4.9456 15311 -0.2221
-4.9456 15312 -0.2221
-4.9456 15313 -0.2221
-4.9456 15314 -0.2221
-4.9456 15315 -0.2221
-4.9456 15316 -0.2221
-4.9456 15318 -0.2221
-4.9456 15358 -0.2221
-4.9456 15359 -0.2221
-4.9456 154 -0.2221
-4.9456 15434 -0.2221
-4.9456 155 -0.2221
-4.9456 156 -0.2221
-4.9456 157 -0.2221
-4.9456 15742 -0.2221
-4.9456 15748 -0.2221
-4.9456 15753 -0.2221
-4.9456 15754 -0.2221
-4.9456 158 -0.2221
-4.9456 1580 -0.2221
-4.9456 1588 -0.2221
-4.9456 159 -0.2221
-4.9456 1592 -0.2221
-4.9456 1593 -0.2221
-4.9456 1594 -0.2221
-4.9456 1597 -0.2221
-4.9456 15983 -0.2221
-4.9456 16 -0.2221
-4.9456 16-A -0.2221
-4.9456 16-DARK -0.2221
-4.9456 16-LIGHT -0.2221
-4.9456 16.04 -0.2221
-4.9456 1600 -0.2221
-4.9456 1601 -0.2221
-4.9456 1602 -0.2221
-4.9456 1603 -0.2221
-4.9456 1604 -0.2221
-4.9456 1605 -0.2221
-4.9456 1606 -0.2221
-4.9456 1607 -0.2221
-4.9456 16073 -0.2221
-4.9456 16075 -0.2221
-4.9456 16076 -0.2221
-4.9456 16077 -0.2221
-4.9456 1609 -0.2221
-4.9456 16090 -0.2221
-4.9456 16096 -0.2221
-4.9456 16097 -0.2221
-4.9456 16099 -0.2221
-4.9456 161 -0.2221
-4.9456 1610 -0.2221
-4.9456 16104 -0.2221
-4.9456 16105 -0.2221
-4.9456 16106 -0.2221
-4.9456 16107 -0.2221
-4.9456 16112 -0.2221
-4.9456 16114 -0.2221
-4.9456 16118 -0.2221
-4.9456 1612 -0.2221
-4.9456 1614 -0.2221
-4.9456 1615 -0.2221
-4.9456 162 -0.2221
-4.9456 16237 -0.2221
-4.9456 16271 -0.2221
-4.9456 16276 -0.2221
-4.9456 16279 -0.2221
-4.9456 16280 -0.2221
-4.9456 16283 -0.2221
-4.9456 16284 -0.2221
-4.9456 1629 -0.2221
-4.9456 16295 -0.2221
-4.9456 16296 -0.2221
-4.9456 16297 -0.2221
-4.9456 163 -0.2221
-4.9456 1630 -0.2221
-4.9456 1632 -0.2221
-4.9456 1636 -0.2221
-4.9456 16363 -0.2221
-4.9456 1638 -0.2221
-4.9456 1639 -0.2221
-4.9456 164 -0.2221
-4.9456 1640 -0.2221
-4.9456 1642 -0.2221
-4.9456 1643 -0.2221
-4.9456 1645 -0.2221
-4.9456 1646 -0.2221
-4.9456 1647 -0.2221
-4.9456 1649 -0.2221
-4.9456 165 -0.2221
-4.9456 1650 -0.2221
-4.9456 1651 -0.2221
-4.9456 1652 -0.2221
-4.9456 1656 -0.2221
-4.9456 1657114595AMCATEIRVTISTY.FILES -0.2221
-4.9456 1659 -0.2221
-4.9456 166 -0.2221
-4.9456 1662 -0.2221
-4.9456 1663 -0.2221
-4.9456 1664 -0.2221
-4.9456 1665 -0.2221
-4.9456 1666 -0.2221
-4.9456 1668 -0.2221
-4.9456 1669 -0.2221
-4.9456 167 -0.2221
-4.9456 1670 -0.2221
-4.9456 1671 -0.2221
-4.9456 1672 -0.2221
-4.9456 1676 -0.2221
-4.9456 1677 -0.2221
-4.9456 168 -0.2221
-4.9456 1680 -0.2221
-4.9456 1681 -0.2221
-4.9456 1682 -0.2221
-4.9456 1685 -0.2221
-4.9456 1686 -0.2221
-4.9456 1689 -0.2221
-4.9456 169 -0.2221
-4.9456 1690 -0.2221
-4.9456 1694 -0.2221
-4.9456 1695 -0.2221
-4.9456 1697 -0.2221
-4.9456 1699 -0.2221
-4.9456 16X16 -0.2221
-4.9456 16X16-DARK -0.2221
-4.9456 16X16-LIGHT -0.2221
-4.9456 16X16@2 -0.2221
-4.9456 16X16@2X -0.2221
-4.9456 17 -0.2221
-4.9456 170 -0.2221
-4.9456 1700 -0.2221
-4.9456 1701 -0.2221
-4.9456 1702 -0.2221
-4.9456 1705 -0.2221
-4.9456 1708 -0.2221
-4.9456 171 -0.2221
-4.9456 1713 -0.2221
-4.9456 1714 -0.2221
-4.9456 1716 -0.2221
-4.9456 1718 -0.2221
-4.9456 1719 -0.2221
-4.9456 172 -0.2221
-4.9456 1720 -0.2221
-4.9456 1721 -0.2221
-4.9456 1722 -0.2221
-4.9456 1724 -0.2221
-4.9456 1725 -0.2221
-4.9456 1728 -0.2221
-4.9456 173 -0.2221
-4.9456 1731 -0.2221
-4.9456 1733 -0.2221
-4.9456 1736 -0.2221
-4.9456 1739 -0.2221
-4.9456 174 -0.2221
-4.9456 1743 -0.2221
-4.9456 1744 -0.2221
-4.9456 1745 -0.2221
-4.9456 1746 -0.2221
-4.9456 1747 -0.2221
-4.9456 1748 -0.2221
-4.9456 1749 -0.2221
-4.9456 1755 -0.2221
-4.9456 1759 -0.2221
-4.9456 176 -0.2221
-4.9456 1760 -0.2221
-4.9456 1761 -0.2221
-4.9456 1762 -0.2221
-4.9456 1763 -0.2221
-4.9456 1764 -0.2221
-4.9456 1765 -0.2221
-4.9456 1766 -0.2221
-4.9456 177 -0.2221
-4.9456 1772 -0.2221
-4.9456 1776 -0.2221
-4.9456 1777 -0.2221
-4.9456 1778 -0.2221
-4.9456 1779 -0.2221
-4.9456 178 -0.2221
-4.9456 1781 -0.2221
-4.9456 1782 -0.2221
-4.9456 1783 -0.2221
-4.9456 1784 -0.2221
-4.9456 1785 -0.2221
-4.9456 1786 -0.2221
-4.9456 1787 -0.2221
-4.9456 1788 -0.2221
-4.9456 1789 -0.2221
-4.9456 179 -0.2221
-4.9456 1790 -0.2221
-4.9456 1791 -0.2221
-4.9456 1792 -0.2221
-4.9456 1794 -0.2221
-4.9456 18 -0.2221
-4.9456 180 -0.2221
-4.9456 1801 -0.2221
-4.9456 1802 -0.2221
-4.9456 1803 -0.2221
-4.9456 1804 -0.2221
-4.9456 1805 -0.2221
-4.9456 1806 -0.2221
-4.9456 1807 -0.2221
-4.9456 1808 -0.2221
-4.9456 1809 -0.2221
-4.9456 181 -0.2221
-4.9456 1810 -0.2221
-4.9456 1811 -0.2221
-4.9456 1812 -0.2221
-4.9456 1813 -0.2221
-4.9456 1814 -0.2221
-4.9456 18197 -0.2221
-4.9456 18198 -0.2221
-4.9456 182 -0.2221
-4.9456 18206 -0.2221
-4.9456 18207 -0.2221
-4.9456 1821 -0.2221
-4.9456 1823 -0.2221
-4.9456 1824 -0.2221
-4.9456 1825 -0.2221
-4.9456 1827 -0.2221
-4.9456 1828 -0.2221
-4.9456 1829 -0.2221
-4.9456 183 -0.2221
-4.9456 1832 -0.2221
-4.9456 1836 -0.2221
-4.9456 1838 -0.2221
-4.9456 1839 -0.2221
-4.9456 184 -0.2221
-4.9456 1844 -0.2221
-4.9456 1845 -0.2221
-4.9456 1846 -0.2221
-4.9456 1847 -0.2221
-4.9456 185 -0.2221
-4.9456 1853 -0.2221
-4.9456 1857 -0.2221
-4.9456 1858 -0.2221
-4.9456 186 -0.2221
-4.9456 1861 -0.2221
-4.9456 1862 -0.2221
-4.9456 1864 -0.2221
-4.9456 1865 -0.2221
-4.9456 1867 -0.2221
-4.9456 1868 -0.2221
-4.9456 187 -0.2221
-4.9456 1873 -0.2221
-4.9456 1875 -0.2221
-4.9456 1876 -0.2221
-4.9456 1877 -0.2221
-4.9456 1878 -0.2221
-4.9456 1879 -0.2221
-4.9456 1880 -0.2221
-4.9456 1883 -0.2221
-4.9456 1886 -0.2221
-4.9456 1888 -0.2221
-4.9456 189 -0.2221
-4.9456 1892 -0.2221
-4.9456 1893 -0.2221
-4.9456 1897 -0.2221
-4.9456 1898 -0.2221
-4.9456 19 -0.2221
-4.9456 1900 -0.2221
-4.9456 1901 -0.2221
-4.9456 1902 -0.2221
-4.9456 1903 -0.2221
-4.9456 1904 -0.2221
-4.9456 1905 -0.2221
-4.9456 1907 -0.2221
-4.9456 1908 -0.2221
-4.9456 1909 -0.2221
-4.9456 191 -0.2221
-4.9456 192 -0.2221
-4.9456 1920 -0.2221
-4.9456 1921 -0.2221
-4.9456 1922 -0.2221
-4.9456 1923 -0.2221
-4.9456 192X192 -0.2221
-4.9456 193 -0.2221
-4.9456 1930 -0.2221
-4.9456 1931 -0.2221
-4.9456 1932 -0.2221
-4.9456 1933 -0.2221
-4.9456 1934 -0.2221
-4.9456 1935 -0.2221
-4.9456 1937 -0.2221
-4.9456 1938 -0.2221
-4.9456 1939 -0.2221
-4.9456 194 -0.2221
-4.9456 1940 -0.2221
-4.9456 1942 -0.2221
-4.9456 1944 -0.2221
-4.9456 1946 -0.2221
-4.9456 1948 -0.2221
-4.9456 195 -0.2221
-4.9456 1950 -0.2221
-4.9456 1951 -0.2221
-4.9456 1952 -0.2221
-4.9456 1953 -0.2221
-4.9456 1955 -0.2221
-4.9456 1956 -0.2221
-4.9456 1957 -0.2221
-4.9456 1958 -0.2221
-4.9456 196 -0.2221
-4.9456 1960 -0.2221
-4.9456 1961 -0.2221
-4.9456 1962 -0.2221
-4.9456 1963 -0.2221
-4.9456 1964 -0.2221
-4.9456 1966 -0.2221
-4.9456 1967 -0.2221
-4.9456 1968 -0.2221
-4.9456 1969 -0.2221
-4.9456 197 -0.2221
-4.9456 1970 -0.2221
-4.9456 1973 -0.2221
-4.9456 1974 -0.2221
-4.9456 1975 -0.2221
-4.9456 1976 -0.2221
-4.9456 1979 -0.2221
-4.9456 198 -0.2221
-4.9456 1980 -0.2221
-4.9456 1982 -0.2221
-4.9456 1983 -0.2221
-4.9456 1984 -0.2221
-4.9456 1986 -0.2221
-4.9456 199 -0.2221
-4.9456 1A -0.2221
-4.9456 1B -0.2221
-4.9456 1C -0.2221
-4.9456 1C5ZNIK4 -0.2221
-4.9456 1D -0.2221
-4.9456 1E -0.2221
-4.9456 1F -0.2221
-4.2467 2 -0.2220
-4.9456 2-0:1.0 -0.2221
-4.9456 2.0 -0.2221
-4.9456 2.0.24 -0.2221
-4.9456 2.0.5 -0.2221
-4.9456 2.10.0 -0.2221
-4.9456 2.2 -0.2221
-4.9456 2.4.7 -0.2221
-4.9456 2.5 -0.2221
-4.9456 2.5.0 -0.2221
-4.9456 2.5.16 -0.2221
-4.9456 2.5GBPS -0.3010
-4.9456 2.6 -0.2221
-4.9456 2.8.0 -0.2221
-4.9456 2.8.1 -0.2221
-4.9456 20 -0.2221
-4.9456 200 -0.2221
-4.9456 201 -0.2221
-4.9456 2016 -0.2221
-4.9456 2019 -0.2221
-4.9456 202 -0.2221
-4.9456 2020-01 -0.2221
-4.9456 20200121T114239 -0.2221
-4.9456 20200121T220537 -0.2221
-4.9456 20200121T220652 -0.2221
-4.9456 20200127T092335 -0.2221
-4.9456 20200127T102100 -0.2221
-4.9456 20200127T130553 -0.2221
-4.9456 20200127T130604 -0.2221
-4.9456 20200127T145300 -0.2221
-4.9456 20200127T163728 -0.2221
-4.9456 20200128T142240 -0.2221
-4.9456 203 -0.2221
-4.9456 205 -0.2221
-4.9456 206 -0.2221
-4.9456 208 -0.2221
-4.9456 209 -0.2221
-4.9456 20THIRDPARTY -0.2221
-4.9456 21 -0.2221
-4.9456 21.0 -0.2221
-4.9456 210 -0.2221
-4.9456 211 -0.2221
-4.9456 213 -0.2221
-4.9456 214 -0.2221
-4.9456 215 -0.2221
-4.9456 217 -0.2221
-4.9456 218 -0.2221
-4.9456 22 -0.2221
-4.9456 22-LIGTH -0.2221
-4.9456 220 -0.2221
-4.9456 221 -0.2221
-4.9456 222 -0.2221
-4.9456 223 -0.2221
-4.9456 224 -0.2221
-4.9456 2251 -0.2221
-4.9456 226 -0.2221
-4.9456 228 -0.2221
-4.9456 229 -0.2221
-4.9456 22X22 -0.2221
-4.9456 22X22-DARK -0.2221
-4.9456 22X22-LIGHT -0.2221
-4.9456 23 -0.2221
-4.9456 230 -0.2221
-4.9456 231 -0.2221
-4.9456 232 -0.2221
-4.9456 233 -0.2221
-4.9456 234 -0.2221
-4.9456 235 -0.2221
-4.9456 236 -0.2221
-4.9456 237 -0.2221
-4.9456 2370 -0.2221
-4.9456 2373 -0.2221
-4.9456 2374 -0.2221
-4.9456 2375 -0.2221
-4.9456 2377 -0.2221
-4.9456 2378 -0.2221
-4.9456 2379 -0.2221
-4.9456 238 -0.2221
-4.9456 2380 -0.2221
-4.9456 2381 -0.2221
-4.9456 2382 -0.2221
-4.9456 2383 -0.2221
-4.9456 2384 -0.2221
-4.9456 2385 -0.2221
-4.9456 2386 -0.2221
-4.9456 2387 -0.2221
-4.9456 2391 -0.2221
-4.9456 2392 -0.2221
-4.9456 2393 -0.2221
-4.9456 2398 -0.2221
-4.9456 2399 -0.2221
-4.9456 24 -0.2221
-4.9456 24-DARK -0.2221
-4.9456 24-LIGHT -0.2221
-4.9456 240 -0.2221
-4.9456 2400 -0.2221
-4.9456 2401 -0.2221
-4.9456 2402 -0.2221
-4.9456 2403 -0.2221
-4.9456 2404 -0.2221
-4.9456 2405 -0.2221
-4.9456 2409 -0.2221
-4.9456 241 -0.2221
-4.9456 2411 -0.2221
-4.9456 2412 -0.2221
-4.9456 2413 -0.2221
-4.9456 2414 -0.2221
-4.9456 2415 -0.2221
-4.9456 2416 -0.2221
-4.9456 2417 -0.2221
-4.9456 2418 -0.2221
-4.9456 2419 -0.2221
-4.9456 242 -0.2221
-4.9456 2420 -0.2221
-4.9456 2421 -0.2221
-4.9456 2422 -0.2221
-4.9456 2426 -0.2221
-4.9456 2427 -0.2221
-4.9456 2428 -0.2221
-4.9456 2429 -0.2221
-4.9456 243 -0.2221
-4.9456 2430 -0.2221
-4.9456 2431 -0.2221
-4.9456 2432 -0.2221
-4.9456 2433 -0.2221
-4.9456 2434 -0.2221
-4.9456 2435 -0.2221
-4.9456 2437 -0.2221
-4.9456 2438 -0.2221
-4.9456 244 -0.2221
-4.9456 2441 -0.2221
-4.9456 2442 -0.2221
-4.9456 2443 -0.2221
-4.9456 2444 -0.2221
-4.9456 2445 -0.2221
-4.9456 2446 -0.2221
-4.9456 2447 -0.2221
-4.9456 2448 -0.2221
-4.9456 245 -0.2221
-4.9456 2450 -0.2221
-4.9456 2459 -0.2221
-4.9456 246 -0.2221
-4.9456 2460 -0.2221
-4.9456 2461 -0.2221
-4.9456 2462 -0.2221
-4.9456 2463 -0.2221
-4.9456 2464 -0.2221
-4.9456 247 -0.2221
-4.9456 2489 -0.2221
-4.9456 249 -0.2221
-4.9456 2498 -0.2221
-4.9456 2499 -0.2221
-4.9456 24X24 -0.2221
-4.9456 24X24@2 -0.2221
-4.9456 24X24@2X -0.2221
-4.9456 25 -0.2221
-4.9456 250 -0.2221
-4.9456 2500 -0.2221
-4.9456 2505 -0.2221
-4.9456 2506 -0.2221
-4.9456 2507 -0.2221
-4.9456 2508 -0.2221
-4.9456 2509 -0.2221
-4.9456 251 -0.2221
-4.9456 2510 -0.2221
-4.9456 2511 -0.2221
-4.9456 2512 -0.2221
-4.9456 2513 -0.2221
-4.9456 2515 -0.2221
-4.9456 2516 -0.2221
-4.9456 252 -0.2221
-4.9456 2521 -0.2221
-4.9456 2522 -0.2221
-4.9456 2523 -0.2221
-4.9456 2524 -0.2221
-4.9456 2525 -0.2221
-4.9456 2526 -0.2221
-4.9456 2531 -0.2221
-4.9456 2532 -0.2221
-4.9456 2533 -0.2221
-4.9456 2534 -0.2221
-4.9456 2536 -0.2221
-4.9456 254 -0.2221
-4.9456 2540 -0.2221
-4.9456 2541 -0.2221
-4.9456 2542 -0.2221
-4.9456 2543 -0.2221
-4.9456 2544 -0.2221
-4.9456 2545 -0.2221
-4.9456 2546 -0.2221
-4.9456 2547 -0.2221
-4.9456 2549 -0.2221
-4.9456 255 -0.2221
-4.9456 2552 -0.2221
-4.9456 2553 -0.2221
-4.9456 2554 -0.2221
-4.9456 2555 -0.2221
-4.9456 2556 -0.2221
-4.9456 2557 -0.2221
-4.9456 2558 -0.2221
-4.9456 2559 -0.2221
-4.9456 256 -0.2221
-4.9456 2560 -0.2221
-4.9456 2561 -0.2221
-4.9456 2562 -0.2221
-4.9456 2563 -0.2221
-4.9456 2564 -0.2221
-4.9456 2565 -0.2221
-4.9456 2566 -0.2221
-4.9456 2567 -0.2221
-4.9456 2568 -0.2221
-4.9456 2569 -0.2221
-4.9456 256X256 -0.2221
-4.9456 256X256@2X -0.2221
-4.9456 2570 -0.2221
-4.9456 2571 -0.2221
-4.9456 2572 -0.2221
-4.9456 2574 -0.2221
-4.9456 2575 -0.2221
-4.9456 2576 -0.2221
-4.9456 2577 -0.2221
-4.9456 2578 -0.2221
-4.9456 2579 -0.2221
-4.9456 2581 -0.2221
-4.9456 2582 -0.2221
-4.9456 2583 -0.2221
-4.9456 2584 -0.2221
-4.9456 2585 -0.2221
-4.9456 2586 -0.2221
-4.9456 2587 -0.2221
-4.9456 2588 -0.2221
-4.9456 2589 -0.2221
-4.9456 2590 -0.2221
-4.9456 2594 -0.2221
-4.9456 2595 -0.2221
-4.9456 2596 -0.2221
-4.9456 2597 -0.2221
-4.9456 2598 -0.2221
-4.9456 2599 -0.2221
-4.9456 259:0 -0.2221
-4.9456 26 -0.2221
-4.9456 2600 -0.2221
-4.9456 2602 -0.2221
-4.9456 2606 -0.2221
-4.9456 2607 -0.2221
-4.9456 2612 -0.2221
-4.9456 2613 -0.2221
-4.9456 2615 -0.2221
-4.9456 2616 -0.2221
-4.9456 2617 -0.2221
-4.9456 2618 -0.2221
-4.9456 2619 -0.2221
-4.9456 2624 -0.2221
-4.9456 2625 -0.2221
-4.9456 2626 -0.2221
-4.9456 2627 -0.2221
-4.9456 2628 -0.2221
-4.9456 2629 -0.2221
-4.9456 2631 -0.2221
-4.9456 2633 -0.2221
-4.9456 2637 -0.2221
-4.9456 2638 -0.2221
-4.9456 2639 -0.2221
-4.9456 2640 -0.2221
-4.9456 2641 -0.2221
-4.9456 2642 -0.2221
-4.9456 2643 -0.2221
-4.9456 2644 -0.2221
-4.9456 2645 -0.2221
-4.9456 2646 -0.2221
-4.9456 2647 -0.2221
-4.9456 2648 -0.2221
-4.9456 2649 -0.2221
-4.9456 2650 -0.2221
-4.9456 2651 -0.2221
-4.9456 2652 -0.2221
-4.9456 2652897157TBIDTTANNECIL.FILES -0.2221
-4.9456 2653 -0.2221
-4.9456 2656 -0.2221
-4.9456 2657 -0.2221
-4.9456 2658 -0.2221
-4.9456 2671 -0.2221
-4.9456 2672 -0.2221
-4.9456 2678 -0.2221
-4.9456 2679 -0.2221
-4.9456 2680 -0.2221
-4.9456 2681 -0.2221
-4.9456 2682 -0.2221
-4.9456 2683 -0.2221
-4.9456 2684 -0.2221
-4.9456 2685 -0.2221
-4.9456 2686 -0.2221
-4.9456 2688 -0.2221
-4.9456 26884 -0.2221
-4.9456 26885 -0.2221
-4.9456 26886 -0.2221
-4.9456 26887 -0.2221
-4.9456 26888 -0.2221
-4.9456 2690 -0.2221
-4.9456 2691 -0.2221
-4.9456 2694 -0.2221
-4.9456 2698 -0.2221
-4.9456 2699 -0.2221
-4.9456 27 -0.2221
-4.9456 2700 -0.2221
-4.9456 2701 -0.2221
-4.9456 2702 -0.2221
-4.9456 2709 -0.2221
-4.9456 2722 -0.2221
-4.9456 2724 -0.2221
-4.9456 2725 -0.2221
-4.9456 2726 -0.2221
-4.9456 2727 -0.2221
-4.9456 2728 -0.2221
-4.9456 2728594770KEERYOVTASL-.FILES -0.2221
-4.9456 2729 -0.2221
-4.9456 2730 -0.2221
-4.9456 2731 -0.2221
-4.9456 2732 -0.2221
-4.9456 2733 -0.2221
-4.9456 2734 -0.2221
-4.9456 2736 -0.2221
-4.9456 2737 -0.2221
-4.9456 2738 -0.2221
-4.9456 2739 -0.2221
-4.9456 2740 -0.2221
-4.9456 2741 -0.2221
-4.9456 2742 -0.2221
-4.9456 2743 -0.2221
-4.9456 2744 -0.2221
-4.9456 2745 -0.2221
-4.9456 275 -0.2221
-4.9456 2750 -0.2221
-4.9456 2751 -0.2221
-4.9456 2752 -0.2221
-4.9456 2753 -0.2221
-4.9456 2760 -0.2221
-4.9456 2761 -0.2221
-4.9456 2763 -0.2221
-4.9456 2764 -0.2221
-4.9456 2765 -0.2221
-4.9456 2766 -0.2221
-4.9456 2768 -0.2221
-4.9456 277 -0.2221
-4.9456 2771 -0.2221
-4.9456 2772 -0.2221
-4.9456 2774 -0.2221
-4.9456 2775 -0.2221
-4.9456 2776 -0.2221
-4.9456 2778 -0.2221
-4.9456 2779 -0.2221
-4.9456 278 -0.2221
-4.9456 2780 -0.2221
-4.9456 2781 -0.2221
-4.9456 2782 -0.2221
-4.9456 2783 -0.2221
-4.9456 2784 -0.2221
-4.9456 2785 -0.2221
-4.9456 2786 -0.2221
-4.9456 2788 -0.2221
-4.9456 2792 -0.2221
-4.9456 2797 -0.2221
-4.9456 28 -0.2221
-4.9456 280 -0.2221
-4.9456 2803 -0.2221
-4.9456 2816 -0.2221
-4.9456 284 -0.2221
-4.9456 285 -0.2221
-4.9456 286 -0.2221
-4.9456 288 -0.2221
-4.9456 289 -0.2221
-4.9456 28NM -0.2221
-4.9456 28X28 -0.2221
-4.9456 28ZEONXNOBLVIB7XNERBLTOSP0NF7DWS -0.2221
-4.9456 29 -0.2221
-4.9456 290 -0.2221
-4.9456 291 -0.2221
-4.9456 2918063365PIUPSAH.FILES -0.2221
-4.9456 292 -0.2221
-4.9456 2923 -0.2221
-4.9456 2924 -0.2221
-4.9456 2929 -0.2221
-4.9456 293 -0.2221
-4.9456 294 -0.2221
-4.9456 2944 -0.2221
-4.9456 295 -0.2221
-4.9456 296 -0.2221
-4.9456 297 -0.2221
-4.9456 298 -0.2221
-4.9456 299 -0.2221
-4.9456 2A -0.2221
-4.9456 2AND3 -0.2221
-4.9456 2B -0.2221
-4.9456 2C -0.2221
-4.9456 2D -0.2221
-4.9456 2E -0.2221
-4.9456 2F -0.2221
-4.9456 2OFOYHYZ -0.2221
-4.9456 2W2HMHVX -0.2221
-4.9456 2X -0.2221
-4.2467 3 -0.2220
-4.9456 3-0:1.0 -0.2221
-4.9456 3-1 -0.2221
-4.9456 3-1:1.0 -0.2221
-4.9456 3-1:1.1 -0.2221
-4.9456 3-2 -0.2221
-4.9456 3-2:1.0 -0.2221
-4.9456 3-2:1.1 -0.2221
-4.9456 3.0.0 -0.2221
-4.9456 3.2.2 -0.2221
-4.9456 3.4.0 -0.2221
-4.9456 3.5 -0.2221
-4.9456 3.6 -0.2221
-4.9456 3.7 -0.2221
-4.9456 30 -0.2221
-4.9456 300 -0.2221
-4.9456 301 -0.2221
-4.9456 301792106TTES.FILES -0.2221
-4.9456 302 -0.2221
-4.9456 303 -0.2221
-4.9456 304 -0.2221
-4.9456 31 -0.2221
-4.9456 315746093SW.FILES -0.2221
-4.9456 31664 -0.2221
-4.9456 3166453069WCAW.FILES -0.2221
-4.9456 31667 -0.2221
-4.9456 32 -0.2221
-4.9456 321 -0.2221
-4.9456 32605 -0.2221
-4.9456 3284 -0.2221
-4.9456 3288 -0.2221
-4.9456 3290 -0.2221
-4.9456 3291 -0.2221
-4.9456 3292 -0.2221
-4.9456 32BIT -0.2221
-4.9456 32X32 -0.2221
-4.9456 32X32@2 -0.2221
-4.9456 32X32@2X -0.2221
-4.9456 33 -0.2221
-4.9456 34 -0.2221
-4.9456 3409 -0.2221
-4.9456 35 -0.2221
-4.9456 3561288849SDHLIE.FILES -0.2221
-4.9456 36 -0.2221
-4.9456 3619119340LEOGCAARLOF.FILES -0.2221
-4.9456 36X36 -0.2221
-4.9456 37 -0.2221
-4.9456 3713173747_S_EDMBAN.FILES -0.2221
-4.9456 38 -0.2221
-4.9456 3870112724RSEGMNOITTET-ES.FILES -0.2221
-4.9456 39 -0.2221
-4.9456 3A -0.2221
-4.9456 3B -0.2221
-4.9456 3C -0.2221
-4.9456 3CFAB8B741B949661463677B8969E108 -0.2221
-4.9456 3COM -0.2221
-4.9456 3D -0.2221
-4.9456 3E -0.2221
-4.9456 3F -0.2221
-4.9456 3W -0.2221
-4.3436 4 -0.2220
-4.9456 4-0:1.0 -0.2221
-4.9456 4-COMPILER_AND_TIMING -0.2221
-4.9456 4.1.25.FINAL -0.2221
-4.9456 4.10.1196.0 -0.2221
-4.9456 4.15.0-36-GENERIC -0.2221
-4.9456 4.15.0-74-GENERIC -0.2221
-4.9456 4.3.2 -0.2221
-4.9456 4.3.3 -0.2221
-4.9456 4.4.0 -0.2221
-4.9456 4.6 -0.2221
-4.9456 4.6.3 -0.2221
-4.9456 40 -0.2221
-4.9456 4041069256GSODOEGVLIERD.FILES -0.2221
-4.9456 4072 -0.2221
-4.9456 4085 -0.2221
-4.9456 4088 -0.2221
-4.9456 4089 -0.2221
-4.9456 4091 -0.2221
-4.9456 4092 -0.2221
-4.9456 4094 -0.2221
-4.9456 4095 -0.2221
-4.9456 4096 -0.2221
-4.9456 4097 -0.2221
-4.9456 4098 -0.2221
-4.9456 4099 -0.2221
-4.9456 40X -0.2221
-4.9456 41 -0.2221
-4.9456 4100 -0.2221
-4.9456 4101 -0.2221
-4.9456 4102 -0.2221
-4.9456 4103 -0.2221
-4.9456 4104 -0.2221
-4.9456 4105 -0.2221
-4.9456 4106 -0.2221
-4.9456 4107 -0.2221
-4.9456 4108 -0.2221
-4.9456 4109 -0.2221
-4.9456 4110 -0.2221
-4.9456 4111 -0.2221
-4.9456 4113 -0.2221
-4.9456 4114 -0.2221
-4.9456 4120 -0.2221
-4.9456 4121 -0.2221
-4.9456 4122 -0.2221
-4.9456 4123 -0.2221
-4.9456 4124 -0.2221
-4.9456 4125 -0.2221
-4.9456 4128 -0.2221
-4.9456 4129 -0.2221
-4.9456 4131 -0.2221
-4.9456 4132 -0.2221
-4.9456 42 -0.2221
-4.9456 4200 -0.2221
-4.9456 4203 -0.2221
-4.9456 4204 -0.2221
-4.9456 4205 -0.2221
-4.9456 4206 -0.2221
-4.9456 4207 -0.2221
-4.9456 4211 -0.2221
-4.9456 4212 -0.2221
-4.9456 4213 -0.2221
-4.9456 4214 -0.2221
-4.9456 4215 -0.2221
-4.9456 4216 -0.2221
-4.9456 4217 -0.2221
-4.9456 4218 -0.2221
-4.9456 4219 -0.2221
-4.9456 4220 -0.2221
-4.9456 4227 -0.2221
-4.9456 4228 -0.2221
-4.9456 4229 -0.2221
-4.9456 4230 -0.2221
-4.9456 4231 -0.2221
-4.9456 4232 -0.2221
-4.9456 4233 -0.2221
-4.9456 4234 -0.2221
-4.9456 4235 -0.2221
-4.9456 424 -0.2221
-4.9456 4245 -0.2221
-4.9456 4248 -0.2221
-4.9456 4249 -0.2221
-4.9456 4250 -0.2221
-4.9456 4251 -0.2221
-4.9456 4252 -0.2221
-4.9456 4253 -0.2221
-4.9456 4254 -0.2221
-4.9456 4255 -0.2221
-4.9456 4256 -0.2221
-4.9456 4257 -0.2221
-4.9456 4258 -0.2221
-4.9456 4259 -0.2221
-4.9456 426 -0.2221
-4.9456 4260 -0.2221
-4.9456 4261 -0.2221
-4.9456 4262 -0.2221
-4.9456 4266 -0.2221
-4.9456 4267 -0.2221
-4.9456 4268 -0.2221
-4.9456 4269 -0.2221
-4.9456 427 -0.2221
-4.9456 4270 -0.2221
-4.9456 4271 -0.2221
-4.9456 4272 -0.2221
-4.9456 4273 -0.2221
-4.9456 4274 -0.2221
-4.9456 4275 -0.2221
-4.9456 4276 -0.2221
-4.9456 4277 -0.2221
-4.9456 4278 -0.2221
-4.9456 4279 -0.2221
-4.9456 4280 -0.2221
-4.9456 4281 -0.2221
-4.9456 4282 -0.2221
-4.9456 4284 -0.2221
-4.9456 4287 -0.2221
-4.9456 4288 -0.2221
-4.9456 4289 -0.2221
-4.9456 4290 -0.2221
-4.9456 4291 -0.2221
-4.9456 4292 -0.2221
-4.9456 4293 -0.2221
-4.9456 4294 -0.2221
-4.9456 4295 -0.2221
-4.9456 4296 -0.2221
-4.9456 4297 -0.2221
-4.9456 4298 -0.2221
-4.9456 4299 -0.2221
-4.9456 42X42 -0.2221
-4.9456 43 -0.2221
-4.9456 4300 -0.2221
-4.9456 4301 -0.2221
-4.9456 4305 -0.2221
-4.9456 4306 -0.2221
-4.9456 4307 -0.2221
-4.9456 4308 -0.2221
-4.9456 4309 -0.2221
-4.9456 4310 -0.2221
-4.9456 4311 -0.2221
-4.9456 4312 -0.2221
-4.9456 4313 -0.2221
-4.9456 4314 -0.2221
-4.9456 4315 -0.2221
-4.9456 4316 -0.2221
-4.9456 4317 -0.2221
-4.9456 4318 -0.2221
-4.9456 4319 -0.2221
-4.9456 4320 -0.2221
-4.9456 4321 -0.2221
-4.9456 4322 -0.2221
-4.9456 4323 -0.2221
-4.9456 4327 -0.2221
-4.9456 4330 -0.2221
-4.9456 4331 -0.2221
-4.9456 4332 -0.2221
-4.9456 4333 -0.2221
-4.9456 4334 -0.2221
-4.9456 4335 -0.2221
-4.9456 4336 -0.2221
-4.9456 4337 -0.2221
-4.9456 4338 -0.2221
-4.9456 4339 -0.2221
-4.9456 4340 -0.2221
-4.9456 4341 -0.2221
-4.9456 4342 -0.2221
-4.9456 4343 -0.2221
-4.9456 4344 -0.2221
-4.9456 4348 -0.2221
-4.9456 4349 -0.2221
-4.9456 4350 -0.2221
-4.9456 4351 -0.2221
-4.9456 4352 -0.2221
-4.9456 4353 -0.2221
-4.9456 4354 -0.2221
-4.9456 4355 -0.2221
-4.9456 4356 -0.2221
-4.9456 4357 -0.2221
-4.9456 4358 -0.2221
-4.9456 4359 -0.2221
-4.9456 4360 -0.2221
-4.9456 4361 -0.2221
-4.9456 4362 -0.2221
-4.9456 4363 -0.2221
-4.9456 4386 -0.2221
-4.9456 4387 -0.2221
-4.9456 4388 -0.2221
-4.9456 4389 -0.2221
-4.9456 4390 -0.2221
-4.9456 4391 -0.2221
-4.9456 44 -0.2221
-4.9456 4401 -0.2221
-4.9456 4402 -0.2221
-4.9456 4476 -0.2221
-4.9456 4479 -0.2221
-4.9456 4480 -0.2221
-4.9456 4481 -0.2221
-4.9456 4482 -0.2221
-4.9456 44X -0.2221
-4.6446 45 -0.2221
-4.9456 46 -0.2221
-4.9456 47 -0.2221
-4.9456 4739 -0.2221
-4.9456 4740 -0.2221
-4.9456 4741 -0.2221
-4.9456 4746 -0.2221
-4.9456 4748 -0.2221
-4.9456 4749 -0.2221
-4.9456 4750 -0.2221
-4.9456 4751 -0.2221
-4.9456 4752 -0.2221
-4.9456 4753 -0.2221
-4.9456 4754 -0.2221
-4.9456 4755 -0.2221
-4.9456 4756 -0.2221
-4.9456 4757 -0.2221
-4.9456 4759 -0.2221
-4.9456 4760 -0.2221
-4.9456 4761 -0.2221
-4.9456 4762 -0.2221
-4.9456 4763 -0.2221
-4.9456 4764 -0.2221
-4.9456 4765 -0.2221
-4.9456 4766 -0.2221
-4.9456 48 -0.2221
-4.9456 48-BLACK-RED -0.2221
-4.9456 48-BLUE -0.2221
-4.9456 48-GREEN -0.2221
-4.9456 48-PURPLE -0.2221
-4.9456 48-WHITE-YELLOW -0.2221
-4.9456 4802 -0.2221
-4.9456 4804 -0.2221
-4.9456 4805 -0.2221
-4.9456 4806 -0.2221
-4.9456 489 -0.2221
-4.9456 48X48 -0.2221
-4.9456 48X48@2 -0.2221
-4.9456 48X48@2X -0.2221
-4.9456 49 -0.2221
-4.9456 4A -0.2221
-4.9456 4B -0.2221
-4.9456 4C -0.2221
-4.9456 4D -0.2221
-4.9456 4E -0.2221
-4.9456 4F -0.2221
-4.9456 4K -0.2221
-4.9456 4TG1NHEO -0.2221
-4.9456 4XX -0.2221
-4.3436 5 -0.2220
-4.9456 5.0.3 -0.2221
-4.9456 5.2 -0.2221
-4.9456 5.22 -0.2221
-4.9456 5.26 -0.2221
-4.9456 5.26.1 -0.2221
-4.9456 5.4.1 -0.2221
-4.9456 5.4.13-050413-GENERIC -0.2221
-4.9456 50 -0.2221
-4.9456 5011 -0.2221
-4.9456 5014 -0.2221
-4.9456 5017 -0.2221
-4.9456 5018 -0.2221
-4.9456 5019 -0.2221
-4.9456 5021 -0.2221
-4.9456 5031 -0.2221
-4.9456 5032 -0.2221
-4.9456 5033 -0.2221
-4.9456 5034 -0.2221
-4.9456 5035 -0.2221
-4.9456 5036 -0.2221
-4.9456 5037 -0.2221
-4.9456 5038 -0.2221
-4.9456 5039 -0.2221
-4.9456 5040 -0.2221
-4.9456 5041 -0.2221
-4.9456 5042 -0.2221
-4.9456 5043 -0.2221
-4.9456 5044 -0.2221
-4.9456 5045 -0.2221
-4.9456 5046 -0.2221
-4.9456 5047 -0.2221
-4.9456 5048 -0.2221
-4.9456 5049 -0.2221
-4.9456 5050 -0.2221
-4.9456 5060 -0.2221
-4.9456 5061 -0.2221
-4.9456 5062 -0.2221
-4.9456 5063 -0.2221
-4.9456 5064 -0.2221
-4.9456 5065 -0.2221
-4.9456 5066 -0.2221
-4.9456 5067 -0.2221
-4.9456 51 -0.2221
-4.9456 51.2 -0.2221
-4.9456 512X -0.2221
-4.9456 512X512 -0.2221
-4.9456 5184 -0.2221
-4.9456 5187 -0.2221
-4.9456 5188 -0.2221
-4.9456 5189 -0.2221
-4.9456 5190 -0.2221
-4.9456 5191 -0.2221
-4.9456 5192 -0.2221
-4.9456 5193 -0.2221
-4.9456 5194 -0.2221
-4.9456 5195 -0.2221
-4.9456 5196 -0.2221
-4.9456 5197 -0.2221
-4.9456 5198 -0.2221
-4.9456 5199 -0.2221
-4.9456 52 -0.2221
-4.9456 520 -0.2221
-4.9456 5200 -0.2221
-4.9456 5201 -0.2221
-4.9456 5202 -0.2221
-4.9456 5203 -0.2221
-4.9456 5204 -0.2221
-4.9456 5205 -0.2221
-4.9456 5206 -0.2221
-4.9456 5207 -0.2221
-4.9456 5208 -0.2221
-4.9456 5209 -0.2221
-4.9456 5210 -0.2221
-4.9456 5215 -0.2221
-4.9456 5216 -0.2221
-4.9456 5217 -0.2221
-4.9456 5218 -0.2221
-4.9456 5219 -0.2221
-4.9456 5220 -0.2221
-4.9456 5221 -0.2221
-4.9456 5222 -0.2221
-4.9456 524 -0.2221
-4.9456 52XX -0.2221
-4.9456 53 -0.2221
-4.9456 532 -0.2221
-4.9456 534 -0.2221
-4.9456 54 -0.2221
-4.9456 548905059DB.FILES -0.2221
-4.9456 55 -0.2221
-4.9456 552 -0.2221
-4.9456 554 -0.2221
-4.9456 556 -0.2221
-4.9456 557 -0.2221
-4.9456 56 -0.2221
-4.9456 57 -0.2221
-4.9456 58 -0.2221
-4.9456 59 -0.2221
-4.9456 5A -0.2221
-4.9456 5B -0.2221
-4.9456 5C -0.2221
-4.9456 5D -0.2221
-4.9456 5E -0.2221
-4.9456 5F -0.2221
-4.9456 5WIOX83L -0.2221
-4.3436 6 -0.2220
-4.9456 60 -0.2221
-4.9456 604 -0.2221
-4.9456 60XX -0.2221
-4.9456 61 -0.2221
-4.9456 619 -0.2221
-4.9456 62 -0.2221
-4.9456 620 -0.2221
-4.9456 621 -0.2221
-4.9456 6272 -0.2221
-4.9456 6273 -0.2221
-4.9456 63 -0.2221
-4.9456 64 -0.2221
-4.9456 646570 -0.2221
-4.9456 64BIT -0.2221
-4.9456 64X64 -0.2221
-4.9456 64X64@2 -0.2221
-4.9456 65 -0.2221
-4.9456 656 -0.2221
-4.9456 65QWQPCG -0.2221
-4.9456 66 -0.2221
-4.9456 67 -0.2221
-4.9456 6713 -0.2221
-4.9456 6714 -0.2221
-4.9456 6715 -0.2221
-4.9456 68 -0.2221
-4.9456 68000 -0.2221
-4.9456 69 -0.2221
-4.9456 6A -0.2221
-4.9456 6B -0.2221
-4.9456 6C -0.2221
-4.9456 6D -0.2221
-4.9456 6E -0.2221
-4.9456 6F -0.2221
-4.9456 6FIRE -0.2221
-4.9456 6LOWPAN -0.2221
-4.3436 7 -0.2220
-4.9456 70 -0.2221
-4.9456 700 -0.2221
-4.9456 71 -0.2221
-4.9456 72 -0.2221
-4.9456 7206 -0.2221
-4.9456 72X72 -0.2221
-4.9456 73 -0.2221
-4.9456 7343 -0.2221
-4.9456 736260 -0.2221
-4.9456 74 -0.2221
-4.9456 75 -0.2221
-4.9456 76 -0.2221
-4.9456 77 -0.2221
-4.9456 770X -0.2221
-4.9456 7721 -0.2221
-4.9456 7722 -0.2221
-4.9456 7723 -0.2221
-4.9456 7724 -0.2221
-4.9456 7725 -0.2221
-4.9456 7726 -0.2221
-4.9456 7727 -0.2221
-4.9456 7728 -0.2221
-4.9456 7729 -0.2221
-4.9456 7730 -0.2221
-4.9456 7751 -0.2221
-4.9456 7780 -0.2221
-4.9456 78 -0.2221
-4.9456 79 -0.2221
-4.9456 7:0 -0.2221
-4.9456 7:1 -0.2221
-4.9456 7:2 -0.2221
-4.9456 7:3 -0.2221
-4.9456 7:4 -0.2221
-4.9456 7:5 -0.2221
-4.9456 7:6 -0.2221
-4.9456 7:7 -0.2221
-4.9456 7:8 -0.2221
-4.9456 7A -0.2221
-4.9456 7B -0.2221
-4.9456 7C -0.2221
-4.9456 7D -0.2221
-4.9456 7E -0.2221
-4.9456 7F -0.2221
-4.9456 7Z2LZMA -0.2221
-4.3436 8 -0.2220
-4.9456 8.2.1 -0.2221
-4.9456 80 -0.2221
-4.9456 802 -0.2221
-4.9456 8021Q -0.2221
-4.9456 805 -0.2221
-4.9456 81 -0.2221
-4.9456 8132 -0.2221
-4.9456 8133 -0.2221
-4.9456 8134 -0.2221
-4.9456 8139TOO -0.2221
-4.9456 815 -0.2221
-4.9456 8152 -0.2221
-4.9456 8154 -0.2221
-4.9456 8157 -0.2221
-4.9456 8160 -0.2221
-4.9456 8178 -0.2221
-4.9456 8179 -0.2221
-4.9456 8180 -0.2221
-4.9456 8194 -0.2221
-4.9456 82 -0.2221
-4.9456 821 -0.2221
-4.9456 822 -0.2221
-4.9456 823 -0.2221
-4.9456 82463514 -0.2221
-4.9456 8250 -0.2221
-4.9456 8255 -0.2221
-4.9456 8268 -0.2221
-4.9456 82XX -0.2221
-4.9456 83 -0.2221
-4.9456 8309 -0.2221
-4.9456 830BC118332E77292949ED1E6D2FABE0 -0.2221
-4.9456 832 -0.2221
-4.9456 833 -0.2221
-4.9456 8390 -0.2221
-4.9456 83XX -0.2221
-4.9456 84 -0.2221
-4.9456 842 -0.2221
-4.9456 8428 -0.2221
-4.9456 847 -0.2221
-4.9456 85 -0.2221
-4.9456 85XX -0.2221
-4.9456 86 -0.2221
-4.9456 86XX -0.2221
-4.9456 87 -0.2221
-4.9456 87FFDV6H.DEFAULT -0.2221
-4.9456 88 -0.2221
-4.9456 884 -0.2221
-4.9456 88EU -0.2221
-4.9456 88PM80X -0.2221
-4.6446 88PM860X -0.2221
-4.9456 89 -0.2221
-4.9456 89F1CBF495CD495789169720B6603D21 -0.2221
-4.9456 8:0 -0.2221
-4.9456 8A -0.2221
-4.9456 8B -0.2221
-4.9456 8C -0.2221
-4.9456 8D -0.2221
-4.9456 8DEV -0.2221
-4.9456 8E -0.2221
-4.9456 8F -0.2221
-4.9456 8X8 -0.2221
-4.9456 8X8@2X -0.2221
-4.9456 8XX -0.2221
-4.3436 9 -0.2220
-4.9456 9.26 -0.2221
-4.9456 90 -0.2221
-4.9456 908 -0.2221
-4.9456 91 -0.2221
-4.9456 9141 -0.2221
-4.9456 918 -0.2221
-4.9456 92 -0.2221
-4.9456 920 -0.2221
-4.9456 921 -0.2221
-4.9456 922 -0.2221
-4.9456 923 -0.2221
-4.9456 925 -0.2221
-4.9456 926 -0.2221
-4.9456 927 -0.2221
-4.9456 928 -0.2221
-4.9456 93 -0.2221
-4.9456 931 -0.2221
-4.9456 936 -0.2221
-4.9456 94 -0.2221
-4.9456 940 -0.2221
-4.9456 943 -0.2221
-4.9456 944 -0.2221
-4.9456 945 -0.2221
-4.9456 946 -0.2221
-4.9456 949 -0.2221
-4.9456 95 -0.2221
-4.9456 953 -0.2221
-4.9456 958 -0.2221
-4.9456 95OLRG75.DEFAULT-RELEASE -0.2221
-4.9456 96 -0.2221
-4.9456 960 -0.2221
-4.9456 963 -0.2221
-4.9456 964 -0.2221
-4.9456 968 -0.2221
-4.9456 969 -0.2221
-4.9456 96X96 -0.2221
-4.9456 97 -0.2221
-4.9456 970 -0.2221
-4.9456 974 -0.2221
-4.9456 979 -0.2221
-4.9456 98 -0.2221
-4.9456 981 -0.2221
-4.9456 982 -0.2221
-4.9456 986 -0.2221
-4.9456 987 -0.2221
-4.9456 99 -0.2221
-4.9456 993782502OBNDE__KSDISG_NLA.FILES -0.2221
-4.9456 9939 -0.2221
-4.9456 9940 -0.2221
-4.9456 996 -0.2221
-4.9456 997 -0.2221
-4.9456 999 -0.2221
-4.9456 99T7MULRHTI3U0QFGL5MXXESAISWT776 -0.2221
-4.9456 9A -0.2221
-4.9456 9B -0.2221
-4.9456 9C -0.2221
-4.9456 9D -0.2221
-4.9456 9E -0.2221
-4.9456 9F -0.2221
-4.9456 9P -0.2221
-4.9456 :0000016 -0.2221
-4.9456 :0000024 -0.2221
-4.9456 :0000032 -0.2221
-4.9456 :0000040 -0.2221
-4.9456 :0000048 -0.2221
-4.9456 :0000056 -0.2221
-4.9456 :0000064 -0.2221
-4.9456 :0000072 -0.2221
-4.9456 :0000080 -0.2221
-4.9456 :0000088 -0.2221
-4.9456 :0000104 -0.2221
-4.9456 :0000112 -0.2221
-4.9456 :0000128 -0.2221
-4.9456 :0000136 -0.2221
-4.9456 :0000144 -0.2221
-4.9456 :0000184 -0.2221
-4.9456 :0000192 -0.2221
-4.9456 :0000200 -0.2221
-4.9456 :0000208 -0.2221
-4.9456 :0000216 -0.2221
-4.9456 :0000256 -0.2221
-4.9456 :0000264 -0.2221
-4.9456 :0000312 -0.2221
-4.9456 :0000320 -0.2221
-4.9456 :0000344 -0.2221
-4.9456 :0000416 -0.2221
-4.9456 :0000512 -0.2221
-4.9456 :0000536 -0.2221
-4.9456 :0000576 -0.2221
-4.9456 :0000640 -0.2221
-4.9456 :0000704 -0.2221
-4.9456 :0000832 -0.2221
-4.9456 :0001024 -0.2221
-4.9456 :0001088 -0.2221
-4.9456 :0002048 -0.2221
-4.9456 :0002104 -0.2221
-4.9456 :0002112 -0.2221
-4.9456 :0002632 -0.2221
-4.9456 :0003312 -0.2221
-4.9456 :0004096 -0.2221
-4.9456 :A-0000016 -0.2221
-4.6446 :A-0000032 -0.2221
-4.6446 :A-0000040 -0.2221
-4.9456 :A-0000048 -0.2221
-4.9456 :A-0000056 -0.2221
-4.6446 :A-0000064 -0.2221
-4.9456 :A-0000072 -0.2221
-4.9456 :A-0000080 -0.2221
-4.9456 :A-0000104 -0.2221
-4.6446 :A-0000128 -0.2221
-4.9456 :A-0000144 -0.2221
-4.9456 :A-0000168 -0.2221
-4.9456 :A-0000192 -0.2221
-4.9456 :A-0000200 -0.2221
-4.6446 :A-0000256 -0.2221
-4.9456 :A-0000704 -0.2221
-4.9456 :A-0001024 -0.2221
-4.9456 :A-0001088 -0.2221
-4.9456 :A-0001152 -0.2221
-4.9456 :A-0001216 -0.2221
-4.9456 :A-0001344 -0.2221
-4.9456 :A-0004160 -0.2221
-4.9456 :A-0004928 -0.2221
-4.9456 :D-0000008 -0.2221
-4.9456 :D-0000016 -0.2221
-4.9456 :D-0000032 -0.2221
-4.9456 :D-0000064 -0.2221
-4.9456 :D-0000096 -0.2221
-4.9456 :D-0000128 -0.2221
-4.9456 :D-0000192 -0.2221
-4.9456 :D-0000256 -0.2221
-4.9456 :D-0000512 -0.2221
-4.9456 :D-0001024 -0.2221
-4.9456 :D-0002048 -0.2221
-4.9456 :D-0004096 -0.2221
-4.9456 :D-0008192 -0.2221
-0.7794 </s> -0.3010
-0.7794 <s> -0.2215
-4.9456 @EMMETIO -0.2221
-4.9456 @JUPYTERLAB -0.2221
-4.9456 @KOA -0.2221
-4.9456 @TYPES -0.2221
-4.6446 A -0.2221
-4.9456 A0 -0.2221
-4.9456 A1 -0.2221
-4.9456 A2 -0.2221
-4.9456 A21 -0.2221
-4.9456 A3 -0.2221
-4.9456 A4 -0.2221
-4.9456 A5 -0.2221
-4.9456 A6 -0.2221
-4.9456 A7 -0.2221
-4.9456 A8 -0.2221
-4.9456 A9 -0.2221
-4.9456 AA -0.2221
-4.9456 AACRAID -0.2221
-4.9456 AAT2870 -0.2221
-4.9456 AAV -0.2221
-4.9456 AA_DJ -0.2221
-4.9456 AA_DJ.UTF8 -0.2221
-4.9456 AA_ER -0.2221
-4.9456 AA_ER@SAAHO -0.2221
-4.9456 AA_ET -0.2221
-4.9456 AB -0.2221
-4.9456 AB3100 -0.2221
-4.9456 ABI -0.2221
-4.9456 ABIV1 -0.2221
-4.9456 ABIV2 -0.2221
-4.9456 ABLK -0.2221
-4.9456 ABM -0.2221
-4.9456 ABOOTIMG -0.2221
-4.9456 ABSOLUTE -0.2221
-4.9456 ABSTRACTIONS -0.2221
-4.9456 ABUSE -0.2221
-4.9456 ABX500 -0.2221
-4.6446 AC -0.2221
-4.9456 AC97 -0.2221
-4.9456 ACARD -0.2221
-4.9456 ACCEL -0.2221
-4.9456 ACCEPT -0.2221
-4.9456 ACCESS -0.2221
-4.9456 ACCESSIBILITY -0.2221
-4.9456 ACCESSIBILITY-SERVICES -0.2221
-4.9456 ACCESSOR -0.2221
-4.9456 ACCESS_OUTPUT -0.2221
-4.9456 ACCOUNT -0.2221
-4.9456 ACCOUNT-KEY -0.2221
-4.9456 ACCOUNTING -0.2221
-4.9456 ACCOUNTS -0.2221
-4.9456 ACCOUNTS-DAEMON.SERVICE -0.2221
-4.6446 ACCOUNTSSERVICE -0.2221
-4.9456 ACCT -0.2221
-4.9456 ACE -0.2221
-4.9456 ACENIC -0.2221
-4.9456 ACER -0.2221
-4.9456 ACH -0.2221
-4.9456 ACL -0.2221
-4.9456 ACLOCAL -0.2221
-4.9456 ACM -0.2221
-4.9456 ACORN -0.2221
-4.9456 ACOUSTIC-MODEL -0.2221
-4.9456 ACP -0.2221
-4.9456 ACPI -0.2221
-4.9456 ACPI-FAN -0.2221
-4.9456 ACPI-SUPPORT -0.2221
-4.9456 ACPI-WMI -0.2221
-4.9456 ACPI0003:00 -0.2221
-4.9456 ACPICA -0.2221
-4.9456 ACPID -0.2221
-4.9456 ACPID.SERVICE -0.2221
-4.9456 ACPIDBG -0.2221
-4.9456 ACPIDUMP -0.2221
-4.9456 ACPIPHP -0.2221
-4.9456 ACPI_CPUFREQ -0.2221
-4.9456 ACQUIRE -0.2221
-4.9456 ACR -0.2221
-4.9456 ACRN -0.2221
-4.9456 ACRUX -0.2221
-4.9456 ACT -0.2221
-4.9456 ACT200L -0.2221
-4.9456 ACTION -0.2221
-4.9456 ACTION.D -0.2221
-4.9456 ACTIONS -0.2221
-4.9456 ACTIONS-EXTRA -0.2221
-4.9456 ACTISYS -0.2221
-4.9456 ACTIVATION -0.2221
-4.9456 ACTIVITIES -0.2221
-4.9456 AD -0.2221
-4.9456 AD1816A -0.2221
-4.9456 AD1848 -0.2221
-4.9456 AD525X -0.2221
-4.9456 AD5592R -0.2221
-4.9456 AD5624R -0.2221
-4.9456 AD5686 -0.2221
-4.9456 AD5696 -0.2221
-4.9456 AD714X -0.2221
-4.9456 AD7606 -0.2221
-4.9456 AD7768 -0.2221
-4.9456 AD7879 -0.2221
-4.9456 ADAPTEC -0.2221
-4.6446 ADAPTER -0.2221
-4.9456 ADAU -0.2221
-4.9456 ADAU1761 -0.2221
-4.9456 ADBLOCK -0.2221
-4.9456 ADC -0.2221
-4.9456 ADD -0.2221
-4.9456 ADDAC -0.2221
-4.9456 ADDI -0.2221
-4.9456 ADDON -0.2221
-4.9456 ADDONS -0.2221
-4.9456 ADDR -0.2221
-4.9456 ADDRESSBOOK -0.2221
-4.9456 ADDRESSBOOK-BACKENDS -0.2221
-4.9456 ADDRESSING -0.2221
-4.9456 ADDUSER -0.2221
-4.9456 ADDUSER.LOCAL.CONF.EXAMPLES -0.2221
-4.9456 ADE7854 -0.2221
-4.9456 ADFS -0.2221
-4.9456 ADI -0.2221
-4.9456 ADIN -0.2221
-4.9456 ADIS -0.2221
-4.9456 ADJD -0.2221
-4.9456 ADL -0.2221
-4.9456 ADMIN -0.2221
-4.9456 ADMIN-GUIDE -0.2221
-4.9456 ADMTEK -0.2221
-4.9456 ADOBE-CNS1 -0.2221
-4.9456 ADOBE-GB1 -0.2221
-4.9456 ADOBE-JAPAN1 -0.2221
-4.9456 ADOBE-JAPAN2 -0.2221
-4.9456 ADOBE-KOREA1 -0.2221
-4.9456 ADP5520 -0.2221
-4.9456 ADT7316 -0.2221
-4.9456 ADV -0.2221
-4.9456 ADV748X -0.2221
-4.9456 ADV7511 -0.2221
-4.9456 ADV7604 -0.2221
-4.9456 ADV7842 -0.2221
-4.9456 ADVANCED -0.2221
-4.9456 ADVANCEMENTS -0.2221
-4.9456 ADVANSYS -0.2221
-4.9456 ADVANTECH -0.2221
-4.9456 ADVISE -0.2221
-4.9456 ADWAITA -0.2221
-4.9456 ADWAITA-DARK -0.2221
-4.9456 ADWAITA-ICON-THEME -0.2221
-4.9456 ADWAITA-ICON-THEME-FULL -0.2221
-4.9456 ADWAITA-QT -0.2221
-4.9456 ADXL34X -0.2221
-4.9456 ADXL372 -0.2221
-4.9456 AE -0.2221
-4.9456 AE2EEF1A74E7E5DAB6526BE7394FB0AB -0.2221
-4.9456 AEGIS128 -0.2221
-4.9456 AER -0.2221
-4.9456 AERDRV -0.2221
-4.9456 AEROFLEX -0.2221
-4.9456 AES -0.2221
-4.9456 AESNI -0.2221
-4.9456 AESNI_INTEL -0.2221
-4.9456 AF -0.2221
-4.9456 AF9005 -0.2221
-4.9456 AFE -0.2221
-4.9456 AFF -0.2221
-4.9456 AFFS -0.2221
-4.9456 AFRICA -0.2221
-4.9456 AFS -0.2221
-4.9456 AF_ZA -0.2221
-4.9456 AF_ZA.UTF8 -0.2221
-4.9456 AGE -0.2221
-4.9456 AGENT -0.2221
-4.9456 AGERE -0.2221
-4.9456 AGM1264K -0.2221
-4.9456 AGP -0.2221
-4.9456 AGPGART-INTEL -0.2221
-4.9456 AGPGART-VIA -0.2221
-4.9456 AH -0.2221
-4.9456 AHCI -0.2221
-4.9456 AHCI[0000:06:00.0] -0.2221
-4.9456 AIC79XX -0.2221
-4.9456 AIC7XXX -0.2221
-4.9456 AIC94XX -0.2221
-4.9456 AICASM -0.2221
-4.9456 AIDLFILE -0.2221
-4.9456 AIDLFOLDER -0.2221
-4.9456 AIM -0.2221
-4.9456 AIM-CDEV -0.2221
-4.9456 AIM-NETWORK -0.2221
-4.9456 AIM-SOUND -0.2221
-4.9456 AIM-V4L2 -0.2221
-4.9456 AIO -0.2221
-4.9456 AIO12 -0.2221
-4.9456 AIRCRACK-NG -0.2221
-4.9456 AIRO -0.2221
-4.9456 AIRSPY -0.2221
-4.9456 AISLERIOT -0.2221
-4.9456 AIX -0.2221
-4.9456 AK -0.2221
-4.9456 AK_GH -0.2221
-4.9456 AL -0.2221
-4.9456 ALACRITECH -0.2221
-4.9456 ALAMLEXIA -0.2221
-4.9456 ALARMTIMER -0.2221
-4.9456 ALBUM-ART -0.2221
-4.9456 ALCHEMY -0.2221
-4.9456 ALCOR -0.2221
-4.9456 ALGORITHM -0.2221
-4.9456 ALGORITHMS -0.2221
-4.9456 ALGOS -0.2221
-4.9456 ALI -0.2221
-4.9456 ALI5451 -0.2221
-4.9456 ALIENWARE -0.2221
-4.9456 ALIGNED -0.2221
-4.9456 ALIGNMENT -0.2221
-4.9456 ALIM1535 -0.2221
-4.9456 ALIM7101 -0.2221
-4.9456 ALIT -0.2221
-4.9456 ALL -0.2221
-4.9456 ALLEGRO-DVT -0.2221
-4.9456 ALLEGROCL -0.2221
-4.9456 ALLOC -0.2221
-4.9456 ALLOW -0.2221
-4.9456 ALLWINNER -0.2221
-4.6446 ALPHA -0.2221
-4.9456 ALSA -0.2221
-4.9456 ALSA-BASE -0.2221
-4.9456 ALSA-LIB -0.2221
-4.9456 ALSA-MIXER -0.2221
-4.9456 ALSA-RESTORE.SERVICE -0.2221
-4.9456 ALSA-UTILS -0.2221
-4.9456 ALSA.CONF.D -0.2221
-4.9456 ALT -0.2221
-4.9456 ALTEON -0.2221
-4.9456 ALTERA -0.2221
-4.9456 ALTERA-STAPL -0.2221
-4.9456 ALTERNATIVES -0.2221
-4.9456 ALTMODES -0.2221
-4.9456 ALWAYS -0.2221
-4.9456 ALX -0.2221
-4.9456 AM -0.2221
-4.9456 AM335X -0.2221
-4.9456 AM437X -0.2221
-4.9456 AMAZON -0.2221
-4.9456 AMBA -0.2221
-4.9456 AMBIANCE -0.2221
-4.9456 AMBIANT-MATE -0.2221
-4.9456 AMBIANT-MATE-DARK -0.2221
-4.9456 AMBIENT -0.2221
-4.9456 AMCC -0.2221
-4.9456 AMD -0.2221
-4.9456 AMD-IOMMU -0.2221
-4.9456 AMD-UCODE -0.2221
-4.9456 AMD-VI -0.2221
-4.9456 AMD64 -0.2221
-4.9456 AMD64-MICROCODE -0.2221
-4.9456 AMD756 -0.2221
-4.9456 AMD8111 -0.2221
-4.9456 AMDGPU -0.2221
-4.9456 AMDGPU_BL0 -0.2221
-4.9456 AMDGPU_DM -0.2221
-4.9456 AMDI0030:00 -0.2221
-4.9456 AMDI0060:00 -0.2221
-4.9456 AMDKFD -0.2221
-4.9456 AMD_DF -0.2221
-4.9456 AMD_GPIO -0.2221
-4.9456 AMD_IOMMU_V2 -0.2221
-4.9456 AMD_L3 -0.2221
-4.9456 AMERICA -0.2221
-4.9456 AMIGA -0.2221
-4.9456 AMIGAONE -0.2221
-4.9456 AMILO -0.2221
-4.9456 AMLOGIC -0.2221
-4.9456 AMPLC -0.2221
-4.9456 AMPLIFIERS -0.2221
-4.6446 AMS -0.2221
-4.9456 AM_ET -0.2221
-4.9456 AM_ET.UTF-8 -0.2221
-4.9456 AN -0.2221
-4.9456 ANACONDA -0.2221
-4.9456 ANACRON -0.2221
-4.9456 ANALOG -0.2221
-4.9456 ANALOGBITS -0.2221
-4.9456 ANALOGIX -0.2221
-4.9456 ANALYZE -0.2221
-4.9456 ANCGHST -0.2221
-4.6446 AND -0.2221
-4.9456 ANDROID -0.2221
-4.9456 ANDROID-AARCH64 -0.2221
-4.9456 ANDROID-ARMV6 -0.2221
-4.9456 ANDROIDAUTOMEDIASERVICE -0.2221
-4.9456 ANDROIDAUTOMESSAGINGSERVICE -0.2221
-4.9456 ANDROIDBOOT -0.2221
-4.9456 ANDROIDMANIFEST -0.2221
-4.9456 ANDROIDTEST -0.2221
-4.9456 ANDROIDTHINGSACTIVITY -0.2221
-4.9456 ANDROIDTHINGSPERIPHERALACTIVITY -0.2221
-4.9456 ANDROIDTVACTIVITY -0.2221
-4.9456 ANDROIDWEARMODULE -0.2221
-4.9456 ANDROIDWIDGETS -0.2221
-4.9456 ANG -0.2221
-4.9456 ANIMATIONLIB -0.2221
-4.9456 ANIMATIONS -0.2221
-4.9456 ANNOUNCE -0.2221
-4.9456 ANON -0.2221
-4.9456 ANON_VMA -0.2221
-4.9456 ANP_IN -0.2221
-4.9456 ANSI -0.2221
-4.9456 ANSI-REGEX -0.2221
-4.9456 ANT -0.2221
-4.9456 ANT-IMPORTS -0.2221
-4.9456 ANTARCTICA -0.2221
-4.9456 ANTU-ICONS -0.2221
-4.9456 ANY-PROMISE -0.2221
-4.9456 ANYBUSS -0.2221
-4.9456 ANYEVENT -0.2221
-4.9456 AN_ES -0.2221
-4.9456 AN_ES.UTF8 -0.2221
-4.9456 AO -0.2221
-4.9456 AOA -0.2221
-4.9456 AOE -0.2221
-4.9456 AP -0.2221
-4.9456 APACHE -0.2221
-4.9456 APACHE2 -0.2221
-4.9456 APACHE2-BIN -0.2221
-4.9456 APBZ9XUR -0.2221
-4.9456 APCI -0.2221
-4.9456 APEI -0.2221
-4.9456 APEX -0.2221
-4.6446 API -0.2221
-4.9456 API.HTML -0.2221
-4.9456 APIC -0.2221
-4.9456 APK -0.2221
-4.9456 APM -0.2221
-4.9456 APOLLO -0.2221
-4.9456 APOLLOLAKE -0.2221
-4.6446 APP -0.2221
-4.9456 APP-DEFAULTS -0.2221
-4.9456 APP-INFO -0.2221
-4.9456 APPACTIONSRESOURCEFILE -0.2221
-4.9456 APPARMOR -0.2221
-4.9456 APPARMOR.D -0.2221
-4.9456 APPARMOR.SERVICE -0.2221
-4.9456 APPARMOR_API -0.2221
-4.9456 APPCACHE -0.2221
-4.9456 APPCENTER -0.2221
-4.9456 APPCENTER-BIONIC-MAIN -0.2221
-4.9456 APPDATA -0.2221
-4.9456 APPEND -0.2221
-4.9456 APPENDICESA-H -0.2221
-4.9456 APPLDATA -0.2221
-4.9456 APPLE -0.2221
-4.9456 APPLET -0.2221
-4.9456 APPLETALK -0.2221
-4.9456 APPLICATION -0.2221
-4.9456 APPLICATION-REGISTRY -0.2221
-4.9456 APPLICATIONS -0.2221
-4.9456 APPLICATIONS.D -0.2221
-4.9456 APPORT -0.2221
-4.9456 APPRAISE -0.2221
-4.6446 APPS -0.2221
-4.9456 APPS-EXTRA -0.2221
-4.9456 APPSTREAM -0.2221
-4.9456 APPSTREAM-DATA-PANTHEON -0.2221
-4.9456 APPSTREAM-DATA-PANTHEON-ICONS -0.2221
-4.9456 APPWIDGET -0.2221
-4.9456 APP_PACKAGE -0.2221
-4.9456 APQ8064-TABLA-SND-CARD -0.2221
-4.9456 APR-UTIL-1 -0.2221
-4.9456 APT -0.2221
-4.9456 APT-CONFIG-ICONS -0.2221
-4.9456 APT-CONFIG-ICONS-HIDPI -0.2221
-4.9456 APT-CONFIG-ICONS-LARGE -0.2221
-4.9456 APT-CONFIG-ICONS-LARGE-HIDPI -0.2221
-4.9456 APT-KEYS -0.2221
-4.9456 APT-TRANSPORT-HTTPS -0.2221
-4.9456 APT-UTILS -0.2221
-4.9456 APT.CONF.D -0.2221
-4.9456 APTCC -0.2221
-4.9456 APTDAEMON -0.2221
-4.9456 APTINA -0.2221
-4.9456 APTITUDE -0.2221
-4.9456 APTITUDE-COMMON -0.2221
-4.9456 APTPKG -0.2221
-4.9456 APTSOURCES -0.2221
-4.9456 AQUANTIA -0.2221
-4.9456 AR -0.2221
-4.9456 AR3K -0.2221
-4.9456 AR5523 -0.2221
-4.9456 AR6003 -0.2221
-4.9456 AR6004 -0.2221
-4.9456 AR7 -0.2221
-4.9456 ARB -0.2221
-4.6446 ARC -0.2221
-4.9456 ARC-DARK -0.2221
-4.9456 ARC-DARKER -0.2221
-4.9456 ARCH -0.2221
-4.9456 ARCH-V10 -0.2221
-4.9456 ARCH-V32 -0.2221
-4.9456 ARCHIVE -0.2221
-4.9456 ARCHIVED -0.2221
-4.9456 ARCHIVES -0.2221
-4.9456 ARCMSR -0.2221
-4.9456 ARCNET -0.2221
-4.9456 ARCTIC -0.2221
-4.9456 ARG -0.2221
-4.9456 ARGENTINA -0.2221
-4.9456 ARGUMENTS -0.2221
-4.9456 ARIA2 -0.2221
-4.9456 ARIZONA -0.2221
-4.9456 ARM -0.2221
-4.9456 ARM64 -0.2221
-4.9456 ARMADA -0.2221
-4.9456 ARMSCII-8 -0.2221
-4.9456 ARM_SCMI -0.2221
-4.9456 ARP -0.2221
-4.9456 ARPA -0.2221
-4.9456 ARPHIC -0.2221
-4.9456 ARRAY_FROM_PYOBJ -0.2221
-4.9456 ARROWS -0.2221
-4.9456 ART -0.2221
-4.9456 ARTISTALBUM -0.2221
-4.9456 ARY -0.2221
-4.9456 ARYBASE -0.2221
-4.9456 AR_AE -0.2221
-4.9456 AR_AE.UTF8 -0.2221
-4.9456 AR_BH -0.2221
-4.9456 AR_BH.UTF8 -0.2221
-4.9456 AR_DZ -0.2221
-4.9456 AR_DZ.UTF8 -0.2221
-4.9456 AR_EG -0.2221
-4.9456 AR_EG.UTF8 -0.2221
-4.9456 AR_IN -0.2221
-4.9456 AR_IQ -0.2221
-4.9456 AR_IQ.UTF8 -0.2221
-4.9456 AR_JO -0.2221
-4.9456 AR_JO.UTF8 -0.2221
-4.9456 AR_KW -0.2221
-4.9456 AR_KW.UTF8 -0.2221
-4.9456 AR_LB -0.2221
-4.9456 AR_LB.UTF8 -0.2221
-4.9456 AR_LY -0.2221
-4.9456 AR_LY.UTF8 -0.2221
-4.9456 AR_MA -0.2221
-4.9456 AR_MA.UTF8 -0.2221
-4.9456 AR_OM -0.2221
-4.9456 AR_OM.UTF8 -0.2221
-4.9456 AR_QA -0.2221
-4.9456 AR_QA.UTF8 -0.2221
-4.9456 AR_SA -0.2221
-4.9456 AR_SA.UTF8 -0.2221
-4.9456 AR_SD -0.2221
-4.9456 AR_SD.UTF8 -0.2221
-4.9456 AR_SS -0.2221
-4.9456 AR_SY -0.2221
-4.9456 AR_SY.UTF8 -0.2221
-4.9456 AR_TN -0.2221
-4.9456 AR_TN.UTF8 -0.2221
-4.9456 AR_YE -0.2221
-4.9456 AR_YE.UTF8 -0.2221
-4.9456 AS -0.2221
-4.9456 AS102 -0.2221
-4.9456 AS3711 -0.2221
-4.9456 ASCII -0.2221
-4.9456 ASCSLP -0.2221
-4.9456 ASHGL -0.2221
-4.9456 ASHSLV -0.2221
-4.9456 ASHVAMP -0.2221
-4.9456 ASHZM -0.2221
-4.9456 ASIA -0.2221
-4.9456 ASIHPI -0.2221
-4.9456 ASILIANTFB -0.2221
-4.9456 ASK-PASSWORD -0.2221
-4.9456 ASK-PASSWORD-BLOCK -0.2221
-4.9456 ASM -0.2221
-4.9456 ASM-GENERIC -0.2221
-4.9456 ASN1CRYPTO -0.2221
-4.9456 ASN1CRYPTO-0.24.0.EGG-INFO -0.2221
-4.9456 ASOUND -0.2221
-4.9456 ASPEED -0.2221
-4.9456 ASPEED-VHUB -0.2221
-4.9456 ASPELL -0.2221
-4.9456 ASPELL-EN -0.2221
-4.9456 ASSEMBLY -0.2221
-4.9456 ASSERTIONS -0.2221
-4.9456 ASSERTS-V0 -0.2221
-4.9456 ASSETS -0.2221
-4.9456 ASSETSFOLDER -0.2221
-4.9456 ASSOCIATIVE -0.2221
-4.9456 ASSUMED_SHAPE -0.2221
-4.9456 AST -0.2221
-4.9456 ASTROID -0.2221
-4.9456 ASTROID-2.3.3.DIST-INFO -0.2221
-4.9456 AST_ES -0.2221
-4.9456 AST_ES.UTF8 -0.2221
-4.9456 ASUS -0.2221
-4.9456 ASYMMETRIC -0.2221
-4.9456 ASYMMETRIC_KEYS -0.2221
-4.6446 ASYNC -0.2221
-4.9456 ASYNC-LIMITER -0.2221
-4.9456 ASYNCIO -0.2221
-4.9456 ASYNCKIT -0.2221
-4.9456 ASYNC_TX -0.2221
-4.9456 AS_IN -0.2221
-4.9456 AT -0.2221
-4.9456 AT-SPI-DBUS-BUS.SERVICE -0.2221
-4.9456 AT-SPI2 -0.2221
-4.9456 AT-SPI2-CORE -0.2221
-4.9456 AT76C50X -0.2221
-4.9456 AT803X -0.2221
-4.9456 AT86RF230 -0.2221
-4.9456 AT91 -0.2221
-4.9456 ATA -0.2221
-4.9456 ATA1 -0.2221
-4.9456 ATARI -0.2221
-4.9456 ATA_DEVICE -0.2221
-4.9456 ATA_GENERIC -0.2221
-4.9456 ATA_LINK -0.2221
-4.9456 ATA_PIIX -0.2221
-4.9456 ATA_PORT -0.2221
-4.9456 ATH -0.2221
-4.9456 ATH10K -0.2221
-4.9456 ATH25 -0.2221
-4.9456 ATH5K -0.2221
-4.9456 ATH6K -0.2221
-4.9456 ATH6KL -0.2221
-4.9456 ATH79 -0.2221
-4.9456 ATH9K -0.2221
-4.9456 ATH9K_HTC -0.2221
-4.9456 ATHEROS -0.2221
-4.9456 ATI -0.2221
-4.9456 ATIIXP -0.2221
-4.9456 ATKBD -0.2221
-4.9456 ATL1C -0.2221
-4.9456 ATL1E -0.2221
-4.6446 ATLANTIC -0.2221
-4.9456 ATLAS -0.2221
-4.9456 ATLX -0.2221
-4.9456 ATM -0.2221
-4.9456 ATMEL -0.2221
-4.9456 ATMEL-HLCDC -0.2221
-4.9456 ATOM -0.2221
-4.9456 ATOMIC -0.2221
-4.9456 ATOMICWRITES -0.2221
-4.9456 ATOMISP -0.2221
-4.9456 ATOMISP2 -0.2221
-4.9456 ATROFL -0.2221
-4.9456 ATROFR -0.2221
-4.9456 ATROST -0.2221
-4.9456 ATTACHMENTS -0.2221
-4.9456 ATTACH_CONDITIONS -0.2221
-4.9456 ATTACK -0.2221
-4.9456 ATTR -0.2221
-4.9456 ATTRIBUTE -0.2221
-4.6446 ATTRIBUTES -0.2221
-4.9456 ATUSB -0.2221
-4.9456 ATY -0.2221
-4.9456 ATY128 -0.2221
-4.9456 AU0828 -0.2221
-4.9456 AU1X -0.2221
-4.9456 AU8522 -0.2221
-4.9456 AU88X0 -0.2221
-4.6446 AUDACITY -0.2221
-4.9456 AUDACITY-DATA -0.2221
-4.9456 AUDACITY-G -0.2221
-4.9456 AUDIENCE -0.2221
-4.9456 AUDIO -0.2221
-4.9456 AUDIO_FILTER -0.2221
-4.9456 AUDIO_MIXER -0.2221
-4.9456 AUDIO_OUTPUT -0.2221
-4.9456 AUDIT -0.2221
-4.9456 AUFS -0.2221
-4.9456 AUO -0.2221
-4.9456 AURORA -0.2221
-4.9456 AUSTRALIA -0.2221
-4.9456 AUTH -0.2221
-4.9456 AUTH.CONF.D -0.2221
-4.9456 AUTHEN -0.2221
-4.9456 AUTHLIB -0.2221
-4.9456 AUTH_GSS -0.2221
-4.9456 AUTO -0.2221
-4.9456 AUTO-IMPORT -0.2221
-4.9456 AUTO-LOAD -0.2221
-4.9456 AUTODIE -0.2221
-4.9456 AUTOFS -0.2221
-4.9456 AUTOFS4 -0.2221
-4.9456 AUTOLOAD -0.2221
-4.9456 AUTOMOTIVEMEDIASERVICE -0.2221
-4.9456 AUTOMOTIVE_1024 -0.2221
-4.9456 AUTOSAVE -0.2221
-4.9456 AUTOSCRIPTS -0.2221
-4.9456 AUTOSTART -0.2221
-4.9456 AUTOSUSPEND -0.2221
-4.9456 AUTO_SUBMENU -0.2221
-4.6446 AUX -0.2221
-4.9456 AUXDISPLAY -0.2221
-4.9456 AUXFILES -0.2221
-4.9456 AV -0.2221
-4.9456 AV7110 -0.2221
-4.9456 AVAHI -0.2221
-4.9456 AVAHI-AUTOIPD -0.2221
-4.9456 AVAHI-DAEMON -0.2221
-4.9456 AVAHI-DAEMON.SERVICE -0.2221
-4.9456 AVATARS -0.2221
-4.9456 AVC -0.2221
-4.9456 AVF -0.2221
-4.9456 AVL -0.2221
-4.9456 AVM -0.2221
-4.9456 AVMB1 -0.2221
-4.9456 AVS -0.2221
-4.9456 AVX -0.2221
-4.9456 AVX2 -0.2221
-4.9456 AW2 -0.2221
-4.9456 AWK -0.2221
-4.9456 AX25 -0.2221
-4.9456 AX88179 -0.2221
-4.9456 AX88796B -0.2221
-4.9456 AXI -0.2221
-4.9456 AXIS -0.2221
-4.9456 AXIS-FIFO -0.2221
-4.9456 AXP20X -0.2221
-4.9456 AXP288 -0.2221
-4.9456 AXS10X -0.2221
-4.9456 AY -0.2221
-4.9456 AYC_PE -0.2221
-4.9456 AZ -0.2221
-4.9456 AZC -0.2221
-4.9456 AZ_AZ -0.2221
-4.9456 AZ_IR -0.2221
-4.6446 B -0.2221
-4.9456 B0 -0.2221
-4.9456 B1 -0.2221
-4.9456 B2 -0.2221
-4.9456 B2C2 -0.2221
-4.9456 B3 -0.2221
-4.9456 B4 -0.2221
-4.9456 B43 -0.2221
-4.9456 B43LEGACY -0.2221
-4.9456 B44 -0.2221
-4.9456 B5 -0.2221
-4.9456 B53 -0.2221
-4.9456 B6 -0.2221
-4.9456 B7 -0.2221
-4.9456 B8 -0.2221
-4.9456 B9 -0.2221
-4.9456 BA -0.2221
-4.6446 BABA -0.2221
-4.9456 BABA_IS_YOU -0.2221
-4.9456 BACKED -0.2221
-4.9456 BACKEND -0.2221
-4.9456 BACKEND-AVAILABLE -0.2221
-4.9456 BACKENDS -0.2221
-4.9456 BACKGROUNDS -0.2221
-4.9456 BACKLIGHT -0.2221
-4.9456 BACKPORTS -0.2221
-4.6446 BACKUPS -0.2221
-4.9456 BACKWARD -0.2221
-4.9456 BAKERY -0.2221
-4.9456 BALANCED-MATCH -0.2221
-4.9456 BALANCING -0.2221
-4.9456 BALLOON -0.2221
-4.9456 BAMF -0.2221
-4.9456 BAMFDAEMON -0.2221
-4.9456 BAMFDAEMON.SERVICE -0.2221
-4.9456 BANG -0.2221
-4.9456 BANK -0.2221
-4.9456 BANNERS -0.2221
-4.9456 BANSHEE -0.2221
-4.9456 BAOBAB -0.2221
-4.9456 BAR -0.2221
-4.9456 BARCODE -0.2221
-4.6446 BASE -0.2221
-4.9456 BASE-FILES -0.2221
-4.9456 BASE-PASSWD -0.2221
-4.9456 BASE64 -0.2221
-4.9456 BASH -0.2221
-4.9456 BASH-COMPLETION -0.2221
-4.9456 BASH_COMPLETION -0.2221
-4.9456 BASH_COMPLETION.D -0.2221
-4.9456 BASIC -0.2221
-4.9456 BASIC.TARGET.WANTS -0.2221
-4.9456 BASICACTIVITY -0.2221
-4.9456 BASICS -0.2221
-4.9456 BASIC_DSP -0.2221
-4.9456 BAT -0.2221
-4.9456 BAT0 -0.2221
-4.9456 BATCHED -0.2221
-4.9456 BATMAN -0.2221
-4.9456 BATMAN-ADV -0.2221
-4.9456 BATTERY -0.2221
-4.9456 BATTLE -0.2221
-4.9456 BAYCOM -0.2221
-4.9456 BAYTRAIL -0.2221
-4.9456 BB -0.2221
-4.6446 BC -0.2221
-4.9456 BCACHE -0.2221
-4.9456 BCD2000 -0.2221
-4.9456 BCEP -0.2221
-4.9456 BCH -0.2221
-4.9456 BCM -0.2221
-4.9456 BCM1480 -0.2221
-4.9456 BCM2048 -0.2221
-4.9456 BCM2835 -0.2221
-4.9456 BCM2835-AUDIO -0.2221
-4.9456 BCM2835-CAMERA -0.2221
-4.9456 BCM47XX -0.2221
-4.9456 BCM47XXNFLASH -0.2221
-4.9456 BCM63XX -0.2221
-4.9456 BCM7XXX -0.2221
-4.9456 BCM87XX -0.2221
-4.9456 BCMA -0.2221
-4.9456 BD -0.2221
-4.9456 BDC -0.2221
-4.9456 BDEV -0.2221
-4.9456 BDEV_CACHE -0.2221
-4.9456 BDI -0.2221
-4.9456 BDISP -0.2221
-4.9456 BDW -0.2221
-4.9456 BE -0.2221
-4.9456 BE2ISCSI -0.2221
-4.9456 BE2NET -0.2221
-4.9456 BE@LATIN -0.2221
-4.9456 BEAR -0.2221
-4.9456 BEARER -0.2221
-4.9456 BEAUTY -0.2221
-4.9456 BEB -0.2221
-4.9456 BEBOB -0.2221
-4.9456 BEEP -0.2221
-4.9456 BEFORE -0.2221
-4.9456 BEFS -0.2221
-4.9456 BELKIN -0.2221
-4.9456 BEM_ZM -0.2221
-4.9456 BENCH -0.2221
-4.9456 BENCHMARKS -0.2221
-4.9456 BENET -0.2221
-4.9456 BER -0.2221
-4.9456 BERLIN -0.2221
-4.9456 BER_DZ -0.2221
-4.9456 BER_MA -0.2221
-4.9456 BESTCOMM -0.2221
-4.9456 BETOP -0.2221
-4.9456 BE_BY -0.2221
-4.9456 BE_BY.UTF8 -0.2221
-4.9456 BE_BY@LATIN -0.2221
-4.9456 BF -0.2221
-4.9456 BFA -0.2221
-4.9456 BFD -0.2221
-4.9456 BFD-PLUGINS -0.2221
-4.9456 BFQ -0.2221
-4.9456 BFS -0.2221
-4.9456 BG -0.2221
-4.9456 BG_BG -0.2221
-4.9456 BG_BG.UTF8 -0.2221
-4.9456 BH -0.2221
-4.9456 BHB_IN.UTF8 -0.2221
-4.9456 BHO_IN -0.2221
-4.9456 BI -0.2221
-4.9456 BIDIC -0.2221
-4.9456 BIDIM -0.2221
-4.9456 BIG -0.2221
-4.9456 BIG5 -0.2221
-4.9456 BIGBEN -0.2221
-4.9456 BIGDECIMAL -0.2221
-4.9456 BIGFLOAT -0.2221
-4.9456 BIGINT -0.2221
-4.9456 BIN -0.2221
-4.9456 BIN32 -0.2221
-4.9456 BIN64 -0.2221
-4.9456 BINARIES -0.2221
-4.9456 BINARY -0.2221
-4.9456 BINARY_HEAP_ -0.2221
-4.9456 BIND9 -0.2221
-4.9456 BIND9-HOST -0.2221
-4.9456 BINDERFS -0.2221
-4.9456 BINDERS -0.2221
-4.9456 BINDING -0.2221
-4.9456 BINDINGS -0.2221
-4.9456 BINDING_ICONS -0.2221
-4.9456 BINFMT -0.2221
-4.9456 BINFMT.D -0.2221
-4.9456 BINFMTS -0.2221
-4.9456 BINFMT_MISC -0.2221
-4.9456 BINOMIAL_HEAP_ -0.2221
-4.9456 BINOMIAL_HEAP_BASE_ -0.2221
-4.9456 BINUTILS -0.2221
-4.9456 BINUTILS-COMMON -0.2221
-4.9456 BIN_SEARCH_TREE_ -0.2221
-4.9456 BIO -0.2221
-4.9456 BIOS -0.2221
-4.9456 BIRTHSIGNS -0.2221
-4.9456 BITMAIN -0.2221
-4.9456 BITMAP -0.2221
-4.9456 BITMAPS -0.2221
-4.9456 BITOPS -0.2221
-4.9456 BITS -0.2221
-4.9456 BKM -0.2221
-4.9456 BL -0.2221
-4.9456 BLACKFIN -0.2221
-4.9456 BLACKHOLE -0.2221
-4.9456 BLACKLIST -0.2221
-4.9456 BLACKLIST.D -0.2221
-4.9456 BLANKFRAGMENT -0.2221
-4.9456 BLANKWEARACTIVITY -0.2221
-4.9456 BLAS -0.2221
-4.9456 BLEACH -0.2221
-4.9456 BLINKER -0.2221
-4.6446 BLK -0.2221
-4.9456 BLK-AVAILABILITY.SERVICE -0.2221
-4.9456 BLKCG_PUNT_BIO -0.2221
-4.9456 BLKDEV -0.2221
-4.9456 BLKID -0.2221
-4.9456 BLKIO -0.2221
-4.9456 BLK_CGROUP -0.2221
-4.9456 BLOBS -0.2221
-4.9456 BLOB_STORAGE -0.2221
-4.9456 BLOCK -0.2221
-4.9456 BLOCKLAYOUT -0.2221
-4.9456 BLOCKLISTS -0.2221
-4.9456 BLOG -0.2221
-4.9456 BLOWFISH -0.2221
-4.9456 BLUEMAN -0.2221
-4.9456 BLUETOOTH -0.2221
-4.9456 BLUETOOTH.SERVICE -0.2221
-4.9456 BLUETOOTH.TARGET.WANTS -0.2221
-4.9456 BLUEZ -0.2221
-4.9456 BLUEZ-CUPS -0.2221
-4.9456 BLUEZ-OBEXD -0.2221
-4.9456 BM -0.2221
-4.9456 BMC150 -0.2221
-4.9456 BME680 -0.2221
-4.9456 BMG160 -0.2221
-4.9456 BMI160 -0.2221
-4.9456 BMIPS -0.2221
-4.9456 BMP280 -0.2221
-4.9456 BN -0.2221
-4.9456 BNA -0.2221
-4.9456 BNEP -0.2221
-4.9456 BNLRD -0.2221
-4.9456 BNT -0.2221
-4.9456 BNWLK -0.2221
-4.9456 BNWLKW -0.2221
-4.9456 BNX2 -0.2221
-4.9456 BNX2FC -0.2221
-4.9456 BNX2I -0.2221
-4.9456 BNX2X -0.2221
-4.9456 BNXT -0.2221
-4.9456 BNXT_RE -0.2221
-4.9456 BN_BD -0.2221
-4.9456 BN_IN -0.2221
-4.9456 BO -0.2221
-4.9456 BOAR -0.2221
-4.9456 BOARD -0.2221
-4.9456 BOARDS -0.2221
-4.9456 BOCHS -0.2221
-4.9456 BOLD -0.2221
-4.9456 BOLDITALIC -0.2221
-4.9456 BONDING -0.2221
-4.9456 BOOK -0.2221
-4.9456 BOOK3S -0.2221
-4.9456 BOOK3S32 -0.2221
-4.9456 BOOK3S64 -0.2221
-4.9456 BOOKART -0.2221
-4.9456 BOOKEX -0.2221
-4.9456 BOOKMARKBACKUPS -0.2221
-4.9456 BOOKMARKS -0.2221
-4.9456 BOOKS -0.2221
-4.9456 BOOKS_IMG -0.2221
-4.9456 BOOT -0.2221
-4.9456 BOOT-EFI.MOUNT -0.2221
-4.9456 BOOT-ELF -0.2221
-4.9456 BOOT-REDBOOT -0.2221
-4.9456 BOOTLOADER -0.2221
-4.9456 BOOTMEM -0.2221
-4.9456 BOOTP -0.2221
-4.9456 BOOTPARAM -0.2221
-4.9456 BOOTSTRAP -0.2221
-4.9456 BOOT_PARAMS -0.2221
-4.9456 BOPUDYTY -0.2221
-4.9456 BOTO -0.2221
-4.9456 BOTTOMNAVIGATIONACTIVITY -0.2221
-4.9456 BO_CN -0.2221
-4.9456 BO_IN -0.2221
-4.9456 BP -0.2221
-4.9456 BPF -0.2221
-4.9456 BPFILTER -0.2221
-4.9456 BPFTOOL -0.2221
-4.9456 BPT -0.2221
-4.9456 BQ27XXX -0.2221
-4.9456 BQEB9I5J -0.2221
-4.9456 BR -0.2221
-4.9456 BRACE-EXPANSION -0.2221
-4.9456 BRACKETS-COMPLETION -0.2221
-4.9456 BRAILLE -0.2221
-4.9456 BRAIN -0.2221
-4.9456 BRAM -0.3010
-4.9456 BRANCH -0.2221
-4.9456 BRANCHES -0.2221
-4.9456 BRANCH_POLICY -0.2221
-4.9456 BRAZIL -0.2221
-4.9456 BRCM -0.2221
-4.9456 BRCM80211 -0.2221
-4.9456 BRCMFMAC -0.2221
-4.9456 BRCMNAND -0.2221
-4.9456 BRCMSMAC -0.2221
-4.9456 BRCMSTB -0.2221
-4.9456 BRCMUTIL -0.2221
-4.9456 BREADCRUMBS -0.2221
-4.9456 BREAKPOINT -0.2221
-4.9456 BREAKPOINTS -0.2221
-4.9456 BREEZE -0.2221
-4.9456 BREEZE-DARK -0.2221
-4.9456 BREEZE_CURSORS -0.2221
-4.9456 BREEZE_SNOW -0.2221
-4.9456 BRICKBREAKER -0.2221
-4.9456 BRIDGE -0.2221
-4.9456 BRIDGE-UTILS -0.2221
-4.9456 BRIDGED -0.2221
-4.9456 BRIDGES -0.2221
-4.9456 BRIGADIER -0.2221
-4.9456 BRIGHTNESS -0.2221
-4.9456 BRLTTY -0.2221
-4.9456 BROADCAST -0.2221
-4.9456 BROADCASTRECEIVER -0.2221
-4.9456 BROADCOM -0.2221
-4.9456 BROADWELL -0.2221
-4.9456 BROADWELL-RT286 -0.2221
-4.9456 BROCADE -0.2221
-4.9456 BROKEN -0.2221
-4.6446 BROWSER -0.2221
-4.9456 BROWSER-PLUGIN-EVINCE -0.2221
-4.9456 BROWSER-PREVIEW -0.2221
-4.9456 BRX -0.2221
-4.9456 BRX_IN -0.2221
-4.9456 BR_FR -0.2221
-4.9456 BR_FR.UTF8 -0.2221
-4.9456 BR_FR@EURO -0.2221
-4.9456 BS -0.2221
-4.9456 BSD -0.2221
-4.9456 BSDDB -0.2221
-4.9456 BSDMAINUTILS -0.2221
-4.9456 BSDUTILS -0.2221
-4.9456 BSG -0.2221
-4.9456 BSP -0.2221
-4.9456 BSW -0.2221
-4.9456 BS_BA -0.2221
-4.9456 BS_BA.UTF8 -0.2221
-4.9456 BT -0.2221
-4.9456 BT8XX -0.2221
-4.9456 BTBCM -0.2221
-4.9456 BTCOEX -0.2221
-4.9456 BTCOEXIST -0.2221
-4.9456 BTF -0.2221
-4.9456 BTINTEL -0.2221
-4.9456 BTRFS -0.2221
-4.9456 BTRFS-CONTROL -0.2221
-4.9456 BTRFS-PROGS -0.2221
-4.9456 BTRFS-TOOLS -0.2221
-4.9456 BTRFS_FREE_SPACE_BITMAP -0.2221
-4.9456 BTRFS_INODE -0.2221
-4.9456 BTRTL -0.2221
-4.9456 BTUSB -0.2221
-4.9456 BUBBLEWRAP -0.2221
-4.9456 BUCKETS -0.2221
-4.9456 BUDGET -0.2221
-4.9456 BUF -0.2221
-4.9456 BUFFER -0.2221
-4.9456 BUFFER_OBJECTS -0.2221
-4.9456 BUG -0.2221
-4.6446 BUILD -0.2221
-4.9456 BUILD-ESSENTIAL -0.2221
-4.9456 BUILDER -0.2221
-4.9456 BUILDSYSTEM -0.2221
-4.9456 BUILDSYSTEMS -0.2221
-4.9456 BUILDTIME -0.2221
-4.9456 BUILD_INFO -0.2221
-4.9456 BUILTIN -0.2221
-4.9456 BUILTIN_FUNC -0.2221
-4.9456 BUNDLE -0.2221
-4.9456 BUNDLES -0.2221
-4.9456 BUS -0.2221
-4.9456 BUS.0 -0.2221
-4.9456 BUSES -0.2221
-4.9456 BUSNAMES.TARGET.WANTS -0.2221
-4.9456 BUSSES -0.2221
-4.9456 BUSY -0.2221
-4.9456 BUSYBOX-INITRAMFS -0.2221
-4.9456 BUSYBOX-STATIC -0.2221
-4.6446 BUTTON -0.2221
-4.6446 BUTTONS -0.2221
-4.9456 BVME6000 -0.2221
-4.9456 BXT -0.2221
-4.9456 BXTRT298 -0.2221
-4.9456 BXTWC -0.2221
-4.9456 BY -0.2221
-4.9456 BY-ID -0.2221
-4.9456 BY-PARTUUID -0.2221
-4.9456 BY-PATH -0.2221
-4.9456 BY-UUID -0.2221
-4.9456 BYN -0.2221
-4.9456 BYN_ER -0.2221
-4.9456 BYPASS -0.2221
-4.9456 BYT -0.2221
-4.9456 BYTCR -0.2221
-4.9456 BYTE -0.2221
-4.9456 BYTECODEANALYSIS -0.2221
-4.9456 BYTECODEVIEWER -0.2221
-4.9456 BYTEORDER -0.2221
-4.9456 BYTE_QUEUE_LIMITS -0.2221
-4.9456 BYT_GPIO -0.2221
-4.9456 BZIMAGE -0.2221
-4.6446 BZIP2 -0.2221
-4.6446 C -0.2221
-4.6446 C++ -0.2221
-4.9456 C.UTF-8 -0.2221
-4.6446 C0 -0.2221
-4.9456 C01 -0.2221
-4.9456 C02 -0.2221
-4.9456 C03 -0.2221
-4.9456 C04 -0.2221
-4.9456 C05 -0.2221
-4.9456 C06 -0.2221
-4.9456 C07 -0.2221
-4.9456 C08 -0.2221
-4.9456 C09 -0.2221
-4.6446 C1 -0.2221
-4.6446 C10 -0.2221
-4.6446 C11 -0.2221
-4.6446 C12 -0.2221
-4.9456 C13 -0.2221
-4.9456 C15 -0.2221
-4.9456 C16 -0.2221
-4.6446 C2 -0.2221
-4.9456 C2PORT -0.2221
-4.6446 C3 -0.2221
-4.9456 C384 -0.2221
-4.6446 C4 -0.2221
-4.6446 C5 -0.2221
-4.6446 C6 -0.2221
-4.9456 C67X00 -0.2221
-4.9456 C6X -0.2221
-4.6446 C7 -0.2221
-4.6446 C8 -0.2221
-4.9456 C8SECTPFE -0.2221
-4.6446 C9 -0.2221
-4.9456 CA -0.2221
-4.9456 CA-CERTIFICATES -0.2221
-4.9456 CA-CERTIFICATES-JAVA -0.2221
-4.9456 CA-CERTIFICATES-LOCAL -0.2221
-4.9456 CA0106 -0.2221
-4.9456 CA0132 -0.2221
-4.9456 CA8210 -0.2221
-4.9456 CA@VALENCIA -0.2221
-4.9456 CAAM -0.2221
-4.9456 CACA -0.2221
-4.4685 CACHE -0.2221
-4.9456 CACHE2 -0.2221
-4.9456 CACHECONTROL -0.2221
-4.9456 CACHED -0.2221
-4.9456 CACHEDDATA -0.2221
-4.9456 CACHEDEXTENSIONS -0.2221
-4.9456 CACHEFILES -0.2221
-4.9456 CACHES -0.2221
-4.9456 CACHE_SHAPE -0.2221
-4.9456 CADENCE -0.2221
-4.6446 CAFE -0.2221
-4.9456 CAIAQ -0.2221
-4.9456 CAIF -0.2221
-4.6446 CAIRO -0.2221
-4.9456 CAJA -0.2221
-4.9456 CAJA-COMMON -0.2221
-4.9456 CALC -0.2221
-4.9456 CALCS -0.2221
-4.9456 CALDAV -0.2221
-4.9456 CALENDAR -0.2221
-4.9456 CALENDAR-BACKENDS -0.2221
-4.9456 CALENDAR_PAGE -0.2221
-4.9456 CALGARY -0.2221
-4.9456 CALIBRATE -0.2221
-4.9456 CALIGRAPHIC -0.2221
-4.9456 CALL -0.2221
-4.9456 CALLBACK -0.2221
-4.9456 CALLHIERARCHY -0.2221
-4.9456 CALXEDA -0.2221
-4.9456 CAMEL-PROVIDERS -0.2221
-4.9456 CAMELCASE -0.2221
-4.9456 CAMELLIA -0.2221
-4.9456 CAMERA -0.2221
-4.9456 CAMLIBS -0.2221
-4.9456 CAMSS -0.2221
-4.9456 CAMSS-8X16 -0.2221
-4.9456 CAN -0.2221
-4.9456 CANADA -0.2221
-4.9456 CANCEL -0.2221
-4.9456 CANNONLAKE -0.2221
-4.9456 CAPABILITIES -0.2221
-4.9456 CAPI -0.2221
-4.9456 CAPNET-ASSIST -0.2221
-4.9456 CAPS -0.2221
-4.9456 CAPSULE -0.2221
-4.9456 CAPTURE -0.2221
-4.9456 CAPTURE-IT-ELEMENTARY -0.2221
-4.9456 CARD -0.2221
-4.9456 CARD0 -0.2221
-4.9456 CARD0-DP-1 -0.2221
-4.9456 CARD0-DP-2 -0.2221
-4.9456 CARD0-EDP-1 -0.2221
-4.9456 CARD0-HDMI-A-1 -0.2221
-4.9456 CARD1 -0.2221
-4.9456 CARDMAN -0.2221
-4.9456 CARDREADER -0.2221
-4.9456 CARDS -0.2221
-4.9456 CARILLO -0.2221
-4.9456 CARL9170 -0.2221
-4.9456 CARL9170FW -0.2221
-4.9456 CARLFW -0.2221
-4.9456 CARLU -0.2221
-4.9456 CARMINE -0.2221
-4.9456 CARP -0.2221
-4.9456 CARRIERS -0.2221
-4.9456 CART -0.2221
-4.9456 CASED -0.2221
-4.9456 CASIO-E55 -0.2221
-4.9456 CAST -0.2221
-4.9456 CAST5 -0.2221
-4.9456 CAST6 -0.2221
-4.9456 CAT1 -0.2221
-4.9456 CAT2 -0.2221
-4.9456 CAT3 -0.2221
-4.9456 CAT4 -0.2221
-4.9456 CAT5 -0.2221
-4.9456 CAT6 -0.2221
-4.9456 CAT7 -0.2221
-4.9456 CAT8 -0.2221
-4.9456 CATALOG -0.2221
-4.9456 CATEGORIES -0.2221
-4.9456 CATEGORY -0.2221
-4.9456 CAVEAT_DELEGATES -0.2221
-4.9456 CAVIUM -0.2221
-4.9456 CAVIUM-OCTEON -0.2221
-4.9456 CA_AD -0.2221
-4.9456 CA_AD.UTF8 -0.2221
-4.9456 CA_ES -0.2221
-4.9456 CA_ES.UTF8 -0.2221
-4.9456 CA_ES.UTF8@VALENCIA -0.2221
-4.9456 CA_ES@EURO -0.2221
-4.9456 CA_ES@VALENCIA -0.2221
-4.9456 CA_FR -0.2221
-4.9456 CA_FR.UTF8 -0.2221
-4.9456 CA_IT -0.2221
-4.9456 CA_IT.UTF8 -0.2221
-4.9456 CB -0.2221
-4.9456 CB710 -0.2221
-4.9456 CBUILDER -0.2221
-4.9456 CBUS -0.2221
-4.9456 CC -0.2221
-4.9456 CC10001 -0.2221
-4.9456 CC770 -0.2221
-4.9456 CCC -0.2221
-4.9456 CCHIPS -0.2221
-4.9456 CCIDS -0.2221
-4.9456 CCM -0.2221
-4.9456 CCP -0.2221
-4.9456 CCREE -0.2221
-4.9456 CCS -0.2221
-4.9456 CC_HASH_TABLE_MAP_ -0.2221
-4.9456 CD -0.2221
-4.9456 CDC -0.2221
-4.9456 CDEV -0.2221
-4.9456 CDNS -0.2221
-4.9456 CDNS3 -0.2221
-4.9456 CDROM -0.2221
-4.6446 CE -0.2221
-4.9456 CE4100 -0.2221
-4.9456 CEC -0.2221
-4.9456 CEC-GPIO -0.2221
-4.9456 CEDRUS -0.2221
-4.9456 CEF_USER_DATA -0.2221
-4.9456 CEL -0.2221
-4.9456 CELL -0.2221
-4.9456 CENTPROJ -0.2221
-4.9456 CENTSPD -0.2221
-4.9456 CENTSPHR -0.2221
-4.9456 CENTSTM -0.2221
-4.9456 CEPH -0.2221
-4.9456 CER -0.2221
-4.9456 CERTIFI -0.2221
-4.9456 CERTIFI-2018.1.18.EGG-INFO -0.2221
-4.9456 CERTIFICATE -0.2221
-4.9456 CERTS -0.2221
-4.9456 CE_RU -0.2221
-4.9456 CF -0.2221
-4.9456 CFAG12864B -0.2221
-4.9456 CFB -0.2221
-4.9456 CFE -0.2221
-4.9456 CFFI -0.2221
-4.9456 CFG -0.2221
-4.9456 CFG80211 -0.2221
-4.9456 CFI -0.2221
-4.9456 CFQ -0.2221
-4.9456 CFS -0.2221
-4.9456 CG -0.2221
-4.9456 CGG -0.2221
-4.6446 CGI -0.2221
-4.9456 CGI-BIN -0.2221
-4.9456 CGMANAGER -0.2221
-4.9456 CGROUP -0.2221
-3.7696 CH -0.2217
-4.9456 CHACHA20 -0.2221
-4.9456 CHAIN -0.2221
-4.6446 CHANGELOG -0.2221
-4.9456 CHANGELOG-FILE -0.2221
-4.9456 CHANGES -0.2221
-4.9456 CHANGES-FILE -0.2221
-4.9456 CHANNEL -0.2221
-3.5143 CHAPTER -0.3007
-4.9456 CHAPTER10 -0.2221
-4.9456 CHAP_1_BLOG -0.2221
-4.9456 CHAP_2_BLOG_ADVANCED -0.2221
-4.9456 CHAP_3_BLOG_EXTENDING -0.2221
-4.9456 CHAP_4_SOCIAL_WEBSITE -0.2221
-4.9456 CHAP_7_ONLINE_SHOP -0.2221
-4.9456 CHAR -0.2221
-4.9456 CHARACTERISTIC -0.2221
-4.9456 CHARDET -0.2221
-4.9456 CHARDET-2.3.0.EGG-INFO -0.2221
-4.9456 CHARDET-3.0.4.EGG-INFO -0.2221
-4.9456 CHARGER -0.2221
-4.9456 CHARGER-MANAGER -0.2221
-4.9456 CHARLCD -0.2221
-4.9456 CHARMAPS -0.2221
-4.9456 CHARSETS -0.2221
-4.9456 CHART -0.2221
-4.9456 CHARTS -0.2221
-4.9456 CHARWIDTH -0.2221
-4.9456 CHATCHAT -0.2221
-4.9456 CHATSCRIPTS -0.2221
-4.9456 CHECK -0.2221
-4.9456 CHECK-RADIO -0.2221
-4.9456 CHECKERS -0.2221
-4.9456 CHECKPOINT -0.2221
-4.9456 CHECKREQPROT -0.2221
-4.9456 CHECKS -0.2221
-4.9456 CHEESE -0.2221
-4.9456 CHELSIO -0.2221
-4.9456 CHEMICAL -0.2221
-4.9456 CHERRYVIEW-PINCTRL -0.2221
-4.9456 CHICKEN -0.2221
-4.9456 CHILE -0.2221
-4.9456 CHIPIDEA -0.2221
-4.9456 CHIPONE -0.2221
-4.9456 CHIPS -0.2221
-4.9456 CHOICE -0.2221
-4.9456 CHOICE_VALUE_WITH_M_DEP -0.2221
-4.9456 CHR -0.2221
-4.9456 CHROME -0.2221
-4.9456 CHROMEOS -0.2221
-4.9456 CHROMIUM-BROWSER -0.2221
-4.9456 CHROMIUM-CODECS-FFMPEG-EXTRA -0.2221
-4.9456 CHROOT -0.2221
-4.9456 CHRP -0.2221
-4.6446 CHS -0.2221
-4.4685 CHT -0.2221
-4.9456 CHTDC -0.2221
-4.9456 CHTLS -0.2221
-4.9456 CHTRT5645 -0.2221
-4.9456 CI -0.2221
-4.9456 CICADA -0.2221
-4.9456 CIDFMAP.D -0.2221
-4.9456 CIDFONT -0.2221
-4.9456 CIDFSUBST -0.2221
-4.9456 CIDTOUNICODE -0.2221
-4.9456 CIFS -0.2221
-4.9456 CILK -0.2221
-4.9456 CILKRTS -0.2221
-4.9456 CINERGY -0.2221
-4.9456 CIO -0.2221
-4.6446 CIPHER -0.2221
-4.9456 CIPHERS -0.2221
-4.9456 CIRCULAR_EXPANSION -0.2221
-4.9456 CIRRUS -0.2221
-4.9456 CIS -0.2221
-4.9456 CISCO -0.2221
-4.9456 CJK -0.2221
-4.9456 CKB -0.2221
-4.9456 CKB_IQ -0.2221
-4.9456 CL-LANGUAGE2 -0.2221
-4.9456 CLANG -0.2221
-4.9456 CLANNF -0.2221
-4.6446 CLASS -0.2221
-4.9456 CLASSES -0.2221
-4.9456 CLASSES, -0.3010
-4.9456 CLASSIC -0.2221
-4.9456 CLAUSE -0.3010
-4.9456 CLD -0.2221
-4.9456 CLEARALLOUTPUT -0.2221
-4.9456 CLEARLOOKS -0.2221
-4.9456 CLEVO -0.2221
-4.9456 CLI -0.2221
-4.9456 CLICK -0.2221
-4.6446 CLIENT -0.2221
-4.9456 CLIENTS -0.2221
-4.9456 CLIENTUI -0.2221
-4.9456 CLIFFR -0.2221
-4.9456 CLISP -0.2221
-4.9456 CLIUI -0.2221
-4.9456 CLK -0.2221
-4.9456 CLK-LPT -0.2221
-4.9456 CLK-PMC-ATOM -0.2221
-4.9456 CLK-ST -0.2221
-4.9456 CLKBLD -0.2221
-4.9456 CLKDEV -0.2221
-4.9456 CLKEVT -0.2221
-4.9456 CLK_MGR -0.2221
-4.9456 CLMUL -0.2221
-4.9456 CLOCK -0.2221
-4.9456 CLOCKEVENT0 -0.2221
-4.9456 CLOCKEVENT1 -0.2221
-4.9456 CLOCKEVENT10 -0.2221
-4.9456 CLOCKEVENT11 -0.2221
-4.9456 CLOCKEVENT12 -0.2221
-4.9456 CLOCKEVENT13 -0.2221
-4.9456 CLOCKEVENT14 -0.2221
-4.9456 CLOCKEVENT15 -0.2221
-4.9456 CLOCKEVENT2 -0.2221
-4.9456 CLOCKEVENT3 -0.2221
-4.9456 CLOCKEVENT4 -0.2221
-4.9456 CLOCKEVENT5 -0.2221
-4.9456 CLOCKEVENT6 -0.2221
-4.9456 CLOCKEVENT7 -0.2221
-4.9456 CLOCKEVENT8 -0.2221
-4.9456 CLOCKEVENT9 -0.2221
-4.9456 CLOCKEVENTS -0.2221
-4.9456 CLOCKING-WIZARD -0.2221
-4.9456 CLOCKSOURCE -0.2221
-4.9456 CLOCKSOURCE0 -0.2221
-4.9456 CLOJURE -0.2221
-4.9456 CLONE -0.2221
-4.9456 CLOSEG@CARDIFF.AC.UK -0.2221
-4.9456 CLOTHES -0.2221
-4.9456 CLOUD -0.2221
-4.9456 CLOUD-FINAL.SERVICE.WANTS -0.2221
-4.9456 CLOUD-GUEST-UTILS -0.2221
-4.9456 CLOUD-INIT -0.2221
-4.9456 CLOUD-INIT.TARGET.WANTS -0.2221
-4.9456 CLOUD.CFG.D -0.2221
-4.9456 CLOUDINIT -0.2221
-4.9456 CLOUD_INIT-19.2.EGG-INFO -0.2221
-4.9456 CLOUD_INIT-19.3.EGG-INFO -0.2221
-4.9456 CLS -0.2221
-4.9456 CLUSTER -0.2221
-4.9456 CLUTTER -0.2221
-4.9456 CLZ -0.2221
-4.9456 CM1102-WEEK06-UNASS-EX1 -0.2221
-4.9456 CM1102_GIT_LAB -0.2221
-4.9456 CM1102_WEEK07_UNASS_EX2 -0.2221
-4.9456 CM2101 -0.2221
-4.9456 CM2104 -0.2221
-4.9456 CM2207 -0.2221
-4.9456 CM2208 -0.2221
-4.9456 CM2305 -0.2221
-4.9456 CM2306 -0.2221
-4.9456 CM2307 -0.2221
-4.9456 CMA -0.2221
-4.9456 CMA3000 -0.2221
-4.9456 CMAC -0.2221
-4.9456 CMAKE -0.2221
-4.4685 CMAP -0.2221
-4.9456 CMD -0.2221
-4.9456 CMD640 -0.2221
-4.9456 CMDLINE -0.2221
-4.9456 CMDS -0.2221
-4.9456 CMF -0.2221
-4.9456 CMI -0.2221
-4.9456 CML -0.2221
-4.9456 CMM -0.2221
-4.9456 CMN -0.2221
-4.9456 CMN_TW -0.2221
-4.9456 CMODE -0.2221
-4.9456 CMOS -0.2221
-4.9456 CMOS_NVRAM0 -0.2221
-4.9456 CMOV -0.2221
-4.9456 CMPXCHG -0.2221
-4.9456 CMT1202-2018-TEAM-2 -0.2221
-4.9456 CMTP -0.2221
-4.9456 CN -0.2221
-4.9456 CO -0.2221
-4.9456 COBALT -0.2221
-4.9456 COCCINELLE -0.2221
-4.9456 CODA -0.2221
-4.3436 CODE -0.2221
-4.9456 CODE-POINT-AT -0.2221
-4.9456 CODEC -0.2221
-4.9456 CODECS -0.2221
-4.9456 CODEGEN -0.2221
-4.9456 CODEPAGE -0.2221
-4.9456 CODERS -0.2221
-4.9456 CODES -0.2221
-4.9456 CODESTYLES -0.2221
-4.9456 CODICON -0.2221
-4.9456 CODICONLABEL -0.2221
-4.9456 COFFEELAKE -0.2221
-4.9456 COFFEESCRIPT -0.2221
-4.9456 COGL -0.2221
-4.9456 COHERENT_SLAVE_0 -0.2221
-4.9456 COHERENT_SLAVE_1 -0.2221
-4.9456 COLDFIRE -0.2221
-4.9456 COLL -0.2221
-4.9456 COLLAPSEALL -0.2221
-4.9456 COLLATE -0.2221
-4.9456 COLLECT -0.2221
-4.9456 COLLECTION -0.2221
-4.9456 COLLECTIONS -0.2221
-4.9456 COLLECTOR -0.2221
-4.9456 COLLIDE -0.2221
-4.9456 COLOR -0.2221
-4.9456 COLOR-CONVERT -0.2221
-4.9456 COLOR-NAME -0.2221
-4.9456 COLOR-STRING -0.2221
-4.9456 COLORAMA -0.2221
-4.9456 COLORD -0.2221
-4.9456 COLORD-DATA -0.2221
-4.9456 COLORD-PLUGINS -0.2221
-4.9456 COLORD-SENSORS -0.2221
-4.9456 COLORD.SERVICE -0.2221
-4.9456 COLORSPACE -0.2221
-4.9456 COM -0.2221
-4.9456 COM.GITHUB.CALO001.FONDO -0.2221
-4.9456 COM.GITHUB.DONADIGO.APPEDITOR -0.2221
-4.9456 COM.GITHUB.PANOSX2.BRIGHTNESS -0.2221
-4.9456 COM.GITHUB.RONNYDO.WAMMER -0.2221
-4.9456 COM.GITHUB.SPHERAS.DESKTOPFOLDER -0.2221
-4.9456 COM.GITHUB.STSDC.MONITOR -0.2221
-4.9456 COM20020 -0.2221
-4.9456 COMBINED-STREAM -0.2221
-4.9456 COMEDI -0.2221
-4.9456 COMETLAKE -0.2221
-4.6446 COMMAND -0.2221
-4.9456 COMMAND-NOT-FOUND -0.2221
-4.9456 COMMAND-NOT-FOUND-DATA -0.2221
-4.9456 COMMANDNOTFOUND -0.2221
-4.9456 COMMANDS -0.2221
-4.9456 COMMENT -0.2221
-4.9456 COMMON -0.2221
-4.9456 COMMON-LICENSES -0.2221
-4.9456 COMMONCRYPTO -0.2221
-4.9456 COMMONS -0.2221
-4.9456 COMMONS-CODEC -0.2221
-4.9456 COMMONS-COMPRESS -0.2221
-4.9456 COMMONS-IO -0.2221
-4.9456 COMMONS-LANG3 -0.2221
-4.9456 COMMONS-LOGGING -0.2221
-4.6446 COMMUNITHEME -0.2221
-4.9456 COMMUNITHEME-DARK -0.2221
-4.9456 COMMUNITHEME-LIGHT -0.2221
-4.9456 COMMUNITY -0.2221
-4.9456 COMP -0.2221
-4.9456 COMPAL -0.2221
-4.9456 COMPANIONFILES.GAMEDEV -0.2221
-4.9456 COMPAT -0.2221
-4.9456 COMPAT-LD -0.2221
-4.9456 COMPEX -0.2221
-4.9456 COMPILED -0.2221
-4.9456 COMPILER -0.2221
-4.9456 COMPLETIONS -0.2221
-4.9456 COMPLEX -0.2221
-4.9456 COMPONENT -0.2221
-4.9456 COMPONENT-EMITTER -0.2221
-4.9456 COMPOP -0.2221
-4.6446 COMPRESS -0.2221
-4.9456 COMPRESSED -0.2221
-4.6446 COMPRESSION -0.2221
-4.9456 CONCAT-MAP -0.2221
-4.9456 CONCURRENT -0.2221
-4.9456 CONF -0.2221
-4.9456 CONF-AVAILABLE -0.2221
-4.9456 CONF-ENABLED -0.2221
-4.9456 CONF-HOOKS.D -0.2221
-4.9456 CONF.AVAIL -0.2221
-4.9456 CONF.D -0.2221
-4.6446 CONFIG -0.2221
-4.9456 CONFIG-3.5M-X86_64-LINUX-GNU -0.2221
-4.9456 CONFIG-3.6M-X86_64-LINUX-GNU -0.2221
-4.9456 CONFIG-Q16 -0.2221
-4.9456 CONFIG-X86_64-LINUX-GNU -0.2221
-4.9456 CONFIGDESC -0.2221
-4.9456 CONFIGFS -0.2221
-4.9456 CONFIGOBJ-5.0.6.EGG-INFO -0.2221
-4.9456 CONFIGS -0.2221
-4.9456 CONFIGURATION-EDITING -0.2221
-4.9456 CONFIGURATIONSCRIPT -0.2221
-4.9456 CONG -0.2221
-4.9456 CONN -0.2221
-4.6446 CONNECTION -0.2221
-4.9456 CONNECTIONS -0.2221
-4.9456 CONNECTOR -0.2221
-4.9456 CONNTRACK -0.2221
-4.9456 CONSENTOPTIONS -0.2221
-4.6446 CONSOLE -0.2221
-4.9456 CONSOLE-CONF -0.2221
-4.9456 CONSOLE-SETUP -0.2221
-4.9456 CONSOLE-SETUP-LINUX -0.2221
-4.9456 CONSOLE-SETUP.SERVICE -0.2221
-4.9456 CONSOLEFONTS -0.2221
-4.9456 CONSOLETRANS -0.2221
-4.9456 CONSOLE_CONF -0.2221
-4.9456 CONST -0.2221
-4.9456 CONSTANT -0.2221
-4.9456 CONSTANTS -0.2221
-4.9456 CONSUMERS -0.2221
-4.9456 CONTACTS -0.2221
-4.9456 CONTAINER -0.2221
-4.9456 CONTEC -0.2221
-4.9456 CONTENT -0.2221
-4.9456 CONTENTPROVIDER -0.2221
-4.9456 CONTEXT -0.2221
-4.9456 CONTEXTS -0.2221
-4.9456 CONTEXT_MENUS -0.2221
-4.9456 CONTEXT_SWITCH -0.2221
-4.9456 CONTIG -0.2221
-4.9456 CONTINUE -0.2221
-4.9456 CONTRACTION -0.2221
-4.9456 CONTRACTOR -0.2221
-4.9456 CONTRIB -0.2221
-4.9456 CONTRIBUTIONS -0.2221
-4.6446 CONTROL -0.2221
-4.9456 CONTROL-FILES -0.2221
-4.9456 CONTROLC0 -0.2221
-4.9456 CONTROLC1 -0.2221
-4.9456 CONTROLLER -0.2221
-4.9456 CONTROLLERS -0.2221
-4.9456 CONTROLLER_BASE -0.2221
-4.9456 COOKIE -0.2221
-4.9456 COOKIEJAR -0.2221
-4.9456 COOKIES -0.2221
-4.9456 COOLING_DEVICE0 -0.2221
-4.9456 COOLING_DEVICE1 -0.2221
-4.9456 COOLING_DEVICE2 -0.2221
-4.9456 COOLING_DEVICE3 -0.2221
-4.9456 COOLING_DEVICE4 -0.2221
-4.9456 COOLING_DEVICE5 -0.2221
-4.9456 COOLING_DEVICE6 -0.2221
-4.9456 COOLING_DEVICE7 -0.2221
-4.9456 COPIER -0.2221
-4.9456 COPS -0.2221
-4.6446 COPY -0.2221
-4.9456 COPYLOOPS -0.2221
-4.9456 COPYRIGHT -0.2221
-4.9456 COPYRIGHT-FILE -0.2221
-4.4685 CORE -0.2221
-4.9456 CORE18 -0.2221
-4.9456 COREDUMP -0.2221
-4.9456 COREJAVAFIRSTBOUNCE -0.2221
-4.9456 COREJAVASECONDBOUNCE -0.2221
-4.9456 COREJAVAUNSAFESWING -0.2221
-4.9456 CORELIST -0.2221
-4.9456 CORESIGHT -0.2221
-4.9456 COREUTILS -0.2221
-4.9456 CORE_EXT -0.2221
-4.9456 CORP -0.2221
-4.9456 CORPSTLK -0.2221
-4.9456 CORRUPTION -0.2221
-4.9456 CORTINA -0.2221
-4.9456 COSM -0.2221
-4.9456 COSM_CLIENT -0.2221
-4.9456 COUNTER -0.2221
-4.9456 COUPONS -0.2221
-4.9456 COURSE -0.2221
-4.9456 COURSES -0.2221
-4.9456 COURSEWORK -0.2221
-4.9456 COURSEWORK1 -0.2221
-4.9456 COURSEWORK2 -0.2221
-4.9456 COVE -0.3010
-4.9456 COVERAGE -0.2221
-4.9456 COWS -0.2221
-4.9456 COWSAY -0.2221
-4.9456 CPAN -0.2221
-4.9456 CPCAP -0.2221
-4.9456 CPCI -0.2221
-4.9456 CPER -0.2221
-4.9456 CPIA2 -0.2221
-4.9456 CPIO -0.2221
-4.9456 CPLB-MPU -0.2221
-4.9456 CPLB-NOMPU -0.2221
-4.9456 CPLD -0.2221
-4.9456 CPLUSPLUS -0.2221
-4.9456 CPM_UART -0.2221
-4.9456 CPP -0.2221
-4.9456 CPPC -0.2221
-4.9456 CPROGS -0.2221
-4.9456 CPS -0.2221
-4.9456 CPSW -0.2221
-4.9456 CPT -0.2221
-4.9456 CPU -0.2221
-4.9456 CPU,CPUACCT -0.2221
-4.9456 CPU-COMMON -0.2221
-4.9456 CPU-HOTPLUG -0.2221
-4.9456 CPU-SH2 -0.2221
-4.9456 CPU-SH2A -0.2221
-4.9456 CPU-SH3 -0.2221
-4.9456 CPU-SH4 -0.2221
-4.9456 CPU-SH4A -0.2221
-4.9456 CPU-SH5 -0.2221
-4.9456 CPU0 -0.2221
-4.9456 CPU1 -0.2221
-4.9456 CPU10 -0.2221
-4.9456 CPU11 -0.2221
-4.9456 CPU12 -0.2221
-4.9456 CPU13 -0.2221
-4.9456 CPU14 -0.2221
-4.9456 CPU15 -0.2221
-4.9456 CPU2 -0.2221
-4.9456 CPU3 -0.2221
-4.9456 CPU4 -0.2221
-4.9456 CPU5 -0.2221
-4.9456 CPU6 -0.2221
-4.9456 CPU7 -0.2221
-4.9456 CPU8 -0.2221
-4.9456 CPU9 -0.2221
-4.9456 CPUFREQ -0.2221
-4.9456 CPUIDLE -0.2221
-4.9456 CPUMASK -0.2221
-4.9456 CPUPOWER -0.2221
-4.9456 CPUS -0.2221
-4.9456 CPUSET -0.2221
-4.9456 CPU_DMA_LATENCY -0.2221
-4.9456 CPYTHON-36-32 -0.2221
-4.9456 CQHCI -0.2221
-4.6446 CR -0.2221
-4.9456 CRACKLIB -0.2221
-4.9456 CRACKLIB-RUNTIME -0.2221
-4.9456 CRAMFS -0.2221
-4.6446 CRASH -0.2221
-4.9456 CRASHDB.CONF.D -0.2221
-4.9456 CRASHDB_IMPL -0.2221
-4.6446 CRASHES -0.2221
-4.9456 CRC -0.2221
-4.9456 CRC32 -0.2221
-4.9456 CRC32C -0.2221
-4.9456 CRC32_PCLMUL -0.2221
-4.9456 CRCT10DIF -0.2221
-4.9456 CRCT10DIF_PCLMUL -0.2221
-4.9456 CRC_T10DIF -0.2221
-4.9456 CRD -0.2221
-4.9456 CRDA -0.2221
-4.9456 CRDPMULTIPLEXING -0.2221
-4.9456 CREATIVE -0.2221
-4.9456 CREDENTIAL -0.2221
-4.9456 CREDENTIAL-MODULES -0.2221
-4.9456 CREVIEWCODE -0.2221
-4.9456 CRH -0.2221
-4.9456 CRH_UA -0.2221
-4.9456 CRIS -0.2221
-4.9456 CRON -0.2221
-4.9456 CRON.D -0.2221
-4.9456 CRON.DAILY -0.2221
-4.9456 CRON.HOURLY -0.2221
-4.9456 CRON.MONTHLY -0.2221
-4.9456 CRON.SERVICE -0.2221
-4.9456 CRON.WEEKLY -0.2221
-4.9456 CRONTABS -0.2221
-4.9456 CROS -0.2221
-4.9456 CROS-EC-CEC -0.2221
-4.9456 CROSCORE -0.2221
-4.9456 CROSS -0.2221
-4.9456 CROSS-CONFIG-5.26.1 -0.2221
-4.9456 CROSS-SPAWN -0.2221
-4.9456 CROS_EC_SENSORS -0.2221
-4.9456 CRUFT -0.2221
-4.9456 CRUSH -0.2221
-4.9456 CRUX -0.2221
-4.9456 CRYP -0.2221
-4.9456 CRYPT -0.2221
-4.9456 CRYPTD -0.2221
-4.6446 CRYPTO -0.2221
-4.9456 CRYPTOGRAPHY -0.2221
-4.9456 CRYPTOGRAPHY-1.2.3.EGG-INFO -0.2221
-4.9456 CRYPTOGRAPHY-2.1.4.EGG-INFO -0.2221
-4.9456 CRYPTOMGR -0.2221
-4.9456 CRYPTO_SIMD -0.2221
-4.9456 CRYPTSETUP -0.2221
-4.9456 CRYPTSETUP-BIN -0.2221
-4.9456 CRYPTSETUP-INITRAMFS -0.2221
-4.9456 CRYSTAL -0.2221
-4.9456 CRYSTAL_COVE_PWM -0.2221
-4.9456 CS -0.2221
-4.9456 CS2000 -0.2221
-4.9456 CS423X -0.2221
-4.9456 CS4271 -0.2221
-4.9456 CS42L51 -0.2221
-4.9456 CS42XX8 -0.2221
-4.9456 CS46XX -0.2221
-4.9456 CS5535AUDIO -0.2221
-4.9456 CS5536 -0.2221
-4.9456 CS89X0 -0.2221
-4.9456 CSB -0.2221
-4.9456 CSB_PL -0.2221
-4.9456 CSHARP -0.2221
-4.9456 CSIOSTOR -0.2221
-4.9456 CSKY -0.2221
-4.9456 CSO04JHAV2YK0UZ97CR0IPQRYQG0QQL6 -0.2221
-4.9456 CSP -0.2221
-4.6446 CSS -0.2221
-4.9456 CSS-LANGUAGE-FEATURES -0.2221
-4.9456 CSS2400 -0.2221
-4.9456 CSY -0.2221
-4.9456 CS_CZ -0.2221
-4.9456 CS_CZ.UTF-8 -0.2221
-4.9456 CS_CZ.UTF8 -0.2221
-4.9456 CT -0.2221
-4.9456 CTRL -0.2221
-4.9456 CTX -0.2221
-4.9456 CTXFI -0.2221
-4.9456 CTYPES -0.2221
-4.9456 CU -0.2221
-4.9456 CUPS -0.2221
-4.9456 CUPS-BROWSED -0.2221
-4.9456 CUPS-BROWSED.SERVICE -0.2221
-4.9456 CUPS-CLIENT -0.2221
-4.9456 CUPS-COMMON -0.2221
-4.9456 CUPS-CORE-DRIVERS -0.2221
-4.9456 CUPS-DAEMON -0.2221
-4.9456 CUPS-FILTERS -0.2221
-4.9456 CUPS-FILTERS-CORE-DRIVERS -0.2221
-4.9456 CUPS-IPP-UTILS -0.2221
-4.9456 CUPS-PK-HELPER -0.2221
-4.9456 CUPS-PPDC -0.2221
-4.9456 CUPS-SERVER-COMMON -0.2221
-4.9456 CUPS.SERVICE -0.2221
-4.9456 CUPSFILTERS -0.2221
-4.9456 CUPSHELPERS -0.2221
-4.9456 CURL -0.2221
-4.9456 CURSES -0.2221
-4.9456 CURSORS -0.2221
-4.9456 CUS -0.2221
-4.9456 CUSTOM -0.2221
-4.9456 CUSTOMVIEW -0.2221
-4.9456 CV -0.2221
-4.9456 CV_RU -0.2221
-4.9456 CW -0.2221
-4.9456 CW1 -0.2221
-4.9456 CW1200 -0.2221
-4.9456 CWCF -0.2221
-4.9456 CWCM -0.2221
-4.9456 CWD -0.2221
-4.9456 CWKCF -0.2221
-4.9456 CWL -0.2221
-4.9456 CWNEW -0.2221
-4.9456 CWT -0.2221
-4.9456 CWU -0.2221
-4.9456 CX -0.2221
-4.9456 CX18 -0.2221
-4.9456 CX2072X -0.2221
-4.9456 CX231XX -0.2221
-4.9456 CX23885 -0.2221
-4.9456 CX25821 -0.2221
-4.9456 CX25840 -0.2221
-4.9456 CX82310 -0.2221
-4.9456 CX88 -0.2221
-4.9456 CXD2099 -0.2221
-4.9456 CXD2880 -0.2221
-4.9456 CXGB -0.2221
-4.9456 CXGB3 -0.2221
-4.9456 CXGB3I -0.2221
-4.9456 CXGB4 -0.2221
-4.9456 CXGB4I -0.2221
-4.9456 CXGB4VF -0.2221
-4.9456 CXGBI -0.2221
-4.9456 CXGBIT -0.2221
-4.9456 CXL -0.2221
-4.9456 CXLFLASH -0.2221
-4.9456 CXUSB -0.2221
-4.9456 CY -0.2221
-4.9456 CYBER2000 -0.2221
-4.9456 CYPRESS -0.2221
-4.9456 CYTHON -0.2221
-4.9456 CYTTSP -0.2221
-4.9456 CYTTSP4 -0.2221
-4.9456 CY_GB -0.2221
-4.9456 CY_GB.UTF8 -0.2221
-4.9456 CZ -0.2221
-4.9456 C_CAN -0.2221
-4.9456 D -0.2221
-4.9456 D0 -0.2221
-4.9456 D00 -0.2221
-4.9456 D1 -0.2221
-4.9456 D2 -0.2221
-4.9456 D3 -0.2221
-4.9456 D4 -0.2221
-4.9456 D5 -0.2221
-4.9456 D6 -0.2221
-4.9456 D6E8419F5C91E5CD2EECCB10A5EA7840 -0.2221
-4.9456 D7 -0.2221
-4.9456 D8 -0.2221
-4.9456 D9 -0.2221
-4.9456 DA -0.2221
-4.9456 DA7213 -0.2221
-4.9456 DA7219 -0.2221
-4.9456 DA7219MX98357 -0.2221
-4.9456 DA903X -0.2221
-4.9456 DA9052 -0.2221
-4.9456 DA9055 -0.2221
-4.9456 DA9055-PMIC -0.2221
-4.9456 DA9062 -0.2221
-4.9456 DA9063 -0.2221
-4.9456 DA9150 -0.2221
-4.9456 DAC -0.2221
-4.9456 DADBANDLOGOS -0.2221
-4.9456 DAED -0.2221
-4.9456 DAEMON -0.2221
-4.9456 DAFXCHAP10 -0.2221
-4.9456 DAGOTH -0.2221
-4.9456 DAISY-I2S -0.2221
-4.9456 DAMA -0.2221
-4.9456 DANIEL-ELEMENTARY -0.2221
-4.9456 DAQ -0.2221
-4.9456 DAQP -0.2221
-4.9456 DARK -0.2221
-4.9456 DARK-MODE -0.2221
-4.9456 DARK-MODE-TRANSPARENT -0.2221
-4.9456 DARKFISH -0.2221
-4.9456 DAS08 -0.2221
-4.9456 DAS16 -0.2221
-4.6446 DASH -0.2221
-4.3436 DATA -0.2221
-4.9456 DATA-EXPLORER -0.2221
-4.9456 DATABASES -0.2221
-4.9456 DATABINDINGXMLINDEX -0.2221
-4.9456 DATAFIXERUPPER -0.2221
-4.9456 DATAFLASH -0.2221
-4.9456 DATAPACKS -0.2221
-4.9456 DATAREPORTING -0.2221
-4.9456 DATASCIENCE -0.2221
-4.9456 DATASCIENCE-UI -0.2221
-4.9456 DATE -0.2221
-4.9456 DATETIME -0.2221
-4.9456 DATEUTIL -0.2221
-4.9456 DAVICOM -0.2221
-4.9456 DAVINCI -0.2221
-4.9456 DAVINCI_VPFE -0.2221
-4.9456 DAX -0.2221
-4.9456 DAX_CACHE -0.2221
-4.9456 DAY -0.2221
-4.9456 DAYDREAM -0.2221
-4.9456 DAYGRID -0.2221
-4.9456 DA_DK -0.2221
-4.9456 DA_DK.UTF8 -0.2221
-4.9456 DB -0.2221
-4.9456 DB410C -0.2221
-4.9456 DBDRIVER -0.2221
-4.9456 DBGP -0.2221
-4.9456 DBM -0.2221
-4.9456 DBM_FILTER -0.2221
-4.9456 DBS -0.2221
-4.6446 DBUS -0.2221
-4.9456 DBUS-1 -0.2221
-4.9456 DBUS-1.0 -0.2221
-4.9456 DBUS-USER-SESSION -0.2221
-4.9456 DBUS-X11 -0.2221
-4.9456 DBUS.SERVICE -0.2221
-4.9456 DBUS.SOCKET -0.2221
-4.9456 DBX -0.2221
-4.9456 DB_FILE -0.2221
-4.9456 DC -0.2221
-4.9456 DC232B -0.2221
-4.9456 DC233C -0.2221
-4.9456 DCA -0.2221
-4.9456 DCACHE -0.2221
-4.9456 DCB -0.2221
-4.9456 DCCP -0.2221
-4.9456 DCE -0.2221
-4.9456 DCE100 -0.2221
-4.9456 DCE110 -0.2221
-4.9456 DCE112 -0.2221
-4.9456 DCE120 -0.2221
-4.9456 DCE80 -0.2221
-4.9456 DCN1 -0.2221
-4.9456 DCN10 -0.2221
-4.9456 DCN2 -0.2221
-4.9456 DCN20 -0.2221
-4.9456 DCN21 -0.2221
-4.9456 DCONF -0.2221
-4.9456 DCONF-CLI -0.2221
-4.9456 DCONF-GSETTINGS-BACKEND -0.2221
-4.9456 DCONF-SERVICE -0.2221
-4.9456 DD -0.2221
-4.9456 DDBRIDGE -0.2221
-4.9456 DDR5OGJG -0.2221
-4.9456 DE -0.2221
-4.9456 DE2104X -0.2221
-4.9456 DE212 -0.2221
-4.9456 DE@HEBREW -0.2221
-4.9456 DEADLOCKEXAMPLE -0.2221
-4.9456 DEB-FORMAT -0.2221
-4.9456 DEB-SYSTEMD-HELPER-ENABLED -0.2221
-4.9456 DEB822 -0.2221
-4.4685 DEBCONF -0.2221
-4.9456 DEBFILE -0.2221
-4.6446 DEBHELPER -0.2221
-4.6446 DEBIAN -0.2221
-4.9456 DEBIAN-CONFIG-DATA-5.26.1 -0.2221
-4.9456 DEBIAN-SOURCE-DIR -0.2221
-4.9456 DEBIAN.DEFAULTS -0.2221
-4.9456 DEBIAN.MANDATORY -0.2221
-4.9456 DEBIANCHANGELOG -0.2221
-4.9456 DEBIANUTILS -0.2221
-4.9456 DEBIAN_BUNDLE -0.2221
-4.9456 DEBPYTHON -0.2221
-4.9456 DEBTAGS -0.2221
-4.6446 DEBUG -0.2221
-4.9456 DEBUG-AUTO-LAUNCH -0.2221
-4.9456 DEBUG-SERVER-READY -0.2221
-4.9456 DEBUGADAPTER -0.2221
-4.9456 DEBUGFS -0.2221
-4.9456 DEBUGGER -0.2221
-4.9456 DEBUGGING -0.2221
-4.9456 DEBUGRES -0.2221
-4.9456 DEBUG_CORE -0.2221
-4.9456 DEC -0.2221
-4.9456 DECAMELIZE -0.2221
-4.9456 DECIMAL -0.2221
-4.9456 DECNET -0.2221
-4.9456 DECODE -0.2221
-4.9456 DECODE_UNIT -0.2221
-4.9456 DECODING -0.2221
-4.9456 DECOMP -0.2221
-4.9456 DECOMPRESS -0.2221
-4.6446 DEFAULT -0.2221
-4.9456 DEFAULT-JRE-HEADLESS -0.2221
-4.9456 DEFAULT.TARGET.WANTS -0.2221
-4.9456 DEFAULTS -0.2221
-4.9456 DEFCONFIG -0.2221
-4.9456 DEFER -0.2221
-4.9456 DEFER-1.0.6.EGG-INFO -0.2221
-4.9456 DEFERRED -0.2221
-4.9456 DEFLATE -0.2221
-4.9456 DEFRAG -0.2221
-4.9456 DEJAVU -0.2221
-4.9456 DELAY -0.2221
-4.9456 DELAYED-STREAM -0.2221
-4.9456 DELEGATES -0.2221
-4.9456 DELETE -0.2221
-4.9456 DELL -0.2221
-4.9456 DELL-WD15-DOCK -0.2221
-4.9456 DELTA -0.2221
-4.9456 DEMAND -0.2221
-4.9456 DEMO -0.2221
-4.9456 DEMOS -0.2221
-4.9456 DEMUX -0.2221
-4.9456 DENALI -0.2221
-4.9456 DENTRY -0.2221
-4.9456 DEP -0.2221
-4.9456 DEPENDENCY_GRAPH -0.2221
-4.9456 DEPLOY -0.2221
-4.9456 DEPMAP -0.2221
-4.9456 DEPMOD.D -0.2221
-4.9456 DEPOTCACHE -0.2221
-4.9456 DEPRECATED -0.2221
-4.9456 DEPS -0.2221
-4.9456 DER -0.2221
-4.9456 DES3 -0.2221
-4.9456 DESCRIPTION -0.2221
-4.9456 DESIGNER -0.2221
-4.9456 DESIGNWARE -0.2221
-4.6446 DESKTOP -0.2221
-4.9456 DESKTOP-DIRECTORIES -0.2221
-4.9456 DESKTOP-FILE-UTILS -0.2221
-4.9456 DETAIL -0.2221
-4.9456 DETAILS -0.2221
-4.9456 DETECT -0.2221
-4.9456 DETECT-INDENT -0.2221
-4.9456 DETECTION -0.2221
-4.9456 DETECTOR -0.2221
-4.6446 DEU -0.2221
-4.9456 DEV -0.2221
-4.9456 DEV-HUGEPAGES.MOUNT -0.2221
-4.9456 DEV-MQUEUE.MOUNT -0.2221
-4.9456 DEV1.0 -0.2221
-4.9456 DEVASCII -0.2221
-4.9456 DEVBOARDS -0.2221
-4.9456 DEVCOREDUMP -0.2221
-4.6446 DEVEL -0.2221
-4.9456 DEVFREQ -0.2221
-4.9456 DEVFREQ-EVENT -0.2221
-4.9456 DEVHELP -0.2221
-4.9456 DEVICE -0.2221
-4.9456 DEVICE-ART-RESOURCES -0.2221
-4.9456 DEVICE-MAPPER -0.2221
-4.9456 DEVICE:00 -0.2221
-4.9456 DEVICE:01 -0.2221
-4.9456 DEVICE:02 -0.2221
-4.9456 DEVICE:03 -0.2221
-4.9456 DEVICE:04 -0.2221
-4.9456 DEVICE:05 -0.2221
-4.9456 DEVICE:06 -0.2221
-4.9456 DEVICE:07 -0.2221
-4.9456 DEVICE:08 -0.2221
-4.9456 DEVICE:09 -0.2221
-4.9456 DEVICE:0A -0.2221
-4.9456 DEVICE:0B -0.2221
-4.9456 DEVICE:0C -0.2221
-4.9456 DEVICE:0D -0.2221
-4.9456 DEVICE:0E -0.2221
-4.9456 DEVICE:0F -0.2221
-4.9456 DEVICE:10 -0.2221
-4.9456 DEVICE:11 -0.2221
-4.9456 DEVICE:12 -0.2221
-4.9456 DEVICE:13 -0.2221
-4.9456 DEVICE:14 -0.2221
-4.9456 DEVICE:15 -0.2221
-4.9456 DEVICE:16 -0.2221
-4.9456 DEVICE:17 -0.2221
-4.9456 DEVICE:18 -0.2221
-4.9456 DEVICE:19 -0.2221
-4.9456 DEVICE:1A -0.2221
-4.9456 DEVICE:1B -0.2221
-4.9456 DEVICE:1C -0.2221
-4.9456 DEVICE:1D -0.2221
-4.9456 DEVICE:1E -0.2221
-4.9456 DEVICE:1F -0.2221
-4.9456 DEVICE:20 -0.2221
-4.9456 DEVICE:21 -0.2221
-4.9456 DEVICE:22 -0.2221
-4.9456 DEVICE:23 -0.2221
-4.9456 DEVICE:24 -0.2221
-4.9456 DEVICE:25 -0.2221
-4.9456 DEVICE:26 -0.2221
-4.9456 DEVICE:27 -0.2221
-4.9456 DEVICE:28 -0.2221
-4.9456 DEVICE:29 -0.2221
-4.9456 DEVICE:2A -0.2221
-4.9456 DEVICE:2B -0.2221
-4.9456 DEVICES -0.2221
-4.9456 DEVICETREE -0.2221
-4.9456 DEVICE_HANDLER -0.2221
-4.9456 DEVICE_LIBS -0.2221
-4.9456 DEVINIT -0.2221
-4.9456 DEVKIT -0.2221
-4.9456 DEVKIT.EXTENSIONPOINTINDEX -0.2221
-4.9456 DEVLATIN1 -0.2221
-4.9456 DEVMEM -0.2221
-4.9456 DEVPS -0.2221
-4.9456 DEVPTS -0.2221
-4.9456 DEVTMPFS -0.2221
-4.9456 DEVUTF8 -0.2221
-4.9456 DEV_SNMP6 -0.2221
-4.9456 DE_AT -0.2221
-4.9456 DE_AT.UTF8 -0.2221
-4.9456 DE_AT@EURO -0.2221
-4.9456 DE_BE -0.2221
-4.9456 DE_BE.UTF8 -0.2221
-4.9456 DE_BE@EURO -0.2221
-4.9456 DE_CH -0.2221
-4.9456 DE_CH.UTF8 -0.2221
-4.9456 DE_DE -0.2221
-4.9456 DE_DE.UTF8 -0.2221
-4.9456 DE_DE@EURO -0.2221
-4.9456 DE_LI.UTF8 -0.2221
-4.9456 DE_LU -0.2221
-4.9456 DE_LU.UTF8 -0.2221
-4.9456 DE_LU@EURO -0.2221
-4.9456 DF -0.2221
-4.9456 DFL -0.2221
-4.9456 DFS -0.2221
-4.9456 DFU -0.2221
-4.9456 DGNC -0.2221
-4.9456 DH -0.2221
-4.9456 DH-PYTHON -0.2221
-4.9456 DHCLIENT-ENTER-HOOKS.D -0.2221
-4.9456 DHCLIENT-EXIT-HOOKS.D -0.2221
-4.9456 DHCP -0.2221
-4.9456 DHPYTHON -0.2221
-4.9456 DI -0.2221
-4.9456 DIA -0.2221
-4.9456 DIAG -0.2221
-4.9456 DIALOG -0.2221
-4.9456 DIALOGS -0.2221
-4.9456 DIBUSB -0.2221
-4.9456 DICE -0.2221
-4.9456 DICT -0.2221
-4.9456 DICTIONARIES -0.2221
-4.9456 DICTIONARIES-COMMON -0.2221
-4.9456 DICTS -0.2221
-4.9456 DID_YOU_MEAN -0.2221
-4.9456 DIFF -0.2221
-4.9456 DIFF-HIGHLIGHT -0.2221
-4.9456 DIFFSTAT -0.2221
-4.9456 DIFFUTILS -0.2221
-4.9456 DIG -0.2221
-4.6446 DIGEST -0.2221
-4.9456 DIGI -0.2221
-4.9456 DIGI00X -0.2221
-4.9456 DIGITAL -0.2221
-4.9456 DIGITAL_VNDR -0.2221
-4.9456 DIM -0.2221
-4.9456 DIM-1 -0.2221
-4.9456 DIM1 -0.2221
-4.9456 DIM2 -0.2221
-4.9456 DIO -0.2221
-4.9456 DIO200 -0.2221
-4.9456 DIO24 -0.2221
-4.9456 DIOLAN -0.2221
-4.9456 DIRECT -0.2221
-4.9456 DIRECTORY -0.2221
-4.9456 DIRMNGR -0.2221
-4.9456 DIRTFOOT -0.2221
-4.9456 DIRTYLOG -0.2221
-4.9456 DISABLE -0.2221
-4.9456 DISC -0.2221
-4.9456 DISCARD -0.2221
-4.9456 DISCORD -0.2221
-4.9456 DISCORD_DESKTOP_CORE -0.2221
-4.9456 DISCORD_ERLPACK -0.2221
-4.9456 DISCORD_GAME_UTILS -0.2221
-4.9456 DISCORD_RPC -0.2221
-4.9456 DISCORD_SPELLCHECK -0.2221
-4.9456 DISCORD_UTILS -0.2221
-4.9456 DISCORD_VOICE -0.2221
-4.9456 DISK -0.2221
-4.9456 DISKONCHIP -0.2221
-4.9456 DISP -0.2221
-4.9456 DISPATCHER.D -0.2221
-4.9456 DISPLAY -0.2221
-4.9456 DISPLAY-MANAGER.SERVICE.WANTS -0.2221
-4.9456 DISPLAYS -0.2221
-4.9456 DISPNV04 -0.2221
-4.9456 DISPNV50 -0.2221
-4.6446 DIST -0.2221
-4.9456 DIST-PACKAGES -0.2221
-4.9456 DISTANCE -0.2221
-4.9456 DISTLIB -0.2221
-4.9456 DISTRIBUTION -0.2221
-4.9456 DISTRIBUTIONS -0.2221
-4.9456 DISTRO-INFO -0.2221
-4.9456 DISTRO-INFO-DATA -0.2221
-4.9456 DISTROS -0.2221
-4.9456 DISTRO_INFO_TEST -0.2221
-4.9456 DISTUPGRADE -0.2221
-4.9456 DISTUTILS -0.2221
-4.9456 DIVAS -0.2221
-4.9456 DIVERT -0.2221
-4.9456 DJANGO -0.2221
-4.9456 DJANGO-BY-EXAMPLE-BOOK -0.2221
-4.9456 DJANGO-LAB -0.2221
-4.9456 DJANGO-REVIEW-MASTER -0.2221
-4.9456 DJANGOEXAMPLE -0.2221
-4.9456 DJANGO_BY_EXAMPLE_CODE -0.2221
-4.9456 DJANGO_COURSEWORK -0.2221
-4.9456 DJVU -0.2221
-4.9456 DKMS -0.2221
-4.9456 DLCI -0.2221
-4.9456 DLINK -0.2221
-4.9456 DLL.D -0.2221
-4.9456 DLM -0.2221
-4.9456 DLMFS -0.2221
-4.9456 DLN2 -0.2221
-4.9456 DLNA-PROFILES -0.2221
-4.9456 DM -0.2221
-4.9456 DM1105 -0.2221
-4.9456 DMA -0.2221
-4.9456 DMA-BUF -0.2221
-4.9456 DMA32 -0.2221
-4.9456 DMAC -0.2221
-4.9456 DMAENGINE -0.2221
-4.9456 DMAR -0.2221
-4.9456 DMASOUND -0.2221
-4.9456 DMA_POOL -0.2221
-4.9456 DMC -0.2221
-4.9456 DMEM -0.2221
-4.9456 DMEVENTD -0.2221
-4.9456 DMI -0.2221
-4.9456 DMIDECODE -0.2221
-4.9456 DML -0.2221
-4.9456 DMRC -0.2221
-4.9456 DMSETUP -0.2221
-4.9456 DMZ-BLACK -0.2221
-4.9456 DMZ-CURSOR-THEME -0.2221
-4.9456 DMZ-WHITE -0.2221
-4.9456 DM_MOD -0.2221
-4.9456 DNOTIFY -0.2221
-4.6446 DNS -0.2221
-4.9456 DNS-ROOT-DATA -0.2221
-4.9456 DNSMASQ -0.2221
-4.9456 DNSMASQ-BASE -0.2221
-4.9456 DNSMASQ-SHARED.D -0.2221
-4.9456 DNSMASQ.D -0.2221
-4.9456 DNSUTILS -0.2221
-4.9456 DNS_RESOLVER -0.2221
-4.6446 DOC -0.2221
-4.9456 DOC-BASE -0.2221
-4.9456 DOC-BASE.HTML -0.2221
-4.9456 DOC-ROOT -0.2221
-4.9456 DOCBASE -0.2221
-4.9456 DOCBOOK -0.2221
-4.9456 DOCK1 -0.2221
-4.9456 DOCKER -0.2221
-4.9456 DOCKLETS -0.2221
-4.9456 DOCPROPS -0.2221
-4.6446 DOCS -0.2221
-4.6446 DOCUMENTATION -0.2221
-4.6446 DOCUMENTS -0.2221
-4.9456 DOCUTILS -0.2221
-4.9456 DOI_IN -0.2221
-4.9456 DOM -0.2221
-4.9456 DOM.ELEMENTCLASS -0.2221
-4.9456 DOM.NAMESPACEKEY -0.2221
-4.6446 DOMAIN -0.2221
-4.9456 DOMAIN0 -0.2221
-4.9456 DOMAIN1 -0.2221
-4.9456 DOMAINS -0.2221
-4.9456 DOMFILEINDEX -0.2221
-4.9456 DONT -0.2221
-4.9456 DOOMED -0.2221
-4.9456 DORMANT.D -0.2221
-4.9456 DOSFSTOOLS -0.2221
-4.9456 DOSGLOB -0.2221
-4.9456 DOVE -0.2221
-4.6446 DOWN -0.2221
-4.9456 DOWNLOADER -0.2221
-4.9456 DOWNLOADING -0.2221
-4.6446 DOWNLOADS -0.2221
-4.9456 DP -0.2221
-4.9456 DP83640 -0.2221
-4.9456 DP83822 -0.2221
-4.9456 DP83848 -0.2221
-4.9456 DP83867 -0.2221
-4.9456 DP83TC811 -0.2221
-4.9456 DPAA -0.2221
-4.9456 DPAA2 -0.2221
-4.9456 DPC -0.2221
-4.9456 DPIO -0.2221
-4.6446 DPKG -0.2221
-4.9456 DPKG-DEV -0.2221
-4.9456 DPKG.CFG.D -0.2221
-4.9456 DPOT -0.2221
-4.9456 DPRINT -0.2221
-4.9456 DPT -0.2221
-4.9456 DPTF -0.2221
-4.9456 DRA -0.2221
-4.9456 DRACULA -0.2221
-4.9456 DRAGONRISE -0.2221
-4.9456 DRAM -0.2221
-4.9456 DRAM_ECC -0.2221
-4.9456 DRAWABLE -0.2221
-4.9456 DRAWABLE-HDPI -0.2221
-4.9456 DRAWABLE-MDPI -0.2221
-4.9456 DRAWABLE-NODPI -0.2221
-4.9456 DRAWABLE-V21 -0.2221
-4.9456 DRAWABLE-V24 -0.2221
-4.9456 DRAWABLE-XHDPI -0.2221
-4.9456 DRAWABLE-XXHDPI -0.2221
-4.9456 DRB -0.2221
-4.9456 DRBD -0.2221
-4.9456 DRBG -0.2221
-4.9456 DREM -0.2221
-4.9456 DRGR -0.2221
-4.9456 DRI -0.2221
-4.9456 DRIRC.D -0.2221
-4.6446 DRIVER -0.2221
-4.9456 DRIVERS -0.2221
-4.9456 DRM -0.2221
-4.9456 DRM_DP_AUX0 -0.2221
-4.9456 DRM_DP_AUX1 -0.2221
-4.9456 DRM_DP_AUX2 -0.2221
-4.9456 DRM_DP_AUX_DEV -0.2221
-4.9456 DRM_KMS_HELPER -0.2221
-4.9456 DROID -0.2221
-4.9456 DROP -0.2221
-4.9456 DRUEGH -0.2221
-4.9456 DRV -0.2221
-4.9456 DRV-INTF -0.2221
-4.9456 DRV260X -0.2221
-4.9456 DRV2665 -0.2221
-4.9456 DRV2667 -0.2221
-4.9456 DRX39XYJ -0.2221
-4.9456 DS1307 -0.2221
-4.9456 DS1374 -0.2221
-4.9456 DS1685 -0.2221
-4.9456 DS2408 -0.2221
-4.9456 DS3232 -0.2221
-4.9456 DSA -0.2221
-4.9456 DSC -0.2221
-4.9456 DSCC4 -0.2221
-4.9456 DSCR -0.2221
-4.9456 DSDT -0.2221
-4.9456 DSI -0.2221
-4.9456 DSLM -0.2221
-4.6446 DSP -0.2221
-4.9456 DSP56K -0.2221
-4.9456 DSP_EGS2 -0.2221
-4.9456 DSS -0.2221
-4.9456 DST -0.2221
-4.9456 DT -0.2221
-4.9456 DT-BINDINGS -0.2221
-4.9456 DT3155 -0.2221
-4.9456 DTC -0.2221
-4.9456 DTD -0.2221
-4.9456 DTS -0.2221
-4.9456 DUAL -0.2221
-4.9456 DUBLINCORE -0.2221
-4.9456 DUMMY -0.2221
-4.6446 DUMP -0.2221
-4.9456 DUMPER -0.2221
-4.9456 DUP -0.2221
-4.9456 DURAMAR -0.2221
-4.9456 DV -0.2221
-4.9456 DVB -0.2221
-4.9456 DVB-CORE -0.2221
-4.9456 DVB-FRONTENDS -0.2221
-4.9456 DVB-USB -0.2221
-4.9456 DVB-USB-V2 -0.2221
-4.9456 DVM -0.2221
-4.9456 DV_MV -0.2221
-4.9456 DW -0.2221
-4.9456 DW-AXI-DMAC -0.2221
-4.9456 DW-EDMA -0.2221
-4.9456 DW-PCIE -0.2221
-4.9456 DW9807 -0.2221
-4.9456 DWC -0.2221
-4.9456 DWC2 -0.2221
-4.9456 DWC3 -0.2221
-4.9456 DWMAC -0.2221
-4.9456 DWRVG -0.2221
-4.9456 DXVK_STATE_CACHE -0.2221
-4.9456 DYNA -0.2221
-4.9456 DYNAMIC -0.2221
-4.9456 DYNAMIC-UID -0.2221
-4.9456 DYNAMIC_DEBUG -0.2221
-4.9456 DZ -0.2221
-4.9456 DZ_BT -0.2221
-4.6446 E -0.2221
-4.9456 E0 -0.2221
-4.9456 E00 -0.2221
-4.9456 E1 -0.2221
-4.9456 E100 -0.2221
-4.9456 E1000 -0.2221
-4.9456 E1000E -0.2221
-4.9456 E2 -0.2221
-4.9456 E2FSLIBS -0.2221
-4.9456 E2FSPROGS -0.2221
-4.9456 E3 -0.2221
-4.9456 E3X0 -0.2221
-4.9456 E4 -0.2221
-4.9456 E4:AA:EA:9D:7A:C4 -0.2221
-4.9456 E5 -0.2221
-4.9456 E6 -0.2221
-4.9456 E7 -0.2221
-4.9456 E73DB039AEC00590A9858355E2322886 -0.2221
-4.9456 E8 -0.2221
-4.9456 E820 -0.2221
-4.9456 E820_PMEM -0.2221
-4.9456 E9 -0.2221
-4.6446 EA -0.2221
-4.9456 EAE66CFA0793CCE25DB602111709CCA6 -0.2221
-4.9456 EARLY -0.2221
-4.9456 EARLYCON -0.2221
-4.9456 EASYPROF -0.2221
-4.9456 EATA -0.2221
-4.9456 EB -0.2221
-4.9456 EBAYSTRATEGYEXAMPLE -0.2221
-4.9456 EBB -0.2221
-4.9456 EBC -0.2221
-4.9456 EBCDIC -0.2221
-4.9456 EBGARAMOND -0.2221
-4.9456 EBPF -0.2221
-4.9456 EBT -0.2221
-4.9456 EC -0.2221
-4.9456 EC2 -0.2221
-4.9456 ECC -0.2221
-4.9456 ECDH_GENERIC -0.2221
-4.9456 ECHO -0.2221
-4.9456 ECHOAUDIO -0.2221
-4.6446 ECLIPSE -0.2221
-4.9456 ECLIPSE-WORKSPACE -0.2221
-4.9456 ECLIPSEGAMETEMPLATE7 -0.2221
-4.9456 ECM -0.2221
-4.9456 ECP3 -0.2221
-4.9456 ECRYPT -0.2221
-4.9456 ECRYPTFS -0.2221
-4.9456 ECRYPTFS_INODE_CACHE -0.2221
-4.9456 ED -0.2221
-4.9456 EDAC -0.2221
-4.9456 EDAC_CORE -0.2221
-4.9456 EDAC_MCE_AMD -0.2221
-4.9456 EDD -0.2221
-4.9456 EDE -0.2221
-4.9456 EDGEPORT -0.2221
-4.6446 EDID -0.2221
-4.6446 EDITOR -0.2221
-4.9456 EDITORCONFIG -0.2221
-4.9456 EDITORCONFIG.INDEX.NAME -0.2221
-4.9456 EDMA -0.2221
-4.9456 EDS -0.2221
-4.9456 EDT -0.2221
-4.9456 EDU -0.2221
-4.9456 EDUCA -0.2221
-4.9456 EE -0.2221
-4.9456 EEEPC -0.2221
-4.9456 EEH -0.2221
-4.9456 EEOV9TNANKCZFJBU9SRHR2678VZYYV43 -0.2221
-4.9456 EEPROM -0.2221
-4.9456 EF -0.2221
-4.9456 EFA -0.2221
-4.9456 EFFECTIVE -0.2221
-4.9456 EFFICIENT -0.2221
-4.9456 EFI -0.2221
-4.9456 EFI-FRAMEBUFFER -0.2221
-4.9456 EFI-FRAMEBUFFER.0 -0.2221
-4.9456 EFIBOOTMGR -0.2221
-4.9456 EFIVAR -0.2221
-4.9456 EFIVARFS -0.2221
-4.9456 EFIVARS -0.2221
-4.9456 EFS -0.2221
-4.9456 EGALAX -0.2221
-4.9456 EGLDEVICEINTEGRATIONS -0.2221
-4.9456 EGL_VENDOR.D -0.2221
-4.9456 EHCI -0.2221
-4.9456 EHCI-PCI -0.2221
-4.9456 EHCI-PLATFORM -0.2221
-4.9456 EHCI_HCD -0.2221
-4.9456 EHEA -0.2221
-4.9456 EHSET -0.2221
-4.9456 EICON -0.2221
-4.9456 EISA -0.2221
-4.9456 EISA.0 -0.2221
