Language model created by QuickLM on Tue Jan 28 10:05:15 EST 2020
Copyright (c) 1996-2010 Carnegie Mellon University and Alexander I. Rudnicky

The model is in standard ARPA format, designed by Doug Paul while he was at MITRE.

The code that was used to produce this language model is available in Open Source.
Please visit http://www.speech.cs.cmu.edu/tools/ for more information

The (fixed) discount mass is 0.5. The backoffs are computed using the ratio method.
This model based on a corpus of 27 sentences and 29 words

\data\
ngram 1=29
ngram 2=54
ngram 3=27

\1-grams:
-0.7782 </s> -0.3010
-0.7782 <s> -0.2218
-2.2095 A -0.2218
-2.2095 B -0.2218
-2.2095 C -0.2218
-2.2095 D -0.2218
-2.2095 E -0.2218
-2.2095 F -0.2218
-2.2095 G -0.2218
-2.2095 H -0.2218
-2.2095 I -0.2218
-2.2095 J -0.2218
-2.2095 K -0.2218
-2.2095 L -0.2218
-2.2095 M -0.2218
-2.2095 N -0.2218
-2.2095 O -0.2218
-2.2095 P -0.2218
-2.2095 Q -0.2218
-2.2095 R -0.2218
-2.2095 S -0.2218
-2.2095 T -0.2218
-2.2095 U -0.2218
-2.2095 V -0.2218
-2.2095 VVV -0.2218
-2.2095 W -0.2218
-2.2095 X -0.2218
-2.2095 Y -0.2218
-2.2095 Z -0.2218

\2-grams:
-1.7324 <s> A 0.0000
-1.7324 <s> B 0.0000
-1.7324 <s> C 0.0000
-1.7324 <s> D 0.0000
-1.7324 <s> E 0.0000
-1.7324 <s> F 0.0000
-1.7324 <s> G 0.0000
-1.7324 <s> H 0.0000
-1.7324 <s> I 0.0000
-1.7324 <s> J 0.0000
-1.7324 <s> K 0.0000
-1.7324 <s> L 0.0000
-1.7324 <s> M 0.0000
-1.7324 <s> N 0.0000
-1.7324 <s> O 0.0000
-1.7324 <s> P 0.0000
-1.7324 <s> Q 0.0000
-1.7324 <s> R 0.0000
-1.7324 <s> S 0.0000
-1.7324 <s> T 0.0000
-1.7324 <s> U 0.0000
-1.7324 <s> V 0.0000
-1.7324 <s> VVV 0.0000
-1.7324 <s> W 0.0000
-1.7324 <s> X 0.0000
-1.7324 <s> Y 0.0000
-1.7324 <s> Z 0.0000
-0.3010 A </s> -0.3010
-0.3010 B </s> -0.3010
-0.3010 C </s> -0.3010
-0.3010 D </s> -0.3010
-0.3010 E </s> -0.3010
-0.3010 F </s> -0.3010
-0.3010 G </s> -0.3010
-0.3010 H </s> -0.3010
-0.3010 I </s> -0.3010
-0.3010 J </s> -0.3010
-0.3010 K </s> -0.3010
-0.3010 L </s> -0.3010
-0.3010 M </s> -0.3010
-0.3010 N </s> -0.3010
-0.3010 O </s> -0.3010
-0.3010 P </s> -0.3010
-0.3010 Q </s> -0.3010
-0.3010 R </s> -0.3010
-0.3010 S </s> -0.3010
-0.3010 T </s> -0.3010
-0.3010 U </s> -0.3010
-0.3010 V </s> -0.3010
-0.3010 VVV </s> -0.3010
-0.3010 W </s> -0.3010
-0.3010 X </s> -0.3010
-0.3010 Y </s> -0.3010
-0.3010 Z </s> -0.3010

\3-grams:
-0.3010 <s> A </s>
-0.3010 <s> B </s>
-0.3010 <s> C </s>
-0.3010 <s> D </s>
-0.3010 <s> E </s>
-0.3010 <s> F </s>
-0.3010 <s> G </s>
-0.3010 <s> H </s>
-0.3010 <s> I </s>
-0.3010 <s> J </s>
-0.3010 <s> K </s>
-0.3010 <s> L </s>
-0.3010 <s> M </s>
-0.3010 <s> N </s>
-0.3010 <s> O </s>
-0.3010 <s> P </s>
-0.3010 <s> Q </s>
-0.3010 <s> R </s>
-0.3010 <s> S </s>
-0.3010 <s> T </s>
-0.3010 <s> U </s>
-0.3010 <s> V </s>
-0.3010 <s> VVV </s>
-0.3010 <s> W </s>
-0.3010 <s> X </s>
-0.3010 <s> Y </s>
-0.3010 <s> Z </s>

\end\
